<?xml version="1.0" encoding="ISO-8859-1"?>
<!-- This network was created in GeNIe Academic, which can be used for educational and research purposes only -->
<smile version="1.0" id="vehicle_safety_final" numsamples="10000" discsamples="10000">
	<nodes>
		<cpt id="OA_MAIS">
			<state id="s1_below_1" />
			<state id="s2_1_3" />
			<state id="s3_3_4" />
			<state id="s4_4_5" />
			<state id="s5_5_up" />
			<probabilities>0.840095813372214 0.1284732347427619 0.01568423245157258 0.01131014372005832 0.004436575713393042</probabilities>
		</cpt>
		<cpt id="GV_CURBWGT">
			<state id="s1_below_885" />
			<state id="s2_885_1695" />
			<state id="s3_1695_2555" />
			<state id="s4_2555_3715" />
			<state id="s5_3715_up" />
			<parents>OA_MAIS</parents>
			<probabilities>0.0008801289202925497 0.650997892649064 0.3195239866121234 0.02808974835750588 0.0005082434610140076 8.103727714748785e-05 0.6917341977309562 0.2833063209076175 0.0239870340356564 0.0008914100486223664 0.003973509933774834 0.7059602649006623 0.2688741721854305 0.02052980132450331 0.0006622516556291392 0.0009174311926605505 0.771559633027523 0.2119266055045872 0.01467889908256881 0.0009174311926605505 0.002325581395348837 0.7232558139534883 0.2232558139534883 0.04883720930232557 0.002325581395348837</probabilities>
		</cpt>
		<cpt id="GV_DVLAT">
			<state id="s1_below_n103" />
			<state id="s2_n103_n70" />
			<state id="s3_n70_n53" />
			<state id="s4_n53_n24" />
			<state id="s5_n24_43" />
			<state id="s6_43_99" />
			<state id="s7_99_up" />
			<parents>OA_MAIS</parents>
			<probabilities>7.083532557686519e-05 0.0001947971453363793 0.0005047016947351644 0.02182613469337159 0.9763941277515098 0.0009385680638934637 7.083532557686519e-05 0.0004630701551285018 0.001678629312340819 0.003704561241028015 0.04503357258624681 0.94009029868025 0.008971984255614724 5.788376939106274e-05 0.0004730368968779565 0.0004730368968779565 0.007095553453169346 0.1097445600756859 0.8514664143803217 0.03027436140018921 0.0004730368968779565 0.0006553079947575362 0.0006553079947575362 0.0235910878112713 0.1061598951507208 0.8309305373525557 0.03735255570117955 0.0006553079947575362 0.001661129568106313 0.04817275747508307 0.04817275747508307 0.09468438538205981 0.7807308970099668 0.02491694352159469 0.001661129568106313</probabilities>
		</cpt>
		<cpt id="GV_DVLONG">
			<state id="s1_below_n112" />
			<state id="s2_n112_n81" />
			<state id="s3_n81_n40" />
			<state id="s4_n40_7" />
			<state id="s5_7_43" />
			<state id="s6_43_71" />
			<state id="s7_71_up" />
			<parents>OA_MAIS</parents>
			<probabilities>8.85441569710815e-06 0.0005047016947351644 0.02734243567266997 0.8532380598204325 0.1127521294869752 0.006082983583913298 7.083532557686519e-05 0.000868256540865941 0.002894188469553137 0.15686501504978 0.7840935401713358 0.04260245427182217 0.01221347534151424 0.0004630701551285018 0.003784295175023651 0.02696310312204351 0.205771050141911 0.705771050141911 0.05014191106906338 0.007095553453169346 0.0004730368968779565 0.0235910878112713 0.03735255570117955 0.2162516382699869 0.6428571428571429 0.05570117955439056 0.01900393184796855 0.005242463958060288 0.001661129568106313 0.03654485049833887 0.4318936877076412 0.4551495016611296 0.05980066445182725 0.0132890365448505 0.001661129568106313</probabilities>
		</cpt>
		<cpt id="GV_ENERGY">
			<state id="s1_below_1607" />
			<state id="s2_1607_4282" />
			<state id="s3_4282_6970" />
			<state id="s4_6970_8231" />
			<state id="s5_8231_up" />
			<parents>OA_MAIS</parents>
			<probabilities>0.9775753068055039 0.02170571463989091 0.0006941861906532787 1.239618197595141e-05 1.239618197595141e-05 0.8554294975688818 0.1321717990275527 0.01061588330632091 0.0008914100486223666 0.0008914100486223666 0.6827814569536425 0.2721854304635762 0.03708609271523179 0.003973509933774834 0.003973509933774834 0.4917431192660551 0.3770642201834863 0.1064220183486239 0.0009174311926605505 0.02385321100917431 0.2581395348837209 0.5604651162790697 0.141860465116279 0.002325581395348837 0.03720930232558139</probabilities>
		</cpt>
		<cpt id="GV_LANES">
			<state id="s1_below_1" />
			<state id="s2_1_2" />
			<state id="s3_2_3" />
			<state id="s4_3_4" />
			<state id="s5_4_5" />
			<state id="s6_5_6" />
			<state id="s7_6_up" />
			<parents>OA_MAIS</parents>
			<probabilities>0.02133028741433353 0.3713364855053215 0.1849598894968921 0.2065292461350476 0.161283181922825 0.034222316669323 0.02033859285625742 0.01302384811298912 0.4311761981940263 0.1726672840935402 0.1933317897661495 0.133769391062746 0.03409354017133595 0.02193794859921278 0.02696310312204351 0.4971617786187322 0.2024597918637654 0.1461684011352885 0.08987701040681172 0.02696310312204351 0.01040681173131504 0.0235910878112713 0.4777195281782438 0.1428571428571428 0.2437745740498034 0.07863695937090433 0.02817824377457405 0.005242463958060288 0.001661129568106313 0.4667774086378738 0.2109634551495017 0.1877076411960133 0.07142857142857144 0.0132890365448505 0.04817275747508306</probabilities>
		</cpt>
		<cpt id="GV_MODELYR">
			<state id="s1_below_2001" />
			<state id="s2_2001_2003" />
			<state id="s3_2003_2005" />
			<state id="s4_2005_2009" />
			<state id="s5_2009_up" />
			<parents>OA_MAIS</parents>
			<probabilities>0.2651667286475766 0.2569232676335689 0.2091359861162762 0.2414900210735094 0.02728399652906905 0.3177471636952998 0.2776337115072934 0.1820097244732577 0.2026742301458671 0.01993517017828201 0.285430463576159 0.3019867549668874 0.1927152317880795 0.1894039735099338 0.03046357615894039 0.3403669724770643 0.2990825688073395 0.2073394495412844 0.1339449541284404 0.01926605504587156 0.2930232558139535 0.2465116279069767 0.2116279069767442 0.2232558139534884 0.02558139534883721</probabilities>
		</cpt>
		<cpt id="GV_OTVEHWGT">
			<state id="s1_below_760" />
			<state id="s2_760_1355" />
			<state id="s3_1355_2075" />
			<state id="s4_2075_2835" />
			<state id="s5_2835_3730" />
			<state id="s6_3730_4320" />
			<state id="s7_4320_up" />
			<parents>OA_MAIS</parents>
			<probabilities>0.0008765871540137067 0.2654111105208167 0.6068639430483983 0.1183923922860331 0.007570525421027467 0.0005666826046149215 0.0003187589650958934 0.0004630701551285018 0.1994095855522111 0.6228293586478351 0.1637531836073165 0.0118082889557768 0.0004630701551285018 0.00127344292660338 0.0004730368968779565 0.1494796594134342 0.6097445600756858 0.205771050141911 0.02365184484389782 0.003784295175023651 0.007095553453169346 0.0006553079947575362 0.1336828309305373 0.6107470511140236 0.2162516382699869 0.02817824377457405 0.009829619921363041 0.0006553079947575362 0.001661129568106313 0.1179401993355482 0.606312292358804 0.23421926910299 0.03654485049833887 0.001661129568106313 0.001661129568106313</probabilities>
		</cpt>
		<cpt id="GV_SPLIMIT">
			<state id="s1_below_7" />
			<state id="s2_7_17" />
			<state id="s3_17_27" />
			<state id="s4_27_37" />
			<state id="s5_37_47" />
			<state id="s6_47_57" />
			<state id="s7_57_up" />
			<parents>OA_MAIS</parents>
			<probabilities>0.00645486904319184 0.003417804459083746 0.09409587561316829 0.364828489967947 0.3252226885547823 0.143928527156493 0.0620517452053339 0.006135679555452651 0.00167862931234082 0.06448251910164389 0.3027321139152581 0.3387937022458902 0.2018407038666358 0.08433665200277841 0.01371807000946074 0.003784295175023652 0.07332071901608325 0.2753074739829707 0.3084200567644276 0.2223273415326395 0.1031220435193945 0.009829619921363041 0.005242463958060288 0.05111402359108781 0.2346002621231979 0.3309305373525557 0.2621231979030145 0.1061598951507208 0.001661129568106313 0.001661129568106313 0.0132890365448505 0.1877076411960133 0.3504983388704319 0.3388704318936878 0.106312292358804</probabilities>
		</cpt>
		<cpt id="GV_WGTCDTR">
			<state id="SPassenger_Car" />
			<state id="STruck____10000_lbs__" />
			<state id="STruck____6000_lbs__" />
			<parents>OA_MAIS</parents>
			<probabilities>0.6088591380521468 0.1290649146729474 0.262075947274906 0.627363587250135 0.1172339276066991 0.2554024851431659 0.6997792494481236 0.07726269315673288 0.2229580573951435 0.7217125382262997 0.07033639143730887 0.2079510703363914 0.7131782945736435 0.06201550387596899 0.2248062015503876</probabilities>
		</cpt>
		<cpt id="OA_AGE">
			<state id="s1_below_11" />
			<state id="s2_11_28" />
			<state id="s3_28_36" />
			<state id="s4_36_48" />
			<state id="s5_48_64" />
			<state id="s6_64_76" />
			<state id="s7_76_up" />
			<parents>OA_MAIS</parents>
			<probabilities>0.0001328162354566222 0.3329083213798721 0.1604154491845083 0.2187394853813597 0.1911579804848678 0.06353928704244807 0.03310666029148737 5.788376939106275e-05 0.2901713359573975 0.1390368140773327 0.2046770085667979 0.2221000231535077 0.08352627923130354 0.0604306552442695 0.0004730368968779565 0.2753074739829707 0.119678334910123 0.1561021759697256 0.2157048249763481 0.119678334910123 0.1130558183538316 0.0006553079947575362 0.2621231979030145 0.09239842726081259 0.1933158584534732 0.1887287024901704 0.1199213630406291 0.1428571428571428 0.001661129568106313 0.2458471760797342 0.1411960132890366 0.1993355481727575 0.2574750830564784 0.05980066445182725 0.09468438538205981</probabilities>
		</cpt>
		<cpt id="OA_BAGDEPLY">
			<state id="Deployed" />
			<state id="SNot_Deployed" />
			<parents>OA_MAIS</parents>
			<probabilities>0.4225548531052437 0.5774451468947565 0.7234602917341977 0.2765397082658023 0.6506622516556292 0.3493377483443709 0.6903669724770642 0.3096330275229358 0.8081395348837209 0.1918604651162791</probabilities>
		</cpt>
		<cpt id="OA_HEIGHT">
			<state id="s1_below_97" />
			<state id="s2_97_124" />
			<state id="s3_124_138" />
			<state id="s4_138_171" />
			<state id="s5_171_186" />
			<state id="s6_186_208" />
			<state id="s7_208_up" />
			<parents>OA_MAIS</parents>
			<probabilities>0.001124510793532735 0.0002567780552161363 0.0008765871540137067 0.5307513857160566 0.4034425968230357 0.0633533443128088 0.0001947971453363793 0.0008682565408659411 0.0004630701551285019 0.0004630701551285019 0.526800185228062 0.4137531836073165 0.05759435054410743 5.788376939106275e-05 0.003784295175023652 0.0004730368968779565 0.0004730368968779565 0.4839167455061495 0.4508041627246925 0.06007568590350047 0.0004730368968779565 0.0006553079947575362 0.0006553079947575362 0.0006553079947575362 0.491480996068152 0.436435124508519 0.06946264744429882 0.0006553079947575362 0.001661129568106313 0.001661129568106313 0.001661129568106313 0.4900332225913622 0.4318936877076412 0.07142857142857144 0.001661129568106313</probabilities>
		</cpt>
		<cpt id="OA_SEX">
			<state id="Female" />
			<state id="Male" />
			<parents>OA_MAIS</parents>
			<probabilities>0.501270608652535 0.498729391347465 0.5074959481361426 0.4925040518638574 0.4619205298013245 0.5380794701986755 0.4105504587155964 0.5894495412844037 0.3430232558139535 0.6569767441860465</probabilities>
		</cpt>
		<cpt id="OA_WEIGHT">
			<state id="s1_below_37" />
			<state id="s2_37_62" />
			<state id="s3_62_80" />
			<state id="s4_80_96" />
			<state id="s5_96_114" />
			<state id="s6_114_130" />
			<state id="s7_130_up" />
			<parents>OA_MAIS</parents>
			<probabilities>0.0003187589650958934 0.2154544971577326 0.3696630009385681 0.2571056685969293 0.1126901485770954 0.02690856930351166 0.01785935646106714 5.788376939106274e-05 0.1896851122945126 0.3537855985181754 0.2691016438990507 0.1203982403334105 0.03611947210002314 0.03085204908543644 0.0004730368968779565 0.1792809839167455 0.3382213812677388 0.2653736991485335 0.1494796594134342 0.0402081362346263 0.02696310312204351 0.0006553079947575362 0.1979030144167759 0.3309305373525557 0.2162516382699869 0.1520314547837484 0.04193971166448231 0.06028833551769332 0.001661129568106313 0.1295681063122924 0.292358803986711 0.2109634551495017 0.1993355481727575 0.07142857142857144 0.09468438538205981</probabilities>
		</cpt>
		<cpt id="VE_ORIGAVTW">
			<state id="s1_below_116" />
			<state id="s2_116_141" />
			<state id="s3_141_159" />
			<state id="s4_159_169" />
			<state id="s5_169_179" />
			<state id="s6_179_up" />
			<parents>OA_MAIS</parents>
			<probabilities>1.033015164662618e-05 0.01110491302012314 0.7735940663608943 0.1485165902235445 0.06521424734515105 0.001559852898640553 0.0004727174500270124 0.0158698001080497 0.8047676931388439 0.1281064289573204 0.0499054565099946 0.0008779038357644515 0.0005518763796909493 0.02041942604856512 0.7786975717439293 0.1760485651214128 0.02373068432671082 0.0005518763796909493 0.0007645259938837922 0.0191131498470948 0.8356269113149847 0.1200305810397554 0.02370030581039756 0.0007645259938837922 0.001937984496124031 0.03682170542635658 0.7693798449612402 0.1531007751937984 0.03682170542635658 0.001937984496124031</probabilities>
		</cpt>
		<cpt id="VE_WHEELBAS">
			<state id="s1_below_164" />
			<state id="s2_164_203" />
			<state id="s3_203_234" />
			<state id="s4_234_318" />
			<state id="s5_318_375" />
			<state id="s6_375_464" />
			<state id="s7_464_up" />
			<parents>OA_MAIS</parents>
			<probabilities>7.083532557686519e-05 0.0002567780552161363 0.001062529883652978 0.8934016894225151 0.09180258194761728 0.01333475003984487 7.083532557686519e-05 5.788376939106274e-05 5.788376939106274e-05 0.0008682565408659409 0.9015975920351931 0.08798332947441534 0.009377170641352161 5.788376939106274e-05 0.0004730368968779564 0.0004730368968779564 0.0004730368968779564 0.9176915799432352 0.06669820245979184 0.01371807000946073 0.0004730368968779564 0.0006553079947575362 0.0006553079947575362 0.005242463958060288 0.9364351245085191 0.05111402359108781 0.005242463958060288 0.0006553079947575362 0.001661129568106313 0.001661129568106313 0.001661129568106313 0.920265780730897 0.07142857142857144 0.001661129568106313 0.001661129568106313</probabilities>
		</cpt>
		<cpt id="VE_PDOF_TR">
			<state id="s1_below_40" />
			<state id="s2_40_80" />
			<state id="s3_80_160" />
			<state id="s4_160_220" />
			<state id="s5_220_260" />
			<state id="s6_260_up" />
			<parents>OA_MAIS</parents>
			<probabilities>0.01141481756952192 0.07860212387917857 0.6033325069212018 0.1849613652328417 0.01147679847940168 0.1102123879178547 0.009386817936250675 0.1163560237709346 0.64715018908698 0.1710561858454889 0.008171258779038357 0.0478795245813074 0.02041942604856512 0.2124724061810155 0.5171081677704193 0.1694260485651214 0.0336644591611479 0.04690949227373068 0.04204892966360856 0.1888379204892966 0.4961773700305811 0.1704892966360856 0.02370030581039756 0.07874617737003059 0.001937984496124031 0.1414728682170543 0.5484496124031008 0.1763565891472868 0.07170542635658915 0.06007751937984496</probabilities>
		</cpt>
		<cpt id="GV_FOOTPRINT">
			<state id="s1_below_2" />
			<state id="s2_2_4" />
			<state id="s3_4_5" />
			<state id="s4_5_5" />
			<state id="s5_5_6" />
			<state id="s6_6_7" />
			<state id="s7_7_up" />
			<parents>OA_MAIS</parents>
			<probabilities>0.0003187589650958934 0.8195204448458447 0.09558341745028247 0.02864403478014486 0.04246577768333068 0.01209513184224973 0.001372434433051763 0.0004630701551285018 0.846087057189164 0.08150034730261632 0.02355869414216253 0.03855059041444778 0.009377170641352161 0.0004630701551285018 0.0004730368968779564 0.8647114474929042 0.07994323557237461 0.01702932828760643 0.02365184484389781 0.01371807000946073 0.0004730368968779564 0.0006553079947575362 0.899737876802097 0.05570117955439056 0.009829619921363041 0.02817824377457405 0.005242463958060288 0.0006553079947575362 0.001661129568106313 0.8853820598006645 0.04817275747508307 0.03654485049833887 0.02491694352159469 0.001661129568106313 0.001661129568106313</probabilities>
		</cpt>
	</nodes>
	<extensions>
		<genie version="1.0" app="GeNIe 2.3.3828.0 ACADEMIC" name="vehicle_safety_final" faultnameformat="nodestate">
			<node id="GV_CURBWGT">
				<name>GV_CURBWGT</name>
				<interior color="e5f6f7" />
				<outline color="000080" />
				<font color="000000" name="Arial" size="8" />
				<position>518 182 590 230</position>
			</node>
			<node id="GV_DVLAT">
				<name>GV_DVLAT</name>
				<interior color="e5f6f7" />
				<outline color="000080" />
				<font color="000000" name="Arial" size="8" />
				<position>503 236 575 284</position>
			</node>
			<node id="GV_DVLONG">
				<name>GV_DVLONG</name>
				<interior color="e5f6f7" />
				<outline color="000080" />
				<font color="000000" name="Arial" size="8" />
				<position>461 285 533 333</position>
			</node>
			<node id="GV_ENERGY">
				<name>GV_ENERGY</name>
				<interior color="e5f6f7" />
				<outline color="000080" />
				<font color="000000" name="Arial" size="8" />
				<position>397 321 469 369</position>
			</node>
			<node id="GV_LANES">
				<name>GV_LANES</name>
				<interior color="e5f6f7" />
				<outline color="000080" />
				<font color="000000" name="Arial" size="8" />
				<position>318 340 390 388</position>
			</node>
			<node id="GV_MODELYR">
				<name>GV_MODELYR</name>
				<interior color="e5f6f7" />
				<outline color="000080" />
				<font color="000000" name="Arial" size="8" />
				<position>236 340 308 388</position>
			</node>
			<node id="GV_OTVEHWGT">
				<name>GV_OTVEHWGT</name>
				<interior color="e5f6f7" />
				<outline color="000080" />
				<font color="000000" name="Arial" size="8" />
				<position>157 321 229 369</position>
			</node>
			<node id="GV_SPLIMIT">
				<name>GV_SPLIMIT</name>
				<interior color="e5f6f7" />
				<outline color="000080" />
				<font color="000000" name="Arial" size="8" />
				<position>93 285 165 333</position>
			</node>
			<node id="GV_WGTCDTR">
				<name>GV_WGTCDTR</name>
				<interior color="e5f6f7" />
				<outline color="000080" />
				<font color="000000" name="Arial" size="8" />
				<position>51 236 123 284</position>
			</node>
			<node id="OA_AGE">
				<name>OA_AGE</name>
				<interior color="e5f6f7" />
				<outline color="000080" />
				<font color="000000" name="Arial" size="8" />
				<position>36 182 108 230</position>
			</node>
			<node id="OA_BAGDEPLY">
				<name>OA_BAGDEPLY</name>
				<interior color="e5f6f7" />
				<outline color="000080" />
				<font color="000000" name="Arial" size="8" />
				<position>51 128 123 176</position>
			</node>
			<node id="OA_HEIGHT">
				<name>OA_HEIGHT</name>
				<interior color="e5f6f7" />
				<outline color="000080" />
				<font color="000000" name="Arial" size="8" />
				<position>93 79 165 127</position>
			</node>
			<node id="OA_MAIS">
				<name>OA_MAIS</name>
				<interior color="ffff80" />
				<outline color="000080" />
				<font color="000000" name="Arial" size="8" />
				<position>277 182 349 230</position>
			</node>
			<node id="OA_SEX">
				<name>OA_SEX</name>
				<interior color="e5f6f7" />
				<outline color="000080" />
				<font color="000000" name="Arial" size="8" />
				<position>157 43 229 91</position>
			</node>
			<node id="OA_WEIGHT">
				<name>OA_WEIGHT</name>
				<interior color="e5f6f7" />
				<outline color="000080" />
				<font color="000000" name="Arial" size="8" />
				<position>236 24 308 72</position>
			</node>
			<node id="VE_ORIGAVTW">
				<name>VE_ORIGAVTW</name>
				<interior color="e5f6f7" />
				<outline color="000080" />
				<font color="000000" name="Arial" size="8" />
				<position>318 24 390 72</position>
			</node>
			<node id="VE_WHEELBAS">
				<name>VE_WHEELBAS</name>
				<interior color="e5f6f7" />
				<outline color="000080" />
				<font color="000000" name="Arial" size="8" />
				<position>397 43 469 91</position>
			</node>
			<node id="VE_PDOF_TR">
				<name>VE_PDOF_TR</name>
				<interior color="e5f6f7" />
				<outline color="000080" />
				<font color="000000" name="Arial" size="8" />
				<position>461 79 533 127</position>
			</node>
			<node id="GV_FOOTPRINT">
				<name>GV_FOOTPRINT</name>
				<interior color="e5f6f7" />
				<outline color="000080" />
				<font color="000000" name="Arial" size="8" />
				<position>503 128 575 176</position>
			</node>
			<textbox>
				<caption>Input file: vehicle_safety_final.gdat\nData rows: 19203\nElapsed time: 3.719s\n\nLearning algorithm: Naive Bayes\nAlgorithm parameters:\nClass variable: OA_MAIS\n\nEM Log Likelihood: -322597</caption>
				<font color="000000" name="Arial" size="8" />
				<position>10 408 177 534</position>
			</textbox>
		</genie>
	</extensions>
</smile>
