<?xml version="1.0" encoding="ISO-8859-1"?>
<!-- This network was created in GeNIe Academic, which can be used for educational and research purposes only -->
<smile version="1.0" id="vehicle_safety_final" numsamples="10000" discsamples="10000">
	<nodes>
		<cpt id="OA_MAIS">
			<state id="s1_below_1" />
			<state id="s2_1_3" />
			<state id="s3_3_4" />
			<state id="s4_4_5" />
			<state id="s5_5_up" />
			<probabilities>0.2 0.2 0.2 0.2 0.2</probabilities>
		</cpt>
		<cpt id="GV_ENERGY">
			<state id="s1_below_1607" />
			<state id="s2_1607_4282" />
			<state id="s3_4282_6970" />
			<state id="s4_6970_8231" />
			<state id="s5_8231_up" />
			<parents>OA_MAIS</parents>
			<probabilities>0.9775753068055039 0.02170571463989091 0.0006941861906532787 1.239618197595141e-05 1.239618197595141e-05 0.8554294975688818 0.1321717990275527 0.01061588330632091 0.0008914100486223666 0.0008914100486223666 0.6827814569536425 0.2721854304635762 0.03708609271523179 0.003973509933774834 0.003973509933774834 0.4917431192660551 0.3770642201834863 0.1064220183486239 0.0009174311926605505 0.02385321100917431 0.2581395348837209 0.5604651162790697 0.141860465116279 0.002325581395348837 0.03720930232558139</probabilities>
		</cpt>
		<cpt id="GV_DVLONG">
			<state id="s1_below_n112" />
			<state id="s2_n112_n81" />
			<state id="s3_n81_n40" />
			<state id="s4_n40_7" />
			<state id="s5_7_43" />
			<state id="s6_43_71" />
			<state id="s7_71_up" />
			<parents>GV_ENERGY OA_MAIS</parents>
			<probabilities>9.057068589180427e-06 0.0003260544692104954 0.02219887511208123 0.8593256106728496 0.1131771290903986 0.004954216518281693 9.057068589180427e-06 0.000541125541125541 0.001014610389610389 0.09618506493506492 0.8504464285714284 0.04504870129870129 0.00669642857142857 6.764069264069263e-05 0.005521048999309869 0.005521048999309869 0.09247757073844032 0.8316080055210491 0.05866114561766736 0.005521048999309869 0.0006901311249137336 0.01058201058201058 0.001322751322751323 0.1031746031746032 0.7883597883597886 0.08465608465608468 0.01058201058201058 0.001322751322751323 0.006211180124223603 0.04968944099378882 0.09316770186335405 0.7453416149068324 0.09316770186335405 0.006211180124223603 0.006211180124223603 0.0004070004070004069 0.008954008954008953 0.2482702482702482 0.5958485958485957 0.09442409442409443 0.05168905168905168 0.0004070004070004069 0.003494975972040191 0.0126692878986457 0.5141983398864132 0.3888160768894713 0.02795980777632153 0.04936653560506771 0.003494975972040191 0.001721170395869191 0.0378657487091222 0.4475043029259897 0.4595524956970741 0.0378657487091222 0.01376936316695353 0.001721170395869191 0.001721170395869191 0.04991394148020654 0.3390705679862306 0.53184165232358 0.0378657487091222 0.0378657487091222 0.001721170395869191 0.002915451895043731 0.02332361516034985 0.5335276967930028 0.3702623906705539 0.04373177842565597 0.02332361516034985 0.002915451895043731 0.0119047619047619 0.0119047619047619 0.3452380952380952 0.2619047619047619 0.09523809523809523 0.1785714285714285 0.09523809523809523 0.005291005291005292 0.005291005291005292 0.4867724867724868 0.4497354497354498 0.04232804232804233 0.005291005291005292 0.005291005291005292 0.0119047619047619 0.2619047619047619 0.4285714285714286 0.2619047619047619 0.0119047619047619 0.0119047619047619 0.0119047619047619 0.04761904761904762 0.1726190476190476 0.3392857142857143 0.380952380952381 0.005952380952380953 0.005952380952380953 0.04761904761904762 0.01098901098901099 0.08791208791208792 0.5494505494505495 0.2417582417582418 0.08791208791208792 0.01098901098901099 0.01098901098901099 0.1428571428571429 0.1428571428571429 0.1428571428571429 0.1428571428571429 0.1428571428571429 0.1428571428571429 0.1428571428571429 0.04761904761904762 0.380952380952381 0.380952380952381 0.04761904761904762 0.04761904761904762 0.04761904761904762 0.04761904761904762 0.07142857142857144 0.5714285714285715 0.07142857142857144 0.07142857142857144 0.07142857142857144 0.07142857142857144 0.07142857142857144 0.1428571428571429 0.1428571428571429 0.1428571428571429 0.1428571428571429 0.1428571428571429 0.1428571428571429 0.1428571428571429 0.1428571428571429 0.1428571428571429 0.1428571428571429 0.1428571428571429 0.1428571428571429 0.1428571428571429 0.1428571428571429 0.1428571428571429 0.1428571428571429 0.1428571428571429 0.1428571428571429 0.1428571428571429 0.1428571428571429 0.1428571428571429 0.04761904761904762 0.04761904761904762 0.7142857142857143 0.04761904761904762 0.04761904761904762 0.04761904761904762 0.04761904761904762 0.07142857142857144 0.07142857142857144 0.5714285714285715 0.07142857142857144 0.07142857142857144 0.07142857142857144 0.07142857142857144 0.5238095238095237 0.0238095238095238 0.0238095238095238 0.357142857142857 0.0238095238095238 0.0238095238095238 0.0238095238095238 0.03571428571428572 0.03571428571428572 0.5357142857142858 0.2857142857142858 0.03571428571428572 0.03571428571428572 0.03571428571428572</probabilities>
		</cpt>
		<cpt id="VE_PDOF_TR">
			<state id="s1_below_40" />
			<state id="s2_40_80" />
			<state id="s3_80_160" />
			<state id="s4_160_220" />
			<state id="s5_220_260" />
			<state id="s6_260_up" />
			<parents>GV_DVLONG OA_MAIS</parents>
			<probabilities>0.1666666666666667 0.1666666666666667 0.1666666666666667 0.1666666666666667 0.1666666666666667 0.1666666666666667 0.05555555555555556 0.05555555555555556 0.7222222222222222 0.05555555555555556 0.05555555555555556 0.05555555555555556 0.08333333333333333 0.08333333333333333 0.5833333333333334 0.08333333333333333 0.08333333333333333 0.08333333333333333 0.02777777777777777 0.02777777777777777 0.8611111111111109 0.02777777777777777 0.02777777777777777 0.02777777777777777 0.1666666666666667 0.1666666666666667 0.1666666666666667 0.1666666666666667 0.1666666666666667 0.1666666666666667 0.01851851851851852 0.01851851851851852 0.7962962962962963 0.1296296296296296 0.01851851851851852 0.01851851851851852 0.02083333333333333 0.02083333333333333 0.8958333333333334 0.02083333333333333 0.02083333333333333 0.02083333333333333 0.01851851851851852 0.01851851851851852 0.7962962962962963 0.1296296296296296 0.01851851851851852 0.01851851851851852 0.01851851851851852 0.2407407407407407 0.6851851851851852 0.01851851851851852 0.01851851851851852 0.01851851851851852 0.04166666666666667 0.04166666666666667 0.5416666666666667 0.2916666666666667 0.04166666666666667 0.04166666666666667 0.03657616892911011 0.05241327300150829 0.871417797888386 0.03883861236802413 0.0003770739064856712 0.0003770739064856712 0.01331615120274914 0.04166666666666666 0.9205326460481098 0.0236254295532646 0.0004295532646048109 0.0004295532646048109 0.002645502645502646 0.05026455026455027 0.9074074074074076 0.0343915343915344 0.002645502645502646 0.002645502645502646 0.003472222222222222 0.1284722222222222 0.8159722222222222 0.04513888888888889 0.003472222222222222 0.003472222222222222 0.004385964912280702 0.08333333333333333 0.6885964912280702 0.162280701754386 0.03070175438596491 0.03070175438596491 0.01039926394034043 0.09022783951962425 0.6759037311445245 0.2068836105663302 0.009091789545047338 0.007493765284133559 0.006284435261707987 0.1395488980716253 0.6333505509641872 0.209280303030303 0.006284435261707987 0.005251377410468318 0.01479750778816199 0.2858255451713395 0.4213395638629283 0.2250778816199377 0.02881619937694704 0.02414330218068536 0.04373522458628843 0.2352245862884161 0.4125295508274233 0.2494089834515367 0.02245862884160757 0.03664302600472814 0.004166666666666667 0.2291666666666667 0.4791666666666667 0.2041666666666667 0.05416666666666667 0.02916666666666667 0.01382783882783883 0.00173992673992674 0.01822344322344322 0.05668498168498168 0.02921245421245421 0.8803113553113554 0.05817610062893082 0.0110062893081761 0.04874213836477988 0.0770440251572327 0.0770440251572327 0.7279874213836478 0.1979166666666667 0.01041666666666667 0.07291666666666667 0.01041666666666667 0.2604166666666667 0.4479166666666667 0.2435897435897436 0.01282051282051282 0.01282051282051282 0.01282051282051282 0.1666666666666667 0.5512820512820513 0.02777777777777778 0.02777777777777778 0.02777777777777778 0.02777777777777778 0.5277777777777777 0.361111111111111 0.001683501683501684 0.001683501683501684 0.0420875420875421 0.1531986531986532 0.07239057239057239 0.728956228956229 0.005376344086021505 0.005376344086021505 0.005376344086021505 0.005376344086021505 0.005376344086021505 0.9731182795698925 0.05555555555555555 0.05555555555555555 0.05555555555555555 0.05555555555555555 0.05555555555555555 0.7222222222222221 0.03333333333333333 0.03333333333333333 0.03333333333333333 0.03333333333333333 0.03333333333333333 0.8333333333333335 0.08333333333333333 0.08333333333333333 0.08333333333333333 0.08333333333333333 0.08333333333333333 0.5833333333333334 0.08333333333333333 0.08333333333333333 0.08333333333333333 0.08333333333333333 0.08333333333333333 0.5833333333333334 0.08333333333333333 0.08333333333333333 0.08333333333333333 0.08333333333333333 0.08333333333333333 0.5833333333333334 0.1666666666666667 0.1666666666666667 0.1666666666666667 0.1666666666666667 0.1666666666666667 0.1666666666666667 0.08333333333333333 0.08333333333333333 0.08333333333333333 0.08333333333333333 0.08333333333333333 0.5833333333333334 0.1666666666666667 0.1666666666666667 0.1666666666666667 0.1666666666666667 0.1666666666666667 0.1666666666666667</probabilities>
		</cpt>
		<cpt id="OA_AGE">
			<state id="s1_below_11" />
			<state id="s2_11_28" />
			<state id="s3_28_36" />
			<state id="s4_36_48" />
			<state id="s5_48_64" />
			<state id="s6_64_76" />
			<state id="s7_76_up" />
			<parents>VE_PDOF_TR OA_MAIS</parents>
			<probabilities>0.0007722007722007722 0.2926640926640927 0.1521235521235521 0.1845559845559846 0.216988416988417 0.07644787644787646 0.07644787644787646 0.005952380952380952 0.2976190476190476 0.1309523809523809 0.1309523809523809 0.1309523809523809 0.1309523809523809 0.1726190476190476 0.02040816326530612 0.5918367346938774 0.1632653061224489 0.02040816326530612 0.1632653061224489 0.02040816326530612 0.02040816326530612 0.01428571428571429 0.1142857142857143 0.2142857142857143 0.01428571428571429 0.2142857142857143 0.1142857142857143 0.3142857142857143 0.1428571428571429 0.1428571428571429 0.1428571428571429 0.1428571428571429 0.1428571428571429 0.1428571428571429 0.1428571428571429 0.0001125745806596871 0.3161094224924013 0.1537768771811325 0.2152425982213217 0.1908139142181695 0.08758302375323652 0.03636158955307892 0.000496031746031746 0.2748015873015873 0.1428571428571428 0.2018849206349206 0.2123015873015873 0.09077380952380952 0.07688492063492063 0.002197802197802198 0.232967032967033 0.1406593406593407 0.1868131868131868 0.2021978021978022 0.1252747252747253 0.1098901098901099 0.003401360544217687 0.2653061224489796 0.09863945578231292 0.1462585034013605 0.09863945578231292 0.1700680272108843 0.2176870748299319 0.01098901098901099 0.3956043956043956 0.08791208791208792 0.08791208791208792 0.2417582417582418 0.01098901098901099 0.1648351648351648 0.0001173967275662191 0.3432093330398415 0.1625210947244846 0.2201482133685524 0.1874825739232519 0.05743634896177269 0.02908503925453078 8.939746111210442e-05 0.2873234400143036 0.1408903987126766 0.2222420883246916 0.2203647416413374 0.08018952261755766 0.04890041122832112 0.0009099181073703367 0.2556869881710646 0.09008189262966333 0.1410373066424022 0.2684258416742494 0.1474067333939945 0.09645131938125569 0.001310615989515072 0.2857142857142857 0.07470511140235911 0.2214941022280472 0.2123197903014417 0.08387942332896461 0.1205766710353866 0.002976190476190476 0.1904761904761905 0.1904761904761905 0.2321428571428571 0.2738095238095238 0.04464285714285714 0.06547619047619047 0.000382866714525006 0.3471165350562336 0.1477865518066523 0.2010528834649438 0.1792773390763341 0.07408470926058866 0.05029911462072266 0.0003377237419790611 0.3289429246876055 0.1374535629854779 0.1279972982100642 0.2225599459642013 0.09253630530226276 0.09017223910840932 0.002747252747252747 0.3489010989010989 0.1181318681318681 0.1758241758241758 0.1181318681318681 0.04120879120879121 0.1950549450549451 0.003759398496240601 0.2406015037593985 0.1090225563909775 0.1879699248120301 0.1879699248120301 0.1353383458646616 0.1353383458646616 0.008928571428571428 0.2589285714285715 0.07142857142857142 0.1339285714285714 0.1964285714285714 0.1339285714285714 0.1964285714285714 0.0007680491551459293 0.3233486943164363 0.1728110599078341 0.2050691244239632 0.2050691244239632 0.06528417818740399 0.02764976958525346 0.006802721088435373 0.3401360544217687 0.006802721088435373 0.2448979591836735 0.1972789115646258 0.1020408163265306 0.1020408163265306 0.01298701298701299 0.1948051948051948 0.2857142857142858 0.1948051948051948 0.1038961038961039 0.1948051948051948 0.01298701298701299 0.02380952380952381 0.3571428571428572 0.02380952380952381 0.1904761904761905 0.1904761904761905 0.1904761904761905 0.02380952380952381 0.02040816326530612 0.3061224489795918 0.163265306122449 0.163265306122449 0.163265306122449 0.163265306122449 0.02040816326530612 8.030193527664017e-05 0.2693326909178511 0.1743355014855858 0.2479723761342648 0.227174174897615 0.0607885650044166 0.02031638962498996 0.001200480192076831 0.2112845138055222 0.1356542617046819 0.2533013205282112 0.2869147659063626 0.06842737094837935 0.04321728691476591 0.009523809523809523 0.2761904761904762 0.2095238095238095 0.1428571428571428 0.1428571428571428 0.07619047619047618 0.1428571428571428 0.007936507936507936 0.1746031746031746 0.119047619047619 0.2301587301587302 0.2301587301587302 0.1746031746031746 0.06349206349206349 0.02380952380952381 0.1904761904761905 0.02380952380952381 0.3571428571428571 0.3571428571428571 0.02380952380952381 0.02380952380952381</probabilities>
		</cpt>
		<cpt id="OA_WEIGHT">
			<state id="s1_below_37" />
			<state id="s2_37_62" />
			<state id="s3_62_80" />
			<state id="s4_80_96" />
			<state id="s5_96_114" />
			<state id="s6_114_130" />
			<state id="s7_130_up" />
			<parents>OA_AGE OA_MAIS</parents>
			<probabilities>0.04761904761904762 0.380952380952381 0.04761904761904762 0.380952380952381 0.04761904761904762 0.04761904761904762 0.04761904761904762 0.1428571428571429 0.1428571428571429 0.1428571428571429 0.1428571428571429 0.1428571428571429 0.1428571428571429 0.1428571428571429 0.1428571428571429 0.1428571428571429 0.1428571428571429 0.1428571428571429 0.1428571428571429 0.1428571428571429 0.1428571428571429 0.1428571428571429 0.1428571428571429 0.1428571428571429 0.1428571428571429 0.1428571428571429 0.1428571428571429 0.1428571428571429 0.1428571428571429 0.1428571428571429 0.1428571428571429 0.1428571428571429 0.1428571428571429 0.1428571428571429 0.1428571428571429 0.0003988937347090735 0.3025210084033613 0.3872194447399213 0.2029305393043293 0.07839591532815658 0.01771088182108286 0.01082331666843953 0.0001992428770671448 0.28332337118948 0.386531181510261 0.2094042637975692 0.08248655110579797 0.02390914524805738 0.01414624427176728 0.001700680272108843 0.3112244897959183 0.3826530612244898 0.1921768707482993 0.07312925170068027 0.01360544217687075 0.02551020408163265 0.002463054187192117 0.2783251231527093 0.3645320197044334 0.20935960591133 0.07142857142857142 0.03694581280788176 0.03694581280788176 0.006493506493506494 0.3246753246753247 0.3701298701298702 0.05194805194805195 0.09740259740259742 0.1428571428571429 0.006493506493506494 5.517850245544335e-05 0.2059261711637146 0.3611984770733321 0.2534348617778513 0.1228825249682724 0.03250013794625613 0.02400264856811786 0.000415282392026578 0.1690199335548173 0.340531561461794 0.2998338870431893 0.1137873754152824 0.03529900332225913 0.04111295681063122 0.00386100386100386 0.138996138996139 0.3822393822393821 0.2471042471042471 0.166023166023166 0.03088803088803088 0.03088803088803088 0.006802721088435376 0.1496598639455783 0.3877551020408164 0.1496598639455783 0.1496598639455783 0.05442176870748301 0.1020408163265306 0.01098901098901099 0.1648351648351648 0.3186813186813187 0.2417582417582418 0.08791208791208792 0.08791208791208792 0.08791208791208792 4.046944556859571e-05 0.1813435855928774 0.3436665317685147 0.2895588830433023 0.1295022258195063 0.03148522865236746 0.02440307567786321 0.000282326369282891 0.1524562394127611 0.3224167137210615 0.3046301524562394 0.134669678147939 0.05166572557876905 0.03387916431394692 0.002976190476190476 0.1488095238095238 0.2113095238095238 0.1904761904761905 0.3571428571428571 0.04464285714285714 0.04464285714285714 0.003322259136212624 0.1428571428571429 0.2823920265780731 0.2358803986710963 0.212624584717608 0.04983388704318937 0.07308970099667773 0.007936507936507936 0.007936507936507936 0.1746031746031746 0.2857142857142857 0.2301587301587302 0.119047619047619 0.1746031746031746 4.630701551285019e-05 0.1439685112294513 0.3446168094466311 0.3028015744385274 0.1517480898356101 0.03505441074322759 0.02176429729103959 0.0002602133749674734 0.1259432734842571 0.3244860785844393 0.2898776997137654 0.1733021077283373 0.04033307311995837 0.04579755399427531 0.002164502164502165 0.1385281385281385 0.3354978354978355 0.29004329004329 0.1536796536796537 0.03246753246753246 0.04761904761904762 0.003401360544217687 0.07482993197278912 0.2653061224489796 0.2414965986394557 0.2176870748299319 0.07482993197278912 0.1224489795918367 0.006211180124223602 0.006211180124223602 0.2236024844720497 0.3105590062111802 0.3105590062111802 0.006211180124223602 0.1366459627329192 0.003063213589529379 0.1365914786967418 0.3948760790866054 0.3022834864940128 0.1200222779170148 0.02937900306321359 0.0137844611528822 0.0006901311249137336 0.1552795031055901 0.3485162180814355 0.2857142857142858 0.116632160110421 0.04416839199447895 0.04899930986887509 0.00386100386100386 0.0579150579150579 0.22007722007722 0.4903474903474903 0.111969111969112 0.111969111969112 0.00386100386100386 0.005291005291005292 0.1904761904761905 0.2645502645502646 0.3015873015873016 0.2275132275132276 0.005291005291005292 0.005291005291005292 0.02380952380952381 0.02380952380952381 0.3571428571428571 0.1904761904761905 0.1904761904761905 0.02380952380952381 0.1904761904761905 0.000267022696929239 0.1740987983978638 0.5012016021361816 0.2526034712950601 0.0582109479305741 0.01148197596795728 0.002136181575433912 0.0009523809523809525 0.1942857142857143 0.440952380952381 0.260952380952381 0.08095238095238097 0.02095238095238095 0.0009523809523809525 0.004081632653061224 0.1469387755102041 0.4612244897959183 0.2612244897959183 0.06122448979591836 0.06122448979591836 0.004081632653061224 0.004464285714285715 0.3169642857142858 0.4107142857142858 0.1294642857142858 0.06696428571428573 0.03571428571428572 0.03571428571428572 0.01587301587301588 0.2380952380952381 0.3492063492063492 0.126984126984127 0.2380952380952381 0.01587301587301588 0.01587301587301588</probabilities>
		</cpt>
		<cpt id="OA_HEIGHT">
			<state id="s1_below_97" />
			<state id="s2_97_124" />
			<state id="s3_124_138" />
			<state id="s4_138_171" />
			<state id="s5_171_186" />
			<state id="s6_186_208" />
			<state id="s7_208_up" />
			<parents>OA_WEIGHT OA_MAIS</parents>
			<probabilities>0.0238095238095238 0.0238095238095238 0.0238095238095238 0.857142857142857 0.0238095238095238 0.0238095238095238 0.0238095238095238 0.1428571428571429 0.1428571428571429 0.1428571428571429 0.1428571428571429 0.1428571428571429 0.1428571428571429 0.1428571428571429 0.1428571428571429 0.1428571428571429 0.1428571428571429 0.1428571428571429 0.1428571428571429 0.1428571428571429 0.1428571428571429 0.1428571428571429 0.1428571428571429 0.1428571428571429 0.1428571428571429 0.1428571428571429 0.1428571428571429 0.1428571428571429 0.1428571428571429 0.1428571428571429 0.1428571428571429 0.1428571428571429 0.1428571428571429 0.1428571428571429 0.1428571428571429 0.001191503348535272 0.0006162948354492787 0.001479107605078269 0.8924770943752823 0.1024282016516701 0.001766711861621266 4.108632236328525e-05 0.0003045994517209868 0.002436795613767894 0.002436795613767894 0.9128845568077976 0.07919585744745658 0.002436795613767894 0.0003045994517209868 0.002597402597402597 0.002597402597402597 0.002597402597402597 0.8389610389610388 0.148051948051948 0.002597402597402597 0.002597402597402597 0.003246753246753246 0.003246753246753246 0.003246753246753246 0.9350649350649348 0.04870129870129869 0.003246753246753246 0.003246753246753246 0.01190476190476191 0.01190476190476191 0.01190476190476191 0.761904761904762 0.1785714285714286 0.01190476190476191 0.01190476190476191 0.001700395162256017 0.0001915938210992695 0.001029816788408574 0.5889594060591546 0.3846006466291463 0.02332654771883607 0.0001915938210992695 0.0001634521085322001 0.0001634521085322001 0.0001634521085322001 0.5928407976462896 0.3914677999346192 0.01503759398496241 0.0001634521085322001 0.001386962552011096 0.001386962552011096 0.001386962552011096 0.5644937586685159 0.3994452149791956 0.0305131761442441 0.001386962552011096 0.001956947162426614 0.001956947162426614 0.001956947162426614 0.5636007827788649 0.4266144814090019 0.001956947162426614 0.001956947162426614 0.005494505494505495 0.005494505494505495 0.005494505494505495 0.7362637362637363 0.2362637362637363 0.005494505494505495 0.005494505494505495 0.0005164755707055056 3.443170471370037e-05 0.0005164755707055056 0.318665427125297 0.5924663430086424 0.08776641531522227 3.443170471370037e-05 0.00322234156820623 0.0002148227712137487 0.0002148227712137487 0.3355531686358754 0.5806659505907626 0.0799140708915145 0.0002148227712137487 0.01410934744268078 0.001763668430335097 0.001763668430335097 0.2980599647266314 0.6190476190476191 0.06349206349206349 0.001763668430335097 0.002976190476190475 0.002976190476190475 0.002976190476190475 0.2529761904761904 0.6279761904761904 0.1071428571428571 0.002976190476190475 0.007518796992481203 0.007518796992481203 0.007518796992481203 0.3759398496240601 0.5864661654135338 0.007518796992481203 0.007518796992481203 0.001178041309981937 7.853608733212911e-05 0.0006282886986570329 0.2584622634100369 0.5597266944160842 0.1792978873792508 0.0006282886986570329 0.0004793863854266538 0.0004793863854266538 0.0004793863854266538 0.3024928092042186 0.5407478427612655 0.1548418024928092 0.0004793863854266538 0.003105590062111801 0.003105590062111801 0.003105590062111801 0.3074534161490682 0.5031055900621116 0.1770186335403726 0.003105590062111801 0.004201680672268907 0.004201680672268907 0.004201680672268907 0.2100840336134453 0.5924369747899157 0.180672268907563 0.004201680672268907 0.007936507936507936 0.007936507936507936 0.007936507936507936 0.2301587301587302 0.6746031746031745 0.06349206349206349 0.007936507936507936 0.000328407224958949 0.000328407224958949 0.000328407224958949 0.2141215106732348 0.5175697865353036 0.2646962233169129 0.002627257799671592 0.001587301587301587 0.001587301587301587 0.001587301587301587 0.246031746031746 0.5460317460317461 0.2015873015873016 0.001587301587301587 0.01098901098901099 0.01098901098901099 0.01098901098901099 0.01098901098901099 0.7802197802197802 0.1648351648351648 0.01098901098901099 0.01428571428571429 0.01428571428571429 0.01428571428571429 0.3142857142857143 0.5142857142857143 0.1142857142857143 0.01428571428571429 0.02040816326530612 0.02040816326530612 0.02040816326530612 0.3061224489795918 0.4489795918367347 0.163265306122449 0.02040816326530612 0.0004943153732081066 0.003954522985664853 0.0004943153732081066 0.1977261492832427 0.547207118141374 0.2496292634700938 0.0004943153732081066 0.001855287569573284 0.001855287569573284 0.001855287569573284 0.24860853432282 0.5992578849721708 0.1447124304267161 0.001855287569573284 0.01587301587301587 0.01587301587301587 0.01587301587301587 0.4603174603174603 0.4603174603174603 0.01587301587301587 0.01587301587301587 0.01020408163265306 0.01020408163265306 0.01020408163265306 0.2244897959183673 0.5102040816326531 0.2244897959183673 0.01020408163265306 0.01587301587301587 0.01587301587301587 0.01587301587301587 0.126984126984127 0.3492063492063492 0.4603174603174603 0.01587301587301587</probabilities>
		</cpt>
		<cpt id="OA_SEX">
			<state id="Female" />
			<state id="Male" />
			<parents>OA_HEIGHT OA_MAIS</parents>
			<probabilities>0.5 0.5 0.5 0.5 0.25 0.75 0.5 0.5 0.5 0.5 0.9 0.1 0.75 0.25 0.5 0.5 0.5 0.5 0.5 0.5 0.9 0.1 0.75 0.25 0.5 0.5 0.5 0.5 0.5 0.5 0.8084423166744511 0.1915576833255488 0.818216756341276 0.1817832436587241 0.7653061224489796 0.2346938775510204 0.7175925925925926 0.2824074074074074 0.5 0.5 0.1710445468509985 0.8289554531490015 0.1785714285714285 0.8214285714285714 0.2007299270072993 0.7992700729927007 0.1197916666666667 0.8802083333333333 0.2236842105263158 0.7763157894736842 0.0249266862170088 0.9750733137829912 0.02447552447552448 0.9755244755244755 0.02631578947368421 0.9736842105263157 0.09375 0.90625 0.07142857142857142 0.9285714285714285 0.125 0.875 0.5 0.5 0.5 0.5 0.5 0.5 0.5 0.5</probabilities>
		</cpt>
		<cpt id="VE_WHEELBAS">
			<state id="s1_below_164" />
			<state id="s2_164_203" />
			<state id="s3_203_234" />
			<state id="s4_234_318" />
			<state id="s5_318_375" />
			<state id="s6_375_464" />
			<state id="s7_464_up" />
			<parents>OA_SEX OA_MAIS</parents>
			<probabilities>1.766285149074467e-05 1.766285149074467e-05 0.0007595026141020209 0.9579800763035186 0.03760421082379541 0.003603221704111912 1.766285149074467e-05 0.0001140120852810398 0.0001140120852810398 0.0009120966822483184 0.9546231900581463 0.04081632653061226 0.003306350473150155 0.0001140120852810398 0.001020408163265306 0.001020408163265306 0.001020408163265306 0.9653061224489797 0.02959183673469389 0.001020408163265306 0.001020408163265306 0.001587301587301588 0.001587301587301588 0.0126984126984127 0.9571428571428573 0.02380952380952382 0.001587301587301588 0.001587301587301588 0.004761904761904762 0.004761904761904762 0.004761904761904762 0.9380952380952383 0.0380952380952381 0.004761904761904762 0.004761904761904762 0.0001420227591471533 0.0005148325019084309 0.001384721901684745 0.8284010012604521 0.1462834419215679 0.0231319568960926 0.0001420227591471533 0.0001174812030075188 0.0001174812030075188 0.0009398496240601505 0.8463345864661656 0.1366306390977444 0.01574248120300752 0.0001174812030075188 0.000876424189307625 0.000876424189307625 0.000876424189307625 0.8720420683610869 0.09903593339176163 0.02541630148992113 0.000876424189307625 0.001107419712070875 0.001107419712070875 0.001107419712070875 0.9158361018826134 0.07087486157253599 0.008859357696566999 0.001107419712070875 0.0025062656641604 0.0025062656641604 0.0025062656641604 0.8972431077694234 0.09022556390977442 0.0025062656641604 0.0025062656641604</probabilities>
		</cpt>
		<cpt id="GV_FOOTPRINT">
			<state id="s1_below_2" />
			<state id="s2_2_4" />
			<state id="s3_4_5" />
			<state id="s4_5_5" />
			<state id="s5_5_6" />
			<state id="s6_6_7" />
			<state id="s7_7_up" />
			<parents>VE_WHEELBAS OA_MAIS</parents>
			<probabilities>0.5714285714285715 0.07142857142857144 0.07142857142857144 0.07142857142857144 0.07142857142857144 0.07142857142857144 0.07142857142857144 0.1428571428571429 0.1428571428571429 0.1428571428571429 0.1428571428571429 0.1428571428571429 0.1428571428571429 0.1428571428571429 0.1428571428571429 0.1428571428571429 0.1428571428571429 0.1428571428571429 0.1428571428571429 0.1428571428571429 0.1428571428571429 0.1428571428571429 0.1428571428571429 0.1428571428571429 0.1428571428571429 0.1428571428571429 0.1428571428571429 0.1428571428571429 0.1428571428571429 0.1428571428571429 0.1428571428571429 0.1428571428571429 0.1428571428571429 0.1428571428571429 0.1428571428571429 0.8285714285714284 0.02857142857142856 0.02857142857142856 0.02857142857142856 0.02857142857142856 0.02857142857142856 0.02857142857142856 0.1428571428571429 0.1428571428571429 0.1428571428571429 0.1428571428571429 0.1428571428571429 0.1428571428571429 0.1428571428571429 0.1428571428571429 0.1428571428571429 0.1428571428571429 0.1428571428571429 0.1428571428571429 0.1428571428571429 0.1428571428571429 0.1428571428571429 0.1428571428571429 0.1428571428571429 0.1428571428571429 0.1428571428571429 0.1428571428571429 0.1428571428571429 0.1428571428571429 0.1428571428571429 0.1428571428571429 0.1428571428571429 0.1428571428571429 0.1428571428571429 0.1428571428571429 0.007936507936507938 0.9523809523809526 0.007936507936507938 0.007936507936507938 0.007936507936507938 0.007936507936507938 0.007936507936507938 0.04761904761904762 0.7142857142857143 0.04761904761904762 0.04761904761904762 0.04761904761904762 0.04761904761904762 0.04761904761904762 0.1428571428571429 0.1428571428571429 0.1428571428571429 0.1428571428571429 0.1428571428571429 0.1428571428571429 0.1428571428571429 0.07142857142857144 0.5714285714285715 0.07142857142857144 0.07142857142857144 0.07142857142857144 0.07142857142857144 0.07142857142857144 0.1428571428571429 0.1428571428571429 0.1428571428571429 0.1428571428571429 0.1428571428571429 0.1428571428571429 0.1428571428571429 9.910311679302315e-06 0.903027600218027 0.09366235568108618 0.003270402854169764 9.910311679302315e-06 9.910311679302315e-06 9.910311679302315e-06 0.0005134129123347451 0.9192016429213193 0.07868052881529969 0.001411885508920549 6.417661404184313e-05 6.417661404184313e-05 6.417661404184313e-05 0.0005138746145940388 0.9213771839671118 0.07605344295991774 0.0005138746145940388 0.0005138746145940388 0.0005138746145940388 0.0005138746145940388 0.0006968641114982579 0.9470383275261326 0.04947735191637631 0.0006968641114982579 0.0006968641114982579 0.0006968641114982579 0.0006968641114982579 0.001785714285714286 0.9517857142857145 0.03928571428571429 0.001785714285714286 0.001785714285714286 0.001785714285714286 0.001785714285714286 9.639483323693848e-05 0.126951995373048 0.1296510507036823 0.2801233853865433 0.457586273375747 0.005494505494505494 9.639483323693848e-05 0.000655307994757536 0.1841415465268676 0.1199213630406291 0.252948885976409 0.436435124508519 0.005242463958060288 0.000655307994757536 0.006802721088435373 0.2448979591836735 0.1496598639455782 0.2448979591836735 0.3401360544217687 0.006802721088435373 0.006802721088435373 0.0119047619047619 0.09523809523809523 0.1785714285714285 0.1785714285714285 0.5119047619047619 0.0119047619047619 0.0119047619047619 0.02040816326530612 0.02040816326530612 0.163265306122449 0.4489795918367346 0.3061224489795918 0.02040816326530612 0.02040816326530612 0.0006613756613756613 0.0006613756613756613 0.0006613756613756613 0.0006613756613756613 0.03306878306878307 0.8664021164021163 0.09788359788359788 0.005952380952380952 0.005952380952380952 0.005952380952380952 0.005952380952380952 0.005952380952380952 0.9226190476190476 0.04761904761904762 0.02857142857142856 0.02857142857142856 0.02857142857142856 0.02857142857142856 0.02857142857142856 0.8285714285714285 0.02857142857142856 0.07142857142857144 0.07142857142857144 0.07142857142857144 0.07142857142857144 0.07142857142857144 0.5714285714285715 0.07142857142857144 0.1428571428571429 0.1428571428571429 0.1428571428571429 0.1428571428571429 0.1428571428571429 0.1428571428571429 0.1428571428571429 0.07142857142857144 0.07142857142857144 0.07142857142857144 0.07142857142857144 0.07142857142857144 0.07142857142857144 0.5714285714285715 0.1428571428571429 0.1428571428571429 0.1428571428571429 0.1428571428571429 0.1428571428571429 0.1428571428571429 0.1428571428571429 0.1428571428571429 0.1428571428571429 0.1428571428571429 0.1428571428571429 0.1428571428571429 0.1428571428571429 0.1428571428571429 0.1428571428571429 0.1428571428571429 0.1428571428571429 0.1428571428571429 0.1428571428571429 0.1428571428571429 0.1428571428571429 0.1428571428571429 0.1428571428571429 0.1428571428571429 0.1428571428571429 0.1428571428571429 0.1428571428571429 0.1428571428571429</probabilities>
		</cpt>
		<cpt id="GV_WGTCDTR">
			<state id="SPassenger_Car" />
			<state id="STruck____10000_lbs__" />
			<state id="STruck____6000_lbs__" />
			<parents>GV_FOOTPRINT OA_MAIS</parents>
			<probabilities>0.888888888888889 0.05555555555555556 0.05555555555555556 0.6666666666666667 0.1666666666666667 0.1666666666666667 0.3333333333333333 0.3333333333333333 0.3333333333333333 0.3333333333333333 0.3333333333333333 0.3333333333333333 0.3333333333333333 0.3333333333333333 0.3333333333333333 0.7268648062718999 0.01870478207164284 0.2544304116564571 0.729695228977182 0.01787138981969044 0.2524333812031275 0.7951653944020356 0.01272264631043257 0.1921119592875318 0.7884940778341794 0.001692047377326565 0.2098138747884941 0.7835497835497837 0.01731601731601732 0.1991341991341992 0.1317779217973644 0.3527759775329445 0.5154461006696911 0.1155115511551155 0.4075907590759076 0.4768976897689769 0.1333333333333333 0.2133333333333333 0.6533333333333333 0.1794871794871795 0.4871794871794872 0.3333333333333333 0.2666666666666667 0.06666666666666667 0.6666666666666667 0.00503959683225342 0.8797696184305256 0.115190784737221 0.005649717514124292 0.9039548022598869 0.09039548022598867 0.05555555555555556 0.7222222222222222 0.2222222222222222 0.1111111111111111 0.7777777777777777 0.1111111111111111 0.08333333333333333 0.5833333333333334 0.3333333333333333 0.001943634596695821 0.9757045675413021 0.02235179786200194 0.003472222222222222 0.9722222222222223 0.02430555555555556 0.04166666666666667 0.9166666666666669 0.04166666666666667 0.04761904761904762 0.9047619047619049 0.04761904761904762 0.1111111111111111 0.7777777777777777 0.1111111111111111 0.006802721088435373 0.9914965986394557 0.001700680272108843 0.01388888888888889 0.9722222222222223 0.01388888888888889 0.06666666666666668 0.8666666666666668 0.06666666666666668 0.1666666666666667 0.6666666666666667 0.1666666666666667 0.3333333333333333 0.3333333333333333 0.3333333333333333 0.01449275362318841 0.9275362318840581 0.05797101449275363 0.1666666666666667 0.6666666666666667 0.1666666666666667 0.3333333333333333 0.3333333333333333 0.3333333333333333 0.3333333333333333 0.3333333333333333 0.3333333333333333 0.3333333333333333 0.3333333333333333 0.3333333333333333</probabilities>
		</cpt>
		<cpt id="GV_CURBWGT">
			<state id="s1_below_885" />
			<state id="s2_885_1695" />
			<state id="s3_1695_2555" />
			<state id="s4_2555_3715" />
			<state id="s5_3715_up" />
			<parents>GV_WGTCDTR OA_MAIS</parents>
			<probabilities>0.0009364820846905535 0.9212337133550488 0.07697475570032572 0.000834690553745928 2.035830618892508e-05 0.0001291155584247902 0.9271788250484183 0.07114267269205939 0.001420271142672692 0.0001291155584247902 0.005660377358490567 0.9113207547169813 0.08113207547169812 0.0009433962264150946 0.0009433962264150946 0.001265822784810127 0.9189873417721519 0.07721518987341773 0.001265822784810127 0.001265822784810127 0.003225806451612903 0.8741935483870968 0.1161290322580645 0.003225806451612903 0.003225806451612903 9.601536245799327e-05 0.002976476236197791 0.7888622179548728 0.2046087373979837 0.003456553048487758 0.0006896551724137933 0.0006896551724137933 0.800689655172414 0.1903448275862069 0.007586206896551727 0.008333333333333335 0.008333333333333335 0.7583333333333334 0.2166666666666667 0.008333333333333335 0.0125 0.0125 0.7625000000000002 0.2000000000000001 0.0125 0.03333333333333333 0.03333333333333333 0.5333333333333332 0.3666666666666666 0.03333333333333333 0.001229605107590447 0.3422085599432491 0.651737999527075 0.004540080397257036 0.0002837550248285647 0.0003169572107765452 0.4297939778129952 0.5660855784469097 0.003486529318541997 0.0003169572107765452 0.002941176470588235 0.2970588235294117 0.6794117647058823 0.01764705882352941 0.002941176470588235 0.004347826086956522 0.5043478260869565 0.4826086956521739 0.004347826086956522 0.004347826086956522 0.01 0.41 0.4600000000000001 0.11 0.01</probabilities>
		</cpt>
		<cpt id="GV_DVLAT">
			<state id="s1_below_n103" />
			<state id="s2_n103_n70" />
			<state id="s3_n70_n53" />
			<state id="s4_n53_n24" />
			<state id="s5_n24_43" />
			<state id="s6_43_99" />
			<state id="s7_99_up" />
			<parents>VE_PDOF_TR OA_MAIS</parents>
			<probabilities>0.0007722007722007722 0.0007722007722007722 0.0007722007722007722 0.006177606177606178 0.9683397683397684 0.0223938223938224 0.0007722007722007722 0.005952380952380952 0.005952380952380952 0.005952380952380952 0.005952380952380952 0.8809523809523809 0.08928571428571427 0.005952380952380952 0.02040816326530612 0.02040816326530612 0.02040816326530612 0.02040816326530612 0.7346938775510204 0.163265306122449 0.02040816326530612 0.01428571428571429 0.01428571428571429 0.01428571428571429 0.01428571428571429 0.8142857142857144 0.1142857142857143 0.01428571428571429 0.1428571428571429 0.1428571428571429 0.1428571428571429 0.1428571428571429 0.1428571428571429 0.1428571428571429 0.1428571428571429 0.0001125745806596871 0.0001125745806596871 0.0001125745806596871 0.0009005966452774964 0.9938083980637172 0.004052684903748734 0.0009005966452774964 0.0004960317460317459 0.0004960317460317459 0.0004960317460317459 0.0004960317460317459 0.927579365079365 0.06994047619047618 0.0004960317460317459 0.002197802197802198 0.002197802197802198 0.002197802197802198 0.002197802197802198 0.8637362637362638 0.1252747252747253 0.002197802197802198 0.003401360544217686 0.003401360544217686 0.003401360544217686 0.003401360544217686 0.836734693877551 0.1462585034013605 0.003401360544217686 0.01098901098901099 0.01098901098901099 0.01098901098901099 0.01098901098901099 0.7802197802197802 0.1648351648351648 0.01098901098901099 1.467459094577739e-05 0.0002201188641866608 0.0003228410008071025 0.00196639518673417 0.9968302883557121 0.0006310074106684277 1.467459094577739e-05 8.939746111210442e-05 8.939746111210442e-05 8.939746111210442e-05 0.005721437511174683 0.9938315751832648 8.939746111210442e-05 8.939746111210442e-05 0.0009099181073703367 0.0009099181073703367 0.0009099181073703367 0.01364877161055505 0.9818016378525933 0.0009099181073703367 0.0009099181073703367 0.001310615989515072 0.001310615989515072 0.001310615989515072 0.01965923984272608 0.9646133682830931 0.01048492791612058 0.001310615989515072 0.002976190476190475 0.002976190476190475 0.002976190476190475 0.04464285714285713 0.9404761904761904 0.002976190476190475 0.002976190476190475 0.0003828667145250059 0.0003828667145250059 0.0007178750897343861 0.08715003589375449 0.9112706389088299 4.785833931562574e-05 4.785833931562574e-05 0.002701789935832488 0.005065856129685915 0.01925025329280648 0.2154677473826409 0.7568389057750758 0.000337723741979061 0.000337723741979061 0.002747252747252747 0.002747252747252747 0.02197802197802198 0.521978021978022 0.4450549450549451 0.002747252747252747 0.002747252747252747 0.003759398496240601 0.003759398496240601 0.1353383458646616 0.3984962406015037 0.4511278195488722 0.003759398496240601 0.003759398496240601 0.008928571428571428 0.008928571428571428 0.1964285714285714 0.3214285714285715 0.4464285714285715 0.008928571428571428 0.008928571428571428 0.0007680491551459293 0.0007680491551459293 0.006144393241167435 0.1889400921658987 0.8018433179723503 0.0007680491551459293 0.0007680491551459293 0.006802721088435376 0.1020408163265306 0.05442176870748301 0.3877551020408164 0.435374149659864 0.006802721088435376 0.006802721088435376 0.01298701298701299 0.01298701298701299 0.1038961038961039 0.2857142857142857 0.5584415584415585 0.01298701298701299 0.01298701298701299 0.0238095238095238 0.0238095238095238 0.0238095238095238 0.857142857142857 0.0238095238095238 0.0238095238095238 0.0238095238095238 0.02040816326530612 0.5918367346938774 0.02040816326530612 0.1632653061224489 0.1632653061224489 0.02040816326530612 0.02040816326530612 8.030193527664017e-05 8.030193527664017e-05 0.001204529029149602 0.02031638962498996 0.9781578736047538 8.030193527664017e-05 8.030193527664017e-05 0.001200480192076831 0.001200480192076831 0.001200480192076831 0.02641056422569028 0.9675870348139257 0.001200480192076831 0.001200480192076831 0.009523809523809525 0.009523809523809525 0.009523809523809525 0.0761904761904762 0.8761904761904763 0.009523809523809525 0.009523809523809525 0.007936507936507936 0.007936507936507936 0.007936507936507936 0.06349206349206349 0.8968253968253967 0.007936507936507936 0.007936507936507936 0.0238095238095238 0.0238095238095238 0.1904761904761904 0.0238095238095238 0.6904761904761904 0.0238095238095238 0.0238095238095238</probabilities>
		</cpt>
		<cpt id="GV_SPLIMIT">
			<state id="s1_below_7" />
			<state id="s2_7_17" />
			<state id="s3_17_27" />
			<state id="s4_27_37" />
			<state id="s5_37_47" />
			<state id="s6_47_57" />
			<state id="s7_57_up" />
			<parents>VE_PDOF_TR OA_MAIS</parents>
			<probabilities>0.01698841698841699 0.0007722007722007723 0.1359073359073359 0.38996138996139 0.2277992277992279 0.1413127413127414 0.08725868725868728 0.005952380952380952 0.005952380952380952 0.08928571428571427 0.2559523809523809 0.1309523809523809 0.2142857142857143 0.2976190476190476 0.02040816326530612 0.02040816326530612 0.163265306122449 0.163265306122449 0.163265306122449 0.163265306122449 0.3061224489795918 0.1142857142857143 0.01428571428571429 0.1142857142857143 0.2142857142857143 0.01428571428571429 0.5142857142857143 0.01428571428571429 0.1428571428571429 0.1428571428571429 0.1428571428571429 0.1428571428571429 0.1428571428571429 0.1428571428571429 0.1428571428571429 0.02848136890690083 0.01193290554992683 0.1750534729258134 0.4232804232804234 0.2420353484183272 0.08837104581785435 0.03084543510075426 0.02827380952380952 0.01438492063492064 0.1150793650793651 0.4067460317460317 0.2192460317460317 0.191468253968254 0.0248015873015873 0.03296703296703297 0.002197802197802198 0.04835164835164836 0.4175824175824177 0.2637362637362638 0.2175824175824176 0.01758241758241759 0.02721088435374149 0.003401360544217687 0.07482993197278912 0.4319727891156462 0.2176870748299319 0.1462585034013605 0.09863945578231292 0.01098901098901099 0.01098901098901099 0.01098901098901099 0.3186813186813187 0.2417582417582418 0.3186813186813187 0.08791208791208792 0.004637170738865655 0.003096338689559028 0.08886932276762785 0.3665272580526818 0.3355051727933084 0.1442365544060459 0.05712818255191136 0.001966744144466297 8.939746111210442e-05 0.05515823350616842 0.2917039156087967 0.3505274450205614 0.2091006615412123 0.09145360271768281 0.0009099181073703367 0.007279344858962694 0.09008189262966333 0.2302092811646952 0.3384895359417653 0.2302092811646952 0.102820746132848 0.001310615989515072 0.001310615989515072 0.05635648754914811 0.1847968545216252 0.3499344692005243 0.3040629095674968 0.1022280471821756 0.002976190476190475 0.002976190476190475 0.002976190476190475 0.1696428571428571 0.294642857142857 0.3988095238095237 0.1279761904761905 0.00540799234266571 0.002392916965781288 0.09887532902608281 0.3993778415888969 0.3286910744197176 0.1317061497966021 0.03354869586025365 0.002701789935832489 0.0003377237419790612 0.07598784194528878 0.3171225937183385 0.3904086457277947 0.1800067544748396 0.03343465045592706 0.02197802197802198 0.002747252747252747 0.07967032967032968 0.2335164835164835 0.3873626373626374 0.1950549450549451 0.07967032967032968 0.003759398496240601 0.03007518796992481 0.03007518796992481 0.2142857142857143 0.5300751879699248 0.1879699248120301 0.003759398496240601 0.008928571428571428 0.008928571428571428 0.07142857142857142 0.07142857142857142 0.5089285714285714 0.2589285714285715 0.07142857142857142 0.006144393241167435 0.0007680491551459293 0.1351766513056836 0.3125960061443933 0.2857142857142858 0.1674347158218126 0.09216589861751152 0.05442176870748298 0.006802721088435373 0.1496598639455782 0.2448979591836735 0.3401360544217687 0.1496598639455782 0.05442176870748298 0.01298701298701299 0.01298701298701299 0.01298701298701299 0.4675324675324676 0.01298701298701299 0.2857142857142857 0.1948051948051948 0.02380952380952381 0.02380952380952381 0.02380952380952381 0.3571428571428571 0.1904761904761905 0.3571428571428571 0.02380952380952381 0.02040816326530613 0.02040816326530613 0.02040816326530613 0.306122448979592 0.306122448979592 0.163265306122449 0.163265306122449 0.001766642576086084 0.001766642576086084 0.04842206697181402 0.2580904199791215 0.3362242030032924 0.2001927246446639 0.153537300248936 0.01800720288115246 0.001200480192076831 0.009603841536614645 0.1608643457382953 0.3205282112845138 0.2112845138055222 0.2785114045618247 0.07619047619047618 0.009523809523809523 0.009523809523809523 0.1428571428571428 0.1428571428571428 0.2095238095238095 0.4095238095238096 0.007936507936507936 0.007936507936507936 0.007936507936507936 0.06349206349206349 0.2301587301587302 0.2301587301587302 0.4523809523809523 0.02380952380952381 0.02380952380952381 0.02380952380952381 0.1904761904761905 0.5238095238095238 0.1904761904761905 0.02380952380952381</probabilities>
		</cpt>
		<cpt id="GV_LANES">
			<state id="s1_below_1" />
			<state id="s2_1_2" />
			<state id="s3_2_3" />
			<state id="s4_3_4" />
			<state id="s5_4_5" />
			<state id="s6_5_6" />
			<state id="s7_6_up" />
			<parents>GV_SPLIMIT OA_MAIS</parents>
			<probabilities>0.03945578231292519 0.6585034013605443 0.2013605442176871 0.02993197278911565 0.05850340136054424 0.0108843537414966 0.001360544217687075 0.1339285714285715 0.6339285714285715 0.1964285714285715 0.00892857142857143 0.00892857142857143 0.00892857142857143 0.00892857142857143 0.02857142857142856 0.8285714285714284 0.02857142857142856 0.02857142857142856 0.02857142857142856 0.02857142857142856 0.02857142857142856 0.04761904761904762 0.7142857142857143 0.04761904761904762 0.04761904761904762 0.04761904761904762 0.04761904761904762 0.04761904761904762 0.1428571428571429 0.1428571428571429 0.1428571428571429 0.1428571428571429 0.1428571428571429 0.1428571428571429 0.1428571428571429 0.05612244897959183 0.520408163265306 0.2704081632653061 0.07397959183673469 0.07397959183673469 0.002551020408163265 0.002551020408163265 0.2285714285714285 0.2285714285714285 0.2285714285714285 0.2285714285714285 0.02857142857142856 0.02857142857142856 0.02857142857142856 0.07142857142857144 0.5714285714285715 0.07142857142857144 0.07142857142857144 0.07142857142857144 0.07142857142857144 0.07142857142857144 0.5714285714285715 0.07142857142857144 0.07142857142857144 0.07142857142857144 0.07142857142857144 0.07142857142857144 0.07142857142857144 0.1428571428571429 0.1428571428571429 0.1428571428571429 0.1428571428571429 0.1428571428571429 0.1428571428571429 0.1428571428571429 0.04617699614407975 0.7124047775792345 0.1271513213580363 0.0718517821875294 0.03696040628232861 0.004702341766199568 0.0007523746825919308 0.04464285714285715 0.6883928571428573 0.1383928571428572 0.08214285714285716 0.03839285714285715 0.007142857142857144 0.0008928571428571429 0.09316770186335405 0.7453416149068324 0.04968944099378882 0.04968944099378882 0.04968944099378882 0.006211180124223603 0.006211180124223603 0.09523809523809526 0.7619047619047621 0.01190476190476191 0.09523809523809526 0.01190476190476191 0.01190476190476191 0.01190476190476191 0.07142857142857144 0.5714285714285715 0.07142857142857144 0.07142857142857144 0.07142857142857144 0.07142857142857144 0.07142857142857144 0.02125749229537237 0.3567424591715402 0.1726079254531777 0.2167730350166226 0.1800820209177607 0.02601373486374335 0.0265233322817831 0.008212375859434682 0.3972498090145149 0.1659663865546218 0.2261268143621085 0.1432391138273491 0.02291825821237586 0.03628724216959511 0.02551020408163265 0.4302721088435374 0.1802721088435374 0.1921768707482993 0.108843537414966 0.03741496598639456 0.02551020408163265 0.002747252747252747 0.4258241758241758 0.1373626373626373 0.2335164835164835 0.1181318681318681 0.06043956043956043 0.02197802197802197 0.008403361344537815 0.361344537815126 0.1848739495798319 0.3025210084033614 0.06722689075630252 0.008403361344537815 0.06722689075630252 0.01317508710801394 0.281658318815331 0.1922909407665505 0.2418336236933798 0.193815331010453 0.05052264808362371 0.02670405052264809 0.007339136371394436 0.3538146441372248 0.1698242020822666 0.2044717528588496 0.1901348352961256 0.05512886158047448 0.01928656767366444 0.02279635258358663 0.3632218844984803 0.2355623100303951 0.1717325227963526 0.1610942249240122 0.03343465045592705 0.0121580547112462 0.001956947162426614 0.4677103718199609 0.1526418786692759 0.2759295499021526 0.07045009784735812 0.02935420743639922 0.001956947162426614 0.004608294930875577 0.391705069124424 0.2626728110599079 0.1658986175115208 0.06912442396313365 0.004608294930875577 0.1013824884792627 0.02115491052210811 0.4141811696697619 0.2006641657954615 0.1985117766435028 0.1201648115122071 0.03406924543386015 0.01125392042309821 0.01631835098768966 0.5473804752361865 0.154594904093902 0.1565989121099341 0.08245061551674776 0.02233037503578585 0.02032636701975379 0.002100840336134454 0.6932773109243698 0.1638655462184874 0.1050420168067227 0.01680672268907563 0.01680672268907563 0.002100840336134454 0.03694581280788176 0.5197044334975368 0.1231527093596059 0.2438423645320197 0.07142857142857142 0.002463054187192117 0.002463054187192117 0.004761904761904762 0.5380952380952382 0.1714285714285715 0.2047619047619048 0.0380952380952381 0.0380952380952381 0.004761904761904762 0.02409466780724265 0.2706016538351868 0.263615625891075 0.2097234103222127 0.1797832905617336 0.04704875962360992 0.005132591958939265 0.0102529049897471 0.3691045796308954 0.2734107997265893 0.2159945317840055 0.08202323991797678 0.04374572795625428 0.005468215994531784 0.06696428571428573 0.3482142857142858 0.3794642857142858 0.1294642857142858 0.03571428571428572 0.03571428571428572 0.004464285714285715 0.04761904761904762 0.2976190476190476 0.2559523809523809 0.2559523809523809 0.08928571428571427 0.04761904761904762 0.005952380952380952 0.01428571428571429 0.5142857142857143 0.2142857142857143 0.01428571428571429 0.2142857142857143 0.01428571428571429 0.01428571428571429</probabilities>
		</cpt>
		<cpt id="VE_ORIGAVTW">
			<state id="s1_below_116" />
			<state id="s2_116_141" />
			<state id="s3_141_159" />
			<state id="s4_159_169" />
			<state id="s5_169_179" />
			<state id="s6_179_up" />
			<parents>GV_FOOTPRINT OA_MAIS</parents>
			<probabilities>0.02777777777777777 0.6944444444444443 0.02777777777777777 0.1944444444444444 0.02777777777777777 0.02777777777777777 0.5833333333333334 0.08333333333333333 0.08333333333333333 0.08333333333333333 0.08333333333333333 0.08333333333333333 0.1666666666666667 0.1666666666666667 0.1666666666666667 0.1666666666666667 0.1666666666666667 0.1666666666666667 0.1666666666666667 0.1666666666666667 0.1666666666666667 0.1666666666666667 0.1666666666666667 0.1666666666666667 0.1666666666666667 0.1666666666666667 0.1666666666666667 0.1666666666666667 0.1666666666666667 0.1666666666666667 1.260430058736041e-05 0.01218835866797752 0.9208323880107894 0.06104262774458646 0.00583579117194787 8.823010411152287e-05 7.978299026647519e-05 0.01683421094622626 0.9335407691080262 0.04747087920855274 0.00199457475666188 7.978299026647519e-05 0.0006361323155216284 0.01972010178117048 0.8823155216284987 0.09223918575063614 0.004452926208651399 0.0006361323155216284 0.0008460236886632827 0.01607445008460237 0.9145516074450085 0.06175972927241963 0.005922165820642979 0.0008460236886632827 0.002164502164502164 0.04112554112554111 0.8463203463203463 0.09307359307359306 0.01515151515151515 0.002164502164502164 0.0001080146899978397 0.009181248649816372 0.1848131345863037 0.6838410023763231 0.1187081443076258 0.00334845538993303 0.0008250825082508253 0.02062706270627064 0.1691419141914192 0.703795379537954 0.1047854785478548 0.0008250825082508253 0.006666666666666664 0.04666666666666665 0.1666666666666666 0.6866666666666665 0.08666666666666663 0.006666666666666664 0.01282051282051282 0.08974358974358977 0.1666666666666667 0.6282051282051283 0.08974358974358977 0.01282051282051282 0.03333333333333333 0.03333333333333333 0.2333333333333334 0.6333333333333333 0.03333333333333333 0.03333333333333333 0.0003599712023038156 0.0003599712023038156 0.03275737940964722 0.6591072714182865 0.300575953923686 0.006839452843772497 0.002824858757062147 0.002824858757062147 0.03672316384180791 0.7146892655367233 0.2401129943502825 0.002824858757062147 0.02777777777777777 0.02777777777777777 0.02777777777777777 0.8611111111111109 0.02777777777777777 0.02777777777777777 0.05555555555555556 0.05555555555555556 0.05555555555555556 0.7222222222222222 0.05555555555555556 0.05555555555555556 0.04166666666666667 0.04166666666666667 0.04166666666666667 0.5416666666666667 0.2916666666666667 0.04166666666666667 0.0002429543245869776 0.0002429543245869776 0.006073858114674442 0.293245869776482 0.6897473275024295 0.01044703595724004 0.001736111111111111 0.001736111111111111 0.001736111111111111 0.3350694444444444 0.657986111111111 0.001736111111111111 0.02083333333333333 0.02083333333333333 0.02083333333333333 0.5208333333333334 0.3958333333333333 0.02083333333333333 0.02380952380952381 0.02380952380952381 0.02380952380952381 0.5952380952380952 0.3095238095238095 0.02380952380952381 0.05555555555555555 0.05555555555555555 0.05555555555555555 0.3888888888888889 0.3888888888888889 0.05555555555555555 0.0008503401360544218 0.0008503401360544218 0.0008503401360544218 0.1386054421768708 0.8120748299319728 0.0467687074829932 0.006944444444444442 0.006944444444444442 0.006944444444444442 0.0486111111111111 0.8402777777777777 0.09027777777777775 0.03333333333333333 0.03333333333333333 0.03333333333333333 0.6333333333333333 0.2333333333333334 0.03333333333333333 0.08333333333333333 0.08333333333333333 0.08333333333333333 0.08333333333333333 0.5833333333333334 0.08333333333333333 0.1666666666666667 0.1666666666666667 0.1666666666666667 0.1666666666666667 0.1666666666666667 0.1666666666666667 0.007246376811594201 0.007246376811594201 0.05072463768115942 0.007246376811594201 0.9202898550724636 0.007246376811594201 0.08333333333333333 0.08333333333333333 0.08333333333333333 0.08333333333333333 0.5833333333333334 0.08333333333333333 0.1666666666666667 0.1666666666666667 0.1666666666666667 0.1666666666666667 0.1666666666666667 0.1666666666666667 0.1666666666666667 0.1666666666666667 0.1666666666666667 0.1666666666666667 0.1666666666666667 0.1666666666666667 0.1666666666666667 0.1666666666666667 0.1666666666666667 0.1666666666666667 0.1666666666666667 0.1666666666666667</probabilities>
		</cpt>
		<cpt id="GV_MODELYR">
			<state id="s1_below_2001" />
			<state id="s2_2001_2003" />
			<state id="s3_2003_2005" />
			<state id="s4_2005_2009" />
			<state id="s5_2009_up" />
			<parents>VE_ORIGAVTW OA_MAIS</parents>
			<probabilities>0.2 0.2 0.2 0.2 0.2 0.6000000000000001 0.1 0.1 0.1 0.1 0.2 0.2 0.2 0.2 0.2 0.2 0.2 0.2 0.2 0.2 0.2 0.2 0.2 0.2 0.2 0.5566666666666668 0.34 0.06777777777777777 0.02888888888888889 0.006666666666666667 0.63 0.28 0.05500000000000001 0.03 0.005000000000000001 0.6 0.1714285714285714 0.02857142857142857 0.1714285714285714 0.02857142857142857 0.4399999999999999 0.4399999999999999 0.03999999999999999 0.03999999999999999 0.03999999999999999 0.3 0.55 0.05 0.05 0.05 0.2721679218074026 0.2631148854350264 0.2022272071783368 0.2369171607114244 0.02557282486780964 0.3191746351283342 0.2889783593356819 0.1727226975339708 0.1963764469048817 0.02274786109713136 0.2889830508474576 0.3101694915254237 0.2 0.1830508474576271 0.01779661016949153 0.3398907103825137 0.3016393442622951 0.2087431693989071 0.126775956284153 0.02295081967213115 0.2716417910447761 0.226865671641791 0.2417910447761194 0.226865671641791 0.03283582089552239 0.2570713391739675 0.2458072590738423 0.2220275344180225 0.2453900709219858 0.02970379641218189 0.3192429022082019 0.2246056782334385 0.2309148264984227 0.2151419558359622 0.01009463722397476 0.262962962962963 0.2444444444444444 0.1888888888888889 0.2074074074074074 0.0962962962962963 0.3407407407407407 0.3037037037037037 0.1555555555555556 0.1925925925925926 0.007407407407407409 0.3 0.3 0.1571428571428571 0.2285714285714286 0.01428571428571429 0.1502374169040836 0.1929724596391263 0.2860398860398861 0.3240265906932573 0.04672364672364673 0.1790322580645161 0.2354838709677419 0.2435483870967742 0.332258064516129 0.009677419354838708 0.025 0.525 0.15 0.275 0.025 0.2 0.03333333333333333 0.5333333333333332 0.2 0.03333333333333333 0.55 0.05 0.05 0.3 0.05 0.2769230769230769 0.3153846153846154 0.2 0.2 0.007692307692307693 0.4 0.06666666666666667 0.4 0.06666666666666667 0.06666666666666667 0.2 0.2 0.2 0.2 0.2 0.2 0.2 0.2 0.2 0.2 0.2 0.2 0.2 0.2 0.2</probabilities>
		</cpt>
		<cpt id="GV_OTVEHWGT">
			<state id="s1_below_760" />
			<state id="s2_760_1355" />
			<state id="s3_1355_2075" />
			<state id="s4_2075_2835" />
			<state id="s5_2835_3730" />
			<state id="s6_3730_4320" />
			<state id="s7_4320_up" />
			<parents>GV_MODELYR OA_MAIS</parents>
			<probabilities>0.0009681834874636933 0.3087503755884219 0.5791406536907823 0.1037959469836077 0.006109571662270891 0.0007344840249724569 0.0005007845624812206 0.0001819836214740673 0.2040036396724295 0.6231119199272066 0.1619654231119199 0.006551410373066424 0.001455868971792539 0.00272975432211101 0.001642036124794745 0.174055829228243 0.6108374384236454 0.174055829228243 0.02463054187192118 0.001642036124794745 0.01313628899835796 0.001904761904761905 0.1219047619047619 0.6685714285714287 0.1885714285714286 0.001904761904761905 0.01523809523809524 0.001904761904761905 0.005494505494505495 0.2362637362637363 0.5054945054945055 0.1978021978021978 0.04395604395604396 0.005494505494505495 0.005494505494505495 0.0005168492867479843 0.2788574185100958 0.5979601681483013 0.1146027151815864 0.007511542967404038 3.445661911653228e-05 0.0005168492867479843 0.001665972511453561 0.2072053311120367 0.6080799666805498 0.1693044564764681 0.01187005414410662 0.0002082465639316951 0.001665972511453561 0.001552795031055901 0.1863354037267081 0.6428571428571429 0.1211180124223602 0.03416149068322981 0.001552795031055901 0.0124223602484472 0.002164502164502165 0.1991341991341991 0.4870129870129871 0.2597402597402597 0.04761904761904762 0.002164502164502165 0.002164502164502165 0.006493506493506494 0.05194805194805195 0.6428571428571429 0.2337662337662338 0.05194805194805195 0.006493506493506494 0.006493506493506494 0.0003386243386243385 0.2483386243386243 0.6231534391534391 0.1176719576719576 0.009523809523809523 0.0006349206349206348 0.0003386243386243385 0.0003174603174603174 0.1825396825396825 0.618095238095238 0.1780952380952381 0.02031746031746031 0.0003174603174603174 0.0003174603174603174 0.002421307506053268 0.1380145278450363 0.5278450363196124 0.2905569007263922 0.01937046004842614 0.01937046004842614 0.002421307506053268 0.003105590062111801 0.1335403726708074 0.6335403726708073 0.1987577639751552 0.0248447204968944 0.003105590062111801 0.003105590062111801 0.007518796992481204 0.06015037593984963 0.5338345864661656 0.3233082706766918 0.06015037593984963 0.007518796992481204 0.007518796992481204 0.001832911763627699 0.2263646028080208 0.629238608453389 0.1344990652150005 0.006965064701785255 0.001063088822904065 3.665823527255397e-05 0.0002851439977188479 0.2038779583689763 0.6370116909039063 0.1459937268320501 0.01226119190191046 0.0002851439977188479 0.0002851439977188479 0.002463054187192117 0.08866995073891625 0.5886699507389161 0.2955665024630541 0.01970443349753694 0.002463054187192117 0.002463054187192117 0.004761904761904762 0.0380952380952381 0.6380952380952382 0.2047619047619048 0.07142857142857144 0.0380952380952381 0.004761904761904762 0.007142857142857144 0.1071428571428572 0.7071428571428573 0.1571428571428572 0.007142857142857144 0.007142857142857144 0.007142857142857144 0.0003239390994493035 0.1930677032717849 0.632977000323939 0.159054097829608 0.01392938127632005 0.0003239390994493035 0.0003239390994493035 0.002857142857142856 0.1228571428571428 0.6828571428571427 0.1628571428571428 0.02285714285714285 0.002857142857142856 0.002857142857142856 0.01428571428571429 0.01428571428571429 0.7142857142857144 0.2142857142857143 0.01428571428571429 0.01428571428571429 0.01428571428571429 0.02857142857142856 0.02857142857142856 0.6285714285714284 0.2285714285714285 0.02857142857142856 0.02857142857142856 0.02857142857142856 0.04761904761904762 0.04761904761904762 0.380952380952381 0.380952380952381 0.04761904761904762 0.04761904761904762 0.04761904761904762</probabilities>
		</cpt>
		<cpt id="OA_BAGDEPLY">
			<state id="Deployed" />
			<state id="SNot_Deployed" />
			<parents>VE_PDOF_TR OA_MAIS</parents>
			<probabilities>0.1054054054054054 0.8945945945945947 0.1041666666666667 0.8958333333333333 0.07142857142857142 0.9285714285714285 0.15 0.8500000000000001 0.5 0.5 0.19424743892829 0.8057525610717101 0.3628472222222222 0.6371527777777778 0.2846153846153846 0.7153846153846154 0.4642857142857142 0.5357142857142857 0.6538461538461539 0.3461538461538461 0.5430405752439651 0.456959424756035 0.8451188986232792 0.1548811013767209 0.8821656050955414 0.1178343949044586 0.9678899082568808 0.03211009174311927 0.9479166666666666 0.05208333333333333 0.3773869346733669 0.6226130653266332 0.6962174940898345 0.3037825059101655 0.6634615384615385 0.3365384615384616 0.5657894736842105 0.4342105263157894 0.78125 0.21875 0.08870967741935484 0.9112903225806452 0.2142857142857143 0.7857142857142857 0.2272727272727273 0.7727272727272727 0.4166666666666666 0.5833333333333333 0.3571428571428571 0.6428571428571428 0.06998313659359191 0.9300168634064081 0.2647058823529412 0.7352941176470588 0.3 0.7 0.1388888888888889 0.861111111111111 0.4166666666666666 0.5833333333333333</probabilities>
		</cpt>
	</nodes>
	<extensions>
		<genie version="1.0" app="GeNIe 2.3.3828.0 ACADEMIC" name="vehicle_safety_final" faultnameformat="nodestate">
			<node id="GV_CURBWGT">
				<name>GV_CURBWGT</name>
				<interior color="e5f6f7" />
				<outline color="000080" />
				<font color="000000" name="Arial" size="8" />
				<position>604 708 676 756</position>
				<barchart active="true" width="128" height="108" />
			</node>
			<node id="GV_DVLAT">
				<name>GV_DVLAT</name>
				<interior color="e5f6f7" />
				<outline color="000080" />
				<font color="000000" name="Arial" size="8" />
				<position>1049 514 1121 562</position>
				<barchart active="true" width="128" height="144" />
			</node>
			<node id="GV_DVLONG">
				<name>GV_DVLONG</name>
				<interior color="e5f6f7" />
				<outline color="000080" />
				<font color="000000" name="Arial" size="8" />
				<position>830 634 902 682</position>
				<barchart active="true" width="128" height="144" />
			</node>
			<node id="GV_ENERGY">
				<name>GV_ENERGY</name>
				<interior color="e5f6f7" />
				<outline color="000080" />
				<font color="000000" name="Arial" size="8" />
				<position>915 367 987 415</position>
				<barchart active="true" width="171" height="108" />
			</node>
			<node id="GV_LANES">
				<name>GV_LANES</name>
				<interior color="e5f6f7" />
				<outline color="000080" />
				<font color="000000" name="Arial" size="8" />
				<position>291 54 363 102</position>
				<barchart active="true" width="128" height="144" />
			</node>
			<node id="GV_MODELYR">
				<name>GV_MODELYR</name>
				<interior color="e5f6f7" />
				<outline color="000080" />
				<font color="000000" name="Arial" size="8" />
				<position>201 668 273 716</position>
				<barchart active="true" width="128" height="108" />
			</node>
			<node id="GV_OTVEHWGT">
				<name>GV_OTVEHWGT</name>
				<interior color="e5f6f7" />
				<outline color="000080" />
				<font color="000000" name="Arial" size="8" />
				<position>45 564 117 612</position>
				<barchart active="true" width="128" height="144" />
			</node>
			<node id="GV_SPLIMIT">
				<name>GV_SPLIMIT</name>
				<interior color="e5f6f7" />
				<outline color="000080" />
				<font color="000000" name="Arial" size="8" />
				<position>492 53 564 101</position>
				<barchart active="true" width="128" height="144" />
			</node>
			<node id="GV_WGTCDTR">
				<name>GV_WGTCDTR</name>
				<interior color="e5f6f7" />
				<outline color="000080" />
				<font color="000000" name="Arial" size="8" />
				<position>403 610 475 658</position>
				<barchart active="true" width="128" height="72" />
			</node>
			<node id="OA_AGE">
				<name>OA_AGE</name>
				<interior color="e5f6f7" />
				<outline color="000080" />
				<font color="000000" name="Arial" size="8" />
				<position>119 368 191 416</position>
				<barchart active="true" width="128" height="144" />
			</node>
			<node id="OA_BAGDEPLY">
				<name>OA_BAGDEPLY</name>
				<interior color="e5f6f7" />
				<outline color="000080" />
				<font color="000000" name="Arial" size="8" />
				<position>761 12 833 60</position>
				<barchart active="true" width="128" height="64" />
			</node>
			<node id="OA_HEIGHT">
				<name>OA_HEIGHT</name>
				<interior color="e5f6f7" />
				<outline color="000080" />
				<font color="000000" name="Arial" size="8" />
				<position>281 204 353 252</position>
				<barchart active="true" width="128" height="144" />
			</node>
			<node id="OA_MAIS">
				<name>OA_MAIS</name>
				<interior color="ffff80" />
				<outline color="000080" />
				<font color="000000" name="Arial" size="8" />
				<position>490 347 562 395</position>
				<barchart active="true" width="128" height="108" />
			</node>
			<node id="OA_SEX">
				<name>OA_SEX</name>
				<interior color="e5f6f7" />
				<outline color="000080" />
				<font color="000000" name="Arial" size="8" />
				<position>554 194 626 242</position>
				<barchart active="true" width="128" height="64" />
			</node>
			<node id="OA_WEIGHT">
				<name>OA_WEIGHT</name>
				<interior color="e5f6f7" />
				<outline color="000080" />
				<font color="000000" name="Arial" size="8" />
				<position>61 187 133 235</position>
				<barchart active="true" width="128" height="144" />
			</node>
			<node id="VE_ORIGAVTW">
				<name>VE_ORIGAVTW</name>
				<interior color="e5f6f7" />
				<outline color="000080" />
				<font color="000000" name="Arial" size="8" />
				<position>287 443 359 491</position>
				<barchart active="true" width="128" height="126" />
			</node>
			<node id="VE_WHEELBAS">
				<name>VE_WHEELBAS</name>
				<interior color="e5f6f7" />
				<outline color="000080" />
				<font color="000000" name="Arial" size="8" />
				<position>747 196 819 244</position>
				<barchart active="true" width="128" height="144" />
			</node>
			<node id="VE_PDOF_TR">
				<name>VE_PDOF_TR</name>
				<interior color="e5f6f7" />
				<outline color="000080" />
				<font color="000000" name="Arial" size="8" />
				<position>1085 181 1157 229</position>
				<barchart active="true" width="128" height="126" />
			</node>
			<node id="GV_FOOTPRINT">
				<name>GV_FOOTPRINT</name>
				<interior color="e5f6f7" />
				<outline color="000080" />
				<font color="000000" name="Arial" size="8" />
				<position>664 391 736 439</position>
				<barchart active="true" width="128" height="144" />
			</node>
			<textbox>
				<caption>Input file: vehicle_safety_final.gdat\nData rows: 19203\nElapsed time: 6.312s\n\nLearning algorithm: Tree Augmented Naive Bayes\nAlgorithm parameters:\nClass variable: OA_MAIS\nSeed: 0\nMax search time: 0\n\nEM Log Likelihood: -282629</caption>
				<font color="000000" name="Arial" size="8" />
				<position>1101 739 1338 893</position>
			</textbox>
		</genie>
	</extensions>
</smile>
