<?xml version="1.0" encoding="ISO-8859-1"?>
<!-- This network was created in GeNIe Academic, which can be used for educational and research purposes only -->
<smile version="1.0" id="vehicle_safety_final_binning" numsamples="10000" discsamples="10000">
	<nodes>
		<cpt id="OA_MAIS">
			<state id="OA_MAIS1_below_1" />
			<state id="OA_MAIS2_1_3" />
			<state id="OA_MAIS3_3_4" />
			<state id="OA_MAIS4_4_5" />
			<state id="OA_MAIS5_5_up" />
			<probabilities>0.840095813372214 0.1284732347427619 0.01568423245157258 0.01131014372005832 0.004436575713393042</probabilities>
		</cpt>
		<cpt id="GV_CURBWGT">
			<state id="GV_WT1_below_885" />
			<state id="GV_WT2_885_1695" />
			<state id="GV_WT3_1695_2555" />
			<state id="GV_WT4_2555_3715" />
			<state id="GV_WT5_3715_up" />
			<parents>OA_MAIS</parents>
			<probabilities>0.0008801289202925497 0.6509359117391843 0.3195239866121234 0.02815172926738564 0.0005082434610140076 8.103727714748785e-05 0.6921393841166936 0.2837115072933549 0.02317666126418153 0.0008914100486223664 0.003973509933774834 0.7059602649006623 0.2688741721854305 0.02052980132450331 0.0006622516556291392 0.0009174311926605505 0.771559633027523 0.2119266055045872 0.01467889908256881 0.0009174311926605505 0.002325581395348837 0.7232558139534883 0.2232558139534883 0.04883720930232557 0.002325581395348837</probabilities>
		</cpt>
		<cpt id="GV_FOOTPRINT">
			<state id="GV_FOOTPRINT1_below_2" />
			<state id="GV_FOOTPRINT2_2_4" />
			<state id="GV_FOOTPRINT3_4_5" />
			<state id="GV_FOOTPRINT4_5_6" />
			<state id="GV_FOOTPRINT5_6_up" />
			<parents>GV_CURBWGT OA_MAIS</parents>
			<probabilities>0.2800000000000001 0.6133333333333334 0.08000000000000002 0.01333333333333334 0.01333333333333334 0.2 0.2 0.2 0.2 0.2 0.1 0.6000000000000001 0.1 0.1 0.1 0.2 0.2 0.2 0.2 0.2 0.2 0.2 0.2 0.2 0.2 0.000114253070551271 0.9751689993335236 0.02420260877844425 0.0003998857469294487 0.000114253070551271 0.0007021650087770624 0.9732007021650086 0.02586307782328847 0.0001170275014628438 0.0001170275014628438 0.0009345794392523366 0.9682242990654206 0.02897196261682243 0.0009345794392523366 0.0009345794392523366 0.001183431952662722 0.9893491124260355 0.007100591715976332 0.001183431952662722 0.001183431952662722 0.003174603174603175 0.9714285714285714 0.01904761904761905 0.003174603174603175 0.003174603174603175 3.878975950349109e-05 0.3869666408068271 0.4573700543056634 0.1445306439100078 0.01109387121799845 0.0002853067047075606 0.3711840228245364 0.4667617689015692 0.1514978601997147 0.01027104136947218 0.002439024390243902 0.3560975609756097 0.4902439024390244 0.1121951219512195 0.03902439024390244 0.00425531914893617 0.3659574468085106 0.5148936170212766 0.1106382978723404 0.00425531914893617 0.01 0.4600000000000001 0.4600000000000001 0.06000000000000001 0.01 0.0004395604395604397 0.03340659340659341 0.2927472527472528 0.3323076923076924 0.3410989010989011 0.003448275862068965 0.07241379310344828 0.3655172413793104 0.2620689655172413 0.296551724137931 0.02857142857142857 0.1714285714285714 0.6 0.02857142857142857 0.1714285714285714 0.05 0.05 0.05 0.55 0.3 0.03999999999999999 0.03999999999999999 0.2399999999999999 0.6399999999999999 0.03999999999999999 0.02222222222222222 0.1333333333333333 0.02222222222222222 0.4666666666666667 0.3555555555555556 0.06666666666666667 0.06666666666666667 0.4 0.4 0.06666666666666667 0.2 0.2 0.2 0.2 0.2 0.2 0.2 0.2 0.2 0.2 0.2 0.2 0.2 0.2 0.2</probabilities>
		</cpt>
		<cpt id="VE_ORIGAVTW">
			<state id="VE_ORIGATW1_below_116" />
			<state id="VE_ORIGATW2_116_141" />
			<state id="VE_ORIGATW3_141_159" />
			<state id="VE_ORIGATW4_159_179" />
			<state id="VE_ORIGATW5_179_up" />
			<parents>GV_FOOTPRINT OA_MAIS</parents>
			<probabilities>0.03333333333333333 0.6999999999999998 0.03333333333333333 0.2 0.03333333333333333 0.6000000000000001 0.1 0.1 0.1 0.1 0.2 0.2 0.2 0.2 0.2 0.2 0.2 0.2 0.2 0.2 0.2 0.2 0.2 0.2 0.2 1.630922286553046e-05 0.01355296420125581 0.9580200603441246 0.02839435700888852 1.630922286553046e-05 0.0001037344398340249 0.01670124481327801 0.9643153526970952 0.01877593360995851 0.0001037344398340249 0.0008368200836820085 0.02175732217573222 0.9380753138075314 0.03849372384937239 0.0008368200836820085 0.001081081081081081 0.02270270270270271 0.9578378378378379 0.0172972972972973 0.001081081081081081 0.002816901408450704 0.04507042253521126 0.9042253521126759 0.04507042253521126 0.002816901408450704 7.280669821623589e-05 0.002621041135784492 0.2501638150709866 0.7437932289770659 0.003349108117946851 0.0005076142131979696 0.0005076142131979696 0.3203045685279188 0.6781725888324873 0.0005076142131979696 0.003921568627450979 0.003921568627450979 0.2588235294117646 0.7294117647058823 0.003921568627450979 0.007692307692307693 0.007692307692307693 0.2 0.7769230769230769 0.007692307692307693 0.01666666666666667 0.01666666666666667 0.1833333333333334 0.7666666666666667 0.01666666666666667 0.0002209944751381215 0.0002209944751381215 0.00574585635359116 0.9858563535911602 0.007955801104972375 0.001626016260162602 0.001626016260162602 0.001626016260162602 0.9934959349593495 0.001626016260162602 0.02 0.02 0.02 0.9200000000000002 0.02 0.025 0.025 0.025 0.9 0.025 0.03999999999999999 0.03999999999999999 0.03999999999999999 0.8399999999999999 0.03999999999999999 0.0009216589861751154 0.0009216589861751154 0.005529953917050692 0.9456221198156683 0.04700460829493088 0.008000000000000002 0.008000000000000002 0.008000000000000002 0.9280000000000002 0.04800000000000001 0.03999999999999999 0.03999999999999999 0.03999999999999999 0.8399999999999999 0.03999999999999999 0.1 0.1 0.1 0.6000000000000001 0.1 0.2 0.2 0.2 0.2 0.2</probabilities>
		</cpt>
		<cpt id="GV_MODELYR">
			<state id="State2000" />
			<state id="State2001" />
			<state id="State2002" />
			<state id="State2003" />
			<state id="State2004" />
			<state id="State2005" />
			<state id="State2006" />
			<state id="State2007" />
			<state id="State2008" />
			<state id="State2009" />
			<state id="State2010" />
			<state id="State2011" />
			<state id="State2012" />
			<parents>VE_ORIGAVTW OA_MAIS</parents>
			<probabilities>0.07692307692307693 0.07692307692307693 0.07692307692307693 0.07692307692307693 0.07692307692307693 0.07692307692307693 0.07692307692307693 0.07692307692307693 0.07692307692307693 0.07692307692307693 0.07692307692307693 0.07692307692307693 0.07692307692307693 0.03846153846153847 0.5384615384615385 0.03846153846153847 0.03846153846153847 0.03846153846153847 0.03846153846153847 0.03846153846153847 0.03846153846153847 0.03846153846153847 0.03846153846153847 0.03846153846153847 0.03846153846153847 0.03846153846153847 0.07692307692307693 0.07692307692307693 0.07692307692307693 0.07692307692307693 0.07692307692307693 0.07692307692307693 0.07692307692307693 0.07692307692307693 0.07692307692307693 0.07692307692307693 0.07692307692307693 0.07692307692307693 0.07692307692307693 0.07692307692307693 0.07692307692307693 0.07692307692307693 0.07692307692307693 0.07692307692307693 0.07692307692307693 0.07692307692307693 0.07692307692307693 0.07692307692307693 0.07692307692307693 0.07692307692307693 0.07692307692307693 0.07692307692307693 0.07692307692307693 0.07692307692307693 0.07692307692307693 0.07692307692307693 0.07692307692307693 0.07692307692307693 0.07692307692307693 0.07692307692307693 0.07692307692307693 0.07692307692307693 0.07692307692307693 0.07692307692307693 0.07692307692307693 0.3824546240276577 0.1914433880726015 0.1802074330164218 0.1408815903197925 0.04537597234226447 0.01166810717372515 0.01166810717372515 0.006050129645635262 0.01166810717372515 0.01166810717372515 0.0004321521175453759 0.006050129645635262 0.0004321521175453759 0.4871794871794872 0.1538461538461539 0.1538461538461539 0.1235431235431235 0.06293706293706294 0.002331002331002331 0.002331002331002331 0.002331002331002331 0.002331002331002331 0.002331002331002331 0.002331002331002331 0.002331002331002331 0.002331002331002331 0.6794871794871795 0.01282051282051282 0.01282051282051282 0.01282051282051282 0.01282051282051282 0.01282051282051282 0.1794871794871795 0.01282051282051282 0.01282051282051282 0.01282051282051282 0.01282051282051282 0.01282051282051282 0.01282051282051282 0.2153846153846154 0.2153846153846154 0.2153846153846154 0.2153846153846154 0.01538461538461539 0.01538461538461539 0.01538461538461539 0.01538461538461539 0.01538461538461539 0.01538461538461539 0.01538461538461539 0.01538461538461539 0.01538461538461539 0.2692307692307692 0.01923076923076923 0.01923076923076923 0.5192307692307693 0.01923076923076923 0.01923076923076923 0.01923076923076923 0.01923076923076923 0.01923076923076923 0.01923076923076923 0.01923076923076923 0.01923076923076923 0.01923076923076923 0.1384887416072113 0.1334252469921976 0.1415429129622989 0.1216104262238324 0.1068218070307766 0.09597146142717594 0.08013799413895861 0.07145771765607804 0.05530275864627255 0.02966379384961606 0.01849195652442719 0.006516389895267889 0.0005687930458867607 0.154117282516074 0.1646913006429623 0.1521031838252382 0.1369974436439693 0.0856379270276551 0.08714850104578199 0.06247579208304282 0.06902161282825933 0.04032070648384847 0.02521496630257959 0.01665504686652723 0.005577504066930047 3.873266713145867e-05 0.1599870717517776 0.1263736263736264 0.1599870717517776 0.1515837104072398 0.1137685843568196 0.08435681965093729 0.08435681965093729 0.04654169360051712 0.0297349709114415 0.02553329023917259 0.004524886877828054 0.01292824822236587 0.0003232062055591467 0.1752837326607818 0.1643547709121479 0.1752837326607818 0.1261034047919294 0.09331651954602772 0.1151744430432955 0.04413619167717527 0.06052963430012609 0.02227826817990752 0.0004203446826397646 0.02227826817990752 0.0004203446826397646 0.0004203446826397646 0.1354764638346728 0.1354764638346728 0.1504018369690011 0.07577497129735936 0.1354764638346728 0.1056257175660161 0.07577497129735936 0.060849598163031 0.04592422502870264 0.04592422502870264 0.03099885189437428 0.001148105625717566 0.001148105625717566 0.112916023804276 0.1123429579016972 0.1180736169274851 0.112916023804276 0.1215120123429579 0.1180736169274851 0.09601057967820145 0.08311659687017853 0.06793035045184041 0.0223716111968261 0.0209389464403791 0.01291602380427595 0.0008816398501212255 0.1382559534007196 0.1493918108617441 0.09816686654103135 0.1293472674318999 0.1026212095254412 0.1271200959396951 0.08703100908000685 0.08257666609559705 0.04694192222031866 0.02689737879047456 0.006852835360630461 0.004625663868425561 0.0001713208840157615 0.1012820512820513 0.1346153846153846 0.1512820512820513 0.1346153846153846 0.1179487179487179 0.06794871794871794 0.06794871794871794 0.1012820512820513 0.03461538461538462 0.001282051282051282 0.08461538461538461 0.001282051282051282 0.001282051282051282 0.1586538461538462 0.1586538461538462 0.2211538461538462 0.03365384615384616 0.1586538461538462 0.06490384615384617 0.09615384615384619 0.06490384615384617 0.03365384615384616 0.002403846153846154 0.002403846153846154 0.002403846153846154 0.002403846153846154 0.1221719457013575 0.2398190045248869 0.1221719457013575 0.1221719457013575 0.1221719457013575 0.004524886877828056 0.1221719457013575 0.1221719457013575 0.004524886877828056 0.004524886877828056 0.004524886877828056 0.004524886877828056 0.004524886877828056 0.113960113960114 0.150997150997151 0.150997150997151 0.150997150997151 0.07692307692307694 0.113960113960114 0.03988603988603989 0.07692307692307694 0.113960113960114 0.00284900284900285 0.00284900284900285 0.00284900284900285 0.00284900284900285 0.03846153846153847 0.03846153846153847 0.03846153846153847 0.03846153846153847 0.03846153846153847 0.5384615384615385 0.03846153846153847 0.03846153846153847 0.03846153846153847 0.03846153846153847 0.03846153846153847 0.03846153846153847 0.03846153846153847 0.07692307692307693 0.07692307692307693 0.07692307692307693 0.07692307692307693 0.07692307692307693 0.07692307692307693 0.07692307692307693 0.07692307692307693 0.07692307692307693 0.07692307692307693 0.07692307692307693 0.07692307692307693 0.07692307692307693 0.07692307692307693 0.07692307692307693 0.07692307692307693 0.07692307692307693 0.07692307692307693 0.07692307692307693 0.07692307692307693 0.07692307692307693 0.07692307692307693 0.07692307692307693 0.07692307692307693 0.07692307692307693 0.07692307692307693 0.07692307692307693 0.07692307692307693 0.07692307692307693 0.07692307692307693 0.07692307692307693 0.07692307692307693 0.07692307692307693 0.07692307692307693 0.07692307692307693 0.07692307692307693 0.07692307692307693 0.07692307692307693 0.07692307692307693</probabilities>
		</cpt>
		<cpt id="GV_SPLIMIT">
			<state id="State0" />
			<state id="State3" />
			<state id="State5" />
			<state id="State10" />
			<state id="State15" />
			<state id="State20" />
			<state id="State25" />
			<state id="State30" />
			<state id="State35" />
			<state id="State40" />
			<state id="State45" />
			<state id="State50" />
			<state id="State55" />
			<state id="State60" />
			<state id="State65" />
			<state id="State70" />
			<state id="State75" />
			<parents>GV_MODELYR OA_MAIS</parents>
			<probabilities>0.005965657162819445 0.00322467954746997 0.08271303039260473 2.687232956224975e-05 0.1192593985972644 0.0009405315346787412 0.2572219385698546 0.1283959906484293 0.1932657942117002 0.0434256845725956 0.0004837019321204955 0.1005293848923763 0.02560933007282401 0.0164727380216591 0.01738639722677559 0.00322467954746997 0.001854190739795233 0.002750190985485103 0.0001527883880825057 0.04690603514132925 0.0001527883880825057 0.1118411000763942 0.0001527883880825057 0.2339190221543162 0.119633307868602 0.1949579831932773 0.06249045072574484 0.002750190985485103 0.1508021390374331 0.02612681436210847 0.02612681436210847 0.01833460656990069 0.0001527883880825057 0.002750190985485103 0.02160864345738295 0.02160864345738295 0.08283313325330131 0.001200480192076831 0.1440576230492197 0.001200480192076831 0.205282112845138 0.06242496998799519 0.1032412965186074 0.1032412965186074 0.001200480192076831 0.1644657863145258 0.02160864345738295 0.02160864345738295 0.04201680672268907 0.001200480192076831 0.001200480192076831 0.001508295625942685 0.001508295625942685 0.05279034690799396 0.001508295625942685 0.1040723981900452 0.001508295625942685 0.1809954751131222 0.1553544494720965 0.1553544494720965 0.07843137254901959 0.001508295625942685 0.1809954751131222 0.05279034690799396 0.02714932126696833 0.001508295625942685 0.001508295625942685 0.001508295625942685 0.004524886877828056 0.004524886877828056 0.004524886877828056 0.004524886877828056 0.08144796380090499 0.004524886877828056 0.2352941176470589 0.004524886877828056 0.08144796380090499 0.1583710407239819 0.004524886877828056 0.3122171945701358 0.08144796380090499 0.004524886877828056 0.004524886877828056 0.004524886877828056 0.004524886877828056 0.005767012687427913 0.006245252763946325 0.07845950431822658 2.813176920696543e-05 0.1081103890623681 0.0005063718457253777 0.2549300925535207 0.1238923115874757 0.2028019242130138 0.05359102033926914 0.0005063718457253777 0.09806734745548149 0.02776605620727488 0.01915773482994346 0.01772301460038822 0.001462851998762202 0.0009846119222437898 0.002640457679331084 0.005134223265365995 0.06498459733020388 0.0001466920932961713 0.09740354994865776 0.0001466920932961713 0.2021417045621241 0.1348100337391814 0.2096230013202288 0.05002200381399442 0.0001466920932961713 0.1223412058090069 0.04503447264192459 0.03755317588381985 0.02259058236761038 0.002640457679331084 0.002640457679331084 0.02714932126696833 0.001508295625942685 0.07843137254901959 0.001508295625942685 0.1040723981900452 0.001508295625942685 0.1553544494720965 0.2066365007541478 0.05279034690799396 0.07843137254901959 0.001508295625942685 0.1553544494720965 0.05279034690799396 0.02714932126696833 0.05279034690799396 0.001508295625942685 0.001508295625942685 0.001589825119236884 0.001589825119236884 0.001589825119236884 0.001589825119236884 0.08267090620031796 0.001589825119236884 0.109697933227345 0.1907790143084261 0.2448330683624801 0.05564387917329094 0.001589825119236884 0.1907790143084261 0.001589825119236884 0.05564387917329094 0.02861685214626391 0.02861685214626391 0.001589825119236884 0.004201680672268909 0.004201680672268909 0.004201680672268909 0.004201680672268909 0.1470588235294118 0.004201680672268909 0.004201680672268909 0.2184873949579832 0.2899159663865547 0.004201680672268909 0.004201680672268909 0.1470588235294118 0.1470588235294118 0.004201680672268909 0.004201680672268909 0.004201680672268909 0.004201680672268909 0.006361458610593559 0.003646526483896726 0.08735693372371574 2.661698163428267e-05 0.1108863454884216 2.661698163428267e-05 0.2452754857599148 0.121746073995209 0.1995741282938515 0.05477774820335374 2.661698163428267e-05 0.1027415491083311 0.02219856268299175 0.01903114186851211 0.02491349480968858 0.001384083044982699 2.661698163428267e-05 0.008689839572192512 0.005848930481283422 0.06266711229946523 0.0001671122994652406 0.08539438502673796 0.003008021390374331 0.2018716577540107 0.116644385026738 0.2302807486631016 0.06834893048128342 0.0001671122994652406 0.1280080213903743 0.0427807486631016 0.03141711229946523 0.01437165775401069 0.0001671122994652406 0.0001671122994652406 0.02205882352941176 0.02205882352941176 0.08455882352941176 0.001225490196078431 0.04289215686274509 0.001225490196078431 0.1887254901960784 0.08455882352941176 0.1678921568627451 0.1053921568627451 0.001225490196078431 0.1470588235294117 0.02205882352941176 0.06372549019607843 0.04289215686274509 0.001225490196078431 0.001225490196078431 0.05021520803443328 0.001434720229555237 0.001434720229555237 0.001434720229555237 0.05021520803443328 0.001434720229555237 0.1477761836441894 0.07460545193687231 0.2697274031563845 0.05021520803443328 0.001434720229555237 0.2209469153515065 0.07460545193687231 0.001434720229555237 0.05021520803443328 0.001434720229555237 0.001434720229555237 0.004524886877828055 0.004524886877828055 0.004524886877828055 0.004524886877828055 0.004524886877828055 0.004524886877828055 0.08144796380090498 0.2352941176470588 0.08144796380090498 0.08144796380090498 0.004524886877828055 0.3891402714932127 0.08144796380090498 0.004524886877828055 0.004524886877828055 0.004524886877828055 0.004524886877828055 0.007774302286738134 0.003127941935679796 0.08727869051595859 3.036836830757084e-05 0.1192869507121383 0.0005466306295362751 0.267970481946005 0.1229007865407392 0.1915636672841568 0.0397825624829178 3.036836830757084e-05 0.09863646026299008 0.02274590786237056 0.01706702298885481 0.01500197394393999 0.004676728719365909 0.001579155151993683 0.0001755926251097454 0.0001755926251097454 0.0568920105355575 0.003160667251975416 0.1225636523266023 0.0001755926251097454 0.1643546971027217 0.1106233538191396 0.2210711150131694 0.06883230904302018 0.0001755926251097454 0.1643546971027217 0.02704126426690079 0.03301141352063213 0.02704126426690079 0.0001755926251097454 0.0001755926251097454 0.00130718954248366 0.00130718954248366 0.02352941176470588 0.00130718954248366 0.134640522875817 0.00130718954248366 0.1124183006535948 0.2235294117647059 0.2235294117647059 0.0457516339869281 0.00130718954248366 0.1568627450980392 0.02352941176470588 0.00130718954248366 0.0457516339869281 0.00130718954248366 0.00130718954248366 0.002262443438914027 0.002262443438914027 0.07918552036199095 0.002262443438914027 0.07918552036199095 0.002262443438914027 0.3099547511312217 0.1561085972850679 0.07918552036199095 0.04072398190045249 0.002262443438914027 0.1176470588235294 0.002262443438914027 0.1176470588235294 0.002262443438914027 0.002262443438914027 0.002262443438914027 0.005882352941176471 0.005882352941176471 0.005882352941176471 0.005882352941176471 0.1058823529411765 0.005882352941176471 0.1058823529411765 0.2058823529411765 0.005882352941176471 0.1058823529411765 0.005882352941176471 0.3058823529411765 0.1058823529411765 0.005882352941176471 0.005882352941176471 0.005882352941176471 0.005882352941176471 0.009103641456582634 0.003434707216219821 0.0913031879418434 3.334667200213418e-05 0.1304188342003468 3.334667200213418e-05 0.2199879951980792 0.1315526210484194 0.1978791516606643 0.04708550086701348 0.0006002400960384154 0.1054755235427504 0.02157529678538082 0.0221421902094171 0.01590636254501801 0.001734026944110978 0.001734026944110978 0.004834810636583399 0.0002686005909213 0.05049691109320439 0.0002686005909213 0.1007252215954875 0.0002686005909213 0.1874832124630674 0.1281224818694601 0.1829170024174053 0.06419554123019069 0.0002686005909213 0.1737845823260811 0.0230996508192318 0.04593070104754229 0.03679828095621809 0.0002686005909213 0.0002686005909213 0.001680672268907563 0.03025210084033613 0.03025210084033613 0.001680672268907563 0.08739495798319327 0.001680672268907563 0.08739495798319327 0.1445378151260504 0.2302521008403361 0.03025210084033613 0.001680672268907563 0.2302521008403361 0.001680672268907563 0.0588235294117647 0.0588235294117647 0.001680672268907563 0.001680672268907563 0.002557544757033248 0.04603580562659847 0.1329923273657289 0.002557544757033248 0.04603580562659847 0.002557544757033248 0.04603580562659847 0.1329923273657289 0.08951406649616368 0.04603580562659847 0.002557544757033248 0.3938618925831203 0.04603580562659847 0.002557544757033248 0.002557544757033248 0.002557544757033248 0.002557544757033248 0.004901960784313726 0.004901960784313726 0.004901960784313726 0.004901960784313726 0.08823529411764706 0.004901960784313726 0.08823529411764706 0.3382352941176471 0.1715686274509804 0.1715686274509804 0.004901960784313726 0.004901960784313726 0.08823529411764706 0.004901960784313726 0.004901960784313726 0.004901960784313726 0.004901960784313726 0.005619617574076777 0.002517880601372063 0.08812582104802219 3.649102320829076e-05 0.1303094438768063 3.649102320829076e-05 0.2357685009487666 0.1197635381696103 0.2090935629835061 0.05090497737556561 0.001897533206831119 0.09184790541526784 0.01430448109764998 0.02423003941030507 0.0217486498321413 0.002517880601372063 0.001277185812290176 0.004563894523326571 0.004563894523326571 0.07352941176470587 0.0002535496957403651 0.1123225152129817 0.0002535496957403651 0.1683569979716024 0.1209432048681541 0.2243914807302231 0.07783975659229207 0.0002535496957403651 0.1640466531440162 0.01318458417849898 0.03042596348884381 0.0002535496957403651 0.0002535496957403651 0.004563894523326571 0.002352941176470588 0.002352941176470588 0.0823529411764706 0.002352941176470588 0.1623529411764706 0.0423529411764706 0.3223529411764706 0.0423529411764706 0.2423529411764706 0.002352941176470588 0.002352941176470588 0.002352941176470588 0.002352941176470588 0.0423529411764706 0.0423529411764706 0.002352941176470588 0.002352941176470588 0.002450980392156863 0.002450980392156863 0.04411764705882353 0.002450980392156863 0.2524509803921569 0.002450980392156863 0.04411764705882353 0.1691176470588235 0.1274509803921569 0.0857843137254902 0.002450980392156863 0.0857843137254902 0.1274509803921569 0.002450980392156863 0.04411764705882353 0.002450980392156863 0.002450980392156863 0.00735294117647059 0.00735294117647059 0.00735294117647059 0.00735294117647059 0.00735294117647059 0.00735294117647059 0.1323529411764706 0.1323529411764706 0.2573529411764706 0.00735294117647059 0.00735294117647059 0.3823529411764707 0.00735294117647059 0.00735294117647059 0.00735294117647059 0.00735294117647059 0.00735294117647059 0.003786544557942938 0.002289538569918986 0.1100739697076435 4.402958788305741e-05 0.1310320535399789 4.402958788305741e-05 0.2335769637196196 0.1070799577315956 0.2096248679112364 0.05318774216273336 4.402958788305741e-05 0.07414582599506869 0.02399612539626629 0.02474462839027827 0.02324762240225432 0.002289538569918986 0.0007925325818950335 0.006456241032998565 0.006456241032998565 0.03694404591104734 0.0003586800573888092 0.0979196556671449 0.0003586800573888092 0.2259684361549498 0.1345050215208035 0.1893830703012913 0.07352941176470588 0.0003586800573888092 0.1345050215208035 0.03084648493543759 0.02474892395982783 0.03694404591104734 0.0003586800573888092 0.0003586800573888092 0.002262443438914027 0.002262443438914027 0.04072398190045249 0.002262443438914027 0.1176470588235294 0.002262443438914027 0.04072398190045249 0.1561085972850679 0.1176470588235294 0.04072398190045249 0.002262443438914027 0.2330316742081448 0.002262443438914027 0.07918552036199095 0.1176470588235294 0.04072398190045249 0.002262443438914027 0.004901960784313726 0.004901960784313726 0.08823529411764706 0.004901960784313726 0.08823529411764706 0.004901960784313726 0.1715686274509804 0.1715686274509804 0.08823529411764706 0.004901960784313726 0.004901960784313726 0.1715686274509804 0.08823529411764706 0.08823529411764706 0.004901960784313726 0.004901960784313726 0.004901960784313726 0.007352941176470588 0.007352941176470588 0.007352941176470588 0.007352941176470588 0.007352941176470588 0.007352941176470588 0.1323529411764706 0.007352941176470588 0.1323529411764706 0.007352941176470588 0.007352941176470588 0.3823529411764706 0.007352941176470588 0.007352941176470588 0.2573529411764706 0.007352941176470588 0.007352941176470588 0.003430958182089403 0.003430958182089403 0.1065585997712695 4.972403162448411e-05 0.1243100790612103 0.000895032569240714 0.2367361145641688 0.126846004674059 0.1995425389090547 0.05330416190144697 0.001740341106856944 0.08204465218039879 0.02202774600964646 0.020337128934414 0.01864651185918154 4.972403162448411e-05 4.972403162448411e-05 0.01176470588235294 0.0003361344537815126 0.09747899159663864 0.0003361344537815126 0.0803361344537815 0.0003361344537815126 0.2174789915966386 0.1089075630252101 0.2631932773109243 0.04605042016806722 0.0003361344537815126 0.1031932773109244 0.006050420168067226 0.02319327731092436 0.02890756302521008 0.0003361344537815126 0.01176470588235294 0.003267973856209151 0.003267973856209151 0.05882352941176472 0.003267973856209151 0.05882352941176472 0.003267973856209151 0.3366013071895426 0.05882352941176472 0.281045751633987 0.1143790849673203 0.003267973856209151 0.003267973856209151 0.05882352941176472 0.003267973856209151 0.003267973856209151 0.003267973856209151 0.003267973856209151 0.004201680672268909 0.004201680672268909 0.07563025210084036 0.004201680672268909 0.004201680672268909 0.004201680672268909 0.1470588235294118 0.07563025210084036 0.2184873949579832 0.004201680672268909 0.004201680672268909 0.3613445378151262 0.004201680672268909 0.004201680672268909 0.07563025210084036 0.004201680672268909 0.004201680672268909 0.008403361344537815 0.008403361344537815 0.008403361344537815 0.008403361344537815 0.1512605042016807 0.008403361344537815 0.1512605042016807 0.1512605042016807 0.2941176470588235 0.008403361344537815 0.008403361344537815 0.1512605042016807 0.008403361344537815 0.008403361344537815 0.008403361344537815 0.008403361344537815 0.008403361344537815 0.00543375244834776 6.318316800404372e-05 0.09780754407025968 6.318316800404372e-05 0.1031781133506034 6.318316800404372e-05 0.2417388007834713 0.1482908953054906 0.1955519049725153 0.05162064825930372 6.318316800404372e-05 0.09780754407025968 0.01402666329689771 0.02261957414544765 0.01724900486510393 0.004359638592279017 6.318316800404372e-05 0.0005767012687427913 0.0005767012687427913 0.08881199538638984 0.0005767012687427913 0.1084198385236447 0.0005767012687427913 0.2260668973471742 0.0986159169550173 0.1868512110726644 0.0594002306805075 0.0005767012687427913 0.1476355247981546 0.0005767012687427913 0.02018454440599769 0.04959630911188005 0.01038062283737024 0.0005767012687427913 0.005882352941176471 0.005882352941176471 0.005882352941176471 0.005882352941176471 0.1058823529411765 0.005882352941176471 0.1058823529411765 0.1058823529411765 0.3058823529411765 0.005882352941176471 0.005882352941176471 0.3058823529411765 0.005882352941176471 0.005882352941176471 0.005882352941176471 0.005882352941176471 0.005882352941176471 0.009803921568627453 0.009803921568627453 0.009803921568627453 0.009803921568627453 0.009803921568627453 0.009803921568627453 0.1764705882352941 0.3431372549019608 0.1764705882352941 0.009803921568627453 0.009803921568627453 0.1764705882352941 0.009803921568627453 0.009803921568627453 0.009803921568627453 0.009803921568627453 0.009803921568627453 0.01470588235294118 0.01470588235294118 0.2647058823529412 0.01470588235294118 0.01470588235294118 0.01470588235294118 0.2647058823529412 0.01470588235294118 0.2647058823529412 0.01470588235294118 0.01470588235294118 0.01470588235294118 0.01470588235294118 0.01470588235294118 0.01470588235294118 0.01470588235294118 0.01470588235294118 0.009019607843137253 0.006797385620915031 0.1179084967320261 0.000130718954248366 0.09568627450980391 0.000130718954248366 0.2512418300653594 0.1201307189542483 0.1890196078431372 0.05790849673202613 0.000130718954248366 0.07790849673202614 0.01124183006535947 0.03124183006535947 0.0134640522875817 0.01790849673202614 0.000130718954248366 0.01680672268907563 0.0009337068160597572 0.04855275443510737 0.0009337068160597572 0.08029878618113911 0.0009337068160597572 0.1437908496732026 0.1914098972922502 0.2390289449112978 0.0326797385620915 0.0009337068160597572 0.1120448179271709 0.01680672268907563 0.06442577030812324 0.04855275443510737 0.0009337068160597572 0.0009337068160597572 0.008403361344537818 0.008403361344537818 0.2941176470588236 0.008403361344537818 0.008403361344537818 0.008403361344537818 0.008403361344537818 0.008403361344537818 0.4369747899159665 0.1512605042016807 0.008403361344537818 0.008403361344537818 0.008403361344537818 0.008403361344537818 0.008403361344537818 0.008403361344537818 0.008403361344537818 0.05882352941176471 0.05882352941176471 0.05882352941176471 0.05882352941176471 0.05882352941176471 0.05882352941176471 0.05882352941176471 0.05882352941176471 0.05882352941176471 0.05882352941176471 0.05882352941176471 0.05882352941176471 0.05882352941176471 0.05882352941176471 0.05882352941176471 0.05882352941176471 0.05882352941176471 0.01470588235294118 0.01470588235294118 0.01470588235294118 0.01470588235294118 0.01470588235294118 0.01470588235294118 0.01470588235294118 0.01470588235294118 0.2647058823529412 0.01470588235294118 0.01470588235294118 0.2647058823529412 0.2647058823529412 0.01470588235294118 0.01470588235294118 0.01470588235294118 0.01470588235294118 0.0001934984520123839 0.0001934984520123839 0.08900928792569658 0.0001934984520123839 0.1087461300309597 0.0001934984520123839 0.2863777089783281 0.1153250773993808 0.2008513931888544 0.04953560371517027 0.0001934984520123839 0.07585139318885448 0.01993034055727554 0.02650928792569659 0.01993034055727554 0.0001934984520123839 0.006772445820433435 0.05564387917329094 0.001589825119236884 0.109697933227345 0.001589825119236884 0.2178060413354531 0.001589825119236884 0.1907790143084261 0.08267090620031796 0.136724960254372 0.02861685214626391 0.001589825119236884 0.08267090620031796 0.02861685214626391 0.001589825119236884 0.02861685214626391 0.02861685214626391 0.001589825119236884 0.008403361344537816 0.008403361344537816 0.008403361344537816 0.008403361344537816 0.008403361344537816 0.008403361344537816 0.1512605042016807 0.2941176470588235 0.1512605042016807 0.008403361344537816 0.008403361344537816 0.1512605042016807 0.008403361344537816 0.1512605042016807 0.008403361344537816 0.008403361344537816 0.008403361344537816 0.01176470588235294 0.01176470588235294 0.01176470588235294 0.01176470588235294 0.01176470588235294 0.01176470588235294 0.01176470588235294 0.211764705882353 0.211764705882353 0.01176470588235294 0.01176470588235294 0.211764705882353 0.211764705882353 0.01176470588235294 0.01176470588235294 0.01176470588235294 0.01176470588235294 0.0196078431372549 0.0196078431372549 0.0196078431372549 0.0196078431372549 0.0196078431372549 0.0196078431372549 0.0196078431372549 0.0196078431372549 0.3529411764705882 0.0196078431372549 0.0196078431372549 0.3529411764705882 0.0196078431372549 0.0196078431372549 0.0196078431372549 0.0196078431372549 0.0196078431372549 0.0004595588235294118 0.0004595588235294118 0.08639705882352941 0.0004595588235294118 0.08639705882352941 0.0004595588235294118 0.2348345588235294 0.1254595588235294 0.2895220588235294 0.01608455882352941 0.008272058823529412 0.05514705882352941 0.02389705882352941 0.03952205882352941 0.03170955882352941 0.0004595588235294118 0.0004595588235294118 0.004201680672268909 0.004201680672268909 0.1470588235294118 0.004201680672268909 0.004201680672268909 0.004201680672268909 0.07563025210084036 0.1470588235294118 0.5042016806722691 0.004201680672268909 0.004201680672268909 0.07563025210084036 0.004201680672268909 0.004201680672268909 0.004201680672268909 0.004201680672268909 0.004201680672268909 0.01470588235294118 0.01470588235294118 0.01470588235294118 0.01470588235294118 0.01470588235294118 0.01470588235294118 0.2647058823529412 0.01470588235294118 0.01470588235294118 0.01470588235294118 0.01470588235294118 0.5147058823529412 0.01470588235294118 0.01470588235294118 0.01470588235294118 0.01470588235294118 0.01470588235294118 0.05882352941176471 0.05882352941176471 0.05882352941176471 0.05882352941176471 0.05882352941176471 0.05882352941176471 0.05882352941176471 0.05882352941176471 0.05882352941176471 0.05882352941176471 0.05882352941176471 0.05882352941176471 0.05882352941176471 0.05882352941176471 0.05882352941176471 0.05882352941176471 0.05882352941176471 0.05882352941176471 0.05882352941176471 0.05882352941176471 0.05882352941176471 0.05882352941176471 0.05882352941176471 0.05882352941176471 0.05882352941176471 0.05882352941176471 0.05882352941176471 0.05882352941176471 0.05882352941176471 0.05882352941176471 0.05882352941176471 0.05882352941176471 0.05882352941176471 0.05882352941176471 0.09625668449197863 0.005347593582887701 0.09625668449197863 0.005347593582887701 0.09625668449197863 0.005347593582887701 0.005347593582887701 0.2780748663101605 0.1871657754010695 0.09625668449197863 0.005347593582887701 0.09625668449197863 0.005347593582887701 0.005347593582887701 0.005347593582887701 0.005347593582887701 0.005347593582887701 0.05882352941176471 0.05882352941176471 0.05882352941176471 0.05882352941176471 0.05882352941176471 0.05882352941176471 0.05882352941176471 0.05882352941176471 0.05882352941176471 0.05882352941176471 0.05882352941176471 0.05882352941176471 0.05882352941176471 0.05882352941176471 0.05882352941176471 0.05882352941176471 0.05882352941176471 0.05882352941176471 0.05882352941176471 0.05882352941176471 0.05882352941176471 0.05882352941176471 0.05882352941176471 0.05882352941176471 0.05882352941176471 0.05882352941176471 0.05882352941176471 0.05882352941176471 0.05882352941176471 0.05882352941176471 0.05882352941176471 0.05882352941176471 0.05882352941176471 0.05882352941176471 0.05882352941176471 0.05882352941176471 0.05882352941176471 0.05882352941176471 0.05882352941176471 0.05882352941176471 0.05882352941176471 0.05882352941176471 0.05882352941176471 0.05882352941176471 0.05882352941176471 0.05882352941176471 0.05882352941176471 0.05882352941176471 0.05882352941176471 0.05882352941176471 0.05882352941176471 0.05882352941176471 0.05882352941176471 0.05882352941176471 0.05882352941176471 0.05882352941176471 0.05882352941176471 0.05882352941176471 0.05882352941176471 0.05882352941176471 0.05882352941176471 0.05882352941176471 0.05882352941176471 0.05882352941176471 0.05882352941176471 0.05882352941176471 0.05882352941176471 0.05882352941176471</probabilities>
		</cpt>
		<cpt id="VE_PDOF_TR">
			<state id="VE_PDOF_TR1_below_80" />
			<state id="VE_PDOF_TR2_80_160" />
			<state id="VE_PDOF_TR3_160_220" />
			<state id="VE_PDOF_TR4_220_260" />
			<state id="VE_PDOF_TR5_260_up" />
			<parents>GV_SPLIMIT OA_MAIS</parents>
			<probabilities>0.4060606060606061 0.4464646464646465 0.1131313131313131 0.01212121212121212 0.02222222222222222 0.5857142857142857 0.1571428571428572 0.08571428571428573 0.08571428571428573 0.08571428571428573 0.55 0.05 0.3 0.05 0.05 0.7333333333333333 0.06666666666666665 0.06666666666666665 0.06666666666666665 0.06666666666666665 0.2 0.2 0.2 0.2 0.2 0.2036363636363636 0.5854545454545454 0.1309090909090909 0.003636363636363636 0.07636363636363637 0.02857142857142857 0.6 0.1714285714285714 0.1714285714285714 0.02857142857142857 0.05 0.8 0.05 0.05 0.05 0.1 0.6000000000000001 0.1 0.1 0.1 0.2 0.2 0.2 0.2 0.2 0.1650988411724608 0.5720518064076346 0.1930470347648262 0.01649625085207907 0.05330606680299931 0.2270967741935484 0.5432258064516129 0.207741935483871 0.01419354838709678 0.007741935483870968 0.21 0.5600000000000001 0.21 0.01 0.01 0.3818181818181818 0.4727272727272728 0.1090909090909091 0.01818181818181818 0.01818181818181818 0.1 0.1 0.6000000000000001 0.1 0.1 0.2 0.2 0.2 0.2 0.2 0.1 0.1 0.1 0.1 0.6 0.2 0.2 0.2 0.2 0.2 0.2 0.2 0.2 0.2 0.2 0.2 0.2 0.2 0.2 0.2 0.1268062827225131 0.5775916230366491 0.2116230366492146 0.01319371727748691 0.07078534031413611 0.2078125000000001 0.5710937500000001 0.2000000000000001 0.008593750000000002 0.0125 0.4125000000000001 0.4125000000000001 0.06875000000000002 0.1 0.006250000000000002 0.5600000000000001 0.2600000000000001 0.11 0.06000000000000001 0.01 0.3142857142857143 0.3142857142857143 0.02857142857142857 0.1714285714285714 0.1714285714285714 0.03333333333333333 0.5333333333333332 0.3666666666666666 0.03333333333333333 0.03333333333333333 0.1 0.6000000000000001 0.1 0.1 0.1 0.1 0.1 0.1 0.1 0.6 0.2 0.2 0.2 0.2 0.2 0.2 0.2 0.2 0.2 0.2 0.09494085074251196 0.6141958217971306 0.2024163100931286 0.009363201610873397 0.0790838157563554 0.144421906693712 0.6434077079107506 0.1728194726166329 0.004462474645030428 0.03488843813387425 0.2923076923076923 0.4461538461538462 0.1961538461538462 0.04230769230769231 0.02307692307692308 0.2787878787878788 0.4606060606060606 0.1878787878787879 0.03636363636363636 0.03636363636363636 0.2 0.5636363636363637 0.1090909090909091 0.1090909090909091 0.01818181818181818 0.06918489065606361 0.6208747514910536 0.1959244532803181 0.006063618290258448 0.1079522862823061 0.06006600660066008 0.7102310231023103 0.1722772277227723 0.01716171617161717 0.04026402640264027 0.13 0.58 0.255 0.005000000000000001 0.03 0.1529411764705882 0.5352941176470588 0.2705882352941176 0.005882352941176471 0.03529411764705882 0.01333333333333333 0.4133333333333333 0.4133333333333333 0.08 0.08 0.06788479405388664 0.6237844533911427 0.1815422731495819 0.01152059461133478 0.1152678847940539 0.09283018867924529 0.6475471698113208 0.2041509433962264 0.004150943396226415 0.05132075471698113 0.24 0.5490909090909091 0.1854545454545454 0.003636363636363636 0.02181818181818182 0.105 0.505 0.28 0.03 0.08000000000000002 0.1882352941176471 0.4823529411764705 0.1882352941176471 0.07058823529411765 0.07058823529411765 0.06675031367628607 0.6138017565872019 0.175909661229611 0.01405269761606022 0.1294855708908406 0.1124183006535948 0.6679738562091504 0.1777777777777778 0.00130718954248366 0.04052287581699347 0.2952380952380953 0.3904761904761905 0.1523809523809524 0.1047619047619048 0.05714285714285715 0.09999999999999999 0.5166666666666666 0.2666666666666667 0.09999999999999999 0.01666666666666667 0.02857142857142857 0.6 0.3142857142857143 0.02857142857142857 0.02857142857142857 0.12 0.42 0.3200000000000001 0.02 0.12 0.6000000000000001 0.1 0.1 0.1 0.1 0.2 0.2 0.2 0.2 0.2 0.2 0.2 0.2 0.2 0.2 0.2 0.2 0.2 0.2 0.2 0.05303723056825604 0.6154147615937295 0.1555845852384062 0.01384715871979098 0.1621162638798171 0.1205714285714286 0.672 0.1491428571428572 0.009142857142857145 0.04914285714285715 0.1877551020408163 0.5755102040816326 0.1469387755102041 0.02448979591836735 0.06530612244897958 0.2170212765957447 0.5787234042553191 0.08936170212765958 0.02553191489361702 0.08936170212765958 0.175 0.6333333333333334 0.09166666666666669 0.05 0.05 0.05423728813559322 0.5062146892655367 0.1135593220338983 0.01186440677966102 0.3141242937853108 0.07536231884057971 0.6985507246376812 0.0463768115942029 0.002898550724637681 0.1768115942028985 0.1714285714285714 0.3142857142857143 0.02857142857142857 0.02857142857142857 0.4571428571428571 0.1833333333333333 0.5166666666666666 0.01666666666666667 0.01666666666666667 0.2666666666666667 0.15 0.65 0.15 0.025 0.025 0.0453731343283582 0.5617910447761194 0.08417910447761194 0.01850746268656717 0.2901492537313433 0.06582278481012657 0.6987341772151898 0.1037974683544304 0.01518987341772152 0.1164556962025316 0.01666666666666667 0.5166666666666666 0.09999999999999999 0.09999999999999999 0.2666666666666667 0.275 0.525 0.025 0.025 0.15 0.2 0.2 0.2 0.2 0.2 0.0525974025974026 0.5883116883116883 0.1077922077922078 0.02012987012987013 0.2311688311688312 0.0711864406779661 0.6474576271186441 0.08813559322033898 0.003389830508474577 0.1898305084745762 0.1466666666666667 0.5466666666666667 0.2133333333333334 0.08000000000000002 0.01333333333333334 0.03333333333333333 0.2 0.03333333333333333 0.03333333333333333 0.7 0.06666666666666667 0.4 0.06666666666666667 0.4 0.06666666666666667 0.2933333333333333 0.5600000000000001 0.09333333333333334 0.004444444444444444 0.04888888888888889 0.8 0.05 0.05 0.05 0.05 0.1 0.6000000000000001 0.1 0.1 0.1 0.1 0.1 0.6000000000000001 0.1 0.1 0.2 0.2 0.2 0.2 0.2 0.01111111111111111 0.5111111111111111 0.1222222222222222 0.06666666666666667 0.2888888888888889 0.03333333333333333 0.6999999999999998 0.03333333333333333 0.03333333333333333 0.2 0.2 0.2 0.2 0.2 0.2 0.2 0.2 0.2 0.2 0.2 0.2 0.2 0.2 0.2 0.2</probabilities>
		</cpt>
		<cpt id="GV_DVLAT">
			<state id="GV_DVLAT1_below_n76" />
			<state id="GV_DVLAT2_n76_n24" />
			<state id="GV_DVLAT3_n24_43" />
			<state id="GV_DVLAT4_43_99" />
			<state id="GV_DVLAT5_99_up" />
			<parents>VE_PDOF_TR OA_MAIS</parents>
			<probabilities>0.000136147038801906 0.0008168822328114361 0.9912865895166778 0.006943498978897207 0.0008168822328114361 0.0006410256410256412 0.0006410256410256412 0.9237179487179489 0.07435897435897437 0.0006410256410256412 0.002816901408450704 0.002816901408450704 0.8760563380281688 0.1154929577464788 0.002816901408450704 0.003921568627450979 0.003921568627450979 0.8470588235294116 0.1411764705882353 0.003921568627450979 0.01538461538461539 0.01538461538461539 0.7846153846153846 0.1692307692307692 0.01538461538461539 0.0002258263190309998 0.002894682816670087 0.9964278382262368 0.000431122972695545 2.052966536645453e-05 0.0007523510971786832 0.006394984326018808 0.9919749216300939 0.0007523510971786832 0.0001253918495297806 0.001273885350318472 0.001273885350318472 0.9949044585987262 0.001273885350318472 0.001273885350318472 0.001834862385321101 0.02018348623853211 0.965137614678899 0.0110091743119266 0.001834862385321101 0.004166666666666666 0.02499999999999999 0.9416666666666665 0.02499999999999999 0.004166666666666666 0.0004026845637583893 0.0836241610738255 0.9158389261744967 6.711409395973155e-05 6.711409395973155e-05 0.007511737089201879 0.2258215962441315 0.7657276995305166 0.0004694835680751175 0.0004694835680751175 0.003846153846153846 0.5615384615384615 0.426923076923077 0.003846153846153846 0.003846153846153846 0.005263157894736842 0.5578947368421052 0.4263157894736841 0.005263157894736842 0.005263157894736842 0.01176470588235294 0.6000000000000001 0.3647058823529413 0.01176470588235294 0.01176470588235294 0.001075268817204301 0.167741935483871 0.8236559139784946 0.006451612903225806 0.001075268817204301 0.11 0.4600000000000001 0.41 0.01 0.01 0.01818181818181818 0.3818181818181818 0.5636363636363637 0.01818181818181818 0.01818181818181818 0.03333333333333333 0.8666666666666665 0.03333333333333333 0.03333333333333333 0.03333333333333333 0.4571428571428571 0.1714285714285714 0.3142857142857143 0.02857142857142857 0.02857142857142857 0.0001135718341851221 0.02282793867120954 0.976831345826235 0.0001135718341851221 0.0001135718341851221 0.001680672268907563 0.04369747899159664 0.9512605042016806 0.001680672268907563 0.001680672268907563 0.01333333333333334 0.01333333333333334 0.9466666666666668 0.01333333333333334 0.01333333333333334 0.01111111111111111 0.01111111111111111 0.9555555555555557 0.01111111111111111 0.01111111111111111 0.03999999999999999 0.03999999999999999 0.8399999999999999 0.03999999999999999 0.03999999999999999</probabilities>
		</cpt>
		<cpt id="GV_DVLONG">
			<state id="GVDV_LONG1_below_n64" />
			<state id="GVDV_LONG2_n64_71" />
			<state id="GVDV_LONG3_71_up" />
			<parents>VE_PDOF_TR OA_MAIS</parents>
			<probabilities>0.007714998865441344 0.9920580894032222 0.0002269117313365101 0.0202991452991453 0.9786324786324788 0.001068376068376068 0.03286384976525823 0.9624413145539907 0.004694835680751174 0.1045751633986928 0.8888888888888887 0.006535947712418299 0.1025641025641025 0.8717948717948717 0.02564102564102564 0.002703072606583179 0.9972627112844726 3.421610894409087e-05 0.03155694879832811 0.9682340647857889 0.0002089864158829676 0.1231422505307855 0.8683651804670912 0.00849256900212314 0.2232415902140673 0.7737003058103975 0.003058103975535168 0.3402777777777777 0.6527777777777777 0.006944444444444444 0.00145413870246085 0.9984340044742728 0.0001118568232662192 0.003129890453834116 0.9960876369327075 0.0007824726134585291 0.006410256410256409 0.9871794871794871 0.006410256410256409 0.008771929824561401 0.982456140350877 0.008771929824561401 0.07843137254901961 0.9019607843137255 0.0196078431372549 0.001792114695340502 0.9910394265232975 0.007168458781362006 0.01666666666666667 0.9666666666666668 0.01666666666666667 0.0303030303030303 0.9393939393939393 0.0303030303030303 0.05555555555555556 0.888888888888889 0.05555555555555556 0.1904761904761905 0.761904761904762 0.04761904761904762 0.0001892863903085368 0.9990535680484575 0.0007571455612341473 0.002801120448179272 0.9859943977591038 0.01120448179271709 0.02222222222222222 0.9555555555555554 0.02222222222222222 0.01851851851851852 0.9074074074074076 0.07407407407407408 0.06666666666666668 0.8666666666666668 0.06666666666666668</probabilities>
		</cpt>
		<cpt id="GV_ENERGY">
			<state id="GV_Energy1_below_3274" />
			<state id="GV_Energy2_3274_6970" />
			<state id="GV_Energy3_6970_up" />
			<parents>GV_DVLONG OA_MAIS</parents>
			<probabilities>0.8888888888888887 0.1031746031746031 0.007936507936507934 0.6781609195402298 0.2816091954022988 0.04022988505747126 0.5606060606060607 0.3333333333333333 0.1060606060606061 0.4111111111111112 0.5444444444444445 0.04444444444444445 0.2666666666666667 0.6166666666666667 0.1166666666666667 0.9978455865597746 0.002133697926377064 2.0715513848321e-05 0.9827109266943291 0.01673582295988935 0.000553250345781466 0.9297619047619049 0.06904761904761905 0.001190476190476191 0.8475177304964538 0.1347517730496454 0.01773049645390071 0.6169154228855722 0.318407960199005 0.06467661691542288 0.4444444444444444 0.4444444444444444 0.1111111111111111 0.6666666666666667 0.1666666666666667 0.1666666666666667 0.6666666666666667 0.1666666666666667 0.1666666666666667 0.1666666666666667 0.6666666666666667 0.1666666666666667 0.3333333333333333 0.3333333333333333 0.3333333333333333</probabilities>
		</cpt>
		<cpt id="GV_LANES">
			<state id="State1" />
			<state id="State2" />
			<state id="State3" />
			<state id="State4" />
			<state id="State5" />
			<state id="State6" />
			<state id="State7" />
			<parents>GV_SPLIMIT OA_MAIS</parents>
			<probabilities>0.001443001443001443 0.04184704184704186 0.6984126984126986 0.1832611832611833 0.03174603174603175 0.04184704184704186 0.001443001443001443 0.01020408163265306 0.153061224489796 0.6530612244897961 0.153061224489796 0.01020408163265306 0.01020408163265306 0.01020408163265306 0.03571428571428572 0.03571428571428572 0.7857142857142859 0.03571428571428572 0.03571428571428572 0.03571428571428572 0.03571428571428572 0.04761904761904762 0.04761904761904762 0.7142857142857143 0.04761904761904762 0.04761904761904762 0.04761904761904762 0.04761904761904762 0.1428571428571429 0.1428571428571429 0.1428571428571429 0.1428571428571429 0.1428571428571429 0.1428571428571429 0.1428571428571429 0.02077922077922077 0.02077922077922077 0.748051948051948 0.1298701298701299 0.07532467532467531 0.002597402597402597 0.002597402597402597 0.02040816326530612 0.02040816326530612 0.7346938775510202 0.02040816326530612 0.1632653061224489 0.02040816326530612 0.02040816326530612 0.03571428571428572 0.03571428571428572 0.5357142857142858 0.2857142857142858 0.03571428571428572 0.03571428571428572 0.03571428571428572 0.07142857142857144 0.07142857142857144 0.5714285714285715 0.07142857142857144 0.07142857142857144 0.07142857142857144 0.07142857142857144 0.1428571428571429 0.1428571428571429 0.1428571428571429 0.1428571428571429 0.1428571428571429 0.1428571428571429 0.1428571428571429 9.7380465478625e-05 0.04781380855000487 0.7144804752166717 0.1255234200019476 0.07030869607556725 0.03690719641639888 0.004869023273931251 0.0009216589861751153 0.04608294930875577 0.6783410138248849 0.1428571428571429 0.0783410138248848 0.04608294930875577 0.007373271889400923 0.007142857142857144 0.1071428571428572 0.7571428571428572 0.007142857142857144 0.05714285714285715 0.05714285714285715 0.007142857142857144 0.01298701298701299 0.1038961038961039 0.7402597402597405 0.01298701298701299 0.1038961038961039 0.01298701298701299 0.01298701298701299 0.07142857142857144 0.07142857142857144 0.5714285714285715 0.07142857142857144 0.07142857142857144 0.07142857142857144 0.07142857142857144 0.1428571428571429 0.1428571428571429 0.1428571428571429 0.1428571428571429 0.1428571428571429 0.1428571428571429 0.1428571428571429 0.07142857142857144 0.07142857142857144 0.07142857142857144 0.5714285714285715 0.07142857142857144 0.07142857142857144 0.07142857142857144 0.1428571428571429 0.1428571428571429 0.1428571428571429 0.1428571428571429 0.1428571428571429 0.1428571428571429 0.1428571428571429 0.1428571428571429 0.1428571428571429 0.1428571428571429 0.1428571428571429 0.1428571428571429 0.1428571428571429 0.1428571428571429 0.1428571428571429 0.1428571428571429 0.1428571428571429 0.1428571428571429 0.1428571428571429 0.1428571428571429 0.1428571428571429 0.005833956619296934 0.0393418100224383 0.4733732236350038 0.1728496634255797 0.1896035901271504 0.1021690351533284 0.0168287210172027 0.01618303571428572 0.004464285714285715 0.5513392857142858 0.1841517857142858 0.1841517857142858 0.04352678571428572 0.01618303571428572 0.004464285714285715 0.06696428571428573 0.5669642857142858 0.2232142857142858 0.1294642857142858 0.004464285714285715 0.004464285714285715 0.007142857142857144 0.007142857142857144 0.6071428571428572 0.1071428571428572 0.2571428571428572 0.007142857142857144 0.007142857142857144 0.163265306122449 0.02040816326530612 0.3061224489795918 0.3061224489795918 0.163265306122449 0.02040816326530612 0.02040816326530612 0.02380952380952381 0.02380952380952381 0.1904761904761905 0.3571428571428571 0.02380952380952381 0.3571428571428571 0.02380952380952381 0.07142857142857144 0.07142857142857144 0.5714285714285715 0.07142857142857144 0.07142857142857144 0.07142857142857144 0.07142857142857144 0.07142857142857144 0.07142857142857144 0.5714285714285715 0.07142857142857144 0.07142857142857144 0.07142857142857144 0.07142857142857144 0.1428571428571429 0.1428571428571429 0.1428571428571429 0.1428571428571429 0.1428571428571429 0.1428571428571429 0.1428571428571429 0.1428571428571429 0.1428571428571429 0.1428571428571429 0.1428571428571429 0.1428571428571429 0.1428571428571429 0.1428571428571429 0.03628060839236274 0.01236920642911079 0.2993060299881342 0.1737082449390529 0.2303405127467549 0.2175038653770091 0.03049153212757542 0.04694291509707332 0.01043175891046074 0.3146913937988989 0.1544479860909881 0.2497826716893654 0.1970443349753695 0.02665893943784411 0.04120879120879121 0.002747252747252747 0.3489010989010989 0.1565934065934066 0.2142857142857143 0.1758241758241758 0.06043956043956044 0.03463203463203463 0.004329004329004329 0.3073593073593073 0.1558441558441559 0.2164502164502165 0.1861471861471862 0.09523809523809523 0.01298701298701299 0.01298701298701299 0.3766233766233767 0.1038961038961039 0.3766233766233767 0.1038961038961039 0.01298701298701299 0.02840102243680773 0.0124964498721954 0.2788980403294519 0.2043453564328316 0.264484521442772 0.1665719965918774 0.04480261289406419 0.02687411598302687 0.01037246581801037 0.3239038189533239 0.1885902876001886 0.214992927864215 0.181989627534182 0.05327675624705328 0.00357142857142857 0.00357142857142857 0.3035714285714285 0.3535714285714285 0.1535714285714286 0.1535714285714286 0.02857142857142856 0.004201680672268907 0.004201680672268907 0.5042016806722689 0.1218487394957983 0.2689075630252101 0.06302521008403361 0.03361344537815126 0.1428571428571428 0.009523809523809523 0.4095238095238096 0.2095238095238095 0.2095238095238095 0.009523809523809523 0.009523809523809523 0.02605848781135248 0.01367075167013229 0.2849621731628545 0.1840021236119099 0.2267398132991196 0.2106357563155334 0.05393089412909791 0.01536388140161725 0.00404312668463612 0.3738544474393532 0.1606469002695418 0.1983827493261456 0.1908355795148248 0.05687331536388141 0.02077922077922078 0.03896103896103897 0.4025974025974026 0.1480519480519481 0.1844155844155844 0.1662337662337663 0.03896103896103897 0.003571428571428571 0.003571428571428571 0.4285714285714286 0.1785714285714286 0.2785714285714286 0.07857142857142857 0.02857142857142857 0.06722689075630252 0.008403361344537815 0.361344537815126 0.3025210084033614 0.1260504201680672 0.1260504201680672 0.008403361344537815 0.01523570532353468 0.01398100017924359 0.3439684531278007 0.2285355798530202 0.1883850152357053 0.1745832586485033 0.03531098763219215 0.04668534080298787 0.01400560224089636 0.4192343604108311 0.157796451914099 0.2362278244631186 0.09897292250233428 0.02707749766573297 0.006802721088435376 0.006802721088435376 0.6734693877551021 0.1972789115646259 0.05442176870748301 0.05442176870748301 0.006802721088435376 0.0119047619047619 0.0119047619047619 0.5952380952380952 0.09523809523809523 0.09523809523809523 0.1785714285714285 0.0119047619047619 0.02040816326530612 0.02040816326530612 0.3061224489795918 0.4489795918367346 0.163265306122449 0.02040816326530612 0.02040816326530612 0.01428571428571429 0.01428571428571429 0.4142857142857144 0.3142857142857143 0.1142857142857143 0.1142857142857143 0.01428571428571429 0.07142857142857144 0.5714285714285715 0.07142857142857144 0.07142857142857144 0.07142857142857144 0.07142857142857144 0.07142857142857144 0.1428571428571429 0.1428571428571429 0.1428571428571429 0.1428571428571429 0.1428571428571429 0.1428571428571429 0.1428571428571429 0.1428571428571429 0.1428571428571429 0.1428571428571429 0.1428571428571429 0.1428571428571429 0.1428571428571429 0.1428571428571429 0.1428571428571429 0.1428571428571429 0.1428571428571429 0.1428571428571429 0.1428571428571429 0.1428571428571429 0.1428571428571429 0.008584491928711394 0.0249136885322385 0.4481664644956611 0.1849398152468042 0.20649435476346 0.09284314640291126 0.03405803863021369 0.008979591836734692 0.02040816326530612 0.600408163265306 0.1546938775510204 0.1204081632653061 0.0746938775510204 0.02040816326530612 0.002915451895043731 0.002915451895043731 0.6763848396501456 0.1457725947521866 0.1457725947521866 0.002915451895043731 0.02332361516034985 0.00303951367781155 0.04559270516717325 0.4924012158054711 0.1306990881458967 0.2796352583586626 0.04559270516717325 0.00303951367781155 0.005952380952380953 0.005952380952380953 0.5892857142857143 0.08928571428571429 0.2142857142857143 0.04761904761904762 0.04761904761904762 0.008878127522195318 0.02300242130750605 0.1275221953188055 0.1840193704600484 0.2970137207425342 0.3280871670702178 0.03147699757869249 0.01656314699792961 0.01656314699792961 0.1180124223602485 0.2194616977225673 0.3788819875776399 0.1759834368530021 0.07453416149068326 0.02040816326530612 0.163265306122449 0.3061224489795918 0.163265306122449 0.3061224489795918 0.02040816326530612 0.02040816326530612 0.0119047619047619 0.09523809523809523 0.3452380952380952 0.09523809523809523 0.3452380952380952 0.09523809523809523 0.0119047619047619 0.01785714285714286 0.01785714285714286 0.3928571428571428 0.2678571428571428 0.01785714285714286 0.2678571428571428 0.01785714285714286 0.006396588486140725 0.01535181236673774 0.185501066098081 0.2720682302771855 0.2243070362473348 0.194456289978678 0.1019189765458422 0.001808318264014466 0.001808318264014466 0.4448462929475588 0.2423146473779385 0.1916817359855335 0.0650994575045208 0.05244122965641954 0.0119047619047619 0.09523809523809523 0.3452380952380952 0.1785714285714285 0.1785714285714285 0.09523809523809523 0.09523809523809523 0.01785714285714286 0.01785714285714286 0.2678571428571429 0.2678571428571429 0.1428571428571429 0.1428571428571429 0.1428571428571429 0.1428571428571429 0.1428571428571429 0.1428571428571429 0.1428571428571429 0.1428571428571429 0.1428571428571429 0.1428571428571429 0.003710575139146567 0.03617810760667903 0.471243042671614 0.3673469387755101 0.1011131725417439 0.01020408163265306 0.01020408163265306 0.002421307506053268 0.01937046004842614 0.4939467312348667 0.3922518159806295 0.07021791767554479 0.01937046004842614 0.002421307506053268 0.009523809523809525 0.009523809523809525 0.342857142857143 0.6095238095238096 0.009523809523809525 0.009523809523809525 0.009523809523809525 0.02380952380952381 0.02380952380952381 0.1904761904761905 0.5238095238095237 0.1904761904761905 0.02380952380952381 0.02380952380952381 0.04761904761904762 0.04761904761904762 0.7142857142857143 0.04761904761904762 0.04761904761904762 0.04761904761904762 0.04761904761904762 0.003174603174603174 0.06984126984126983 0.5365079365079364 0.2698412698412698 0.06984126984126983 0.04761904761904761 0.003174603174603174 0.03571428571428572 0.03571428571428572 0.2857142857142858 0.2857142857142858 0.2857142857142858 0.03571428571428572 0.03571428571428572 0.07142857142857144 0.07142857142857144 0.5714285714285715 0.07142857142857144 0.07142857142857144 0.07142857142857144 0.07142857142857144 0.07142857142857144 0.5714285714285715 0.07142857142857144 0.07142857142857144 0.07142857142857144 0.07142857142857144 0.07142857142857144 0.1428571428571429 0.1428571428571429 0.1428571428571429 0.1428571428571429 0.1428571428571429 0.1428571428571429 0.1428571428571429 0.007936507936507938 0.007936507936507938 0.9523809523809526 0.007936507936507938 0.007936507936507938 0.007936507936507938 0.007936507936507938 0.0238095238095238 0.0238095238095238 0.857142857142857 0.0238095238095238 0.0238095238095238 0.0238095238095238 0.0238095238095238 0.1428571428571429 0.1428571428571429 0.1428571428571429 0.1428571428571429 0.1428571428571429 0.1428571428571429 0.1428571428571429 0.1428571428571429 0.1428571428571429 0.1428571428571429 0.1428571428571429 0.1428571428571429 0.1428571428571429 0.1428571428571429 0.1428571428571429 0.1428571428571429 0.1428571428571429 0.1428571428571429 0.1428571428571429 0.1428571428571429 0.1428571428571429</probabilities>
		</cpt>
		<cpt id="GV_OTVEHWGT">
			<state id="GV_OTVEHWGT1_below_730" />
			<state id="GV_OTVEHWGT2_730_1935" />
			<state id="GV_OTVEHWGT3_1935_2655" />
			<state id="GV_OTVEHWGT4_2655_3730" />
			<state id="GV_OTVEHWGT5_3730_up" />
			<parents>GV_MODELYR OA_MAIS</parents>
			<probabilities>0.0005481955230698949 0.8584741891274554 0.127089995431704 0.01333942439470078 0.0005481955230698949 0.003116883116883117 0.7823376623376624 0.1823376623376624 0.0264935064935065 0.005714285714285716 0.004081632653061224 0.8 0.1877551020408163 0.004081632653061224 0.004081632653061224 0.005128205128205128 0.6205128205128204 0.3384615384615384 0.005128205128205128 0.03076923076923077 0.01538461538461539 0.6307692307692307 0.09230769230769231 0.2461538461538462 0.01538461538461539 0.0005738880918220947 0.8293639406982306 0.1564801530368245 0.01157340985174558 0.002008608321377332 0.0004987531172069826 0.746134663341646 0.2349127182044888 0.01546134663341646 0.002992518703241896 0.005128205128205128 0.6461538461538461 0.2358974358974359 0.08205128205128205 0.03076923076923077 0.005405405405405406 0.7621621621621621 0.2216216216216216 0.005405405405405406 0.005405405405405406 0.01428571428571429 0.5857142857142857 0.2285714285714286 0.1571428571428572 0.01428571428571429 9.04977375565611e-05 0.8123076923076924 0.1652488687782805 0.02226244343891403 9.04977375565611e-05 0.0005681818181818183 0.7562500000000001 0.2107954545454546 0.03181818181818182 0.0005681818181818183 0.004166666666666666 0.6916666666666665 0.2124999999999999 0.06666666666666665 0.02499999999999999 0.004878048780487806 0.6878048780487805 0.224390243902439 0.07804878048780489 0.004878048780487806 0.01538461538461539 0.4 0.4769230769230769 0.09230769230769231 0.01538461538461539 0.0006195147134744449 0.8287041817243158 0.1570469798657718 0.01249354672173464 0.001135776974703149 0.0005970149253731344 0.7856716417910449 0.1826865671641791 0.03044776119402985 0.0005970149253731344 0.004444444444444444 0.76 0.2044444444444444 0.02666666666666666 0.004444444444444444 0.007692307692307693 0.6230769230769231 0.3153846153846154 0.04615384615384616 0.007692307692307693 0.02 0.42 0.42 0.12 0.02 0.0001133786848072562 0.7965986394557822 0.1854875283446712 0.01712018140589569 0.0006802721088435373 0.0009132420091324203 0.7041095890410959 0.2474885844748859 0.04657534246575343 0.0009132420091324203 0.005714285714285714 0.5771428571428571 0.4057142857142857 0.005714285714285714 0.005714285714285714 0.008695652173913045 0.7043478260869566 0.2695652173913044 0.008695652173913045 0.008695652173913045 0.01666666666666667 0.5166666666666666 0.4333333333333333 0.01666666666666667 0.01666666666666667 0.0001240694789081886 0.8009925558312654 0.1775434243176178 0.01997518610421836 0.001364764267990074 0.0008620689655172416 0.7594827586206897 0.1905172413793104 0.04827586206896552 0.0008620689655172416 0.008000000000000002 0.6480000000000001 0.2880000000000001 0.008000000000000002 0.04800000000000001 0.008333333333333335 0.7166666666666667 0.2583333333333334 0.008333333333333335 0.008333333333333335 0.025 0.525 0.4 0.025 0.025 0.001646706586826347 0.7763473053892214 0.2052395209580838 0.01362275449101796 0.003143712574850299 0.001219512195121951 0.7817073170731708 0.1963414634146342 0.01951219512195122 0.001219512195121951 0.007692307692307693 0.5461538461538462 0.3153846153846154 0.1230769230769231 0.007692307692307693 0.01666666666666667 0.35 0.5166666666666666 0.09999999999999999 0.01666666666666667 0.025 0.65 0.275 0.025 0.025 0.001014370245139476 0.7863060016906169 0.1920540997464074 0.01961115807269653 0.001014370245139476 0.001142857142857143 0.7554285714285714 0.2240000000000001 0.01828571428571429 0.001142857142857143 0.01111111111111111 0.6777777777777779 0.288888888888889 0.01111111111111111 0.01111111111111111 0.01428571428571429 0.5142857142857142 0.4428571428571428 0.01428571428571429 0.01428571428571429 0.02857142857142857 0.8857142857142857 0.02857142857142857 0.02857142857142857 0.02857142857142857 0.002363050483351236 0.7843179377013964 0.1946294307196563 0.01740064446831364 0.001288936627282492 0.00196078431372549 0.6196078431372548 0.3549019607843137 0.02156862745098039 0.00196078431372549 0.02 0.8200000000000001 0.02 0.12 0.02 0.03333333333333333 0.3666666666666666 0.3666666666666666 0.2 0.03333333333333333 0.05 0.3 0.3 0.3 0.05 0.004888888888888891 0.7915555555555557 0.176 0.02711111111111111 0.0004444444444444446 0.003174603174603175 0.653968253968254 0.3206349206349206 0.01904761904761905 0.003174603174603175 0.02857142857142857 0.7428571428571429 0.1714285714285714 0.02857142857142857 0.02857142857142857 0.2 0.2 0.2 0.2 0.2 0.05 0.55 0.3 0.05 0.05 0.0006578947368421055 0.7703947368421054 0.2046052631578948 0.02368421052631579 0.0006578947368421055 0.005405405405405406 0.6270270270270271 0.3297297297297297 0.03243243243243243 0.005405405405405406 0.02857142857142857 0.7428571428571429 0.02857142857142857 0.1714285714285714 0.02857142857142857 0.03999999999999999 0.6399999999999999 0.2399999999999999 0.03999999999999999 0.03999999999999999 0.06666666666666667 0.4 0.4 0.06666666666666667 0.06666666666666667 0.0015625 0.728125 0.259375 0.009375 0.0015625 0.01428571428571429 0.8714285714285716 0.08571428571428573 0.01428571428571429 0.01428571428571429 0.05 0.3 0.3 0.3 0.05 0.2 0.2 0.2 0.2 0.2 0.2 0.2 0.2 0.2 0.2 0.01818181818181818 0.8363636363636364 0.1090909090909091 0.01818181818181818 0.01818181818181818 0.2 0.2 0.2 0.2 0.2 0.2 0.2 0.2 0.2 0.2 0.2 0.2 0.2 0.2 0.2 0.2 0.2 0.2 0.2 0.2</probabilities>
		</cpt>
		<cpt id="OA_AGE">
			<state id="OA_AGE1_below_11" />
			<state id="OA_AGE2_11_28" />
			<state id="OA_AGE3_28_48" />
			<state id="OA_AGE4_48_64" />
			<state id="OA_AGE5_64_up" />
			<parents>GV_CURBWGT OA_MAIS</parents>
			<probabilities>0.01333333333333333 0.3466666666666667 0.28 0.08 0.28 0.2 0.2 0.2 0.2 0.2 0.1 0.1 0.6000000000000001 0.1 0.1 0.2 0.2 0.2 0.2 0.2 0.2 0.2 0.2 0.2 0.2 0.0002094639626773303 0.3918118632771589 0.3281157764448253 0.1801580500809292 0.09970484623440921 0.0001170275014628438 0.3272088940901112 0.3084844938560561 0.2177881802223522 0.1464014043300175 0.0009345794392523364 0.3233644859813084 0.2485981308411215 0.2018691588785047 0.2252336448598131 0.001183431952662722 0.2911242603550296 0.2792899408284024 0.1727810650887574 0.2556213017751479 0.003174603174603175 0.2571428571428571 0.3523809523809524 0.2412698412698412 0.146031746031746 3.878975950349109e-05 0.2211404189294027 0.4730799069045772 0.2128006206361521 0.09294026377036463 0.0002853067047075606 0.2128388017118402 0.4111269614835948 0.2299572039942939 0.1457917261055635 0.002439024390243903 0.1731707317073171 0.3195121951219512 0.2463414634146341 0.2585365853658537 0.00425531914893617 0.1531914893617021 0.3021276595744681 0.2382978723404255 0.3021276595744681 0.01 0.21 0.21 0.36 0.21 0.0004395604395604397 0.2443956043956045 0.4861538461538462 0.2070329670329671 0.06197802197802199 0.003448275862068965 0.1241379310344827 0.5724137931034482 0.2448275862068965 0.05517241379310344 0.02857142857142857 0.02857142857142857 0.4571428571428571 0.3142857142857143 0.1714285714285714 0.05 0.3 0.3 0.3 0.05 0.03999999999999999 0.2399999999999999 0.6399999999999999 0.03999999999999999 0.03999999999999999 0.02222222222222222 0.02222222222222222 0.7999999999999999 0.1333333333333333 0.02222222222222222 0.06666666666666667 0.4 0.06666666666666667 0.4 0.06666666666666667 0.2 0.2 0.2 0.2 0.2 0.2 0.2 0.2 0.2 0.2 0.2 0.2 0.2 0.2 0.2</probabilities>
		</cpt>
		<cpt id="OA_HEIGHT">
			<state id="OA_Height1_below_97" />
			<state id="OA_Height2_97_208" />
			<state id="OA_Height3_208_up" />
			<parents>GV_MODELYR OA_MAIS</parents>
			<probabilities>0.001065935739302573 0.9987817877265112 0.0001522765341860819 0.003463203463203464 0.9956709956709958 0.0008658008658008659 0.006802721088435373 0.9863945578231292 0.006802721088435373 0.008547008547008544 0.9829059829059827 0.008547008547008544 0.02564102564102564 0.9487179487179487 0.02564102564102564 0.002072373664913119 0.9972899728997289 0.0006376534353578828 0.003325020781379884 0.9958437240232753 0.000831255195344971 0.008547008547008544 0.9829059829059827 0.008547008547008544 0.009009009009009007 0.9819819819819818 0.009009009009009007 0.02380952380952381 0.9523809523809523 0.02380952380952381 0.001508295625942685 0.9983408748114629 0.0001508295625942684 0.0009469696969696971 0.9981060606060608 0.0009469696969696971 0.006944444444444442 0.9861111111111109 0.006944444444444442 0.008130081300813007 0.9837398373983739 0.008130081300813007 0.02564102564102564 0.9487179487179487 0.02564102564102564 0.0001720874204095681 0.9996558251591809 0.0001720874204095681 0.0009950248756218907 0.9980099502487563 0.0009950248756218907 0.02962962962962962 0.9629629629629629 0.007407407407407406 0.01282051282051282 0.9743589743589743 0.01282051282051282 0.03333333333333333 0.9333333333333332 0.03333333333333333 0.001889644746787604 0.9979213907785338 0.0001889644746787604 0.0015220700152207 0.9969558599695586 0.0015220700152207 0.009523809523809521 0.9809523809523809 0.009523809523809521 0.01449275362318841 0.9710144927536233 0.01449275362318841 0.02777777777777777 0.9444444444444443 0.02777777777777777 0.000827129859387924 0.9983457402812242 0.000827129859387924 0.001436781609195402 0.9971264367816091 0.001436781609195402 0.01333333333333334 0.9733333333333335 0.01333333333333334 0.01388888888888889 0.9722222222222223 0.01388888888888889 0.04166666666666667 0.9166666666666669 0.04166666666666667 0.001746506986027945 0.9980039920159682 0.000249500998003992 0.002032520325203252 0.9959349593495934 0.002032520325203252 0.01282051282051282 0.9743589743589743 0.01282051282051282 0.02777777777777777 0.9444444444444443 0.02777777777777777 0.04166666666666667 0.9166666666666669 0.04166666666666667 0.001972386587771204 0.9977458438996902 0.0002817695125387433 0.001904761904761904 0.9961904761904761 0.001904761904761904 0.01851851851851852 0.9629629629629631 0.01851851851851852 0.02380952380952381 0.9523809523809523 0.02380952380952381 0.04761904761904762 0.9047619047619049 0.04761904761904762 0.0003580379520229144 0.9971356963838167 0.002506265664160401 0.003267973856209151 0.9934640522875818 0.003267973856209151 0.03333333333333333 0.9333333333333332 0.03333333333333333 0.05555555555555556 0.888888888888889 0.05555555555555556 0.08333333333333333 0.8333333333333334 0.08333333333333333 0.0007407407407407408 0.9985185185185187 0.0007407407407407408 0.005291005291005291 0.9894179894179894 0.005291005291005291 0.04761904761904762 0.9047619047619049 0.04761904761904762 0.3333333333333333 0.3333333333333333 0.3333333333333333 0.08333333333333333 0.8333333333333334 0.08333333333333333 0.001096491228070176 0.9978070175438598 0.001096491228070176 0.009009009009009007 0.9819819819819818 0.009009009009009007 0.04761904761904762 0.9047619047619049 0.04761904761904762 0.06666666666666668 0.8666666666666668 0.06666666666666668 0.1111111111111111 0.7777777777777777 0.1111111111111111 0.002604166666666667 0.9947916666666669 0.002604166666666667 0.02380952380952381 0.9523809523809523 0.02380952380952381 0.08333333333333333 0.8333333333333334 0.08333333333333333 0.3333333333333333 0.3333333333333333 0.3333333333333333 0.3333333333333333 0.3333333333333333 0.3333333333333333 0.0303030303030303 0.9393939393939393 0.0303030303030303 0.3333333333333333 0.3333333333333333 0.3333333333333333 0.3333333333333333 0.3333333333333333 0.3333333333333333 0.3333333333333333 0.3333333333333333 0.3333333333333333 0.3333333333333333 0.3333333333333333 0.3333333333333333</probabilities>
		</cpt>
		<cpt id="OA_WEIGHT">
			<state id="OA_WEIGHT1_below_37" />
			<state id="OA_WEIGHT2_37_80" />
			<state id="OA_WEIGHT3_80_114" />
			<state id="OA_WEIGHT4_114_130" />
			<state id="OA_WEIGHT5_130_up" />
			<parents>OA_AGE OA_MAIS</parents>
			<probabilities>0.06666666666666667 0.4 0.4 0.06666666666666667 0.06666666666666667 0.2 0.2 0.2 0.2 0.2 0.2 0.2 0.2 0.2 0.2 0.2 0.2 0.2 0.2 0.2 0.2 0.2 0.2 0.2 0.2 0.0002233804914370812 0.6917721518987342 0.2774013402829487 0.01865227103499628 0.01195085629188384 0.0002789400278940028 0.6836820083682008 0.2778242677824267 0.02259414225941422 0.01562064156206415 0.002380952380952381 0.6809523809523809 0.288095238095238 0.01428571428571428 0.01428571428571428 0.003448275862068965 0.6586206896551723 0.296551724137931 0.003448275862068965 0.03793103448275861 0.009090909090909092 0.690909090909091 0.1454545454545455 0.1454545454545455 0.009090909090909092 3.269042170644002e-05 0.5422033344230142 0.4013076168682576 0.03288656423667866 0.02356979405034325 0.0002355712603062426 0.4914016489988221 0.4266195524146054 0.04734982332155477 0.03439340400471142 0.002380952380952381 0.4547619047619047 0.4666666666666666 0.03809523809523809 0.03809523809523809 0.003174603174603175 0.4317460317460317 0.4317460317460317 0.05079365079365079 0.08253968253968254 0.006666666666666668 0.3066666666666667 0.4400000000000001 0.1066666666666667 0.14 6.480881399870383e-05 0.4851587815942968 0.4569669475048607 0.03668178872326636 0.02112767336357745 0.0003642987249544627 0.4557377049180328 0.4539162112932604 0.04225865209471766 0.0477231329690346 0.003030303030303031 0.4575757575757576 0.4424242424242424 0.04848484848484849 0.04848484848484849 0.004761904761904762 0.3619047619047618 0.4333333333333333 0.1 0.1 0.008695652173913045 0.1826086956521739 0.6608695652173914 0.008695652173913045 0.1391304347826087 0.002052597819114817 0.582552918537524 0.3792174470814625 0.02578576010262989 0.01039127645926876 0.0005617977528089888 0.553932584269663 0.3825842696629214 0.03146067415730337 0.03146067415730337 0.002816901408450704 0.4816901408450703 0.4535211267605633 0.05915492957746478 0.002816901408450704 0.003448275862068965 0.5896551724137931 0.3655172413793102 0.02068965517241379 0.02068965517241379 0.01428571428571429 0.5142857142857142 0.3714285714285714 0.01428571428571429 0.0857142857142857</probabilities>
		</cpt>
		<cpt id="VE_WHEELBAS">
			<state id="VE_WHEELBAS1_below_164" />
			<state id="VE_WHEELBAS2_164_318" />
			<state id="VE_WHEELBAS3_318_375" />
			<state id="VE_WHEELBAS4_375_464" />
			<state id="VE_WHEELBAS5_464_up" />
			<parents>GV_FOOTPRINT OA_MAIS</parents>
			<probabilities>0.2 0.6999999999999998 0.03333333333333333 0.03333333333333333 0.03333333333333333 0.1 0.6000000000000001 0.1 0.1 0.1 0.2 0.2 0.2 0.2 0.2 0.2 0.2 0.2 0.2 0.2 0.2 0.2 0.2 0.2 0.2 1.630922286553046e-05 0.9996085786512272 0.0003424936801761396 1.630922286553046e-05 1.630922286553046e-05 0.0001037344398340249 0.9990663900414936 0.0006224066390041492 0.0001037344398340249 0.0001037344398340249 0.0008368200836820085 0.996652719665272 0.0008368200836820085 0.0008368200836820085 0.0008368200836820085 0.001081081081081081 0.9956756756756758 0.001081081081081081 0.001081081081081081 0.001081081081081081 0.002816901408450704 0.988732394366197 0.002816901408450704 0.002816901408450704 0.002816901408450704 7.280669821623591e-05 0.7914816163087004 0.2082999635966509 7.280669821623591e-05 7.280669821623591e-05 0.0005076142131979696 0.7644670050761422 0.234010152284264 0.0005076142131979696 0.0005076142131979696 0.003921568627450979 0.7686274509803921 0.2196078431372548 0.003921568627450979 0.003921568627450979 0.007692307692307693 0.8153846153846154 0.1615384615384615 0.007692307692307693 0.007692307692307693 0.01666666666666667 0.7666666666666667 0.1833333333333334 0.01666666666666667 0.01666666666666667 0.0002209944751381215 0.0002209944751381215 0.9913812154696132 0.007955801104972375 0.0002209944751381215 0.001626016260162602 0.001626016260162602 0.9934959349593495 0.001626016260162602 0.001626016260162602 0.02 0.02 0.9200000000000002 0.02 0.02 0.025 0.025 0.9 0.025 0.025 0.03999999999999999 0.03999999999999999 0.8399999999999999 0.03999999999999999 0.03999999999999999 0.0009216589861751154 0.0009216589861751154 0.03778801843317973 0.9548387096774195 0.005529953917050692 0.008000000000000002 0.008000000000000002 0.04800000000000001 0.9280000000000002 0.008000000000000002 0.03999999999999999 0.03999999999999999 0.03999999999999999 0.8399999999999999 0.03999999999999999 0.1 0.1 0.1 0.6000000000000001 0.1 0.2 0.2 0.2 0.2 0.2</probabilities>
		</cpt>
	</nodes>
	<extensions>
		<genie version="1.0" app="GeNIe 2.3.3828.0 ACADEMIC" name="vehicle_safety_final_binning" faultnameformat="nodestate">
			<node id="GV_CURBWGT">
				<name>GV_CURBWGT</name>
				<interior color="e5f6f7" />
				<outline color="000080" />
				<font color="000000" name="Arial" size="8" />
				<position>435 157 507 205</position>
			</node>
			<node id="GV_DVLAT">
				<name>GV_DVLAT</name>
				<interior color="e5f6f7" />
				<outline color="000080" />
				<font color="000000" name="Arial" size="8" />
				<position>417 211 489 259</position>
			</node>
			<node id="GV_DVLONG">
				<name>GV_DVLONG</name>
				<interior color="e5f6f7" />
				<outline color="000080" />
				<font color="000000" name="Arial" size="8" />
				<position>368 257 440 305</position>
			</node>
			<node id="GV_ENERGY">
				<name>GV_ENERGY</name>
				<interior color="e5f6f7" />
				<outline color="000080" />
				<font color="000000" name="Arial" size="8" />
				<position>295 285 367 333</position>
			</node>
			<node id="GV_LANES">
				<name>GV_LANES</name>
				<interior color="e5f6f7" />
				<outline color="000080" />
				<font color="000000" name="Arial" size="8" />
				<position>212 290 284 338</position>
			</node>
			<node id="GV_MODELYR">
				<name>GV_MODELYR</name>
				<interior color="e5f6f7" />
				<outline color="000080" />
				<font color="000000" name="Arial" size="8" />
				<position>133 273 205 321</position>
			</node>
			<node id="GV_OTVEHWGT">
				<name>GV_OTVEHWGT</name>
				<interior color="e5f6f7" />
				<outline color="000080" />
				<font color="000000" name="Arial" size="8" />
				<position>70 236 142 284</position>
			</node>
			<node id="GV_SPLIMIT">
				<name>GV_SPLIMIT</name>
				<interior color="e5f6f7" />
				<outline color="000080" />
				<font color="000000" name="Arial" size="8" />
				<position>36 184 108 232</position>
			</node>
			<node id="OA_AGE">
				<name>OA_AGE</name>
				<interior color="e5f6f7" />
				<outline color="000080" />
				<font color="000000" name="Arial" size="8" />
				<position>36 130 108 178</position>
			</node>
			<node id="OA_HEIGHT">
				<name>OA_HEIGHT</name>
				<interior color="e5f6f7" />
				<outline color="000080" />
				<font color="000000" name="Arial" size="8" />
				<position>70 78 142 126</position>
			</node>
			<node id="OA_MAIS">
				<name>OA_MAIS</name>
				<interior color="ffff80" />
				<outline color="000080" />
				<font color="000000" name="Arial" size="8" />
				<position>233 157 305 205</position>
			</node>
			<node id="OA_WEIGHT">
				<name>OA_WEIGHT</name>
				<interior color="e5f6f7" />
				<outline color="000080" />
				<font color="000000" name="Arial" size="8" />
				<position>132 41 204 89</position>
			</node>
			<node id="VE_ORIGAVTW">
				<name>VE_ORIGAVTW</name>
				<interior color="e5f6f7" />
				<outline color="000080" />
				<font color="000000" name="Arial" size="8" />
				<position>212 24 284 72</position>
			</node>
			<node id="VE_WHEELBAS">
				<name>VE_WHEELBAS</name>
				<interior color="e5f6f7" />
				<outline color="000080" />
				<font color="000000" name="Arial" size="8" />
				<position>295 29 367 77</position>
			</node>
			<node id="VE_PDOF_TR">
				<name>VE_PDOF_TR</name>
				<interior color="e5f6f7" />
				<outline color="000080" />
				<font color="000000" name="Arial" size="8" />
				<position>368 57 440 105</position>
			</node>
			<node id="GV_FOOTPRINT">
				<name>GV_FOOTPRINT</name>
				<interior color="e5f6f7" />
				<outline color="000080" />
				<font color="000000" name="Arial" size="8" />
				<position>417 103 489 151</position>
			</node>
			<textbox>
				<caption>Input file: vehicle_safety_final_binning.csv\nData rows: 19203\nElapsed time: 4.219s\n\nLearning algorithm: Tree Augmented Naive Bayes\nAlgorithm parameters:\nClass variable: OA_MAIS\nSeed: 500\nMax search time: 0\n\nEM Log Likelihood: -229086</caption>
				<font color="000000" name="Arial" size="8" />
				<position>10 358 247 512</position>
			</textbox>
		</genie>
	</extensions>
</smile>
