<?xml version="1.0" encoding="ISO-8859-1"?>
<!-- This network was created in GeNIe Academic, which can be used for educational and research purposes only -->
<smile version="1.0" id="vehicle_safety_final" numsamples="10000" discsamples="10000">
	<nodes>
		<cpt id="OA_MAIS">
			<state id="State0" />
			<state id="State1" />
			<state id="State2" />
			<state id="State3" />
			<state id="State4" />
			<state id="State5" />
			<state id="State6" />
			<probabilities>0.3811259559020441 0.4589743208260182 0.07900139851816584 0.04947629958044453 0.01568125688100693 0.01130716814949266 0.004433600142827386</probabilities>
		</cpt>
		<cpt id="GV_CURBWGT">
			<state id="s1_below_1280" />
			<state id="s2_1280_1470" />
			<state id="s3_1470_1610" />
			<state id="s4_1610_1910" />
			<state id="s5_1910_up" />
			<parents>OA_MAIS</parents>
			<probabilities>0.179672131147541 0.1929234972677596 0.1934699453551913 0.2050819672131148 0.2288524590163935 0.2025184344866705 0.2036528644356211 0.1995689166193988 0.2009302325581395 0.1933295519001702 0.2214756258234519 0.2155467720685112 0.1905138339920949 0.1898550724637681 0.1826086956521739 0.2410094637223975 0.2010515247108307 0.2 0.1884332281808622 0.1695057833859095 0.2622516556291391 0.1827814569536424 0.1894039735099338 0.2291390728476821 0.1364238410596026 0.2211009174311927 0.2761467889908257 0.2440366972477064 0.1660550458715596 0.0926605504587156 0.2 0.1883720930232558 0.2465116279069767 0.2 0.1651162790697674</probabilities>
		</cpt>
		<cpt id="GV_DVLAT">
			<state id="s1_below_n103" />
			<state id="s2_n103_n24" />
			<state id="s3_n24_43" />
			<state id="s4_43_99" />
			<state id="s5_99_up" />
			<parents>OA_MAIS</parents>
			<probabilities>2.732240437158471e-05 0.01532786885245902 0.9840437158469947 0.0005737704918032788 2.732240437158471e-05 0.0001361315938740783 0.02849688031764038 0.9699602949517866 0.00127056154282473 0.0001361315938740783 0.0001317523056653491 0.04888010540184453 0.9447957839262187 0.00606060606060606 0.0001317523056653491 0.001261829652996845 0.05278654048370137 0.9318611987381704 0.0138801261829653 0.0002103049421661409 0.0006622516556291392 0.1165562913907285 0.8516556291390729 0.0304635761589404 0.0006622516556291392 0.0009174311926605505 0.1293577981651376 0.8311926605504587 0.03761467889908257 0.0009174311926605505 0.002325581395348837 0.1883720930232558 0.7813953488372092 0.02558139534883721 0.002325581395348837</probabilities>
		</cpt>
		<cpt id="GV_DVLONG">
			<state id="s1_below_n112" />
			<state id="s2_n112_n81" />
			<state id="s3_n81_n40" />
			<state id="s4_n40_7" />
			<state id="s5_7_43" />
			<state id="s6_43_up" />
			<parents>OA_MAIS</parents>
			<probabilities>2.276867030965391e-05 0.0004326047358834243 0.01737249544626594 0.8647768670309652 0.1123178506375227 0.005077413479052822 1.890716581584421e-05 0.0005861221402911704 0.03564000756286633 0.8435810172055209 0.1131215730761959 0.007052372849309888 0.0007685551163812033 0.0007685551163812033 0.1134167764602547 0.8209266578831795 0.05083443126921387 0.01328502415458937 0.001226778829302489 0.006484402383456013 0.2262530669470733 0.7246757798808273 0.02961794602173152 0.01174202593760953 0.003863134657836645 0.02704194260485651 0.2058498896247241 0.7058498896247241 0.05022075055187638 0.007174392935982339 0.02370030581039756 0.03746177370030582 0.2163608562691132 0.6429663608562692 0.05581039755351683 0.02370030581039756 0.001937984496124031 0.03682170542635659 0.4321705426356589 0.4554263565891473 0.06007751937984496 0.01356589147286822</probabilities>
		</cpt>
		<cpt id="GV_ENERGY">
			<state id="s1_below_1607" />
			<state id="s2_1607_4282" />
			<state id="s3_4282_6970" />
			<state id="s4_6970_8231" />
			<state id="s5_8231_up" />
			<parents>OA_MAIS</parents>
			<probabilities>0.9840437158469947 0.01532786885245902 0.0005737704918032788 2.732240437158471e-05 2.732240437158471e-05 0.9721157118547928 0.02702212138400453 0.0008167895632444695 2.268859897901304e-05 2.268859897901304e-05 0.9006587615283267 0.08972332015810275 0.008036890645586296 0.0007905138339920947 0.0007905138339920947 0.7825446898002103 0.2 0.014931650893796 0.001261829652996845 0.001261829652996845 0.6827814569536425 0.2721854304635762 0.03708609271523179 0.003973509933774834 0.003973509933774834 0.4917431192660551 0.3770642201834863 0.1064220183486239 0.0009174311926605505 0.02385321100917431 0.2581395348837209 0.5604651162790697 0.141860465116279 0.002325581395348837 0.03720930232558139</probabilities>
		</cpt>
		<cpt id="GV_LANES">
			<state id="State1" />
			<state id="State2" />
			<state id="State3" />
			<state id="State4" />
			<state id="State5" />
			<state id="State6" />
			<state id="State7" />
			<parents>OA_MAIS</parents>
			<probabilities>0.02570257611241218 0.3732435597189696 0.1838992974238876 0.2017954722872756 0.1623145979703357 0.03403590944574551 0.01900858704137393 0.01771331334575804 0.3697269265051455 0.1858358317802447 0.2104529616724739 0.1604246009237501 0.03438943359533263 0.02145693217729519 0.01458686241294937 0.4170901562205911 0.1832298136645963 0.1964050442311313 0.1325051759834369 0.03500846979107849 0.02117447769621683 0.01066546492414 0.4533573681838666 0.1557758750187772 0.1883731410545291 0.1357969055129938 0.0327474838515848 0.02328376145410846 0.02696310312204351 0.4971617786187322 0.2024597918637654 0.1461684011352885 0.08987701040681172 0.02696310312204351 0.01040681173131504 0.0235910878112713 0.4777195281782438 0.1428571428571428 0.2437745740498034 0.07863695937090433 0.02817824377457405 0.005242463958060288 0.001661129568106313 0.4667774086378738 0.2109634551495017 0.1877076411960133 0.07142857142857144 0.0132890365448505 0.04817275747508306</probabilities>
		</cpt>
		<cpt id="GV_MODELYR">
			<state id="State2000" />
			<state id="State2001" />
			<state id="State2002" />
			<state id="State2003" />
			<state id="State2004" />
			<state id="State2005" />
			<state id="State2006" />
			<state id="State2007" />
			<state id="State2008" />
			<state id="State2009" />
			<state id="State2010" />
			<state id="State2011" />
			<state id="State2012" />
			<parents>OA_MAIS</parents>
			<probabilities>0.1302017654476671 0.1274695250105086 0.1343001261034048 0.1172236233711643 0.1058848255569567 0.1011034047919294 0.08949138293400587 0.07473728457335013 0.05807061790668347 0.02924548129466161 0.02173182009247582 0.009436738125262713 0.001103404791929382 0.1401108250796282 0.1312622714778131 0.1390898381255726 0.122300274881103 0.1120904053405471 0.09881757493782449 0.07714996291286703 0.0720450281425891 0.05729743880623063 0.02666783018456302 0.01634451764911209 0.006588420088136479 0.0002356123740128277 0.143660687138948 0.1594709638187899 0.1390493564406608 0.1377318333840073 0.08634843417452112 0.08239586500456066 0.07185568055133273 0.07646701124961995 0.0455052194182629 0.03167122732340124 0.01981351981351982 0.005979527718658154 5.067396371744199e-05 0.1746339885141147 0.166221790827469 0.1472943460325164 0.1315214753700558 0.09156353635848904 0.1115425058642724 0.05686322090107579 0.06106931974439861 0.03372967726280029 0.01480223246784761 0.006390034781201973 0.004286985359540564 8.088651621774651e-05 0.1591951095262353 0.1260825267447784 0.1558838512480896 0.1459500764136526 0.1128374936321956 0.07972491085073866 0.08303616912888435 0.05654610290371879 0.03005603667855323 0.02012226184411614 0.02012226184411614 0.01018848700967906 0.0002547121752419766 0.1746647847565279 0.1654904728299224 0.1838390966831334 0.1150317572335921 0.1012702893436838 0.1058574453069866 0.05081157374735355 0.05998588567395906 0.02328863796753704 0.0003528581510232887 0.0187014820042343 0.0003528581510232887 0.0003528581510232887 0.1404293381037567 0.1520572450805009 0.1404293381037567 0.1055456171735241 0.1288014311270125 0.08228980322003578 0.08228980322003578 0.07066189624329158 0.03577817531305903 0.03577817531305903 0.02415026833631485 0.0008944543828264761 0.0008944543828264761</probabilities>
		</cpt>
		<cpt id="GV_OTVEHWGT">
			<state id="s1_below_760" />
			<state id="s2_760_1355" />
			<state id="s3_1355_2075" />
			<state id="s4_2075_2835" />
			<state id="s5_2835_3730" />
			<state id="s6_3730_4320" />
			<state id="s7_4320_up" />
			<parents>OA_MAIS</parents>
			<probabilities>0.0008391881342701017 0.2740632318501172 0.6072599531615925 0.1108118657298985 0.006440281030444967 0.0002927400468384075 0.0002927400468384075 0.0009237501012883885 0.2582124625232964 0.6064824568511468 0.1246900575318046 0.00852443075925776 0.0008103071063933233 0.0003565351268130622 0.0007528703180877095 0.2207792207792209 0.6120835686053079 0.1562205910031997 0.009316770186335406 0.0007528703180877095 9.410878976096371e-05 0.0001502178158329578 0.1652395974162536 0.6394772420009014 0.1757548445245606 0.01592308847829353 0.0001502178158329578 0.003304791948325072 0.0004730368968779565 0.1494796594134342 0.6097445600756858 0.205771050141911 0.02365184484389782 0.003784295175023651 0.007095553453169346 0.0006553079947575362 0.1336828309305373 0.6107470511140236 0.2162516382699869 0.02817824377457405 0.009829619921363041 0.0006553079947575362 0.001661129568106313 0.1179401993355482 0.606312292358804 0.23421926910299 0.03654485049833887 0.001661129568106313 0.001661129568106313</probabilities>
		</cpt>
		<cpt id="GV_SPLIMIT">
			<state id="s1_below_7" />
			<state id="s2_7_17" />
			<state id="s3_17_37" />
			<state id="s4_37_57" />
			<state id="s5_57_up" />
			<parents>OA_MAIS</parents>
			<probabilities>0.006994535519125685 0.004125683060109291 0.4804918032786886 0.4436065573770492 0.06478142076502734 0.00603516732841747 0.002858763471355644 0.4409756097560976 0.4903233125354509 0.05980714690867839 0.006719367588932805 0.001449275362318841 0.3901185770750988 0.5205533596837945 0.08115942028985507 0.005467928496319664 0.00231335436382755 0.3303890641430073 0.5722397476340695 0.08958990536277603 0.01390728476821192 0.003973509933774834 0.3483443708609272 0.5304635761589405 0.1033112582781457 0.01009174311926606 0.005504587155963303 0.2853211009174312 0.5926605504587156 0.1064220183486239 0.002325581395348837 0.002325581395348837 0.2 0.6883720930232557 0.1069767441860465</probabilities>
		</cpt>
		<cpt id="GV_WGTCDTR">
			<state id="SPassenger_Car" />
			<state id="STruck____10000_lbs__" />
			<state id="STruck____6000_lbs__" />
			<parents>OA_MAIS</parents>
			<probabilities>0.5944444444444446 0.1462204007285975 0.2593351548269581 0.6207978823974286 0.1148421251654377 0.2643599924371337 0.6194554238032499 0.1181379007465964 0.2624066754501537 0.639677532422012 0.1160182264283211 0.244304241149667 0.6997792494481236 0.07726269315673288 0.2229580573951435 0.7217125382262997 0.07033639143730887 0.2079510703363914 0.7131782945736435 0.06201550387596899 0.2248062015503876</probabilities>
		</cpt>
		<cpt id="OA_AGE">
			<state id="s1_below_16" />
			<state id="s2_16_32" />
			<state id="s3_32_48" />
			<state id="s4_48_64" />
			<state id="s5_64_80" />
			<state id="s6_80_up" />
			<parents>OA_MAIS</parents>
			<probabilities>0.01969489981785064 0.4179189435336976 0.286771402550091 0.18158014571949 0.07789162112932604 0.01614298724954463 0.01272452259406315 0.3891283796558896 0.3001890716581585 0.1991113632066554 0.08124409151068257 0.01760257137455096 0.01064997804128239 0.3637461572244181 0.2715195432586737 0.2109134826526131 0.1055116381203338 0.03765920070267896 0.009638976515948123 0.3314055380301437 0.273571678934455 0.2399228881878724 0.0958640028040659 0.04959691552751489 0.01048565121412803 0.3383002207505518 0.2025386313465783 0.2157836644591611 0.1826710816777042 0.05022075055187637 0.01452599388379205 0.29434250764526 0.2392966360856269 0.1888379204892966 0.1704892966360856 0.09250764525993885 0.03682170542635658 0.2810077519379844 0.2693798449612403 0.2577519379844961 0.09496124031007749 0.06007751937984496</probabilities>
		</cpt>
		<cpt id="OA_BAGDEPLY">
			<state id="Deployed" />
			<state id="SNot_Deployed" />
			<parents>OA_MAIS</parents>
			<probabilities>0.2935109289617486 0.7064890710382513 0.5297220646625072 0.4702779353374929 0.6940052700922267 0.3059947299077734 0.770241850683491 0.2297581493165089 0.6506622516556292 0.3493377483443709 0.6903669724770642 0.3096330275229358 0.8081395348837209 0.1918604651162791</probabilities>
		</cpt>
		<cpt id="OA_HEIGHT">
			<state id="s1_below_97" />
			<state id="s2_97_138" />
			<state id="s3_138_171" />
			<state id="s4_171_208" />
			<state id="s5_208_up" />
			<parents>OA_MAIS</parents>
			<probabilities>0.001120218579234973 0.001256830601092896 0.4866393442622952 0.5108196721311477 0.0001639344262295082 0.001157118547929665 0.0010436755530346 0.5673511060692003 0.4301985252410663 0.0002495745887691435 0.0001317523056653491 0.0007905138339920947 0.5455862977602107 0.4533596837944664 0.0001317523056653491 0.00231335436382755 0.001261829652996845 0.4965299684542587 0.4996845425867508 0.0002103049421661409 0.003973509933774834 0.0006622516556291392 0.4841059602649007 0.5105960264900663 0.0006622516556291392 0.0009174311926605505 0.0009174311926605505 0.4917431192660551 0.5055045871559634 0.0009174311926605505 0.002325581395348837 0.002325581395348837 0.4906976744186046 0.5023255813953488 0.002325581395348837</probabilities>
		</cpt>
		<cpt id="OA_SEX">
			<state id="Female" />
			<state id="Male" />
			<parents>OA_MAIS</parents>
			<probabilities>0.4247950819672131 0.5752049180327868 0.5647759500850823 0.4352240499149178 0.5135046113306984 0.4864953886693018 0.4978969505783385 0.5021030494216614 0.4619205298013245 0.5380794701986755 0.4105504587155964 0.5894495412844037 0.3430232558139535 0.6569767441860465</probabilities>
		</cpt>
		<cpt id="OA_WEIGHT">
			<state id="s1_below_37" />
			<state id="s2_37_62" />
			<state id="s3_62_80" />
			<state id="s4_80_96" />
			<state id="s5_96_114" />
			<state id="s6_114_130" />
			<state id="s7_130_up" />
			<parents>OA_MAIS</parents>
			<probabilities>0.000702576112412178 0.2076697892271663 0.3776151444184231 0.2726971116315379 0.104527712724434 0.0217408274785324 0.01504683840749414 1.620614212786646e-05 0.2219107041568755 0.3630337898063367 0.2441455311563083 0.1194716797666315 0.03121302973827081 0.02020905923344948 9.410878976096371e-05 0.1937699981178242 0.3610954263128177 0.2708450969320536 0.1134010916619612 0.03961980048936572 0.02117447769621683 0.0001502178158329578 0.1831155175003755 0.3418957488358119 0.2661859696560012 0.131590806669671 0.03064443442992339 0.04641730509238396 0.0004730368968779565 0.1792809839167455 0.3382213812677388 0.2653736991485335 0.1494796594134342 0.0402081362346263 0.02696310312204351 0.0006553079947575362 0.1979030144167759 0.3309305373525557 0.2162516382699869 0.1520314547837484 0.04193971166448231 0.06028833551769332 0.001661129568106313 0.1295681063122924 0.292358803986711 0.2109634551495017 0.1993355481727575 0.07142857142857144 0.09468438538205981</probabilities>
		</cpt>
		<cpt id="VE_ORIGAVTW">
			<state id="s1_below_116" />
			<state id="s2_116_141" />
			<state id="s3_141_151" />
			<state id="s4_151_159" />
			<state id="s5_159_169" />
			<state id="s6_169_179" />
			<state id="s7_179_up" />
			<parents>OA_MAIS</parents>
			<probabilities>1.95160031225605e-05 0.01122170179547229 0.3520686963309914 0.4031615925058548 0.1571233411397346 0.07488290398126463 0.001522248243559719 1.620614212786646e-05 0.01102017664694919 0.3772141641682198 0.4115873916214245 0.1413661777813791 0.05719147556924074 0.00160440807065878 0.0007528703180877095 0.0178806700545831 0.3881046489742143 0.4131375870506306 0.1239412761151892 0.05543007716920761 0.0007528703180877095 0.0001502178158329578 0.01276851434580141 0.4197085774372841 0.3902658855340244 0.1347453808021631 0.04115968153823044 0.001201742526663662 0.0004730368968779565 0.02034058656575213 0.4044465468306527 0.3746452223273415 0.1759697256385998 0.02365184484389782 0.0004730368968779565 0.0006553079947575362 0.01900393184796855 0.418086500655308 0.418086500655308 0.1199213630406291 0.0235910878112713 0.0006553079947575362 0.001661129568106313 0.03654485049833887 0.420265780730897 0.3504983388704319 0.1528239202657807 0.03654485049833887 0.001661129568106313</probabilities>
		</cpt>
		<cpt id="VE_WHEELBAS">
			<state id="s1_below_164" />
			<state id="s2_164_234" />
			<state id="s3_234_318" />
			<state id="s4_318_375" />
			<state id="s5_375_464" />
			<state id="s6_464_up" />
			<parents>OA_MAIS</parents>
			<probabilities>0.0001593806921675774 0.001388888888888889 0.8754326047358832 0.1069899817850637 0.0160063752276867 2.276867030965391e-05 1.890716581584421e-05 0.001266780109661562 0.9082435242957081 0.07920211760257137 0.01113632066553224 0.0001323501607109094 0.0001097935880544576 0.0007685551163812033 0.902613087395696 0.08640755379885813 0.009991216512955642 0.0001097935880544576 0.0001752541184717841 0.001226778829302489 0.8992288818787243 0.0906063792499124 0.008587451805117422 0.0001752541184717841 0.0005518763796909492 0.0005518763796909492 0.9177704194260485 0.06677704194260485 0.01379690949227373 0.0005518763796909492 0.0007645259938837922 0.005351681957186545 0.9365443425076453 0.05122324159021407 0.005351681957186545 0.0007645259938837922 0.001937984496124031 0.001937984496124031 0.9205426356589146 0.07170542635658914 0.001937984496124031 0.001937984496124031</probabilities>
		</cpt>
		<cpt id="VE_PDOF_TR">
			<state id="s1_below_80" />
			<state id="s2_80_160" />
			<state id="s3_160_220" />
			<state id="s4_220_260" />
			<state id="s5_260_up" />
			<parents>OA_MAIS</parents>
			<probabilities>0.08691256830601095 0.6181967213114755 0.1739344262295082 0.01218579234972678 0.1087704918032787 0.09259217243335224 0.5909472490073738 0.1941236528644356 0.01091321610890528 0.1114237095859331 0.1114624505928854 0.6332015810276679 0.1898550724637681 0.007378129117259551 0.05810276679841897 0.1484752891692954 0.6689800210304943 0.1411146161934805 0.009674027339642481 0.03175604626708727 0.2324503311258279 0.5172185430463576 0.1695364238410596 0.03377483443708609 0.04701986754966888 0.2302752293577982 0.4963302752293579 0.1706422018348624 0.02385321100917431 0.07889908256880734 0.141860465116279 0.5488372093023255 0.1767441860465116 0.07209302325581395 0.06046511627906976</probabilities>
		</cpt>
		<cpt id="GV_FOOTPRINT">
			<state id="s1_below_2" />
			<state id="s2_2_4" />
			<state id="s3_4_4" />
			<state id="s4_4_5" />
			<state id="s5_5_5" />
			<state id="s6_5_6" />
			<state id="s7_6_7" />
			<state id="s8_7_up" />
			<parents>OA_MAIS</parents>
			<probabilities>0.0004269125683060109 0.4250170765027322 0.3759733606557377 0.1001536885245902 0.03184767759562841 0.05042691256830601 0.01449795081967213 0.001656420765027322 0.0002410663641520136 0.4616137266023823 0.3732416335791265 0.09178956324446966 0.02599262620533182 0.0358621667612025 0.01011060692002269 0.001148610323312535 0.000741106719367589 0.4875658761528327 0.3577898550724638 0.0844038208168643 0.0224802371541502 0.03697299077733861 0.00996376811594203 8.234519104084322e-05 0.0001314405888538381 0.4932965299684542 0.3534437434279705 0.07689274447949526 0.02536803364879074 0.04114090431125132 0.008543638275499473 0.001182965299684543 0.0004139072847682119 0.4739238410596027 0.3911423841059603 0.07988410596026491 0.01697019867549669 0.02359271523178808 0.01365894039735099 0.0004139072847682119 0.0005733944954128441 0.4913990825688074 0.4088302752293578 0.05561926605504587 0.009747706422018349 0.02809633027522936 0.005160550458715597 0.0005733944954128441 0.001453488372093023 0.501453488372093 0.3851744186046512 0.04796511627906977 0.03633720930232558 0.02470930232558139 0.001453488372093023 0.001453488372093023</probabilities>
		</cpt>
	</nodes>
	<extensions>
		<genie version="1.0" app="GeNIe 2.3.3828.0 ACADEMIC" name="vehicle_safety_final" faultnameformat="nodestate">
			<node id="GV_CURBWGT">
				<name>GV_CURBWGT</name>
				<interior color="e5f6f7" />
				<outline color="000080" />
				<font color="000000" name="Arial" size="8" />
				<position>518 182 590 230</position>
			</node>
			<node id="GV_DVLAT">
				<name>GV_DVLAT</name>
				<interior color="e5f6f7" />
				<outline color="000080" />
				<font color="000000" name="Arial" size="8" />
				<position>503 236 575 284</position>
			</node>
			<node id="GV_DVLONG">
				<name>GV_DVLONG</name>
				<interior color="e5f6f7" />
				<outline color="000080" />
				<font color="000000" name="Arial" size="8" />
				<position>461 285 533 333</position>
			</node>
			<node id="GV_ENERGY">
				<name>GV_ENERGY</name>
				<interior color="e5f6f7" />
				<outline color="000080" />
				<font color="000000" name="Arial" size="8" />
				<position>397 321 469 369</position>
			</node>
			<node id="GV_LANES">
				<name>GV_LANES</name>
				<interior color="e5f6f7" />
				<outline color="000080" />
				<font color="000000" name="Arial" size="8" />
				<position>318 340 390 388</position>
			</node>
			<node id="GV_MODELYR">
				<name>GV_MODELYR</name>
				<interior color="e5f6f7" />
				<outline color="000080" />
				<font color="000000" name="Arial" size="8" />
				<position>236 340 308 388</position>
			</node>
			<node id="GV_OTVEHWGT">
				<name>GV_OTVEHWGT</name>
				<interior color="e5f6f7" />
				<outline color="000080" />
				<font color="000000" name="Arial" size="8" />
				<position>157 321 229 369</position>
			</node>
			<node id="GV_SPLIMIT">
				<name>GV_SPLIMIT</name>
				<interior color="e5f6f7" />
				<outline color="000080" />
				<font color="000000" name="Arial" size="8" />
				<position>93 285 165 333</position>
			</node>
			<node id="GV_WGTCDTR">
				<name>GV_WGTCDTR</name>
				<interior color="e5f6f7" />
				<outline color="000080" />
				<font color="000000" name="Arial" size="8" />
				<position>51 236 123 284</position>
			</node>
			<node id="OA_AGE">
				<name>OA_AGE</name>
				<interior color="e5f6f7" />
				<outline color="000080" />
				<font color="000000" name="Arial" size="8" />
				<position>36 182 108 230</position>
			</node>
			<node id="OA_BAGDEPLY">
				<name>OA_BAGDEPLY</name>
				<interior color="e5f6f7" />
				<outline color="000080" />
				<font color="000000" name="Arial" size="8" />
				<position>51 128 123 176</position>
			</node>
			<node id="OA_HEIGHT">
				<name>OA_HEIGHT</name>
				<interior color="e5f6f7" />
				<outline color="000080" />
				<font color="000000" name="Arial" size="8" />
				<position>93 79 165 127</position>
			</node>
			<node id="OA_MAIS">
				<name>OA_MAIS</name>
				<interior color="ffff80" />
				<outline color="000080" />
				<font color="000000" name="Arial" size="8" />
				<position>277 182 349 230</position>
			</node>
			<node id="OA_SEX">
				<name>OA_SEX</name>
				<interior color="e5f6f7" />
				<outline color="000080" />
				<font color="000000" name="Arial" size="8" />
				<position>157 43 229 91</position>
			</node>
			<node id="OA_WEIGHT">
				<name>OA_WEIGHT</name>
				<interior color="e5f6f7" />
				<outline color="000080" />
				<font color="000000" name="Arial" size="8" />
				<position>236 24 308 72</position>
			</node>
			<node id="VE_ORIGAVTW">
				<name>VE_ORIGAVTW</name>
				<interior color="e5f6f7" />
				<outline color="000080" />
				<font color="000000" name="Arial" size="8" />
				<position>318 24 390 72</position>
			</node>
			<node id="VE_WHEELBAS">
				<name>VE_WHEELBAS</name>
				<interior color="e5f6f7" />
				<outline color="000080" />
				<font color="000000" name="Arial" size="8" />
				<position>397 43 469 91</position>
			</node>
			<node id="VE_PDOF_TR">
				<name>VE_PDOF_TR</name>
				<interior color="e5f6f7" />
				<outline color="000080" />
				<font color="000000" name="Arial" size="8" />
				<position>461 79 533 127</position>
			</node>
			<node id="GV_FOOTPRINT">
				<name>GV_FOOTPRINT</name>
				<interior color="e5f6f7" />
				<outline color="000080" />
				<font color="000000" name="Arial" size="8" />
				<position>503 128 575 176</position>
			</node>
			<textbox>
				<caption>Input file: vehicle_safety_final.gdat\nData rows: 19203\nElapsed time: 3.531s\n\nLearning algorithm: Naive Bayes\nAlgorithm parameters:\nClass variable: OA_MAIS\n\nEM Log Likelihood: -369610</caption>
				<font color="000000" name="Arial" size="8" />
				<position>10 408 177 534</position>
			</textbox>
		</genie>
	</extensions>
</smile>
