<?xml version="1.0" encoding="ISO-8859-1"?>
<!-- This network was created in GeNIe Academic, which can be used for educational and research purposes only -->
<smile version="1.0" id="vehicle_safety_final_binning" numsamples="10000" discsamples="10000">
	<nodes>
		<cpt id="OA_MAIS">
			<state id="OA_MAIS1_below_1" />
			<state id="OA_MAIS2_1_3" />
			<state id="OA_MAIS3_3_4" />
			<state id="OA_MAIS4_4_5" />
			<state id="OA_MAIS5_5_up" />
			<probabilities>0.840095813372214 0.1284732347427619 0.01568423245157258 0.01131014372005832 0.004436575713393042</probabilities>
		</cpt>
		<cpt id="GV_CURBWGT">
			<state id="GV_WT1_below_885" />
			<state id="GV_WT2_885_1695" />
			<state id="GV_WT3_1695_2555" />
			<state id="GV_WT4_2555_3715" />
			<state id="GV_WT5_3715_up" />
			<parents>OA_MAIS</parents>
			<probabilities>0.0008801289202925497 0.6509359117391843 0.3195239866121234 0.02815172926738564 0.0005082434610140076 8.103727714748785e-05 0.6921393841166936 0.2837115072933549 0.02317666126418153 0.0008914100486223664 0.003973509933774834 0.7059602649006623 0.2688741721854305 0.02052980132450331 0.0006622516556291392 0.0009174311926605505 0.771559633027523 0.2119266055045872 0.01467889908256881 0.0009174311926605505 0.002325581395348837 0.7232558139534883 0.2232558139534883 0.04883720930232557 0.002325581395348837</probabilities>
		</cpt>
		<cpt id="GV_DVLAT">
			<state id="GV_DVLAT1_below_n76" />
			<state id="GV_DVLAT2_n76_n24" />
			<state id="GV_DVLAT3_n24_43" />
			<state id="GV_DVLAT4_43_99" />
			<state id="GV_DVLAT5_99_up" />
			<parents>OA_MAIS</parents>
			<probabilities>0.0001983389116152225 0.02164373373001115 0.9771414404363455 0.0009421098301723068 7.437709185570843e-05 0.002512155591572124 0.04870340356564021 0.9388978930307943 0.00980551053484603 8.103727714748786e-05 0.0006622516556291392 0.1099337748344371 0.86158940397351 0.0271523178807947 0.0006622516556291392 0.0009174311926605505 0.1293577981651376 0.8311926605504587 0.03761467889908257 0.0009174311926605505 0.03720930232558139 0.141860465116279 0.7813953488372092 0.03720930232558139 0.002325581395348837</probabilities>
		</cpt>
		<cpt id="GV_DVLONG">
			<state id="GVDV_LONG1_below_n64" />
			<state id="GVDV_LONG2_n64_71" />
			<state id="GVDV_LONG3_71_up" />
			<parents>OA_MAIS</parents>
			<probabilities>0.00256187760836329 0.9972935002685839 0.0001446221230527664 0.02323068611561318 0.9762290653700701 0.0005402485143165855 0.0706401766004415 0.924944812362031 0.004415011037527594 0.1345565749235474 0.8593272171253822 0.006116207951070336 0.2248062015503876 0.7713178294573644 0.003875968992248062</probabilities>
		</cpt>
		<cpt id="GV_ENERGY">
			<state id="GV_Energy1_below_3274" />
			<state id="GV_Energy2_3274_6970" />
			<state id="GV_Energy3_6970_up" />
			<parents>OA_MAIS</parents>
			<probabilities>0.9975414239081029 0.002437915788603777 2.066030329325234e-05 0.9758238789843326 0.02282549972987574 0.001350621285791464 0.9050772626931568 0.08719646799116998 0.00772626931567329 0.7859327217125381 0.1941896024464832 0.01987767584097859 0.5387596899224807 0.3875968992248062 0.07364341085271317</probabilities>
		</cpt>
		<cpt id="GV_LANES">
			<state id="State1" />
			<state id="State2" />
			<state id="State3" />
			<state id="State4" />
			<state id="State5" />
			<state id="State6" />
			<state id="State7" />
			<parents>OA_MAIS</parents>
			<probabilities>0.02033859285625742 0.02133028741433353 0.3712745045954418 0.1850218704067719 0.2065292461350476 0.161283181922825 0.034222316669323 0.02193794859921278 0.01302384811298912 0.4311761981940263 0.1726672840935402 0.1933317897661495 0.133769391062746 0.03409354017133595 0.01040681173131504 0.02696310312204351 0.4971617786187322 0.2024597918637654 0.1461684011352885 0.08987701040681172 0.02696310312204351 0.005242463958060288 0.0235910878112713 0.4777195281782438 0.1428571428571428 0.2437745740498034 0.07863695937090433 0.02817824377457405 0.04817275747508306 0.001661129568106312 0.4667774086378738 0.2109634551495017 0.1877076411960133 0.07142857142857144 0.0132890365448505</probabilities>
		</cpt>
		<cpt id="GV_MODELYR">
			<state id="State2000" />
			<state id="State2001" />
			<state id="State2002" />
			<state id="State2003" />
			<state id="State2004" />
			<state id="State2005" />
			<state id="State2006" />
			<state id="State2007" />
			<state id="State2008" />
			<state id="State2009" />
			<state id="State2010" />
			<state id="State2011" />
			<state id="State2012" />
			<parents>OA_MAIS</parents>
			<probabilities>0.1356189985792068 0.1295448694109906 0.1369205976866817 0.1199998092895081 0.1092771118803101 0.09985601357858703 0.0827492824517741 0.07326620324017127 0.05764701395047249 0.02783419629830935 0.01878498345586483 0.007876343317027587 0.0006245768610960132 0.1556227403066949 0.1621057224784939 0.1422515895773594 0.135363421019823 0.08836180027428001 0.09362922328886672 0.06607654905872085 0.07053359930183269 0.04095499314299963 0.0251527240992395 0.01461787807006608 0.005298591198104974 3.116818351826455e-05 0.1591951095262353 0.1260825267447784 0.1558838512480896 0.1459500764136526 0.1128374936321956 0.07972491085073866 0.08303616912888435 0.05654610290371879 0.03005603667855323 0.02012226184411614 0.02012226184411614 0.01018848700967906 0.0002547121752419766 0.1746647847565279 0.1654904728299224 0.1838390966831334 0.1150317572335921 0.1012702893436838 0.1058574453069866 0.05081157374735355 0.05998588567395906 0.02328863796753704 0.0003528581510232886 0.0187014820042343 0.0003528581510232886 0.0003528581510232886 0.1404293381037567 0.1520572450805009 0.1404293381037567 0.1055456171735241 0.1288014311270125 0.08228980322003578 0.08228980322003578 0.07066189624329158 0.03577817531305903 0.03577817531305903 0.02415026833631485 0.0008944543828264759 0.0008944543828264759</probabilities>
		</cpt>
		<cpt id="GV_OTVEHWGT">
			<state id="GV_OTVEHWGT1_below_730" />
			<state id="GV_OTVEHWGT2_730_1935" />
			<state id="GV_OTVEHWGT3_1935_2655" />
			<state id="GV_OTVEHWGT4_2655_3730" />
			<state id="GV_OTVEHWGT5_3730_up" />
			<parents>OA_MAIS</parents>
			<probabilities>0.0006322052807735217 0.8118383537870335 0.1700880128920292 0.01643733730011156 0.001004090740052064 0.000486223662884927 0.7529173419773095 0.2176661264181524 0.02763371150729335 0.001296596434359806 0.0006622516556291392 0.7026490066225166 0.2423841059602649 0.04370860927152318 0.01059602649006623 0.0009174311926605505 0.6660550458715596 0.2990825688073395 0.02844036697247707 0.005504587155963303 0.002325581395348837 0.5837209302325581 0.3162790697674418 0.0953488372093023 0.002325581395348837</probabilities>
		</cpt>
		<cpt id="GV_SPLIMIT">
			<state id="State0" />
			<state id="State3" />
			<state id="State5" />
			<state id="State10" />
			<state id="State15" />
			<state id="State20" />
			<state id="State25" />
			<state id="State30" />
			<state id="State35" />
			<state id="State40" />
			<state id="State45" />
			<state id="State50" />
			<state id="State55" />
			<state id="State60" />
			<state id="State65" />
			<state id="State70" />
			<state id="State75" />
			<parents>OA_MAIS</parents>
			<probabilities>0.00607777510409147 0.00335061506938216 0.0908676598195991 3.645935875279826e-06 0.1183252028963315 0.000313550485274065 0.2461918199782702 0.1246472557040667 0.200078023027731 0.04934045020016188 0.0005614741247930931 0.09483443805190354 0.02188290712342952 0.02070526983571413 0.01903178526896069 0.00273080597058459 0.001057321403831149 0.005291257507865382 0.002454952807703308 0.06242253789684431 0.0004290208790161121 0.1033463628563257 0.0004290208790161121 0.1993755362760988 0.1223901229859853 0.214367432548384 0.06161216512536943 0.0004290208790161121 0.1414338831156449 0.02757650872342454 0.03162837258079893 0.02352464486605015 0.00123939365049099 0.002049766421965869 0.01012855473315154 0.01012855473315154 0.06310868718348266 0.0001947798987144526 0.102843786521231 0.003506038176860148 0.1690689520841449 0.1293338527463966 0.179002726918582 0.06641994546162835 0.0001947798987144526 0.1591351772497078 0.02006232956758862 0.0366186209583171 0.04655239579275418 0.003506038176860148 0.0001947798987144526 0.009444144630329193 0.004856988667026443 0.04614139233675121 0.0002698327037236913 0.08742579600647597 0.0002698327037236913 0.1470588235294118 0.1516459794927145 0.179168915272531 0.05072854830005396 0.0002698327037236913 0.2112790070156503 0.05072854830005396 0.03237992444684295 0.02320561252023745 0.004856988667026443 0.0002698327037236913 0.0006839945280437756 0.0006839945280437756 0.01231190150478796 0.0006839945280437756 0.07045143638850888 0.0006839945280437756 0.1169630642954856 0.1634746922024624 0.1867305061559507 0.07045143638850888 0.0006839945280437756 0.2681258549931601 0.08207934336525308 0.0006839945280437756 0.02393980848153214 0.0006839945280437756 0.0006839945280437756</probabilities>
		</cpt>
		<cpt id="OA_AGE">
			<state id="OA_AGE1_below_11" />
			<state id="OA_AGE2_11_28" />
			<state id="OA_AGE3_28_48" />
			<state id="OA_AGE4_48_64" />
			<state id="OA_AGE5_64_up" />
			<parents>OA_MAIS</parents>
			<probabilities>0.0001363580017354655 0.332911863146151 0.3791496219164497 0.1912235031610264 0.09657865377463742 8.103727714748785e-05 0.290194489465154 0.3436790923824959 0.2221231766612642 0.1439222042139384 0.0006622516556291391 0.2754966887417218 0.2754966887417218 0.2158940397350994 0.2324503311258278 0.0009174311926605505 0.2623853211009174 0.2853211009174312 0.1889908256880734 0.2623853211009174 0.002325581395348837 0.2465116279069767 0.3395348837209302 0.2581395348837209 0.1534883720930232</probabilities>
		</cpt>
		<cpt id="OA_HEIGHT">
			<state id="OA_Height1_below_97" />
			<state id="OA_Height2_97_208" />
			<state id="OA_Height3_208_up" />
			<parents>OA_MAIS</parents>
			<probabilities>0.001074335771249122 0.9986570802859385 0.0002685839428122804 0.0009454349000540248 0.9989195029713667 0.0001350621285791464 0.004415011037527594 0.9944812362030906 0.001103752759381898 0.001529051987767584 0.9969418960244647 0.001529051987767584 0.003875968992248062 0.992248062015504 0.003875968992248062</probabilities>
		</cpt>
		<cpt id="OA_WEIGHT">
			<state id="OA_WEIGHT1_below_37" />
			<state id="OA_WEIGHT2_37_80" />
			<state id="OA_WEIGHT3_80_114" />
			<state id="OA_WEIGHT4_114_130" />
			<state id="OA_WEIGHT5_130_up" />
			<parents>OA_MAIS</parents>
			<probabilities>0.0002603198214949795 0.5850502045370026 0.368612867236891 0.02815172926738564 0.01792487913722573 8.103727714748785e-05 0.5487034035656402 0.383387358184765 0.03654781199351702 0.03128038897893031 0.0006622516556291392 0.5271523178807948 0.4112582781456954 0.03708609271523179 0.02384105960264901 0.0009174311926605505 0.5238532110091744 0.381651376146789 0.03761467889908257 0.05596330275229358 0.002325581395348837 0.4093023255813953 0.4209302325581395 0.07209302325581395 0.0953488372093023</probabilities>
		</cpt>
		<cpt id="VE_ORIGAVTW">
			<state id="VE_ORIGATW1_below_116" />
			<state id="VE_ORIGATW2_116_141" />
			<state id="VE_ORIGATW3_141_159" />
			<state id="VE_ORIGATW4_159_179" />
			<state id="VE_ORIGATW5_179_up" />
			<parents>OA_MAIS</parents>
			<probabilities>1.239618197595141e-05 0.01098301723069295 0.7711168959960332 0.2162637907524482 0.001623899838849634 0.000486223662884927 0.01304700162074554 0.8043760129659643 0.1816045380875203 0.000486223662884927 0.0006622516556291392 0.01721854304635762 0.785430463576159 0.1960264900662252 0.0006622516556291392 0.0009174311926605505 0.01926605504587156 0.8357798165137614 0.1431192660550459 0.0009174311926605505 0.002325581395348837 0.03720930232558139 0.769767441860465 0.1883720930232558 0.002325581395348837</probabilities>
		</cpt>
		<cpt id="VE_WHEELBAS">
			<state id="VE_WHEELBAS1_below_164" />
			<state id="VE_WHEELBAS2_164_318" />
			<state id="VE_WHEELBAS3_318_375" />
			<state id="VE_WHEELBAS4_375_464" />
			<state id="VE_WHEELBAS5_464_up" />
			<parents>OA_MAIS</parents>
			<probabilities>7.437709185570843e-05 0.8947688112061485 0.09180612371389611 0.01327631089624396 7.437709185570843e-05 8.103727714748786e-05 0.9028363047001622 0.08760129659643437 0.009400324149108592 8.103727714748786e-05 0.0006622516556291392 0.9178807947019868 0.06688741721854305 0.01390728476821192 0.0006622516556291392 0.0009174311926605505 0.9412844036697248 0.05137614678899083 0.005504587155963303 0.0009174311926605505 0.002325581395348837 0.9209302325581394 0.07209302325581395 0.002325581395348837 0.002325581395348837</probabilities>
		</cpt>
		<cpt id="VE_PDOF_TR">
			<state id="VE_PDOF_TR1_below_80" />
			<state id="VE_PDOF_TR2_80_160" />
			<state id="VE_PDOF_TR3_160_220" />
			<state id="VE_PDOF_TR4_220_260" />
			<state id="VE_PDOF_TR5_260_up" />
			<parents>OA_MAIS</parents>
			<probabilities>0.09100037188545927 0.6037684393206892 0.1846535267137721 0.011478864509731 0.1090987975703483 0.1260940032414911 0.6459481361426256 0.1722852512155592 0.007779578606158832 0.04789303079416531 0.2324503311258279 0.5172185430463576 0.1695364238410596 0.03377483443708609 0.04701986754966888 0.2302752293577982 0.4963302752293579 0.1706422018348624 0.02385321100917431 0.07889908256880734 0.141860465116279 0.5488372093023255 0.1883720930232558 0.07209302325581395 0.04883720930232557</probabilities>
		</cpt>
		<cpt id="GV_FOOTPRINT">
			<state id="GV_FOOTPRINT1_below_2" />
			<state id="GV_FOOTPRINT2_2_4" />
			<state id="GV_FOOTPRINT3_4_5" />
			<state id="GV_FOOTPRINT4_5_6" />
			<state id="GV_FOOTPRINT5_6_up" />
			<parents>OA_MAIS</parents>
			<probabilities>0.0003223007313747366 0.7600223131275566 0.1702119747117887 0.05604313871327631 0.01340027271600347 0.000486223662884927 0.7808752025931929 0.1593192868719611 0.04951377633711507 0.009805510534846028 0.0006622516556291392 0.7887417218543047 0.1662251655629139 0.0304635761589404 0.01390728476821192 0.0009174311926605505 0.844954128440367 0.1155963302752294 0.03302752293577982 0.005504587155963303 0.002325581395348837 0.8162790697674418 0.1302325581395349 0.04883720930232557 0.002325581395348837</probabilities>
		</cpt>
	</nodes>
	<extensions>
		<genie version="1.0" app="GeNIe 2.3.3828.0 ACADEMIC" name="vehicle_safety_final_binning" faultnameformat="nodestate">
			<node id="GV_CURBWGT">
				<name>GV_CURBWGT</name>
				<interior color="e5f6f7" />
				<outline color="000080" />
				<font color="000000" name="Arial" size="8" />
				<position>435 157 507 205</position>
			</node>
			<node id="GV_DVLAT">
				<name>GV_DVLAT</name>
				<interior color="e5f6f7" />
				<outline color="000080" />
				<font color="000000" name="Arial" size="8" />
				<position>417 211 489 259</position>
			</node>
			<node id="GV_DVLONG">
				<name>GV_DVLONG</name>
				<interior color="e5f6f7" />
				<outline color="000080" />
				<font color="000000" name="Arial" size="8" />
				<position>368 257 440 305</position>
			</node>
			<node id="GV_ENERGY">
				<name>GV_ENERGY</name>
				<interior color="e5f6f7" />
				<outline color="000080" />
				<font color="000000" name="Arial" size="8" />
				<position>295 285 367 333</position>
			</node>
			<node id="GV_LANES">
				<name>GV_LANES</name>
				<interior color="e5f6f7" />
				<outline color="000080" />
				<font color="000000" name="Arial" size="8" />
				<position>212 290 284 338</position>
			</node>
			<node id="GV_MODELYR">
				<name>GV_MODELYR</name>
				<interior color="e5f6f7" />
				<outline color="000080" />
				<font color="000000" name="Arial" size="8" />
				<position>133 273 205 321</position>
			</node>
			<node id="GV_OTVEHWGT">
				<name>GV_OTVEHWGT</name>
				<interior color="e5f6f7" />
				<outline color="000080" />
				<font color="000000" name="Arial" size="8" />
				<position>70 236 142 284</position>
			</node>
			<node id="GV_SPLIMIT">
				<name>GV_SPLIMIT</name>
				<interior color="e5f6f7" />
				<outline color="000080" />
				<font color="000000" name="Arial" size="8" />
				<position>36 184 108 232</position>
			</node>
			<node id="OA_AGE">
				<name>OA_AGE</name>
				<interior color="e5f6f7" />
				<outline color="000080" />
				<font color="000000" name="Arial" size="8" />
				<position>36 130 108 178</position>
			</node>
			<node id="OA_HEIGHT">
				<name>OA_HEIGHT</name>
				<interior color="e5f6f7" />
				<outline color="000080" />
				<font color="000000" name="Arial" size="8" />
				<position>70 78 142 126</position>
			</node>
			<node id="OA_MAIS">
				<name>OA_MAIS</name>
				<interior color="ffff80" />
				<outline color="000080" />
				<font color="000000" name="Arial" size="8" />
				<position>233 157 305 205</position>
			</node>
			<node id="OA_WEIGHT">
				<name>OA_WEIGHT</name>
				<interior color="e5f6f7" />
				<outline color="000080" />
				<font color="000000" name="Arial" size="8" />
				<position>132 41 204 89</position>
			</node>
			<node id="VE_ORIGAVTW">
				<name>VE_ORIGAVTW</name>
				<interior color="e5f6f7" />
				<outline color="000080" />
				<font color="000000" name="Arial" size="8" />
				<position>212 24 284 72</position>
			</node>
			<node id="VE_WHEELBAS">
				<name>VE_WHEELBAS</name>
				<interior color="e5f6f7" />
				<outline color="000080" />
				<font color="000000" name="Arial" size="8" />
				<position>295 29 367 77</position>
			</node>
			<node id="VE_PDOF_TR">
				<name>VE_PDOF_TR</name>
				<interior color="e5f6f7" />
				<outline color="000080" />
				<font color="000000" name="Arial" size="8" />
				<position>368 57 440 105</position>
			</node>
			<node id="GV_FOOTPRINT">
				<name>GV_FOOTPRINT</name>
				<interior color="e5f6f7" />
				<outline color="000080" />
				<font color="000000" name="Arial" size="8" />
				<position>417 103 489 151</position>
			</node>
			<textbox>
				<caption>Input file: vehicle_safety_final_binning.csv\nData rows: 19203\nElapsed time: 2.593s\n\nLearning algorithm: Naive Bayes\nAlgorithm parameters:\nClass variable: OA_MAIS\n\nEM Log Likelihood: -250051</caption>
				<font color="000000" name="Arial" size="8" />
				<position>10 358 214 484</position>
			</textbox>
		</genie>
	</extensions>
</smile>
