<?xml version="1.0" encoding="ISO-8859-1"?>
<!-- This network was created in GeNIe Academic, which can be used for educational and research purposes only -->
<smile version="1.0" id="Unnamed" numsamples="10000" discsamples="10000">
	<nodes>
		<cpt id="OA_MAIS">
			<state id="State0" />
			<state id="State1" />
			<state id="State2" />
			<state id="State3" />
			<state id="State4" />
			<state id="State5" />
			<state id="State6" />
			<probabilities>0.3811259559020441 0.4589743208260182 0.07900139851816584 0.04947629958044453 0.01568125688100693 0.01130716814949266 0.004433600142827386</probabilities>
		</cpt>
		<cpt id="OA_BAGDEPLY">
			<state id="Deployed" />
			<state id="SNot_Deployed" />
			<parents>OA_MAIS</parents>
			<probabilities>0.2935109289617486 0.7064890710382513 0.5297220646625072 0.4702779353374929 0.6940052700922267 0.3059947299077734 0.770241850683491 0.2297581493165089 0.6506622516556292 0.3493377483443709 0.6903669724770642 0.3096330275229358 0.8081395348837209 0.1918604651162791</probabilities>
		</cpt>
		<cpt id="GV_DVLONG">
			<state id="s1_below_n25" />
			<state id="s2_n25_n17" />
			<state id="s3_n17_n12" />
			<state id="s4_n12_n5" />
			<state id="s5_n5_up" />
			<parents>OA_BAGDEPLY OA_MAIS</parents>
			<probabilities>0.2592833876221499 0.2941833410888786 0.2201954397394137 0.1708701721731038 0.05546765937645417 0.3205995717344754 0.2841970021413276 0.192762312633833 0.1480085653104925 0.05443254817987152 0.4650853889943074 0.2364326375711575 0.1557874762808349 0.09696394686907021 0.04573055028462999 0.6169167803547067 0.1789904502046385 0.1025920873124147 0.06712141882673943 0.03437926330150068 0.6304568527918781 0.1380710659898477 0.05177664974619289 0.132994923857868 0.04670050761421319 0.5841059602649007 0.1867549668874172 0.06754966887417219 0.07417218543046357 0.08741721854304635 0.7028571428571427 0.1457142857142857 0.04571428571428571 0.03142857142857142 0.07428571428571427 0.03812838360402165 0.1297757153905646 0.1937741686001547 0.3269914926527456 0.3113302397525136 0.04346357935359382 0.134876989869754 0.1691268692715871 0.2713941148094549 0.3811384466956103 0.07784946236559143 0.1574193548387097 0.1810752688172043 0.2864516129032258 0.2972043010752689 0.09680365296803652 0.165296803652968 0.1926940639269406 0.2657534246575343 0.2794520547945206 0.1339622641509434 0.1056603773584906 0.1245283018867924 0.2849056603773585 0.3509433962264151 0.1352941176470588 0.1941176470588235 0.1647058823529412 0.15 0.3558823529411764 0.3058823529411765 0.07058823529411765 0.01176470588235294 0.07058823529411765 0.5411764705882353</probabilities>
		</cpt>
		<cpt id="GV_ENERGY">
			<state id="s01_below_79" />
			<state id="s02_79_105" />
			<state id="s03_105_131" />
			<state id="s04_131_160" />
			<state id="s05_160_192" />
			<state id="s06_192_230" />
			<state id="s07_230_274" />
			<state id="s08_274_324" />
			<state id="s09_324_383" />
			<state id="s10_383_461" />
			<state id="s11_461_562" />
			<state id="s12_562_708" />
			<state id="s13_708_924" />
			<state id="s14_924_1401" />
			<state id="s15_1401_up" />
			<parents>GV_DVLONG OA_MAIS</parents>
			<probabilities>0.02128035320088301 0.01995584988962473 0.03584988962472407 0.03584988962472407 0.03055187637969095 0.03849889624724062 0.05571743929359825 0.06763796909492276 0.06896247240618103 0.09280353200883003 0.1285651214128035 0.09280353200883003 0.1139955849889625 0.1272406181015453 0.0702869757174393 0.003019467620182758 0.01136273341279301 0.01315057608263806 0.01553436630909814 0.02208978943186334 0.0274533174413985 0.04592769169646405 0.05009932459276917 0.05963448549860946 0.08526023043305524 0.09300754866905046 0.1234008740564164 0.1591577274533175 0.1579658323400874 0.1329360349622567 0.0001265022137887414 0.002024035420619861 0.003921568627450981 0.007716635041113219 0.007716635041113219 0.0153067678684377 0.01340923466160658 0.04376976597090449 0.05895003162555345 0.05515496521189121 0.08361796331435802 0.1044908285895003 0.1671094244149273 0.1803921568627451 0.2562934851359899 0.002250351617440225 0.0001406469760900141 0.006469760900140647 0.002250351617440225 0.004360056258790436 0.008579465541490857 0.01490857946554149 0.02545710267229254 0.03811533052039381 0.03600562587904359 0.04866385372714487 0.06554149085794655 0.1246132208157525 0.2385372714486638 0.3841068917018284 0.0004796163069544367 0.0004796163069544367 0.007673860911270983 0.0004796163069544367 0.02206235011990408 0.0004796163069544367 0.007673860911270983 0.007673860911270983 0.007673860911270983 0.05803357314148681 0.02206235011990408 0.02206235011990408 0.0724220623501199 0.2091127098321343 0.5616306954436451 0.0006802721088435376 0.0006802721088435376 0.0108843537414966 0.0006802721088435376 0.0006802721088435376 0.0006802721088435376 0.0006802721088435376 0.02108843537414966 0.0108843537414966 0.02108843537414966 0.03129251700680272 0.03129251700680272 0.05170068027210883 0.1435374149659864 0.6741496598639455 0.001212121212121213 0.001212121212121213 0.001212121212121213 0.001212121212121213 0.001212121212121213 0.001212121212121213 0.001212121212121213 0.001212121212121213 0.001212121212121213 0.001212121212121213 0.001212121212121213 0.01939393939393939 0.001212121212121213 0.05575757575757576 0.9103030303030303 0.04069529652351739 0.04913087934560328 0.06293456032719837 0.07137014314928426 0.1005112474437628 0.09591002044989776 0.07903885480572598 0.09054192229038856 0.08824130879345604 0.07673824130879346 0.06983640081799591 0.06676891615541923 0.05219836400817997 0.04146216768916156 0.01462167689161554 0.0154036389330507 0.0344815403638933 0.0445504327857269 0.04720014131778838 0.06203850909733263 0.08853559441794737 0.0848260024730613 0.08800565271153507 0.09224518636283342 0.1054937290231408 0.09171524465642113 0.09701466172054407 0.08164635223458754 0.04984984984984985 0.01699346405228758 0.003302373581011352 0.01259029927760578 0.02497420020639835 0.03426212590299278 0.04664602683178535 0.04355005159958721 0.07450980392156863 0.09308565531475749 0.09308565531475749 0.08998968008255935 0.09308565531475749 0.1271413828689371 0.1054695562435501 0.08379772961816306 0.07450980392156863 0.000396825396825397 0.006349206349206348 0.0242063492063492 0.0123015873015873 0.01825396825396826 0.0242063492063492 0.04206349206349206 0.05992063492063492 0.07777777777777777 0.07777777777777777 0.08968253968253967 0.1313492063492063 0.1253968253968254 0.1611111111111111 0.1492063492063492 0.00170940170940171 0.02735042735042735 0.02735042735042735 0.00170940170940171 0.00170940170940171 0.00170940170940171 0.00170940170940171 0.02735042735042735 0.00170940170940171 0.07863247863247863 0.02735042735042735 0.1811965811965812 0.2068376068376068 0.1555555555555555 0.2581196581196581 0.001587301587301588 0.001587301587301588 0.001587301587301588 0.001587301587301588 0.001587301587301588 0.07301587301587302 0.02539682539682539 0.001587301587301588 0.02539682539682539 0.04920634920634921 0.04920634920634921 0.09682539682539681 0.07301587301587302 0.07301587301587302 0.5253968253968253 0.005555555555555558 0.08888888888888888 0.005555555555555558 0.005555555555555558 0.08888888888888888 0.005555555555555558 0.005555555555555558 0.005555555555555558 0.005555555555555558 0.005555555555555558 0.005555555555555558 0.005555555555555558 0.08888888888888888 0.2555555555555555 0.4222222222222222 0.06711833785004517 0.121996386630533 0.1152213188798555 0.1077687443541102 0.0928635953026197 0.09625112917795846 0.06915085817524842 0.07389340560072269 0.05966576332429992 0.05424570912375791 0.04543812104787715 0.03527551942186089 0.02646793134598013 0.02240289069557363 0.01224028906955736 0.02937994173949231 0.08181439866833126 0.09367457344985436 0.1011652101539742 0.08868081564710779 0.09055347482313776 0.08618393674573452 0.07494798168955473 0.0768206408655847 0.06995422388680816 0.06308780690803163 0.04748231377444861 0.03936745734498544 0.04248855597170204 0.0143986683312526 0.01231593038821954 0.04042838018741633 0.0323962516733601 0.08058902275769744 0.1127175368139223 0.05247657295850067 0.1046854082998661 0.100669344042838 0.064524765729585 0.08862115127175367 0.064524765729585 0.08460508701472556 0.06050870147255689 0.06050870147255689 0.04042838018741633 0.0005649717514124297 0.01751412429378531 0.02598870056497176 0.04293785310734464 0.04293785310734464 0.05141242937853108 0.09378531073446329 0.05141242937853108 0.05988700564971752 0.05988700564971752 0.09378531073446329 0.1192090395480226 0.1785310734463277 0.06836158192090397 0.09378531073446329 0.002777777777777779 0.002777777777777779 0.002777777777777779 0.04444444444444444 0.04444444444444444 0.04444444444444444 0.1277777777777778 0.002777777777777779 0.002777777777777779 0.08611111111111111 0.1277777777777778 0.04444444444444444 0.08611111111111111 0.1277777777777778 0.2527777777777778 0.003030303030303032 0.003030303030303032 0.003030303030303032 0.003030303030303032 0.003030303030303032 0.003030303030303032 0.003030303030303032 0.003030303030303032 0.1393939393939394 0.1393939393939394 0.003030303030303032 0.04848484848484848 0.09393939393939395 0.09393939393939395 0.4575757575757576 0.01666666666666667 0.01666666666666667 0.01666666666666667 0.01666666666666667 0.01666666666666667 0.01666666666666667 0.01666666666666667 0.01666666666666667 0.01666666666666667 0.01666666666666667 0.01666666666666667 0.01666666666666667 0.01666666666666667 0.2666666666666667 0.5166666666666667 0.1656467540877448 0.1457341751659381 0.1127084345151368 0.09376720090658895 0.08551076574388862 0.0685122227618585 0.05879876962926987 0.057827424316011 0.04568560790027521 0.03888619070746317 0.04228589930386919 0.02820139226161567 0.02285899303869192 0.01897361178565647 0.01460255787599158 0.09029535864978905 0.09579893597505046 0.09029535864978905 0.1002017978352596 0.08699321225463219 0.08093927719684463 0.07433498440653093 0.07873784626674006 0.07488534213905707 0.05617317923316823 0.04736745551274996 0.04846817097780225 0.03415886993212255 0.03030636580443956 0.01104384516602458 0.05536723163841808 0.09350282485875706 0.0596045197740113 0.05112994350282486 0.06807909604519774 0.06807909604519774 0.08502824858757062 0.08079096045197739 0.07655367231638419 0.08079096045197739 0.06384180790960452 0.05112994350282486 0.04689265536723164 0.07231638418079096 0.04689265536723164 0.01913580246913581 0.01913580246913581 0.04691358024691358 0.009876543209876545 0.05617283950617284 0.04691358024691358 0.09320987654320989 0.05617283950617284 0.03765432098765432 0.07469135802469136 0.09320987654320989 0.08395061728395063 0.1209876543209877 0.1209876543209877 0.1209876543209877 0.001169590643274854 0.01871345029239766 0.01871345029239766 0.01871345029239766 0.03625730994152047 0.05380116959064327 0.001169590643274854 0.05380116959064327 0.07134502923976607 0.03625730994152047 0.05380116959064327 0.1064327485380117 0.08888888888888888 0.2292397660818713 0.2116959064327485 0.003030303030303032 0.003030303030303032 0.003030303030303032 0.003030303030303032 0.04848484848484848 0.003030303030303032 0.09393939393939395 0.04848484848484848 0.04848484848484848 0.04848484848484848 0.04848484848484848 0.09393939393939395 0.1393939393939394 0.09393939393939395 0.3212121212121212 0.01666666666666667 0.01666666666666667 0.01666666666666667 0.01666666666666667 0.01666666666666667 0.01666666666666667 0.01666666666666667 0.01666666666666667 0.01666666666666667 0.01666666666666667 0.2666666666666667 0.01666666666666667 0.01666666666666667 0.01666666666666667 0.5166666666666667 0.1647784200385357 0.09772639691714836 0.08847784200385357 0.07980732177263969 0.07402697495183044 0.08385356454720617 0.06709055876685935 0.05321772639691715 0.0520616570327553 0.06188824662813102 0.0474373795761079 0.0428131021194605 0.03529865125240848 0.02894026974951831 0.02258188824662814 0.08940962761126249 0.06870118074477748 0.07251589464123524 0.07796548592188919 0.07142597638510445 0.06325158946412353 0.07360581289736604 0.07033605812897366 0.07360581289736604 0.06107175295186194 0.06870118074477748 0.0654314259763851 0.05289736603088101 0.05725703905540418 0.03382379654859219 0.03778966131907308 0.03778966131907308 0.03244206773618538 0.05383244206773618 0.09126559714795009 0.05383244206773618 0.03778966131907308 0.06987522281639928 0.07522281639928698 0.04313725490196078 0.08591800356506238 0.08591800356506238 0.05918003565062388 0.08057040998217468 0.1554367201426025 0.02375478927203066 0.03524904214559388 0.03524904214559388 0.02375478927203066 0.01226053639846744 0.08122605363984675 0.03524904214559388 0.05823754789272031 0.08122605363984675 0.06973180076628353 0.08122605363984675 0.09272030651340997 0.1042145593869732 0.08122605363984675 0.1846743295019157 0.02269503546099291 0.001418439716312057 0.001418439716312057 0.001418439716312057 0.02269503546099291 0.001418439716312057 0.02269503546099291 0.06524822695035461 0.02269503546099291 0.06524822695035461 0.1078014184397163 0.1290780141843972 0.1929078014184397 0.1078014184397163 0.2354609929078014 0.001754385964912281 0.001754385964912281 0.001754385964912281 0.001754385964912281 0.0543859649122807 0.0543859649122807 0.08070175438596491 0.001754385964912281 0.001754385964912281 0.08070175438596491 0.1070175438596491 0.001754385964912281 0.1070175438596491 0.1070175438596491 0.3964912280701754 0.004444444444444446 0.004444444444444446 0.07111111111111111 0.004444444444444446 0.004444444444444446 0.004444444444444446 0.004444444444444446 0.07111111111111111 0.004444444444444446 0.07111111111111111 0.004444444444444446 0.07111111111111111 0.004444444444444446 0.004444444444444446 0.6711111111111111</probabilities>
		</cpt>
		<cpt id="GV_CURBWGT">
			<state id="s01_below_1150" />
			<state id="s02_1150_1200" />
			<state id="s03_1200_1280" />
			<state id="s04_1280_1380" />
			<state id="s05_1380_1420" />
			<state id="s06_1420_1470" />
			<state id="s07_1470_1510" />
			<state id="s08_1510_1560" />
			<state id="s09_1560_1610" />
			<state id="s10_1610_1710" />
			<state id="s11_1710_1810" />
			<state id="s12_1810_1910" />
			<state id="s13_1910_2060" />
			<state id="s14_2060_2320" />
			<state id="s15_2320_up" />
			<parents>GV_ENERGY OA_MAIS</parents>
			<probabilities>0.09819706498951779 0.06675052410901466 0.07429769392033542 0.07429769392033542 0.05417190775681341 0.08058700209643603 0.06800838574423479 0.06046121593291404 0.06926624737945491 0.06423480083857441 0.05920335429769391 0.07303983228511529 0.07555555555555554 0.04159329140461215 0.04033542976939203 0.07333333333333333 0.08796747967479676 0.08308943089430895 0.07577235772357724 0.04894308943089431 0.1099186991869919 0.06113821138211382 0.08308943089430895 0.05869918699186992 0.0465040650406504 0.05869918699186992 0.05869918699186992 0.06601626016260162 0.0465040650406504 0.0416260162601626 0.002666666666666667 0.04266666666666666 0.2426666666666666 0.08266666666666667 0.08266666666666667 0.08266666666666667 0.04266666666666666 0.04266666666666666 0.08266666666666667 0.04266666666666666 0.04266666666666666 0.08266666666666667 0.04266666666666666 0.08266666666666667 0.002666666666666667 0.01111111111111112 0.1777777777777778 0.1777777777777778 0.01111111111111112 0.01111111111111112 0.1777777777777778 0.01111111111111112 0.01111111111111112 0.01111111111111112 0.01111111111111112 0.01111111111111112 0.1777777777777778 0.1777777777777778 0.01111111111111112 0.01111111111111112 0.03333333333333335 0.03333333333333335 0.03333333333333335 0.03333333333333335 0.5333333333333333 0.03333333333333335 0.03333333333333335 0.03333333333333335 0.03333333333333335 0.03333333333333335 0.03333333333333335 0.03333333333333335 0.03333333333333335 0.03333333333333335 0.03333333333333335 0.06666666666666668 0.06666666666666668 0.06666666666666668 0.06666666666666668 0.06666666666666668 0.06666666666666668 0.06666666666666668 0.06666666666666668 0.06666666666666668 0.06666666666666668 0.06666666666666668 0.06666666666666668 0.06666666666666668 0.06666666666666668 0.06666666666666668 0.06666666666666668 0.06666666666666668 0.06666666666666668 0.06666666666666668 0.06666666666666668 0.06666666666666668 0.06666666666666668 0.06666666666666668 0.06666666666666668 0.06666666666666668 0.06666666666666668 0.06666666666666668 0.06666666666666668 0.06666666666666668 0.06666666666666668 0.07005029721079102 0.07553726566072243 0.07828074988568813 0.07828074988568813 0.07142203932327387 0.07142203932327387 0.05358939186099678 0.07828074988568813 0.07279378143575672 0.08376771833561954 0.05907636031092819 0.05770461819844534 0.05907636031092819 0.04535893918609966 0.04535893918609966 0.09509043927648578 0.08346253229974158 0.1183462532299741 0.0776485788113695 0.08152454780361756 0.07958656330749353 0.06602067183462532 0.06214470284237725 0.05826873385012919 0.06989664082687337 0.05439276485788112 0.05439276485788112 0.04082687338501291 0.0272609819121447 0.03113695090439276 0.1125925925925926 0.1125925925925926 0.1125925925925926 0.2014814814814815 0.04592592592592593 0.0237037037037037 0.0237037037037037 0.04592592592592593 0.09037037037037035 0.09037037037037035 0.001481481481481482 0.04592592592592593 0.0237037037037037 0.0237037037037037 0.04592592592592593 0.1185185185185185 0.1185185185185185 0.1185185185185185 0.1185185185185185 0.1185185185185185 0.00740740740740741 0.00740740740740741 0.00740740740740741 0.1185185185185185 0.00740740740740741 0.1185185185185185 0.00740740740740741 0.00740740740740741 0.1185185185185185 0.00740740740740741 0.02222222222222223 0.02222222222222223 0.02222222222222223 0.02222222222222223 0.02222222222222223 0.02222222222222223 0.02222222222222223 0.3555555555555555 0.02222222222222223 0.02222222222222223 0.02222222222222223 0.02222222222222223 0.02222222222222223 0.02222222222222223 0.3555555555555555 0.06666666666666668 0.06666666666666668 0.06666666666666668 0.06666666666666668 0.06666666666666668 0.06666666666666668 0.06666666666666668 0.06666666666666668 0.06666666666666668 0.06666666666666668 0.06666666666666668 0.06666666666666668 0.06666666666666668 0.06666666666666668 0.06666666666666668 0.03333333333333335 0.03333333333333335 0.03333333333333335 0.5333333333333333 0.03333333333333335 0.03333333333333335 0.03333333333333335 0.03333333333333335 0.03333333333333335 0.03333333333333335 0.03333333333333335 0.03333333333333335 0.03333333333333335 0.03333333333333335 0.03333333333333335 0.07528822055137842 0.06476190476190474 0.08280701754385962 0.06927318295739346 0.04671679197994986 0.08581453634085211 0.0707769423558897 0.07528822055137842 0.06626566416040099 0.06476190476190474 0.04972431077694234 0.05273182957393482 0.06626566416040099 0.0707769423558897 0.05874686716791978 0.06871239470517448 0.05066185318892899 0.09037304452466906 0.07954271961492176 0.07232250300842358 0.07954271961492176 0.05066185318892899 0.08315282791817087 0.05246690734055354 0.06510228640192538 0.07593261131167267 0.06871239470517448 0.06329723225030083 0.05968712394705174 0.0398315282791817 0.1299145299145299 0.05299145299145299 0.1042735042735042 0.05299145299145299 0.1042735042735042 0.1299145299145299 0.05299145299145299 0.07863247863247863 0.05299145299145299 0.02735042735042735 0.05299145299145299 0.00170940170940171 0.02735042735042735 0.07863247863247863 0.05299145299145299 0.05614035087719298 0.05614035087719298 0.1087719298245614 0.05614035087719298 0.003508771929824563 0.05614035087719298 0.003508771929824563 0.1087719298245614 0.05614035087719298 0.2140350877192982 0.05614035087719298 0.003508771929824563 0.1087719298245614 0.05614035087719298 0.05614035087719298 0.01666666666666667 0.01666666666666667 0.01666666666666667 0.01666666666666667 0.01666666666666667 0.01666666666666667 0.2666666666666667 0.01666666666666667 0.2666666666666667 0.01666666666666667 0.01666666666666667 0.2666666666666667 0.01666666666666667 0.01666666666666667 0.01666666666666667 0.03333333333333335 0.03333333333333335 0.03333333333333335 0.03333333333333335 0.03333333333333335 0.03333333333333335 0.5333333333333333 0.03333333333333335 0.03333333333333335 0.03333333333333335 0.03333333333333335 0.03333333333333335 0.03333333333333335 0.03333333333333335 0.03333333333333335 0.03333333333333334 0.03333333333333334 0.03333333333333334 0.03333333333333334 0.03333333333333334 0.03333333333333334 0.03333333333333334 0.03333333333333334 0.03333333333333334 0.03333333333333334 0.03333333333333334 0.03333333333333334 0.03333333333333334 0.5333333333333332 0.03333333333333334 0.03775231860338242 0.05248226950354608 0.0835788325150027 0.06393889798145115 0.05902891434806327 0.07212220403709764 0.07048554282596833 0.06884888161483904 0.07866884888161482 0.06393889798145115 0.08848881614839059 0.05575559192580468 0.06721222040370975 0.07048554282596833 0.06721222040370975 0.07142067440574901 0.06644555002763956 0.09132117191818681 0.06810392482034271 0.06644555002763956 0.07307904919845216 0.06312880044223326 0.07307904919845216 0.07307904919845216 0.07142067440574901 0.07971254836926477 0.05815367606412381 0.05649530127142066 0.0515201768933112 0.03659480375898285 0.08735632183908043 0.01839080459770115 0.07011494252873561 0.1390804597701149 0.08735632183908043 0.1045977011494253 0.07011494252873561 0.0528735632183908 0.08735632183908043 0.1045977011494253 0.03563218390804597 0.0528735632183908 0.03563218390804597 0.0528735632183908 0.001149425287356322 0.08888888888888888 0.005555555555555558 0.005555555555555558 0.08888888888888888 0.005555555555555558 0.005555555555555558 0.005555555555555558 0.08888888888888888 0.08888888888888888 0.08888888888888888 0.08888888888888888 0.2555555555555555 0.1722222222222222 0.005555555555555558 0.005555555555555558 0.02222222222222222 0.3555555555555554 0.02222222222222222 0.02222222222222222 0.02222222222222222 0.3555555555555554 0.02222222222222222 0.02222222222222222 0.02222222222222222 0.02222222222222222 0.02222222222222222 0.02222222222222222 0.02222222222222222 0.02222222222222222 0.02222222222222222 0.06666666666666668 0.06666666666666668 0.06666666666666668 0.06666666666666668 0.06666666666666668 0.06666666666666668 0.06666666666666668 0.06666666666666668 0.06666666666666668 0.06666666666666668 0.06666666666666668 0.06666666666666668 0.06666666666666668 0.06666666666666668 0.06666666666666668 0.06666666666666668 0.06666666666666668 0.06666666666666668 0.06666666666666668 0.06666666666666668 0.06666666666666668 0.06666666666666668 0.06666666666666668 0.06666666666666668 0.06666666666666668 0.06666666666666668 0.06666666666666668 0.06666666666666668 0.06666666666666668 0.06666666666666668 0.06554809843400446 0.06387024608501117 0.09742729306487692 0.06554809843400446 0.06554809843400446 0.0722595078299776 0.05548098434004473 0.05380313199105144 0.05548098434004473 0.07393736017897089 0.0722595078299776 0.06051454138702459 0.0588366890380313 0.06219239373601788 0.07729306487695747 0.06325369738339019 0.04789533560864617 0.09738339021615469 0.07690557451649599 0.06666666666666665 0.06154721274175198 0.05984072810011375 0.08714448236632534 0.06325369738339019 0.05813424345847552 0.08714448236632534 0.06496018202502843 0.07178612059158132 0.05301478953356085 0.04106939704209327 0.09958847736625516 0.06255144032921812 0.05020576131687244 0.06255144032921812 0.1242798353909465 0.1489711934156379 0.02551440329218108 0.06255144032921812 0.03786008230452676 0.05020576131687244 0.08724279835390948 0.06255144032921812 0.06255144032921812 0.01316872427983539 0.05020576131687244 0.1148148148148148 0.1148148148148148 0.003703703703703705 0.05925925925925925 0.003703703703703705 0.1148148148148148 0.1703703703703704 0.1148148148148148 0.003703703703703705 0.003703703703703705 0.05925925925925925 0.003703703703703705 0.003703703703703705 0.1148148148148148 0.1148148148148148 0.1333333333333333 0.008333333333333337 0.008333333333333337 0.008333333333333337 0.008333333333333337 0.008333333333333337 0.008333333333333337 0.008333333333333337 0.1333333333333333 0.1333333333333333 0.008333333333333337 0.3833333333333334 0.008333333333333337 0.1333333333333333 0.008333333333333337 0.01666666666666667 0.01666666666666667 0.01666666666666667 0.01666666666666667 0.2666666666666666 0.01666666666666667 0.01666666666666667 0.01666666666666667 0.2666666666666666 0.01666666666666667 0.01666666666666667 0.01666666666666667 0.01666666666666667 0.01666666666666667 0.2666666666666666 0.03333333333333335 0.03333333333333335 0.03333333333333335 0.5333333333333333 0.03333333333333335 0.03333333333333335 0.03333333333333335 0.03333333333333335 0.03333333333333335 0.03333333333333335 0.03333333333333335 0.03333333333333335 0.03333333333333335 0.03333333333333335 0.03333333333333335 0.04642652944539737 0.04985706117781589 0.07558604917095482 0.06014865637507147 0.04814179531160662 0.08416237850200113 0.05500285877644368 0.06872498570611778 0.06529445397369925 0.06529445397369925 0.08759291023441966 0.07387078330474556 0.08244711263579188 0.06872498570611778 0.06872498570611778 0.07084673097534831 0.09013933547695602 0.09657020364415859 0.06923901393354767 0.05798499464094318 0.06923901393354767 0.06602357984994639 0.06280814576634511 0.04994640943193996 0.07084673097534831 0.05316184351554125 0.06602357984994639 0.05155412647374061 0.07245444801714895 0.05316184351554125 0.1139784946236559 0.04946236559139785 0.09784946236559139 0.08172043010752687 0.03333333333333333 0.1139784946236559 0.03333333333333333 0.04946236559139785 0.08172043010752687 0.08172043010752687 0.03333333333333333 0.08172043010752687 0.04946236559139785 0.08172043010752687 0.01720430107526882 0.1876543209876543 0.002469135802469137 0.03950617283950618 0.1506172839506173 0.002469135802469137 0.1135802469135803 0.07654320987654323 0.03950617283950618 0.03950617283950618 0.1135802469135803 0.03950617283950618 0.03950617283950618 0.03950617283950618 0.1135802469135803 0.002469135802469137 0.01333333333333334 0.2133333333333333 0.2133333333333333 0.01333333333333334 0.01333333333333334 0.2133333333333333 0.01333333333333334 0.2133333333333333 0.01333333333333334 0.01333333333333334 0.01333333333333334 0.01333333333333334 0.01333333333333334 0.01333333333333334 0.01333333333333334 0.1777777777777778 0.01111111111111112 0.01111111111111112 0.01111111111111112 0.01111111111111112 0.01111111111111112 0.1777777777777778 0.1777777777777778 0.01111111111111112 0.1777777777777778 0.1777777777777778 0.01111111111111112 0.01111111111111112 0.01111111111111112 0.01111111111111112 0.06666666666666668 0.06666666666666668 0.06666666666666668 0.06666666666666668 0.06666666666666668 0.06666666666666668 0.06666666666666668 0.06666666666666668 0.06666666666666668 0.06666666666666668 0.06666666666666668 0.06666666666666668 0.06666666666666668 0.06666666666666668 0.06666666666666668 0.04549828178694157 0.06611683848797251 0.06817869415807559 0.04343642611683848 0.09085910652920962 0.05993127147766322 0.05993127147766322 0.06817869415807559 0.07230240549828178 0.05786941580756012 0.07230240549828178 0.07642611683848796 0.08467353951890033 0.07230240549828178 0.06199312714776631 0.07440660474716201 0.05737874097007224 0.1022703818369453 0.06821465428276573 0.0480908152734778 0.07905056759545923 0.0589267285861713 0.07440660474716201 0.07131062951496386 0.06821465428276573 0.05273477812177502 0.07285861713106294 0.0589267285861713 0.06047471620227037 0.05273477812177502 0.08313725490196079 0.03607843137254903 0.1066666666666667 0.04784313725490196 0.1184313725490196 0.08313725490196079 0.02431372549019608 0.04784313725490196 0.03607843137254903 0.03607843137254903 0.08313725490196079 0.08313725490196079 0.04784313725490196 0.08313725490196079 0.08313725490196079 0.02735042735042735 0.2068376068376068 0.1042735042735043 0.052991452991453 0.052991452991453 0.02735042735042735 0.1042735042735043 0.07863247863247863 0.02735042735042735 0.052991452991453 0.02735042735042735 0.00170940170940171 0.1042735042735043 0.07863247863247863 0.052991452991453 0.1777777777777778 0.01111111111111112 0.1777777777777778 0.1777777777777778 0.01111111111111112 0.01111111111111112 0.1777777777777778 0.01111111111111112 0.01111111111111112 0.1777777777777778 0.01111111111111112 0.01111111111111112 0.01111111111111112 0.01111111111111112 0.01111111111111112 0.1523809523809524 0.009523809523809526 0.1523809523809524 0.1523809523809524 0.1523809523809524 0.1523809523809524 0.009523809523809526 0.009523809523809526 0.009523809523809526 0.009523809523809526 0.009523809523809526 0.1523809523809524 0.009523809523809526 0.009523809523809526 0.009523809523809526 0.06666666666666668 0.06666666666666668 0.06666666666666668 0.06666666666666668 0.06666666666666668 0.06666666666666668 0.06666666666666668 0.06666666666666668 0.06666666666666668 0.06666666666666668 0.06666666666666668 0.06666666666666668 0.06666666666666668 0.06666666666666668 0.06666666666666668 0.05319727891156462 0.03891156462585033 0.08993197278911565 0.05115646258503401 0.04503401360544217 0.0654421768707483 0.05115646258503401 0.07360544217687075 0.0491156462585034 0.07156462585034014 0.0654421768707483 0.07360544217687075 0.08585034013605441 0.08585034013605441 0.1001360544217687 0.063867288750648 0.04520476931052358 0.08097459823742871 0.07941938828408501 0.0560912389839295 0.06075686884396059 0.06075686884396059 0.1043027475375842 0.06697770865733541 0.06075686884396059 0.04987039917055469 0.0700881285640228 0.0592016588906169 0.08719543805080351 0.05453602903058579 0.04564564564564565 0.07267267267267269 0.1537537537537538 0.05465465465465466 0.05465465465465466 0.07267267267267269 0.02762762762762764 0.07267267267267269 0.08168168168168169 0.06366366366366367 0.05465465465465466 0.1177177177177177 0.05465465465465466 0.03663663663663664 0.03663663663663664 0.2766666666666666 0.02666666666666666 0.1016666666666666 0.07666666666666666 0.07666666666666666 0.07666666666666666 0.001666666666666667 0.1516666666666666 0.001666666666666667 0.001666666666666667 0.07666666666666666 0.05166666666666666 0.02666666666666666 0.02666666666666666 0.02666666666666666 0.1185185185185185 0.1185185185185185 0.2296296296296296 0.00740740740740741 0.00740740740740741 0.00740740740740741 0.00740740740740741 0.1185185185185185 0.00740740740740741 0.1185185185185185 0.1185185185185185 0.00740740740740741 0.00740740740740741 0.1185185185185185 0.00740740740740741 0.01666666666666667 0.01666666666666667 0.01666666666666667 0.01666666666666667 0.2666666666666667 0.2666666666666667 0.01666666666666667 0.2666666666666667 0.01666666666666667 0.01666666666666667 0.01666666666666667 0.01666666666666667 0.01666666666666667 0.01666666666666667 0.01666666666666667 0.03333333333333335 0.03333333333333335 0.03333333333333335 0.03333333333333335 0.03333333333333335 0.03333333333333335 0.5333333333333333 0.03333333333333335 0.03333333333333335 0.03333333333333335 0.03333333333333335 0.03333333333333335 0.03333333333333335 0.03333333333333335 0.03333333333333335 0.04787878787878787 0.04106060606060606 0.05924242424242424 0.06378787878787878 0.0546969696969697 0.08424242424242424 0.03196969696969697 0.07515151515151515 0.05924242424242424 0.08196969696969697 0.06833333333333333 0.05924242424242424 0.09106060606060606 0.08196969696969697 0.1001515151515152 0.06586945690084701 0.06885899352267064 0.07932237169905329 0.06885899352267064 0.06437468858993521 0.06736422521175882 0.07633283507722967 0.06138515196811159 0.07932237169905329 0.07483806676631787 0.05839561534628798 0.07035376183358244 0.05839561534628798 0.05989038365719978 0.0464374688589935 0.07333333333333335 0.07333333333333335 0.1096969696969697 0.06424242424242425 0.06424242424242425 0.1187878787878788 0.06424242424242425 0.05515151515151516 0.05515151515151516 0.05515151515151516 0.04606060606060607 0.06424242424242425 0.04606060606060607 0.05515151515151516 0.05515151515151516 0.2013333333333333 0.1413333333333333 0.1013333333333333 0.04133333333333333 0.02133333333333333 0.08133333333333331 0.02133333333333333 0.06133333333333333 0.08133333333333331 0.08133333333333331 0.02133333333333333 0.04133333333333333 0.04133333333333333 0.001333333333333334 0.06133333333333333 0.009523809523809528 0.1523809523809524 0.009523809523809528 0.009523809523809528 0.009523809523809528 0.009523809523809528 0.009523809523809528 0.009523809523809528 0.1523809523809524 0.009523809523809528 0.1523809523809524 0.009523809523809528 0.1523809523809524 0.1523809523809524 0.1523809523809524 0.2952380952380952 0.1523809523809524 0.009523809523809526 0.1523809523809524 0.1523809523809524 0.009523809523809526 0.009523809523809526 0.009523809523809526 0.009523809523809526 0.009523809523809526 0.009523809523809526 0.1523809523809524 0.009523809523809526 0.009523809523809526 0.009523809523809526 0.06666666666666668 0.06666666666666668 0.06666666666666668 0.06666666666666668 0.06666666666666668 0.06666666666666668 0.06666666666666668 0.06666666666666668 0.06666666666666668 0.06666666666666668 0.06666666666666668 0.06666666666666668 0.06666666666666668 0.06666666666666668 0.06666666666666668 0.04581430745814307 0.03211567732115677 0.06179604261796042 0.04353120243531202 0.04124809741248097 0.06864535768645358 0.06407914764079148 0.08234398782343988 0.06179604261796042 0.1028919330289193 0.05722983257229832 0.07321156773211568 0.07092846270928463 0.1051750380517504 0.08919330289193303 0.05540607872446435 0.06437468858993521 0.07334329845540605 0.05989038365719978 0.06437468858993521 0.0823119083208769 0.06287992027902339 0.07932237169905329 0.06586945690084701 0.06586945690084701 0.07633283507722967 0.07035376183358244 0.05690084703537616 0.06138515196811159 0.06138515196811159 0.1209876543209877 0.09320987654320989 0.0654320987654321 0.07469135802469136 0.05617283950617284 0.04691358024691358 0.0654320987654321 0.08395061728395063 0.0654320987654321 0.04691358024691358 0.08395061728395063 0.07469135802469136 0.009876543209876545 0.05617283950617284 0.05617283950617284 0.1358974358974359 0.05897435897435897 0.05897435897435897 0.05897435897435897 0.09743589743589742 0.1358974358974359 0.09743589743589742 0.07820512820512819 0.001282051282051282 0.05897435897435897 0.02051282051282051 0.07820512820512819 0.03974358974358974 0.03974358974358974 0.03974358974358974 0.003508771929824563 0.05614035087719298 0.2666666666666667 0.05614035087719298 0.05614035087719298 0.1087719298245614 0.05614035087719298 0.1087719298245614 0.05614035087719298 0.1087719298245614 0.003508771929824563 0.003508771929824563 0.05614035087719298 0.05614035087719298 0.003508771929824563 0.1722222222222222 0.1722222222222222 0.08888888888888888 0.08888888888888888 0.1722222222222222 0.005555555555555558 0.005555555555555558 0.08888888888888888 0.005555555555555558 0.005555555555555558 0.08888888888888888 0.005555555555555558 0.08888888888888888 0.005555555555555558 0.005555555555555558 0.03333333333333335 0.5333333333333333 0.03333333333333335 0.03333333333333335 0.03333333333333335 0.03333333333333335 0.03333333333333335 0.03333333333333335 0.03333333333333335 0.03333333333333335 0.03333333333333335 0.03333333333333335 0.03333333333333335 0.03333333333333335 0.03333333333333335 0.0472156862745098 0.03309803921568627 0.04250980392156863 0.07780392156862745 0.06368627450980392 0.05662745098039215 0.06603921568627451 0.05898039215686274 0.07545098039215686 0.05427450980392157 0.05427450980392157 0.09898039215686275 0.06133333333333333 0.08015686274509803 0.1295686274509804 0.06075686884396058 0.04209434940383617 0.06542249870399168 0.08252980819077239 0.06853291861067909 0.0809745982374287 0.05764644893727318 0.0871954380508035 0.04675997926386727 0.05764644893727318 0.05920165889061688 0.06542249870399168 0.08252980819077239 0.06386728875064798 0.07941938828408499 0.04972677595628416 0.06612021857923497 0.06612021857923497 0.05792349726775956 0.05792349726775956 0.09890710382513662 0.06612021857923497 0.1153005464480874 0.05792349726775956 0.02513661202185793 0.04972677595628416 0.0907103825136612 0.06612021857923497 0.0825136612021858 0.04972677595628416 0.1054726368159204 0.07562189054726368 0.09054726368159204 0.07562189054726368 0.06069651741293532 0.06069651741293532 0.01592039800995025 0.04577114427860697 0.09054726368159204 0.06069651741293532 0.06069651741293532 0.1054726368159204 0.03084577114427861 0.07562189054726368 0.04577114427860697 0.1916666666666667 0.06666666666666667 0.1291666666666667 0.004166666666666668 0.004166666666666668 0.1291666666666667 0.004166666666666668 0.004166666666666668 0.06666666666666667 0.06666666666666667 0.004166666666666668 0.1916666666666667 0.004166666666666668 0.06666666666666667 0.06666666666666667 0.09696969696969697 0.09696969696969697 0.09696969696969697 0.006060606060606063 0.006060606060606063 0.006060606060606063 0.1878787878787879 0.1878787878787879 0.09696969696969697 0.09696969696969697 0.006060606060606063 0.09696969696969697 0.006060606060606063 0.006060606060606063 0.006060606060606063 0.03333333333333335 0.03333333333333335 0.03333333333333335 0.03333333333333335 0.03333333333333335 0.03333333333333335 0.03333333333333335 0.03333333333333335 0.03333333333333335 0.03333333333333335 0.03333333333333335 0.03333333333333335 0.03333333333333335 0.03333333333333335 0.5333333333333333 0.03528265107212476 0.03820662768031189 0.05867446393762183 0.04405458089668616 0.05867446393762183 0.06452241715399609 0.06452241715399609 0.05282651072124756 0.07037037037037036 0.07037037037037036 0.05282651072124756 0.105458089668616 0.0820662768031189 0.09376218323586745 0.1083820662768031 0.05046913580246912 0.05046913580246912 0.06972839506172837 0.06380246913580245 0.05787654320987653 0.07417283950617282 0.05935802469135801 0.0756543209876543 0.04750617283950616 0.06528395061728394 0.08306172839506171 0.06528395061728394 0.08898765432098762 0.0756543209876543 0.07269135802469134 0.08264840182648402 0.1031963470319635 0.07579908675799087 0.03470319634703196 0.04840182648401826 0.1442922374429224 0.02100456621004566 0.04840182648401826 0.05525114155251141 0.08949771689497717 0.07579908675799087 0.04840182648401826 0.07579908675799087 0.04155251141552511 0.05525114155251141 0.1184313725490196 0.08313725490196079 0.05960784313725491 0.07137254901960785 0.07137254901960785 0.1184313725490196 0.08313725490196079 0.08313725490196079 0.03607843137254903 0.04784313725490196 0.05960784313725491 0.03607843137254903 0.05960784313725491 0.04784313725490196 0.02431372549019608 0.1277777777777778 0.002777777777777779 0.2111111111111111 0.1694444444444445 0.08611111111111112 0.04444444444444445 0.002777777777777779 0.04444444444444445 0.04444444444444445 0.04444444444444445 0.04444444444444445 0.08611111111111112 0.08611111111111112 0.002777777777777779 0.002777777777777779 0.09696969696969697 0.09696969696969697 0.1878787878787879 0.006060606060606063 0.006060606060606063 0.09696969696969697 0.2787878787878788 0.006060606060606063 0.006060606060606063 0.006060606060606063 0.1878787878787879 0.006060606060606063 0.006060606060606063 0.006060606060606063 0.006060606060606063 0.02222222222222223 0.02222222222222223 0.02222222222222223 0.02222222222222223 0.02222222222222223 0.3555555555555555 0.02222222222222223 0.02222222222222223 0.02222222222222223 0.02222222222222223 0.02222222222222223 0.02222222222222223 0.02222222222222223 0.3555555555555555 0.02222222222222223 0.03995584988962472 0.01015452538631347 0.0565121412803532 0.05982339955849889 0.0532008830022075 0.04657836644591611 0.03995584988962472 0.08300220750551876 0.0565121412803532 0.07306843267108168 0.05982339955849889 0.07306843267108168 0.09955849889624724 0.1194260485651214 0.1293598233995585 0.04358178053830226 0.04668737060041406 0.07463768115942027 0.05910973084886127 0.05910973084886127 0.06066252587991717 0.05755693581780537 0.07929606625258796 0.06066252587991717 0.07929606625258796 0.06221532091097307 0.08240165631469977 0.08084886128364387 0.08240165631469977 0.07153209109730847 0.08166666666666667 0.06291666666666666 0.08166666666666667 0.09416666666666668 0.05666666666666667 0.05666666666666667 0.06916666666666667 0.08166666666666667 0.06916666666666667 0.03791666666666667 0.05666666666666667 0.06916666666666667 0.05666666666666667 0.06291666666666666 0.06291666666666666 0.1053763440860215 0.04892473118279569 0.08118279569892473 0.1134408602150538 0.07311827956989247 0.1053763440860215 0.06505376344086021 0.07311827956989247 0.04086021505376344 0.04086021505376344 0.04892473118279569 0.08118279569892473 0.04892473118279569 0.03279569892473118 0.04086021505376344 0.1447619047619047 0.05904761904761904 0.05904761904761904 0.05904761904761904 0.05904761904761904 0.03047619047619047 0.05904761904761904 0.05904761904761904 0.08761904761904761 0.1447619047619047 0.05904761904761904 0.08761904761904761 0.03047619047619047 0.03047619047619047 0.03047619047619047 0.05925925925925927 0.1703703703703704 0.1148148148148148 0.1703703703703704 0.05925925925925927 0.1148148148148148 0.003703703703703706 0.2259259259259259 0.003703703703703706 0.05925925925925927 0.003703703703703706 0.003703703703703706 0.003703703703703706 0.003703703703703706 0.003703703703703706 0.03333333333333335 0.5333333333333333 0.03333333333333335 0.03333333333333335 0.03333333333333335 0.03333333333333335 0.03333333333333335 0.03333333333333335 0.03333333333333335 0.03333333333333335 0.03333333333333335 0.03333333333333335 0.03333333333333335 0.03333333333333335 0.03333333333333335 0.03321123321123321 0.01855921855921856 0.0442002442002442 0.06251526251526252 0.06251526251526252 0.06984126984126984 0.06251526251526252 0.05885225885225885 0.06984126984126984 0.05152625152625152 0.02588522588522588 0.09548229548229548 0.09181929181929181 0.1211233211233211 0.1321123321123321 0.04092970521541949 0.04263038548752834 0.06643990929705215 0.04943310657596371 0.04433106575963718 0.05623582766439909 0.05113378684807255 0.08174603174603173 0.068140589569161 0.06984126984126983 0.068140589569161 0.08684807256235827 0.08174603174603173 0.09535147392290248 0.09705215419501133 0.09450980392156863 0.04156862745098039 0.07686274509803921 0.05333333333333333 0.06509803921568627 0.07686274509803921 0.07686274509803921 0.09450980392156863 0.04745098039215686 0.07098039215686275 0.08274509803921569 0.03568627450980392 0.05333333333333333 0.04745098039215686 0.08274509803921569 0.1069033530571992 0.03589743589743589 0.07731755424063116 0.04181459566074951 0.02998027613412229 0.07140039447731755 0.06548323471400394 0.1128205128205128 0.08323471400394478 0.07140039447731755 0.07140039447731755 0.05956607495069034 0.05956607495069034 0.07140039447731755 0.04181459566074951 0.07134502923976607 0.05380116959064327 0.1590643274853801 0.03625730994152047 0.03625730994152047 0.07134502923976607 0.1064327485380117 0.1415204678362573 0.03625730994152047 0.05380116959064327 0.05380116959064327 0.07134502923976607 0.05380116959064327 0.01871345029239766 0.03625730994152047 0.1179487179487179 0.002564102564102565 0.07948717948717948 0.1179487179487179 0.1179487179487179 0.002564102564102565 0.04102564102564102 0.07948717948717948 0.1179487179487179 0.04102564102564102 0.07948717948717948 0.1179487179487179 0.04102564102564102 0.04102564102564102 0.002564102564102565 0.008333333333333337 0.008333333333333337 0.008333333333333337 0.008333333333333337 0.1333333333333333 0.008333333333333337 0.008333333333333337 0.1333333333333333 0.1333333333333333 0.2583333333333334 0.008333333333333337 0.2583333333333334 0.008333333333333337 0.008333333333333337 0.008333333333333337 0.04416666666666667 0.03166666666666667 0.02541666666666667 0.06291666666666666 0.06291666666666666 0.05041666666666667 0.01916666666666667 0.08166666666666667 0.06916666666666667 0.08791666666666667 0.04416666666666667 0.08166666666666667 0.08791666666666667 0.1191666666666667 0.1316666666666667 0.02234533702677747 0.02788550323176362 0.04450600184672207 0.06112650046168051 0.06389658356417359 0.07774699907663897 0.06666666666666667 0.05281625115420129 0.05004616805170822 0.06389658356417359 0.05558633425669437 0.08328716528162511 0.1054478301015697 0.08882733148661127 0.1359187442289936 0.02412698412698413 0.01936507936507937 0.05746031746031746 0.03365079365079365 0.04317460317460318 0.04793650793650794 0.06222222222222223 0.08126984126984127 0.0907936507936508 0.06222222222222223 0.07174603174603175 0.07650793650793651 0.1050793650793651 0.08126984126984127 0.1431746031746032 0.0446236559139785 0.05268817204301075 0.06075268817204301 0.03252688172043011 0.06881720430107527 0.07688172043010752 0.03655913978494624 0.1010752688172043 0.06881720430107527 0.08897849462365591 0.06881720430107527 0.06881720430107527 0.05268817204301075 0.08897849462365591 0.08897849462365591 0.05141242937853108 0.06836158192090397 0.07683615819209041 0.06836158192090397 0.07683615819209041 0.06836158192090397 0.0344632768361582 0.08531073446327685 0.04293785310734464 0.08531073446327685 0.1192090395480226 0.05141242937853108 0.05141242937853108 0.05141242937853108 0.06836158192090397 0.00881542699724518 0.07493112947658402 0.07493112947658402 0.09972451790633609 0.1162534435261708 0.08319559228650138 0.07493112947658402 0.09972451790633609 0.06666666666666667 0.02534435261707989 0.09146005509641873 0.05013774104683195 0.06666666666666667 0.02534435261707989 0.0418732782369146 0.0580952380952381 0.08666666666666668 0.07238095238095239 0.08666666666666668 0.02952380952380953 0.0580952380952381 0.08666666666666668 0.100952380952381 0.07238095238095239 0.1152380952380953 0.07238095238095239 0.0009523809523809529 0.0580952380952381 0.02952380952380953 0.07238095238095239</probabilities>
		</cpt>
		<cpt id="VE_PDOF_TR">
			<state id="s01_below_28" />
			<state id="s02_28_51" />
			<state id="s03_51_75" />
			<state id="s04_75_98" />
			<state id="s05_98_121" />
			<state id="s06_121_145" />
			<state id="s07_145_168" />
			<state id="s08_168_191" />
			<state id="s09_191_215" />
			<state id="s10_215_238" />
			<state id="s11_238_261" />
			<state id="s12_261_285" />
			<state id="s13_285_308" />
			<state id="s14_308_331" />
			<state id="s15_331_up" />
			<parents>GV_DVLONG OA_MAIS</parents>
			<probabilities>0.009359823399558497 0.01995584988962472 0.02790286975717439 0.05306843267108168 0.1391611479028697 0.5206181015452538 0.2093598233995585 0.01465783664459161 0.004061810154525386 0.00141280353200883 8.83002207505519e-05 8.83002207505519e-05 8.83002207505519e-05 8.83002207505519e-05 8.83002207505519e-05 0.006595152959872864 0.003615415176797775 0.01553436630909813 0.03460468812077871 0.1710766785856178 0.477393722685737 0.2562971791815654 0.02745331744139849 0.004211362733412793 0.002423520063567739 3.972983710766787e-05 3.972983710766787e-05 3.972983710766787e-05 3.972983710766787e-05 0.0006356773937226857 0.007716635041113217 0.007716635041113217 0.01151170145477546 0.03807716635041113 0.1329538266919671 0.5523086654016444 0.2164452877925363 0.02858950031625553 0.002024035420619861 0.002024035420619861 0.0001265022137887413 0.0001265022137887413 0.0001265022137887413 0.0001265022137887413 0.0001265022137887413 0.0001406469760900141 0.01279887482419128 0.01912798874824191 0.05288326300984529 0.139381153305204 0.5444444444444445 0.2047819971870605 0.01912798874824191 0.002250351617440225 0.004360056258790437 0.0001406469760900141 0.0001406469760900141 0.0001406469760900141 0.0001406469760900141 0.0001406469760900141 0.007673860911270984 0.01486810551558753 0.04364508393285373 0.1371702637889688 0.1227817745803357 0.4609112709832135 0.1155875299760192 0.06522781774580337 0.02206235011990408 0.007673860911270984 0.0004796163069544367 0.0004796163069544367 0.0004796163069544367 0.0004796163069544367 0.0004796163069544367 0.02108843537414966 0.04149659863945578 0.03129251700680272 0.1231292517006803 0.1027210884353741 0.4292517006802721 0.1741496598639456 0.03129251700680272 0.03129251700680272 0.0006802721088435376 0.0006802721088435376 0.0006802721088435376 0.0108843537414966 0.0006802721088435376 0.0006802721088435376 0.001212121212121213 0.01939393939393939 0.05575757575757576 0.1284848484848485 0.03757575757575757 0.4012121212121212 0.2012121212121212 0.09212121212121212 0.01939393939393939 0.01939393939393939 0.001212121212121213 0.001212121212121213 0.001212121212121213 0.01939393939393939 0.001212121212121213 0.003118609406952965 0.006952965235173824 0.01768916155419223 0.06293456032719837 0.1304192229038855 0.503118609406953 0.2232106339468303 0.0429959100204499 0.004652351738241309 0.001584867075664622 0.0008179959100204499 5.112474437627814e-05 5.112474437627814e-05 0.002351738241308794 5.112474437627814e-05 0.0005652711535064477 0.004274863098392511 0.01328387210740152 0.06786786786786787 0.188694576929871 0.3672849319908144 0.2708355414237767 0.07263734322557852 0.009574280162515457 0.002685037979155626 0.0005652711535064477 3.532944709415299e-05 3.532944709415299e-05 0.001625154566331037 3.532944709415299e-05 0.003302373581011353 0.00949432404540764 0.01568627450980392 0.0930856553147575 0.1488132094943241 0.3624355005159959 0.2293085655314758 0.0930856553147575 0.03426212590299278 0.00949432404540764 0.0002063983488132096 0.0002063983488132096 0.0002063983488132096 0.0002063983488132096 0.0002063983488132096 0.000396825396825397 0.0123015873015873 0.04801587301587301 0.2265873015873016 0.07182539682539682 0.2742063492063492 0.1849206349206349 0.08968253968253967 0.07777777777777777 0.0123015873015873 0.000396825396825397 0.000396825396825397 0.000396825396825397 0.000396825396825397 0.000396825396825397 0.00170940170940171 0.02735042735042735 0.07863247863247863 0.4119658119658119 0.1299145299145299 0.05299145299145299 0.1042735042735042 0.05299145299145299 0.07863247863247863 0.02735042735042735 0.00170940170940171 0.00170940170940171 0.02735042735042735 0.00170940170940171 0.00170940170940171 0.001587301587301588 0.02539682539682539 0.07301587301587301 0.2158730158730158 0.02539682539682539 0.2158730158730158 0.0968253968253968 0.1682539682539682 0.1206349206349206 0.02539682539682539 0.001587301587301588 0.001587301587301588 0.001587301587301588 0.02539682539682539 0.001587301587301588 0.005555555555555558 0.005555555555555558 0.1722222222222222 0.1722222222222222 0.005555555555555558 0.2555555555555555 0.1722222222222222 0.005555555555555558 0.1722222222222222 0.005555555555555558 0.005555555555555558 0.005555555555555558 0.005555555555555558 0.005555555555555558 0.005555555555555558 0.002755194218608853 0.008175248419150858 0.01969286359530262 0.08202348690153569 0.1321589882565492 0.4566847335140019 0.2093947606142728 0.06373080397470642 0.02308039747064138 0.001400180668473352 4.516711833785006e-05 4.516711833785006e-05 4.516711833785006e-05 4.516711833785006e-05 0.0007226738934056008 0.001914273824386184 0.005659592176446109 0.02251352476071578 0.1030378693300042 0.1554723262588431 0.3071577195172701 0.2347482313774449 0.1117769454848107 0.04810653349979192 0.00690803162713275 0.0006658343736995423 4.16146483562214e-05 4.16146483562214e-05 0.001914273824386184 4.16146483562214e-05 0.0002677376171352076 0.00428380187416332 0.02436412315930388 0.1769745649263722 0.09665327978580991 0.277376171352075 0.2171352074966533 0.1127175368139224 0.08058902275769747 0.008299866131191434 0.0002677376171352076 0.0002677376171352076 0.0002677376171352076 0.0002677376171352076 0.0002677376171352076 0.00903954802259887 0.00903954802259887 0.1361581920903955 0.2971751412429379 0.1192090395480226 0.1785310734463277 0.06836158192090395 0.08531073446327683 0.09378531073446328 0.0005649717514124296 0.0005649717514124296 0.0005649717514124296 0.0005649717514124296 0.0005649717514124296 0.0005649717514124296 0.002777777777777778 0.002777777777777778 0.1277777777777778 0.2944444444444443 0.1277777777777778 0.0861111111111111 0.0861111111111111 0.1277777777777778 0.0861111111111111 0.002777777777777778 0.002777777777777778 0.002777777777777778 0.002777777777777778 0.04444444444444443 0.002777777777777778 0.003030303030303032 0.003030303030303032 0.3666666666666667 0.2303030303030303 0.04848484848484849 0.1393939393939394 0.003030303030303032 0.003030303030303032 0.1848484848484849 0.003030303030303032 0.003030303030303032 0.003030303030303032 0.003030303030303032 0.003030303030303032 0.003030303030303032 0.01666666666666667 0.01666666666666667 0.01666666666666667 0.01666666666666667 0.01666666666666667 0.2666666666666666 0.01666666666666667 0.01666666666666667 0.5166666666666666 0.01666666666666667 0.01666666666666667 0.01666666666666667 0.01666666666666667 0.01666666666666667 0.01666666666666667 0.002946414116885219 0.007317468026550105 0.04568560790027521 0.1117370892018779 0.1156224704549134 0.3035777885705035 0.2083859478711348 0.09522421887647725 0.08891047434029464 0.01265986724947385 3.23781771086288e-05 3.23781771086288e-05 0.001489396146996924 0.004889104743402946 0.001489396146996924 0.003338836910658595 0.005540267840763162 0.07928820399926619 0.1739497339937626 0.1046046596954687 0.1822050999816547 0.1750504494588149 0.113410383415887 0.1343239772518804 0.02260135754907357 0.001687763713080169 3.669051550174281e-05 0.001137405980554027 0.002788479178132452 3.669051550174281e-05 0.008757062146892656 0.004519774011299435 0.1570621468926554 0.1655367231638418 0.1146892655367232 0.1274011299435028 0.131638418079096 0.131638418079096 0.1231638418079096 0.02570621468926554 0.0002824858757062148 0.0002824858757062148 0.004519774011299435 0.004519774011299435 0.0002824858757062148 0.0006172839506172842 0.0006172839506172842 0.2228395061728395 0.1858024691358025 0.0191358024691358 0.1765432098765432 0.1117283950617284 0.05617283950617284 0.1487654320987654 0.06543209876543209 0.0006172839506172842 0.0006172839506172842 0.0006172839506172842 0.009876543209876543 0.0006172839506172842 0.001169590643274854 0.001169590643274854 0.352046783625731 0.1590643274853801 0.01871345029239766 0.1239766081871345 0.01871345029239766 0.01871345029239766 0.1239766081871345 0.1766081871345029 0.001169590643274854 0.001169590643274854 0.001169590643274854 0.001169590643274854 0.001169590643274854 0.003030303030303032 0.003030303030303032 0.3666666666666667 0.09393939393939396 0.04848484848484849 0.003030303030303032 0.09393939393939396 0.003030303030303032 0.2303030303030303 0.1393939393939394 0.003030303030303032 0.003030303030303032 0.003030303030303032 0.003030303030303032 0.003030303030303032 0.01666666666666667 0.01666666666666667 0.01666666666666667 0.2666666666666666 0.01666666666666667 0.2666666666666666 0.01666666666666667 0.01666666666666667 0.01666666666666667 0.2666666666666666 0.01666666666666667 0.01666666666666667 0.01666666666666667 0.01666666666666667 0.01666666666666667 0.01217726396917149 0.02431599229287091 0.09657032755298652 0.02778420038535646 0.01969171483622351 0.054373795761079 0.0589980732177264 0.0428131021194605 0.08963391136801542 0.1121772639691715 0.01275529865125241 0.01275529865125241 0.0821194605009634 0.3104431599229288 0.04339113680154143 0.01856494096276113 0.03109900090826522 0.1117529518619437 0.01747502270663034 0.01257039055404178 0.03818346957311535 0.04036330608537693 0.02455949137148047 0.06216167120799274 0.1041235240690282 0.01148047229791099 0.005485921889191644 0.08123524069028157 0.4022161671207993 0.03872842870118075 0.01105169340463458 0.02709447415329768 0.1607843137254902 0.02174688057040998 0.02174688057040998 0.05918003565062388 0.05383244206773618 0.01105169340463458 0.03778966131907308 0.1180035650623886 0.01639928698752228 0.01639928698752228 0.06452762923351159 0.3212121212121212 0.05918003565062388 0.04674329501915709 0.09272030651340997 0.1846743295019157 0.03524904214559388 0.01226053639846744 0.09272030651340997 0.04674329501915709 0.000766283524904215 0.01226053639846744 0.1272030651340996 0.01226053639846744 0.000766283524904215 0.08122605363984675 0.2191570881226054 0.03524904214559388 0.06524822695035461 0.1290780141843971 0.1078014184397163 0.0226950354609929 0.001418439716312057 0.06524822695035461 0.04397163120567375 0.0226950354609929 0.04397163120567375 0.1929078014184397 0.04397163120567375 0.0226950354609929 0.04397163120567375 0.1290780141843971 0.06524822695035461 0.08070175438596491 0.1333333333333333 0.0543859649122807 0.001754385964912281 0.001754385964912281 0.1070175438596491 0.08070175438596491 0.001754385964912281 0.001754385964912281 0.1333333333333333 0.001754385964912281 0.001754385964912281 0.1070175438596491 0.2385964912280702 0.0543859649122807 0.004444444444444446 0.004444444444444446 0.07111111111111111 0.004444444444444446 0.07111111111111111 0.1377777777777778 0.004444444444444446 0.004444444444444446 0.07111111111111111 0.3377777777777777 0.004444444444444446 0.004444444444444446 0.07111111111111111 0.2044444444444445 0.004444444444444446</probabilities>
		</cpt>
		<cpt id="GV_DVLAT">
			<state id="s1_below_n7" />
			<state id="s2_n7_0" />
			<state id="s3_0_3" />
			<state id="s4_3_9" />
			<state id="s5_9_up" />
			<parents>VE_PDOF_TR OA_MAIS</parents>
			<probabilities>0.05116279069767442 0.004651162790697674 0.05116279069767442 0.213953488372093 0.6790697674418604 0.02142857142857143 0.003571428571428571 0.05714285714285714 0.05714285714285714 0.8607142857142858 0.02 0.02 0.02 0.22 0.7200000000000001 0.03333333333333333 0.03333333333333333 0.03333333333333333 0.03333333333333333 0.8666666666666667 0.04000000000000001 0.04000000000000001 0.04000000000000001 0.04000000000000001 0.8400000000000001 0.03333333333333333 0.03333333333333333 0.03333333333333333 0.03333333333333333 0.8666666666666667 0.2 0.2 0.2 0.2 0.2 0.01276595744680851 0.002127659574468085 0.1085106382978723 0.2787234042553191 0.5978723404255319 0.002197802197802198 0.03516483516483517 0.03516483516483517 0.189010989010989 0.7384615384615385 0.08 0.08 0.01333333333333333 0.08 0.7466666666666666 0.01111111111111111 0.01111111111111111 0.01111111111111111 0.2333333333333333 0.7333333333333333 0.02 0.02 0.02 0.02 0.9199999999999999 0.01818181818181818 0.2 0.1090909090909091 0.01818181818181818 0.6545454545454545 0.1 0.1 0.6000000000000001 0.1 0.1 0.0005970149253731343 0.01850746268656717 0.03641791044776119 0.1558208955223881 0.7886567164179105 0.005034324942791763 0.009610983981693364 0.03249427917620137 0.09885583524027461 0.8540045766590388 0.002352941176470588 0.002352941176470588 0.002352941176470588 0.1082352941176471 0.8847058823529412 0.002702702702702703 0.01621621621621622 0.01621621621621622 0.08378378378378379 0.8810810810810812 0.005263157894736842 0.005263157894736842 0.08421052631578947 0.05789473684210526 0.8473684210526317 0.008 0.008 0.048 0.048 0.888 0.02857142857142857 0.02857142857142857 0.02857142857142857 0.1714285714285714 0.7428571428571429 0.002298850574712644 0.02145593869731801 0.06360153256704981 0.2590038314176245 0.653639846743295 0.001714285714285714 0.01028571428571429 0.03457142857142857 0.1602857142857143 0.7931428571428573 0.001449275362318841 0.008695652173913044 0.02318840579710145 0.07391304347826086 0.8927536231884058 0.009836065573770493 0.0180327868852459 0.02622950819672131 0.09180327868852459 0.8540983606557377 0.003773584905660377 0.04150943396226416 0.04150943396226416 0.003773584905660377 0.909433962264151 0.006896551724137931 0.006896551724137931 0.1448275862068966 0.006896551724137931 0.8344827586206897 0.01818181818181818 0.01818181818181818 0.1090909090909091 0.1090909090909091 0.7454545454545454 0.01911170928667564 0.02853297442799461 0.1012113055181696 0.5453566621803499 0.3057873485868102 0.01283905967450271 0.02007233273056058 0.06256781193490055 0.4459312839059674 0.4585895117540687 0.001149425287356322 0.01264367816091954 0.07586206896551724 0.3517241379310345 0.5586206896551724 0.0125 0.02291666666666667 0.03333333333333333 0.16875 0.7625 0.04444444444444444 0.007407407407407408 0.08148148148148149 0.1925925925925926 0.674074074074074 0.01428571428571429 0.01428571428571429 0.1571428571428571 0.01428571428571429 0.7999999999999999 0.05 0.05 0.55 0.05 0.3 0.0234138354482194 0.05697912402783462 0.5964797380270159 0.2411788784281621 0.0819484240687679 0.02562814070351759 0.03860971524288107 0.5273031825795645 0.3355108877721943 0.07294807370184254 0.04084778420038535 0.03121387283236994 0.4878612716763006 0.3317919075144509 0.1082851637764933 0.04022662889518414 0.04589235127478754 0.5076487252124646 0.2611898016997168 0.1450424929178471 0.1037974683544304 0.01518987341772152 0.4455696202531646 0.1924050632911392 0.2430379746835443 0.1389830508474576 0.03728813559322034 0.4440677966101695 0.1050847457627119 0.2745762711864407 0.1066666666666667 0.07333333333333335 0.4066666666666667 0.2066666666666667 0.2066666666666667 0.2017054263565891 0.5342635658914728 0.1520930232558139 0.07302325581395348 0.03891472868217054 0.3340350877192982 0.4948538011695906 0.09134502923976606 0.0527485380116959 0.02701754385964912 0.4267605633802817 0.4126760563380282 0.05 0.07816901408450704 0.0323943661971831 0.5633986928104575 0.2562091503267974 0.07973856209150326 0.05359477124183006 0.04705882352941176 0.4307692307692308 0.1615384615384615 0.04615384615384616 0.2 0.1615384615384615 0.3407407407407407 0.3037037037037037 0.0814814814814815 0.2296296296296297 0.04444444444444445 0.7285714285714286 0.01428571428571429 0.01428571428571429 0.2285714285714286 0.01428571428571429 0.6763888888888889 0.1810185185185186 0.07685185185185187 0.03750000000000001 0.02824074074074074 0.8146579804560261 0.0964169381107492 0.05244299674267101 0.01824104234527687 0.01824104234527687 0.8149532710280374 0.07663551401869158 0.06728971962616823 0.02990654205607476 0.01121495327102804 0.7853658536585366 0.05365853658536585 0.1512195121951219 0.004878048780487805 0.004878048780487805 0.835294117647059 0.01176470588235294 0.07058823529411766 0.07058823529411766 0.01176470588235294 0.9272727272727274 0.01818181818181818 0.01818181818181818 0.01818181818181818 0.01818181818181818 0.5333333333333332 0.03333333333333333 0.3666666666666666 0.03333333333333333 0.03333333333333333 0.7727748691099477 0.09476439790575919 0.06335078534031414 0.02931937172774869 0.03979057591623037 0.8377440347071583 0.05466377440347071 0.05683297180043384 0.02429501084598698 0.02646420824295011 0.915942028985507 0.03188405797101449 0.01739130434782608 0.03188405797101449 0.002898550724637681 0.8651162790697674 0.07441860465116278 0.004651162790697673 0.05116279069767441 0.004651162790697673 0.7333333333333334 0.01111111111111111 0.2333333333333334 0.01111111111111111 0.01111111111111111 0.9000000000000001 0.01111111111111111 0.01111111111111111 0.01111111111111111 0.06666666666666668 0.3142857142857143 0.1714285714285714 0.1714285714285714 0.1714285714285714 0.1714285714285714 0.6601769911504426 0.115929203539823 0.1247787610619469 0.06725663716814161 0.03185840707964602 0.7399209486166008 0.07193675889328065 0.07984189723320159 0.06007905138339922 0.04822134387351779 0.6914285714285714 0.03428571428571428 0.1485714285714286 0.03428571428571428 0.09142857142857143 0.7913043478260871 0.05217391304347826 0.0956521739130435 0.008695652173913045 0.05217391304347826 0.7363636363636364 0.009090909090909092 0.1454545454545455 0.1 0.009090909090909092 0.8200000000000001 0.02 0.12 0.02 0.02 0.775 0.025 0.025 0.025 0.15 0.6333333333333334 0.05 0.05 0.175 0.09166666666666669 0.6370370370370371 0.1555555555555556 0.1185185185185185 0.04444444444444445 0.04444444444444445 0.8 0.05 0.05 0.05 0.05 0.6000000000000001 0.1 0.1 0.1 0.1 0.7333333333333333 0.06666666666666665 0.06666666666666665 0.06666666666666665 0.06666666666666665 0.2 0.2 0.2 0.2 0.2 0.2 0.2 0.2 0.2 0.2 0.3565217391304348 0.3565217391304348 0.05217391304347826 0.1826086956521739 0.05217391304347826 0.5636363636363637 0.01818181818181818 0.2 0.2 0.01818181818181818 0.55 0.3 0.05 0.05 0.05 0.2 0.2 0.2 0.2 0.2 0.1 0.1 0.6000000000000001 0.1 0.1 0.2 0.2 0.2 0.2 0.2 0.2 0.2 0.2 0.2 0.2 0.1520547945205479 0.473972602739726 0.2616438356164383 0.08356164383561643 0.02876712328767123 0.1592105263157895 0.6263157894736842 0.1592105263157895 0.04736842105263158 0.007894736842105262 0.3 0.3714285714285714 0.2285714285714286 0.0857142857142857 0.01428571428571429 0.275 0.525 0.025 0.025 0.15 0.3 0.3 0.3 0.05 0.05 0.5333333333333332 0.3666666666666666 0.03333333333333333 0.03333333333333333 0.03333333333333333 0.1 0.1 0.1 0.6000000000000001 0.1 0.07477313974591651 0.03303085299455535 0.742649727767695 0.1292196007259528 0.02032667876588021 0.05759999999999999 0.03626666666666666 0.7869333333333333 0.1042666666666666 0.01493333333333333 0.1 0.01935483870967742 0.7612903225806452 0.1 0.01935483870967742 0.05714285714285715 0.009523809523809526 0.7714285714285716 0.1523809523809524 0.009523809523809526 0.025 0.15 0.65 0.15 0.025 0.01818181818181818 0.1090909090909091 0.7454545454545455 0.1090909090909091 0.01818181818181818 0.2399999999999999 0.2399999999999999 0.4399999999999999 0.03999999999999999 0.03999999999999999 0.06499999999999999 0.03999999999999999 0.2025 0.5149999999999999 0.1775 0.07123287671232877 0.01643835616438356 0.1808219178082192 0.5232876712328767 0.2082191780821918 0.01666666666666667 0.01666666666666667 0.35 0.35 0.2666666666666667 0.05 0.05 0.3 0.55 0.05 0.3 0.05 0.3 0.05 0.3 0.06666666666666667 0.06666666666666667 0.06666666666666667 0.06666666666666667 0.7333333333333334 0.2 0.2 0.2 0.2 0.2</probabilities>
		</cpt>
		<cpt id="GV_LANES">
			<state id="s1_below_1" />
			<state id="s2_1_2" />
			<state id="s3_2_3" />
			<state id="s4_3_4" />
			<state id="s5_4_5" />
			<state id="s6_5_6" />
			<state id="s7_6_up" />
			<parents>VE_PDOF_TR OA_MAIS</parents>
			<probabilities>0.02657807308970099 0.5614617940199335 0.1893687707641196 0.1428571428571428 0.07308970099667773 0.003322259136212624 0.003322259136212624 0.03826530612244897 0.3954081632653061 0.163265306122449 0.1811224489795918 0.1454081632653061 0.03826530612244897 0.03826530612244897 0.1142857142857143 0.01428571428571429 0.2142857142857143 0.4142857142857144 0.1142857142857143 0.1142857142857143 0.01428571428571429 0.0238095238095238 0.5238095238095237 0.1904761904761904 0.1904761904761904 0.0238095238095238 0.0238095238095238 0.0238095238095238 0.02857142857142856 0.2285714285714285 0.6285714285714284 0.02857142857142856 0.02857142857142856 0.02857142857142856 0.02857142857142856 0.1904761904761905 0.3571428571428571 0.1904761904761905 0.02380952380952381 0.1904761904761905 0.02380952380952381 0.02380952380952381 0.1428571428571429 0.1428571428571429 0.1428571428571429 0.1428571428571429 0.1428571428571429 0.1428571428571429 0.1428571428571429 0.07598784194528875 0.5015197568389058 0.1930091185410334 0.1398176291793313 0.07598784194528875 0.001519756838905775 0.0121580547112462 0.07849293563579279 0.4960753532182104 0.1993720565149137 0.1004709576138148 0.07849293563579279 0.03453689167974883 0.01255886970172685 0.0761904761904762 0.6761904761904763 0.1428571428571429 0.009523809523809525 0.0761904761904762 0.009523809523809525 0.009523809523809525 0.06349206349206349 0.2301587301587302 0.2857142857142857 0.3412698412698413 0.007936507936507936 0.06349206349206349 0.007936507936507936 0.01428571428571429 0.6142857142857143 0.1142857142857143 0.2142857142857143 0.01428571428571429 0.01428571428571429 0.01428571428571429 0.01298701298701299 0.5584415584415585 0.01298701298701299 0.2857142857142857 0.1038961038961039 0.01298701298701299 0.01298701298701299 0.07142857142857144 0.07142857142857144 0.07142857142857144 0.5714285714285715 0.07142857142857144 0.07142857142857144 0.07142857142857144 0.05415778251599146 0.5825159914712152 0.1705756929637527 0.07505330490405115 0.08400852878464818 0.01535181236673774 0.01833688699360341 0.02778685845047401 0.5312193527296502 0.233736515201046 0.1101667211507028 0.07813010787839163 0.0140568813337692 0.004903563255966001 0.03697478991596639 0.5310924369747899 0.2369747899159664 0.09579831932773109 0.04873949579831933 0.03697478991596639 0.0134453781512605 0.01544401544401544 0.501930501930502 0.2857142857142857 0.08301158301158303 0.06949806949806951 0.01544401544401544 0.02895752895752896 0.05639097744360901 0.6353383458646615 0.1090225563909774 0.05639097744360901 0.1090225563909774 0.0300751879699248 0.0037593984962406 0.04571428571428572 0.6457142857142858 0.04571428571428572 0.2057142857142858 0.04571428571428572 0.005714285714285715 0.005714285714285715 0.02040816326530612 0.4489795918367346 0.3061224489795918 0.02040816326530612 0.163265306122449 0.02040816326530612 0.02040816326530612 0.03667214012041598 0.4906951286261632 0.1860974274767378 0.1401204159824849 0.1133004926108374 0.02517788724685276 0.007936507936507936 0.02591836734693877 0.4516326530612245 0.2330612244897959 0.1430612244897959 0.1116326530612245 0.02163265306122449 0.01306122448979592 0.01552795031055901 0.5227743271221533 0.1966873706004141 0.08799171842650105 0.1314699792960663 0.03002070393374742 0.01552795031055901 0.01756440281030445 0.4519906323185012 0.2224824355971897 0.1896955503512881 0.05854800936768151 0.0503512880562061 0.00936768149882904 0.02156334231805929 0.4932614555256064 0.2668463611859838 0.1159029649595687 0.05929919137466306 0.04043126684636118 0.002695417789757412 0.0394088669950739 0.4876847290640395 0.1773399014778325 0.1428571428571429 0.1428571428571429 0.004926108374384237 0.004926108374384237 0.01298701298701299 0.4675324675324676 0.1038961038961039 0.2857142857142857 0.01298701298701299 0.1038961038961039 0.01298701298701299 0.02576427610074986 0.3662757162084215 0.1684291482407229 0.2155354739473178 0.1778504133820419 0.02441838108056143 0.02172659104018458 0.02002066649444588 0.3274347713769052 0.1845776285197623 0.2252647894600878 0.1791526737277189 0.03267889434254715 0.03087057607853268 0.02955665024630542 0.3111658456486043 0.2134646962233169 0.2364532019704434 0.1330049261083744 0.02955665024630542 0.04679802955665024 0.0119047619047619 0.4285714285714286 0.09523809523809523 0.1681547619047619 0.2514880952380952 0.02232142857142857 0.02232142857142857 0.005291005291005292 0.5238095238095238 0.2275132275132276 0.1164021164021164 0.07936507936507937 0.04232804232804233 0.005291005291005292 0.01020408163265306 0.4387755102040816 0.08163265306122448 0.1530612244897959 0.2244897959183673 0.08163265306122448 0.01020408163265306 0.03571428571428572 0.5357142857142858 0.2857142857142858 0.03571428571428572 0.03571428571428572 0.03571428571428572 0.03571428571428572 0.0229811122156599 0.3614993275247061 0.174843576399041 0.2178235190924507 0.1642009239225776 0.03730775978012981 0.02134378106543477 0.009691313711414211 0.4200765733429049 0.1642139267767408 0.203577410863843 0.153326154582436 0.03104809763101219 0.01806652309164872 0.009909165978530142 0.47233691164327 0.1524910542251583 0.1948802642444261 0.1139554087530966 0.03110377098816405 0.0253234241673548 0.006070416835289355 0.5046539862403885 0.1335491703763658 0.1732092270335896 0.1307163091865641 0.02590044516390125 0.02590044516390125 0.001808318264014466 0.4954792043399638 0.1663652802893309 0.1790235081374322 0.1157323688969259 0.001808318264014466 0.03978300180831826 0.002421307506053268 0.5108958837772396 0.1380145278450363 0.2566585956416464 0.03631961259079902 0.0532687651331719 0.002421307506053268 0.004761904761904762 0.5380952380952382 0.2047619047619048 0.1714285714285715 0.0380952380952381 0.004761904761904762 0.0380952380952381 0.01638981173864895 0.3404208194905869 0.1830564784053156 0.1970099667774086 0.1993355481727575 0.04662236987818383 0.01716500553709856 0.01177944862155389 0.3275689223057645 0.1725981620718463 0.235171261487051 0.2000835421888054 0.03283208020050126 0.01996658312447787 0.00402414486921529 0.3843058350100603 0.187122736418511 0.1906438631790744 0.1800804828973843 0.04627766599597585 0.00754527162977867 0.01400560224089636 0.3930905695611578 0.1120448179271709 0.223155929038282 0.1774042950513539 0.04668534080298786 0.03361344537815127 0.04395604395604396 0.467032967032967 0.1978021978021978 0.08241758241758242 0.1593406593406594 0.04395604395604396 0.005494505494505495 0.005291005291005292 0.5978835978835979 0.07936507936507937 0.1904761904761905 0.04232804232804233 0.04232804232804233 0.04232804232804233 0.01020408163265306 0.5102040816326531 0.08163265306122448 0.2244897959183673 0.1530612244897959 0.01020408163265306 0.01020408163265306 0.01421957671957672 0.2503306878306878 0.1832010582010582 0.2665343915343915 0.210978835978836 0.04199735449735449 0.03273809523809523 0.01326198231735691 0.2282456956724058 0.1973010702652397 0.277105630525826 0.2201023731968358 0.034434620753839 0.02954862726849698 0.02002670226969292 0.3004005340453939 0.1602136181575434 0.2630173564753004 0.1975967957276368 0.02937249666221629 0.02937249666221629 0.02787456445993031 0.3205574912891986 0.1986062717770035 0.2717770034843205 0.1254355400696864 0.05226480836236933 0.003484320557491289 0.008403361344537815 0.361344537815126 0.1260504201680672 0.3025210084033614 0.06722689075630252 0.1260504201680672 0.008403361344537815 0.1038961038961039 0.1038961038961039 0.3766233766233767 0.3766233766233767 0.01298701298701299 0.01298701298701299 0.01298701298701299 0.02380952380952381 0.02380952380952381 0.5238095238095237 0.1904761904761905 0.02380952380952381 0.02380952380952381 0.1904761904761905 0.01869857890800299 0.3721017202692595 0.1731488406881077 0.2097980553477936 0.1679132385938669 0.03440538519072551 0.02393418100224383 0.02417105670901766 0.3256894948868919 0.1933684536721413 0.1977068484660676 0.1651688875116207 0.05020142547257515 0.04369383328168577 0.0165631469979296 0.3643892339544513 0.1325051759834368 0.3209109730848861 0.08902691511387165 0.03105590062111801 0.04554865424430642 0.003322259136212624 0.3754152823920265 0.09634551495016612 0.2823920265780731 0.212624584717608 0.003322259136212624 0.02657807308970099 0.06349206349206349 0.1746031746031746 0.2857142857142857 0.2857142857142857 0.1746031746031746 0.007936507936507936 0.007936507936507936 0.06349206349206349 0.2301587301587302 0.119047619047619 0.3968253968253968 0.119047619047619 0.06349206349206349 0.007936507936507936 0.02040816326530612 0.4489795918367346 0.3061224489795918 0.163265306122449 0.02040816326530612 0.02040816326530612 0.02040816326530612 0.0581542351453856 0.447534766118837 0.1599241466498104 0.1643489254108724 0.1156763590391909 0.0404551201011378 0.01390644753476612 0.02032749858836816 0.3997741389045738 0.20214568040655 0.2219085262563524 0.1151891586674196 0.02428006775832863 0.01637492941840768 0.004081632653061224 0.4326530612244897 0.2897959183673469 0.08979591836734692 0.1183673469387755 0.06122448979591836 0.004081632653061224 0.006211180124223603 0.5714285714285715 0.09316770186335405 0.09316770186335405 0.1366459627329193 0.09316770186335405 0.006211180124223603 0.09740259740259742 0.5519480519480521 0.2337662337662338 0.09740259740259742 0.006493506493506494 0.006493506493506494 0.006493506493506494 0.01428571428571429 0.4142857142857144 0.2142857142857143 0.3142857142857143 0.01428571428571429 0.01428571428571429 0.01428571428571429 0.01785714285714285 0.5178571428571428 0.1428571428571428 0.1428571428571428 0.1428571428571428 0.01785714285714285 0.01785714285714285 0.005952380952380953 0.4226190476190477 0.1726190476190476 0.130952380952381 0.255952380952381 0.005952380952380953 0.005952380952380953 0.005291005291005292 0.4497354497354498 0.04232804232804233 0.3015873015873016 0.07936507936507937 0.1164021164021164 0.005291005291005292 0.03571428571428572 0.5357142857142858 0.03571428571428572 0.2857142857142858 0.03571428571428572 0.03571428571428572 0.03571428571428572 0.07142857142857144 0.07142857142857144 0.07142857142857144 0.5714285714285715 0.07142857142857144 0.07142857142857144 0.07142857142857144 0.04761904761904762 0.7142857142857143 0.04761904761904762 0.04761904761904762 0.04761904761904762 0.04761904761904762 0.04761904761904762 0.1428571428571429 0.1428571428571429 0.1428571428571429 0.1428571428571429 0.1428571428571429 0.1428571428571429 0.1428571428571429 0.1428571428571429 0.1428571428571429 0.1428571428571429 0.1428571428571429 0.1428571428571429 0.1428571428571429 0.1428571428571429 0.006211180124223603 0.3540372670807453 0.1801242236024845 0.267080745341615 0.09316770186335405 0.04968944099378882 0.04968944099378882 0.1948051948051948 0.6493506493506495 0.01298701298701299 0.01298701298701299 0.01298701298701299 0.1038961038961039 0.01298701298701299 0.03571428571428572 0.2857142857142858 0.2857142857142858 0.03571428571428572 0.2857142857142858 0.03571428571428572 0.03571428571428572 0.1428571428571429 0.1428571428571429 0.1428571428571429 0.1428571428571429 0.1428571428571429 0.1428571428571429 0.1428571428571429 0.07142857142857144 0.5714285714285715 0.07142857142857144 0.07142857142857144 0.07142857142857144 0.07142857142857144 0.07142857142857144 0.1428571428571429 0.1428571428571429 0.1428571428571429 0.1428571428571429 0.1428571428571429 0.1428571428571429 0.1428571428571429 0.1428571428571429 0.1428571428571429 0.1428571428571429 0.1428571428571429 0.1428571428571429 0.1428571428571429 0.1428571428571429 0.02152641878669276 0.3160469667318982 0.2475538160469667 0.2201565557729941 0.1653620352250489 0.007827788649706457 0.02152641878669276 0.04699248120300752 0.2575187969924812 0.2246240601503759 0.2969924812030075 0.1193609022556391 0.03383458646616541 0.02067669172932331 0.01020408163265306 0.2959183673469388 0.1530612244897959 0.2244897959183673 0.2959183673469388 0.01020408163265306 0.01020408163265306 0.01785714285714285 0.5178571428571428 0.1428571428571428 0.01785714285714285 0.1428571428571428 0.01785714285714285 0.1428571428571428 0.03571428571428572 0.2857142857142858 0.2857142857142858 0.03571428571428572 0.03571428571428572 0.2857142857142858 0.03571428571428572 0.02380952380952381 0.02380952380952381 0.5238095238095237 0.02380952380952381 0.3571428571428571 0.02380952380952381 0.02380952380952381 0.07142857142857144 0.07142857142857144 0.07142857142857144 0.07142857142857144 0.07142857142857144 0.07142857142857144 0.5714285714285715 0.02929738138449573 0.305159450350013 0.2452683432719731 0.2325641690432979 0.1381903033445683 0.03474202748249935 0.01477832512315271 0.02552380952380953 0.3228571428571429 0.1908571428571429 0.2215238095238095 0.1508571428571429 0.06685714285714286 0.02152380952380952 0.002304147465437788 0.26036866359447 0.2764976958525345 0.2926267281105991 0.1152073732718894 0.05069124423963133 0.002304147465437788 0.006802721088435373 0.2925170068027211 0.2448979591836735 0.2925170068027211 0.1020408163265306 0.006802721088435373 0.05442176870748298 0.1428571428571428 0.2678571428571428 0.1428571428571428 0.2678571428571428 0.1428571428571428 0.01785714285714286 0.01785714285714286 0.01298701298701299 0.3766233766233767 0.1948051948051948 0.3766233766233767 0.01298701298701299 0.01298701298701299 0.01298701298701299 0.02857142857142857 0.02857142857142857 0.2285714285714286 0.2285714285714286 0.2285714285714286 0.02857142857142857 0.2285714285714286 0.02678571428571429 0.4142857142857144 0.2267857142857143 0.1642857142857143 0.1517857142857143 0.01428571428571429 0.001785714285714286 0.001956947162426615 0.3855185909980431 0.2211350293542075 0.2074363992172212 0.111545988258317 0.02935420743639922 0.04305283757338552 0.09523809523809525 0.2619047619047619 0.1785714285714286 0.2619047619047619 0.09523809523809525 0.09523809523809525 0.01190476190476191 0.03571428571428572 0.2857142857142858 0.2857142857142858 0.03571428571428572 0.03571428571428572 0.2857142857142858 0.03571428571428572 0.03571428571428572 0.2857142857142858 0.2857142857142858 0.2857142857142858 0.03571428571428572 0.03571428571428572 0.03571428571428572 0.04761904761904762 0.380952380952381 0.04761904761904762 0.380952380952381 0.04761904761904762 0.04761904761904762 0.04761904761904762 0.1428571428571429 0.1428571428571429 0.1428571428571429 0.1428571428571429 0.1428571428571429 0.1428571428571429 0.1428571428571429</probabilities>
		</cpt>
		<cpt id="GV_MODELYR">
			<state id="s01_below_2000" />
			<state id="s02_2000_2001" />
			<state id="s03_2001_2002" />
			<state id="s04_2002_2003" />
			<state id="s05_2003_2004" />
			<state id="s06_2004_2005" />
			<state id="s07_2005_2006" />
			<state id="s08_2006_2007" />
			<state id="s09_2007_2008" />
			<state id="s10_2008_2009" />
			<state id="s11_2009_2010" />
			<state id="s12_2010_2011" />
			<state id="s13_2011_up" />
			<parents>GV_CURBWGT OA_MAIS</parents>
