<?xml version="1.0" encoding="ISO-8859-1"?>
<!-- This network was created in GeNIe Academic, which can be used for educational and research purposes only -->
<smile version="1.0" id="Unnamed" numsamples="10000" discsamples="10000">
	<nodes>
		<cpt id="OA_MAIS">
			<state id="State0" />
			<state id="State1" />
			<state id="State2" />
			<state id="State3" />
			<state id="State4" />
			<state id="State5" />
			<state id="State6" />
			<probabilities>0.33908222624455 0.4925605910544951 0.08591464317020139 0.05316302949580502 0.0158692212242296 0.01037077513290758 0.003039513677811551</probabilities>
		</cpt>
		<cpt id="GV_ENERGY">
			<state id="s01_below_237" />
			<state id="s02_237_381" />
			<state id="s03_381_623" />
			<state id="s04_623_810" />
			<state id="s05_810_1081" />
			<state id="s06_1081_1302" />
			<state id="s07_1302_1553" />
			<state id="s08_1553_1745" />
			<state id="s09_1745_1958" />
			<state id="s10_1958_2129" />
			<state id="s11_2129_2281" />
			<state id="s12_2281_2470" />
			<state id="s13_2470_2582" />
			<state id="s14_2582_2717" />
			<state id="s15_2717_2947" />
			<state id="s16_2947_3097" />
			<state id="s17_3097_3274" />
			<state id="s18_3274_3466" />
			<state id="s19_3466_3614" />
			<state id="s20_3614_3770" />
			<state id="s21_3770_3988" />
			<state id="s22_3988_4098" />
			<state id="s23_4098_4282" />
			<state id="s24_4282_4542" />
			<state id="s25_4542_4674" />
			<state id="s26_4674_4841" />
			<state id="s27_4841_5002" />
			<state id="s28_5002_5175" />
			<state id="s29_5175_5376" />
			<state id="s30_5376_5612" />
			<state id="s31_5612_5811" />
			<state id="s32_5811_6056" />
			<state id="s33_6056_6346" />
			<state id="s34_6346_6575" />
			<state id="s35_6575_6970" />
			<state id="s36_6970_7302" />
			<state id="s37_7302_7613" />
			<state id="s38_7613_8231" />
			<state id="s39_8231_9249" />
			<state id="s40_9249_up" />
			<parents>OA_MAIS</parents>
			<probabilities>0.5401844454887217 0.1879757988721804 0.1452126409774436 0.047703242481203 0.03947955827067669 0.01762805451127819 0.00728970864661654 0.004000234962406014 0.003530310150375939 0.001415648496240601 0.001180686090225564 0.001885573308270677 0.0002408364661654135 0.0007107612781954885 5.874060150375937e-06 0.0002408364661654135 0.0002408364661654135 5.874060150375937e-06 0.0002408364661654135 0.0002408364661654135 5.874060150375937e-06 5.874060150375937e-06 5.874060150375937e-06 5.874060150375937e-06 5.874060150375937e-06 5.874060150375937e-06 5.874060150375937e-06 0.0002408364661654135 5.874060150375937e-06 5.874060150375937e-06 0.0002408364661654135 5.874060150375937e-06 5.874060150375937e-06 5.874060150375937e-06 5.874060150375937e-06 5.874060150375937e-06 5.874060150375937e-06 5.874060150375937e-06 5.874060150375937e-06 5.874060150375937e-06 0.380786962148172 0.2022039792947266 0.1923366224522808 0.08654561630540274 0.06276690391459072 0.02572387576835974 0.018444678097703 0.01019492073762536 0.007121481721125846 0.00323924296344225 0.001945163377547718 0.001621643481074085 0.001621643481074085 0.0004893238434163699 0.0004893238434163699 0.0006510837916531865 0.0006510837916531865 0.0008128437398900029 4.043998705920411e-06 0.0006510837916531865 0.0006510837916531865 4.043998705920411e-06 0.0001658039469427369 4.043998705920411e-06 4.043998705920411e-06 4.043998705920411e-06 0.0001658039469427369 4.043998705920411e-06 0.0001658039469427369 0.0003275638951795534 0.0001658039469427369 4.043998705920411e-06 4.043998705920411e-06 4.043998705920411e-06 4.043998705920411e-06 4.043998705920411e-06 4.043998705920411e-06 4.043998705920411e-06 4.043998705920411e-06 4.043998705920411e-06 0.2243049119555144 0.190940685820204 0.1872335495829472 0.1103104726598703 0.09548192771084342 0.03894810009267842 0.04821594068582022 0.021339202965709 0.01855885078776645 0.01021779425393884 0.009291010194624656 0.004657089898053755 0.003730305838739575 0.004657089898053755 0.01021779425393884 0.001876737720111215 0.002803521779425395 0.001876737720111215 0.001876737720111215 2.316960148285449e-05 2.316960148285449e-05 0.0009499536607970345 0.002803521779425395 0.0009499536607970345 2.316960148285449e-05 2.316960148285449e-05 2.316960148285449e-05 0.0009499536607970345 2.316960148285449e-05 0.0009499536607970345 2.316960148285449e-05 0.0009499536607970345 0.002803521779425395 0.0009499536607970345 0.0009499536607970345 0.0009499536607970345 2.316960148285449e-05 2.316960148285449e-05 2.316960148285449e-05 2.316960148285449e-05 0.1048278443113772 0.1332709580838323 0.1662050898203592 0.1362649700598802 0.1048278443113772 0.07638473053892213 0.049438622754491 0.04494760479041914 0.04195359281437124 0.01800149700598802 0.02249251497005987 0.02099550898203592 0.003031437125748502 0.007522455089820357 0.009019461077844309 0.01201347305389221 0.006025449101796405 0.01051646706586826 0.00153443113772455 0.004528443113772453 0.004528443113772453 0.003031437125748502 3.742514970059877e-05 0.00153443113772455 0.00153443113772455 0.003031437125748502 0.003031437125748502 0.003031437125748502 3.742514970059877e-05 3.742514970059877e-05 3.742514970059877e-05 3.742514970059877e-05 3.742514970059877e-05 3.742514970059877e-05 0.003031437125748502 3.742514970059877e-05 0.00153443113772455 3.742514970059877e-05 0.00153443113772455 3.742514970059877e-05 0.08512500000000002 0.07512500000000003 0.115125 0.08512500000000002 0.1451250000000001 0.09012500000000002 0.08512500000000002 0.06012500000000003 0.04012500000000001 0.02512500000000001 0.04012500000000001 0.02512500000000001 0.010125 0.000125 0.010125 0.000125 0.02512500000000001 0.005125000000000001 0.02012500000000001 0.000125 0.005125000000000001 0.015125 0.005125000000000001 0.005125000000000001 0.000125 0.000125 0.000125 0.005125000000000001 0.005125000000000001 0.000125 0.000125 0.000125 0.005125000000000001 0.000125 0.000125 0.000125 0.000125 0.005125000000000001 0.005125000000000001 0.000125 0.05362595419847331 0.08416030534351149 0.1604961832061069 0.09179389312977103 0.1070610687022901 0.03072519083969467 0.06125954198473285 0.06889312977099239 0.03072519083969467 0.03835877862595422 0.0001908396946564885 0.007824427480916033 0.007824427480916033 0.007824427480916033 0.03835877862595422 0.02309160305343512 0.01545801526717558 0.01545801526717558 0.01545801526717558 0.0001908396946564885 0.01545801526717558 0.007824427480916033 0.0001908396946564885 0.01545801526717558 0.007824427480916033 0.01545801526717558 0.007824427480916033 0.007824427480916033 0.007824427480916033 0.007824427480916033 0.007824427480916033 0.01545801526717558 0.007824427480916033 0.007824427480916033 0.0001908396946564885 0.0001908396946564885 0.0001908396946564885 0.0001908396946564885 0.007824427480916033 0.0001908396946564885 0.05192307692307691 0.0006410256410256407 0.02628205128205128 0.05192307692307691 0.02628205128205128 0.02628205128205128 0.05192307692307691 0.05192307692307691 0.05192307692307691 0.05192307692307691 0.02628205128205128 0.0006410256410256407 0.02628205128205128 0.02628205128205128 0.05192307692307691 0.0006410256410256407 0.02628205128205128 0.05192307692307691 0.02628205128205128 0.0006410256410256407 0.07756410256410255 0.0006410256410256407 0.07756410256410255 0.05192307692307691 0.0006410256410256407 0.0006410256410256407 0.0006410256410256407 0.0006410256410256407 0.02628205128205128 0.0006410256410256407 0.02628205128205128 0.02628205128205128 0.02628205128205128 0.0006410256410256407 0.0006410256410256407 0.0006410256410256407 0.0006410256410256407 0.0006410256410256407 0.0006410256410256407 0.05192307692307691</probabilities>
		</cpt>
		<cpt id="x__GV_CURBWGT">
			<state id="s01_below_770" />
			<state id="s02_770_885" />
			<state id="s03_885_975" />
			<state id="s04_975_1035" />
			<state id="s05_1035_1075" />
			<state id="s06_1075_1135" />
			<state id="s07_1135_1175" />
			<state id="s08_1175_1255" />
			<state id="s09_1255_1295" />
			<state id="s10_1295_1355" />
			<state id="s11_1355_1435" />
			<state id="s12_1435_1475" />
			<state id="s13_1475_1555" />
			<state id="s14_1555_1635" />
			<state id="s15_1635_1695" />
			<state id="s16_1695_1775" />
			<state id="s17_1775_1855" />
			<state id="s18_1855_1935" />
			<state id="s19_1935_1995" />
			<state id="s20_1995_2075" />
			<state id="s21_2075_2155" />
			<state id="s22_2155_2215" />
			<state id="s23_2215_2255" />
			<state id="s24_2255_2315" />
			<state id="s25_2315_2395" />
			<state id="s26_2395_2455" />
			<state id="s27_2455_2515" />
			<state id="s28_2515_2595" />
			<state id="s29_2595_2675" />
			<state id="s30_2675_2755" />
			<state id="s31_2755_2815" />
			<state id="s32_2815_2875" />
			<state id="s33_2875_2980" />
			<state id="s34_2980_3070" />
			<state id="s35_3070_3160" />
			<state id="s36_3160_3200" />
			<state id="s37_3200_3285" />
			<state id="s38_3285_3335" />
			<state id="s39_3335_3445" />
			<state id="s40_3445_3760" />
			<state id="s41_3760_4080" />
			<state id="s42_4080_4210" />
			<state id="s43_4210_4280" />
			<state id="s44_4280_up" />
			<parents>GV_ENERGY OA_MAIS</parents>
			<probabilities>9.881422924901194e-06 0.0008794466403162057 0.002618577075098815 0.002183794466403162 0.01174901185770751 0.03609683794466403 0.05087944664031621 0.09348814229249014 0.02479249011857708 0.04392292490118577 0.1100098814229249 0.05827075098814231 0.1191403162055336 0.1069664031620554 0.03348814229249012 0.05218379446640316 0.04696640316205534 0.04305335968379447 0.02522727272727273 0.0300098814229249 0.02783596837944664 0.008705533596837947 0.007835968379446641 0.01044466403162055 0.01261857707509882 0.01044466403162055 0.004357707509881424 0.01261857707509882 0.005662055335968381 0.002618577075098815 0.0004446640316205534 0.0004446640316205534 0.002183794466403162 0.0004446640316205534 0.0008794466403162057 9.881422924901194e-06 9.881422924901194e-06 0.0004446640316205534 9.881422924901194e-06 9.881422924901194e-06 9.881422924901194e-06 9.881422924901194e-06 9.881422924901194e-06 9.881422924901194e-06 0.0004342790966994789 0.001283535996911793 0.004255935147654894 0.005954448948079522 0.01487164640030882 0.03525381200540437 0.06455317506272922 0.09979733642154026 0.03185678440455511 0.05096506465933218 0.112536189924725 0.05860837676124302 0.1193302451264235 0.09300328121984175 0.03185678440455511 0.03780158270604131 0.05903300521134917 0.03780158270604131 0.02591198610306891 0.02591198610306891 0.02251495850221965 0.008077591198610309 0.01062536189924725 0.009776104999034937 0.006803705848291837 0.006803705848291837 0.005529820497973365 0.005954448948079522 0.004255935147654894 0.002132792897124108 0.00170816444701795 0.001283535996911793 0.0008589075468056362 0.0008589075468056362 0.0004342790966994789 0.0004342790966994789 9.650646593321761e-06 9.650646593321761e-06 0.0004342790966994789 9.650646593321761e-06 9.650646593321761e-06 0.0004342790966994789 9.650646593321761e-06 9.650646593321761e-06 9.352787130564917e-05 9.352787130564917e-05 0.01243920688365133 0.008323980546202772 0.01243920688365133 0.05359147025813694 0.05770669659558551 0.1070894126449682 0.02890011223344557 0.05359147025813694 0.1688178077066967 0.07005237560793119 0.08239805462027687 0.09885895997007112 0.03301533857089414 0.04536101758323982 0.0371305649083427 0.03301533857089414 0.01243920688365133 0.02066965955854845 0.02066965955854845 9.352787130564917e-05 0.008323980546202772 0.008323980546202772 0.00420875420875421 0.00420875420875421 9.352787130564917e-05 0.008323980546202772 9.352787130564917e-05 0.00420875420875421 9.352787130564917e-05 9.352787130564917e-05 9.352787130564917e-05 0.00420875420875421 9.352787130564917e-05 9.352787130564917e-05 9.352787130564917e-05 9.352787130564917e-05 9.352787130564917e-05 9.352787130564917e-05 9.352787130564917e-05 9.352787130564917e-05 9.352787130564917e-05 9.352787130564917e-05 0.0003201024327784892 0.0003201024327784892 0.0003201024327784892 0.0003201024327784892 0.01440460947503201 0.0989116517285531 0.02848911651728553 0.04257362355953904 0.07074263764404606 0.02848911651728553 0.04257362355953904 0.0989116517285531 0.1270806658130602 0.1129961587708066 0.02848911651728553 0.05665813060179255 0.05665813060179255 0.01440460947503201 0.05665813060179255 0.02848911651728553 0.02848911651728553 0.0003201024327784892 0.02848911651728553 0.01440460947503201 0.01440460947503201 0.0003201024327784892 0.0003201024327784892 0.0003201024327784892 0.0003201024327784892 0.0003201024327784892 0.0003201024327784892 0.0003201024327784892 0.0003201024327784892 0.0003201024327784892 0.0003201024327784892 0.0003201024327784892 0.0003201024327784892 0.0003201024327784892 0.0003201024327784892 0.0003201024327784892 0.0003201024327784892 0.0003201024327784892 0.0003201024327784892 0.0003201024327784892 0.001262626262626264 0.001262626262626264 0.001262626262626264 0.001262626262626264 0.001262626262626264 0.001262626262626264 0.05681818181818183 0.05681818181818183 0.001262626262626264 0.001262626262626264 0.1123737373737374 0.05681818181818183 0.1123737373737374 0.167929292929293 0.05681818181818183 0.001262626262626264 0.1123737373737374 0.1123737373737374 0.001262626262626264 0.001262626262626264 0.05681818181818183 0.001262626262626264 0.001262626262626264 0.001262626262626264 0.05681818181818183 0.001262626262626264 0.001262626262626264 0.001262626262626264 0.001262626262626264 0.001262626262626264 0.001262626262626264 0.001262626262626264 0.001262626262626264 0.001262626262626264 0.001262626262626264 0.001262626262626264 0.001262626262626264 0.001262626262626264 0.001262626262626264 0.001262626262626264 0.001262626262626264 0.001262626262626264 0.001262626262626264 0.001262626262626264 0.002840909090909091 0.002840909090909091 0.002840909090909091 0.002840909090909091 0.002840909090909091 0.002840909090909091 0.127840909090909 0.002840909090909091 0.002840909090909091 0.002840909090909091 0.127840909090909 0.127840909090909 0.127840909090909 0.002840909090909091 0.002840909090909091 0.002840909090909091 0.127840909090909 0.127840909090909 0.002840909090909091 0.002840909090909091 0.002840909090909091 0.002840909090909091 0.002840909090909091 0.002840909090909091 0.002840909090909091 0.127840909090909 0.002840909090909091 0.002840909090909091 0.002840909090909091 0.002840909090909091 0.002840909090909091 0.002840909090909091 0.002840909090909091 0.002840909090909091 0.002840909090909091 0.002840909090909091 0.002840909090909091 0.002840909090909091 0.002840909090909091 0.002840909090909091 0.002840909090909091 0.002840909090909091 0.002840909090909091 0.002840909090909091 0.00757575757575758 0.00757575757575758 0.00757575757575758 0.00757575757575758 0.00757575757575758 0.00757575757575758 0.00757575757575758 0.00757575757575758 0.3409090909090909 0.00757575757575758 0.3409090909090909 0.00757575757575758 0.00757575757575758 0.00757575757575758 0.00757575757575758 0.00757575757575758 0.00757575757575758 0.00757575757575758 0.00757575757575758 0.00757575757575758 0.00757575757575758 0.00757575757575758 0.00757575757575758 0.00757575757575758 0.00757575757575758 0.00757575757575758 0.00757575757575758 0.00757575757575758 0.00757575757575758 0.00757575757575758 0.00757575757575758 0.00757575757575758 0.00757575757575758 0.00757575757575758 0.00757575757575758 0.00757575757575758 0.00757575757575758 0.00757575757575758 0.00757575757575758 0.00757575757575758 0.00757575757575758 0.00757575757575758 0.00757575757575758 0.00757575757575758 2.837362387924186e-05 2.837362387924186e-05 0.001276813074565883 0.002525252525252525 0.01251276813074566 0.01875496538417886 0.02874248098967199 0.08492225627057085 0.02749404153898535 0.03123935989104527 0.1161332425377369 0.04871751220065825 0.1024004085801838 0.0986550902281239 0.02749404153898535 0.05121439110203153 0.06120190670752466 0.04372375439791169 0.04372375439791169 0.03997843604585177 0.02999092044035863 0.01251276813074566 0.0137612075814323 0.01500964703211894 0.02374872318692543 0.01251276813074566 0.006270570877312448 0.01001588922937237 0.0137612075814323 0.007519010327999089 0.003773691975939166 0.001276813074565883 0.003773691975939166 0.001276813074565883 0.001276813074565883 2.837362387924186e-05 0.002525252525252525 2.837362387924186e-05 2.837362387924186e-05 2.837362387924186e-05 2.837362387924186e-05 2.837362387924186e-05 2.837362387924186e-05 2.837362387924186e-05 1.816728435433473e-05 1.816728435433473e-05 0.003215609330717246 0.006413051377080157 0.0192028195625318 0.03439066928275563 0.05597340309570527 0.08075357895501784 0.03439066928275563 0.04318363491025363 0.0999382312331953 0.06076956616524964 0.1335113727200059 0.09594142867524166 0.03439066928275563 0.02639706416684835 0.06956253179274764 0.047979797979798 0.02879514570162053 0.01840345905094107 0.02959450621321126 0.007212411888670884 0.009610493423443068 0.008811132911852339 0.01600537751616889 0.008811132911852339 0.002416248819126518 0.003215609330717246 0.004814330353898701 0.006413051377080157 0.003215609330717246 0.0008175277959450624 0.0008175277959450624 0.00161688830753579 0.0008175277959450624 1.816728435433473e-05 0.0008175277959450624 1.816728435433473e-05 1.816728435433473e-05 0.0008175277959450624 1.816728435433473e-05 1.816728435433473e-05 1.816728435433473e-05 0.0008175277959450624 0.0001097935880544577 0.0001097935880544577 0.0001097935880544577 0.004940711462450593 0.004940711462450593 0.02909530083443127 0.05324989020641194 0.1305445761967501 0.02909530083443127 0.0339262187088274 0.1498682476943347 0.04841897233201581 0.1063899868247694 0.09672815107597717 0.0339262187088274 0.02426438296003513 0.06291172595520422 0.04358805445761968 0.0339262187088274 0.009771629336846728 0.04358805445761968 0.004940711462450593 0.004940711462450593 0.0001097935880544577 0.009771629336846728 0.0001097935880544577 0.009771629336846728 0.01460254721124286 0.004940711462450593 0.0001097935880544577 0.0001097935880544577 0.009771629336846728 0.0001097935880544577 0.0001097935880544577 0.0001097935880544577 0.0001097935880544577 0.0001097935880544577 0.0001097935880544577 0.0001097935880544577 0.0001097935880544577 0.0001097935880544577 0.0001097935880544577 0.0001097935880544577 0.0001097935880544577 0.0002525252525252526 0.0002525252525252526 0.01136363636363636 0.01136363636363636 0.06691919191919189 0.07803030303030301 0.1224747474747474 0.1224747474747474 0.02247474747474747 0.03358585858585858 0.08914141414141412 0.03358585858585858 0.1446969696969697 0.07803030303030301 0.01136363636363636 0.03358585858585858 0.05580808080808079 0.0002525252525252526 0.02247474747474747 0.0002525252525252526 0.0002525252525252526 0.01136363636363636 0.01136363636363636 0.0002525252525252526 0.01136363636363636 0.01136363636363636 0.0002525252525252526 0.0002525252525252526 0.0002525252525252526 0.01136363636363636 0.0002525252525252526 0.0002525252525252526 0.0002525252525252526 0.0002525252525252526 0.0002525252525252526 0.0002525252525252526 0.0002525252525252526 0.0002525252525252526 0.0002525252525252526 0.0002525252525252526 0.0002525252525252526 0.0002525252525252526 0.0002525252525252526 0.0002525252525252526 0.001420454545454546 0.001420454545454546 0.06392045454545454 0.001420454545454546 0.06392045454545454 0.001420454545454546 0.1264204545454546 0.06392045454545454 0.06392045454545454 0.06392045454545454 0.001420454545454546 0.001420454545454546 0.001420454545454546 0.06392045454545454 0.06392045454545454 0.1264204545454546 0.001420454545454546 0.001420454545454546 0.001420454545454546 0.06392045454545454 0.001420454545454546 0.001420454545454546 0.001420454545454546 0.1264204545454546 0.001420454545454546 0.06392045454545454 0.001420454545454546 0.001420454545454546 0.001420454545454546 0.001420454545454546 0.001420454545454546 0.001420454545454546 0.001420454545454546 0.001420454545454546 0.001420454545454546 0.001420454545454546 0.001420454545454546 0.001420454545454546 0.001420454545454546 0.001420454545454546 0.001420454545454546 0.001420454545454546 0.001420454545454546 0.001420454545454546 0.001893939393939394 0.001893939393939394 0.001893939393939394 0.001893939393939394 0.08522727272727268 0.08522727272727268 0.001893939393939394 0.168560606060606 0.08522727272727268 0.08522727272727268 0.2518939393939393 0.08522727272727268 0.08522727272727268 0.001893939393939394 0.001893939393939394 0.001893939393939394 0.001893939393939394 0.001893939393939394 0.001893939393939394 0.001893939393939394 0.001893939393939394 0.001893939393939394 0.001893939393939394 0.001893939393939394 0.001893939393939394 0.001893939393939394 0.001893939393939394 0.001893939393939394 0.001893939393939394 0.001893939393939394 0.001893939393939394 0.001893939393939394 0.001893939393939394 0.001893939393939394 0.001893939393939394 0.001893939393939394 0.001893939393939394 0.001893939393939394 0.001893939393939394 0.001893939393939394 0.001893939393939394 0.001893939393939394 0.001893939393939394 0.001893939393939394 0.02272727272727273 0.02272727272727273 0.02272727272727273 0.02272727272727273 0.02272727272727273 0.02272727272727273 0.02272727272727273 0.02272727272727273 0.02272727272727273 0.02272727272727273 0.02272727272727273 0.02272727272727273 0.02272727272727273 0.02272727272727273 0.02272727272727273 0.02272727272727273 0.02272727272727273 0.02272727272727273 0.02272727272727273 0.02272727272727273 0.02272727272727273 0.02272727272727273 0.02272727272727273 0.02272727272727273 0.02272727272727273 0.02272727272727273 0.02272727272727273 0.02272727272727273 0.02272727272727273 0.02272727272727273 0.02272727272727273 0.02272727272727273 0.02272727272727273 0.02272727272727273 0.02272727272727273 0.02272727272727273 0.02272727272727273 0.02272727272727273 0.02272727272727273 0.02272727272727273 0.02272727272727273 0.02272727272727273 0.02272727272727273 0.02272727272727273 3.671611102951976e-05 3.671611102951976e-05 3.671611102951976e-05 0.001652224996328388 0.0113452783081216 0.02750036716111029 0.02911587604640916 0.05173300044059331 0.01457629607871934 0.03234689381700689 0.07919665149067408 0.05011749155529445 0.129277426934939 0.1098913203113526 0.04042443824350123 0.0420399471288001 0.05657952709648992 0.067888089293582 0.02426934939051255 0.04042443824350123 0.03557791158760463 0.01457629607871934 0.02103833161991481 0.01296078719342047 0.02588485827581142 0.01296078719342047 0.0113452783081216 0.01296078719342047 0.0113452783081216 0.009729769422822731 0.004883242766926126 0.001652224996328388 0.006498751652224993 0.001652224996328388 0.001652224996328388 3.671611102951976e-05 0.001652224996328388 3.671611102951976e-05 3.671611102951976e-05 0.001652224996328388 0.003267733881627257 3.671611102951976e-05 3.671611102951976e-05 3.671611102951976e-05 1.909854851031324e-05 1.909854851031324e-05 0.00338044308632544 0.00338044308632544 0.01514514896867839 0.03111153552330024 0.04959893048128344 0.07817035905271201 0.02859052711993889 0.0420359052711994 0.1109434682964095 0.06640565317035907 0.1302711993888465 0.07901069518716579 0.02775019098548511 0.05296027501909856 0.04959893048128344 0.05296027501909856 0.03027119938884646 0.03363254392666158 0.02606951871657755 0.004220779220779222 0.01346447669977082 0.01262414056531704 0.01262414056531704 0.00758212375859435 0.01094346829640948 0.006741787624140568 0.004220779220779222 0.00338044308632544 0.001699770817417877 0.005061115355233003 0.000859434682964095 0.002540106951871659 0.002540106951871659 1.909854851031324e-05 1.909854851031324e-05 1.909854851031324e-05 1.909854851031324e-05 1.909854851031324e-05 1.909854851031324e-05 1.909854851031324e-05 1.909854851031324e-05 1.909854851031324e-05 0.0001119570085087327 0.0001119570085087327 0.005038065382892968 0.005038065382892968 0.01489028213166144 0.0641513658755038 0.05429914912673533 0.0789296909986565 0.005038065382892968 0.03952082400358262 0.09863412449619345 0.08385579937304075 0.1675996417375727 0.0789296909986565 0.01489028213166144 0.03952082400358262 0.06907747424988804 0.02966860725481415 0.01489028213166144 0.03952082400358262 0.02966860725481415 0.0001119570085087327 0.009964173757277204 0.0001119570085087327 0.01489028213166144 0.009964173757277204 0.005038065382892968 0.005038065382892968 0.009964173757277204 0.0001119570085087327 0.0001119570085087327 0.0001119570085087327 0.0001119570085087327 0.0001119570085087327 0.0001119570085087327 0.005038065382892968 0.0001119570085087327 0.0001119570085087327 0.0001119570085087327 0.0001119570085087327 0.0001119570085087327 0.0001119570085087327 0.005038065382892968 0.0001119570085087327 0.000202922077922078 0.000202922077922078 0.000202922077922078 0.009131493506493504 0.01806006493506493 0.08948863636363635 0.03591720779220778 0.1073457792207792 0.04484577922077921 0.06270292207792207 0.1341314935064935 0.09841720779220778 0.1162743506493506 0.07163149350649349 0.02698863636363636 0.03591720779220778 0.02698863636363636 0.02698863636363636 0.009131493506493504 0.009131493506493504 0.03591720779220778 0.000202922077922078 0.000202922077922078 0.000202922077922078 0.000202922077922078 0.000202922077922078 0.000202922077922078 0.01806006493506493 0.009131493506493504 0.000202922077922078 0.000202922077922078 0.000202922077922078 0.000202922077922078 0.000202922077922078 0.000202922077922078 0.000202922077922078 0.000202922077922078 0.009131493506493504 0.000202922077922078 0.000202922077922078 0.000202922077922078 0.000202922077922078 0.000202922077922078 0.000202922077922078 0.0009469696969696973 0.0009469696969696973 0.0009469696969696973 0.0009469696969696973 0.1259469696969697 0.0009469696969696973 0.0009469696969696973 0.2509469696969696 0.08428030303030302 0.04261363636363635 0.04261363636363635 0.1259469696969697 0.0009469696969696973 0.08428030303030302 0.08428030303030302 0.0009469696969696973 0.04261363636363635 0.0009469696969696973 0.0009469696969696973 0.04261363636363635 0.04261363636363635 0.0009469696969696973 0.0009469696969696973 0.0009469696969696973 0.0009469696969696973 0.0009469696969696973 0.0009469696969696973 0.0009469696969696973 0.0009469696969696973 0.0009469696969696973 0.0009469696969696973 0.0009469696969696973 0.0009469696969696973 0.0009469696969696973 0.0009469696969696973 0.0009469696969696973 0.0009469696969696973 0.0009469696969696973 0.0009469696969696973 0.0009469696969696973 0.0009469696969696973 0.0009469696969696973 0.0009469696969696973 0.0009469696969696973 0.00103305785123967 0.00103305785123967 0.00103305785123967 0.00103305785123967 0.00103305785123967 0.04648760330578513 0.1828512396694215 0.1373966942148761 0.00103305785123967 0.00103305785123967 0.09194214876033061 0.00103305785123967 0.3192148760330579 0.04648760330578513 0.00103305785123967 0.04648760330578513 0.00103305785123967 0.04648760330578513 0.04648760330578513 0.00103305785123967 0.00103305785123967 0.00103305785123967 0.00103305785123967 0.00103305785123967 0.00103305785123967 0.00103305785123967 0.00103305785123967 0.00103305785123967 0.00103305785123967 0.00103305785123967 0.00103305785123967 0.00103305785123967 0.00103305785123967 0.00103305785123967 0.00103305785123967 0.00103305785123967 0.00103305785123967 0.00103305785123967 0.00103305785123967 0.00103305785123967 0.00103305785123967 0.00103305785123967 0.00103305785123967 0.00103305785123967 0.01136363636363637 0.01136363636363637 0.01136363636363637 0.01136363636363637 0.01136363636363637 0.01136363636363637 0.01136363636363637 0.01136363636363637 0.01136363636363637 0.01136363636363637 0.01136363636363637 0.01136363636363637 0.01136363636363637 0.01136363636363637 0.01136363636363637 0.01136363636363637 0.01136363636363637 0.01136363636363637 0.01136363636363637 0.01136363636363637 0.01136363636363637 0.01136363636363637 0.01136363636363637 0.01136363636363637 0.01136363636363637 0.01136363636363637 0.01136363636363637 0.01136363636363637 0.01136363636363637 0.01136363636363637 0.5113636363636364 0.01136363636363637 0.01136363636363637 0.01136363636363637 0.01136363636363637 0.01136363636363637 0.01136363636363637 0.01136363636363637 0.01136363636363637 0.01136363636363637 0.01136363636363637 0.01136363636363637 0.01136363636363637 0.01136363636363637 0.0001114081996434938 0.0001114081996434938 0.0001114081996434938 0.009915329768270944 0.0001114081996434938 0.02462121212121212 0.01971925133689839 0.03932709447415329 0.009915329768270944 0.03442513368983956 0.09815062388591798 0.05403297682709447 0.1373663101604278 0.1422682709447415 0.03442513368983956 0.04422905525846701 0.04913101604278074 0.06383689839572192 0.009915329768270944 0.03932709447415329 0.04913101604278074 0.01481729055258467 0.005013368983957218 0.03442513368983956 0.01481729055258467 0.01481729055258467 0.005013368983957218 0.01971925133689839 0.005013368983957218 0.005013368983957218 0.005013368983957218 0.0001114081996434938 0.005013368983957218 0.005013368983957218 0.0001114081996434938 0.0001114081996434938 0.0001114081996434938 0.0001114081996434938 0.0001114081996434938 0.005013368983957218 0.0001114081996434938 0.0001114081996434938 0.0001114081996434938 0.0001114081996434938 4.240162822252377e-05 4.240162822252377e-05 4.240162822252377e-05 0.005639416553595658 0.01310210312075984 0.02243046132971506 0.03735583446404342 0.07653493894165536 0.02429613297150611 0.04108717774762551 0.1082513568521031 0.04108717774762551 0.1362364314789688 0.08959464043419267 0.03362449118046133 0.03735583446404342 0.05787822252374491 0.04854986431478969 0.0448185210312076 0.03922150610583446 0.03735583446404342 0.01310210312075984 0.003773744911804613 0.01683344640434193 0.01683344640434193 0.01123643147896879 0.009370759837177747 0.01123643147896879 0.007505088195386703 0.005639416553595658 4.240162822252377e-05 0.003773744911804613 4.240162822252377e-05 0.001908073270013569 0.001908073270013569 4.240162822252377e-05 0.001908073270013569 4.240162822252377e-05 4.240162822252377e-05 4.240162822252377e-05 4.240162822252377e-05 4.240162822252377e-05 4.240162822252377e-05 4.240162822252377e-05 0.0001893939393939395 0.0001893939393939395 0.0001893939393939395 0.00852272727272727 0.02518939393939394 0.05018939393939393 0.07518939393939393 0.1001893939393939 0.0418560606060606 0.0168560606060606 0.1085227272727273 0.05852272727272726 0.1001893939393939 0.1085227272727273 0.03352272727272727 0.05852272727272726 0.05852272727272726 0.0418560606060606 0.03352272727272727 0.03352272727272727 0.0168560606060606 0.0001893939393939395 0.0001893939393939395 0.00852272727272727 0.0001893939393939395 0.00852272727272727 0.0001893939393939395 0.0001893939393939395 0.0001893939393939395 0.00852272727272727 0.0001893939393939395 0.0001893939393939395 0.0001893939393939395 0.0001893939393939395 0.0001893939393939395 0.0001893939393939395 0.0001893939393939395 0.0001893939393939395 0.0001893939393939395 0.0001893939393939395 0.0001893939393939395 0.0001893939393939395 0.0001893939393939395 0.0001893939393939395 0.0002470355731225297 0.0002470355731225297 0.01111660079051383 0.02198616600790513 0.01111660079051383 0.06546442687747032 0.04372529644268773 0.09807312252964424 0.02198616600790513 0.02198616600790513 0.1415513833992094 0.08720355731225295 0.1415513833992094 0.06546442687747032 0.01111660079051383 0.04372529644268773 0.05459486166007903 0.05459486166007903 0.01111660079051383 0.03285573122529643 0.01111660079051383 0.0002470355731225297 0.01111660079051383 0.0002470355731225297 0.01111660079051383 0.0002470355731225297 0.0002470355731225297 0.01111660079051383 0.0002470355731225297 0.0002470355731225297 0.0002470355731225297 0.0002470355731225297 0.0002470355731225297 0.0002470355731225297 0.0002470355731225297 0.0002470355731225297 0.0002470355731225297 0.0002470355731225297 0.0002470355731225297 0.01111660079051383 0.0002470355731225297 0.0002470355731225297 0.0002470355731225297 0.0002470355731225297 0.001262626262626264 0.001262626262626264 0.001262626262626264 0.001262626262626264 0.001262626262626264 0.05681818181818183 0.001262626262626264 0.1123737373737374 0.1123737373737374 0.05681818181818183 0.05681818181818183 0.05681818181818183 0.05681818181818183 0.05681818181818183 0.05681818181818183 0.05681818181818183 0.1123737373737374 0.05681818181818183 0.001262626262626264 0.1123737373737374 0.001262626262626264 0.001262626262626264 0.001262626262626264 0.001262626262626264 0.001262626262626264 0.001262626262626264 0.001262626262626264 0.001262626262626264 0.001262626262626264 0.001262626262626264 0.001262626262626264 0.001262626262626264 0.001262626262626264 0.001262626262626264 0.001262626262626264 0.001262626262626264 0.001262626262626264 0.001262626262626264 0.001262626262626264 0.001262626262626264 0.001262626262626264 0.001262626262626264 0.001262626262626264 0.001262626262626264 0.001748251748251749 0.001748251748251749 0.001748251748251749 0.001748251748251749 0.001748251748251749 0.001748251748251749 0.07867132867132864 0.2325174825174825 0.001748251748251749 0.07867132867132864 0.1555944055944056 0.07867132867132864 0.1555944055944056 0.07867132867132864 0.001748251748251749 0.07867132867132864 0.001748251748251749 0.001748251748251749 0.001748251748251749 0.001748251748251749 0.001748251748251749 0.001748251748251749 0.001748251748251749 0.001748251748251749 0.001748251748251749 0.001748251748251749 0.001748251748251749 0.001748251748251749 0.001748251748251749 0.001748251748251749 0.001748251748251749 0.001748251748251749 0.001748251748251749 0.001748251748251749 0.001748251748251749 0.001748251748251749 0.001748251748251749 0.001748251748251749 0.001748251748251749 0.001748251748251749 0.001748251748251749 0.001748251748251749 0.001748251748251749 0.001748251748251749 0.00757575757575758 0.00757575757575758 0.00757575757575758 0.00757575757575758 0.00757575757575758 0.00757575757575758 0.00757575757575758 0.00757575757575758 0.00757575757575758 0.00757575757575758 0.00757575757575758 0.3409090909090909 0.00757575757575758 0.00757575757575758 0.00757575757575758 0.00757575757575758 0.00757575757575758 0.00757575757575758 0.00757575757575758 0.00757575757575758 0.3409090909090909 0.00757575757575758 0.00757575757575758 0.00757575757575758 0.00757575757575758 0.00757575757575758 0.00757575757575758 0.00757575757575758 0.00757575757575758 0.00757575757575758 0.00757575757575758 0.00757575757575758 0.00757575757575758 0.00757575757575758 0.00757575757575758 0.00757575757575758 0.00757575757575758 0.00757575757575758 0.00757575757575758 0.00757575757575758 0.00757575757575758 0.00757575757575758 0.00757575757575758 0.00757575757575758 0.000134480903711673 0.000134480903711673 0.000134480903711673 0.000134480903711673 0.000134480903711673 0.0178859601936525 0.0178859601936525 0.08297471759010219 0.0178859601936525 0.04155459924690693 0.08297471759010219 0.03563743948359333 0.08297471759010219 0.0888918773534158 0.0178859601936525 0.01196880043033889 0.09480903711672942 0.0888918773534158 0.03563743948359333 0.03563743948359333 0.05338891877353415 0.03563743948359333 0.0178859601936525 0.006051640667025281 0.0238031199569661 0.0238031199569661 0.000134480903711673 0.02972027972027971 0.01196880043033889 0.006051640667025281 0.006051640667025281 0.01196880043033889 0.006051640667025281 0.006051640667025281 0.000134480903711673 0.000134480903711673 0.006051640667025281 0.000134480903711673 0.000134480903711673 0.000134480903711673 0.000134480903711673 0.000134480903711673 0.000134480903711673 0.000134480903711673 0.002629118953026409 5.842486562280912e-05 5.842486562280912e-05 5.842486562280912e-05 0.007770507127833609 0.03347744800186961 0.02576536573965881 0.0617550829633092 0.03090675391446601 0.03347744800186961 0.0900327179247488 0.0643257770507128 0.1311638233232064 0.09774480018695959 0.043760224351484 0.0617550829633092 0.0489016125262912 0.04118953026408041 0.04633091843888761 0.03090675391446601 0.04633091843888761 0.002629118953026409 0.01548258939004441 0.01291189530264081 0.02062397756485161 0.007770507127833609 0.01291189530264081 5.842486562280912e-05 0.002629118953026409 0.002629118953026409 0.002629118953026409 0.002629118953026409 0.007770507127833609 0.002629118953026409 5.842486562280912e-05 5.842486562280912e-05 0.005199813040430008 5.842486562280912e-05 0.002629118953026409 5.842486562280912e-05 5.842486562280912e-05 5.842486562280912e-05 5.842486562280912e-05 5.842486562280912e-05 0.0002185314685314686 0.0002185314685314686 0.0002185314685314686 0.0194493006993007 0.02906468531468531 0.0194493006993007 0.06752622377622375 0.06752622377622375 0.03868006993006991 0.04829545454545453 0.1156031468531468 0.03868006993006991 0.1829108391608391 0.07714160839160837 0.04829545454545453 0.02906468531468531 0.04829545454545453 0.0194493006993007 0.0002185314685314686 0.0194493006993007 0.009833916083916081 0.0002185314685314686 0.009833916083916081 0.0194493006993007 0.03868006993006991 0.02906468531468531 0.0002185314685314686 0.0002185314685314686 0.009833916083916081 0.0002185314685314686 0.009833916083916081 0.0002185314685314686 0.0002185314685314686 0.0002185314685314686 0.0002185314685314686 0.0002185314685314686 0.0002185314685314686 0.0002185314685314686 0.0002185314685314686 0.0002185314685314686 0.0002185314685314686 0.0002185314685314686 0.0002185314685314686 0.0002185314685314686 0.0003201024327784892 0.0003201024327784892 0.0003201024327784892 0.01440460947503201 0.04257362355953904 0.02848911651728553 0.01440460947503201 0.1129961587708066 0.02848911651728553 0.0989116517285531 0.08482714468629958 0.08482714468629958 0.0989116517285531 0.08482714468629958 0.01440460947503201 0.02848911651728553 0.05665813060179255 0.07074263764404606 0.02848911651728553 0.01440460947503201 0.02848911651728553 0.0003201024327784892 0.01440460947503201 0.01440460947503201 0.0003201024327784892 0.0003201024327784892 0.0003201024327784892 0.0003201024327784892 0.01440460947503201 0.0003201024327784892 0.0003201024327784892 0.01440460947503201 0.0003201024327784892 0.0003201024327784892 0.0003201024327784892 0.0003201024327784892 0.0003201024327784892 0.0003201024327784892 0.0003201024327784892 0.0003201024327784892 0.0003201024327784892 0.0003201024327784892 0.0003201024327784892 0.0003201024327784892 0.0007575757575757579 0.0007575757575757579 0.03409090909090908 0.03409090909090908 0.0007575757575757579 0.06742424242424241 0.0007575757575757579 0.1007575757575757 0.06742424242424241 0.03409090909090908 0.06742424242424241 0.0007575757575757579 0.1674242424242424 0.1674242424242424 0.03409090909090908 0.03409090909090908 0.1007575757575757 0.03409090909090908 0.0007575757575757579 0.0007575757575757579 0.0007575757575757579 0.0007575757575757579 0.0007575757575757579 0.0007575757575757579 0.03409090909090908 0.0007575757575757579 0.0007575757575757579 0.0007575757575757579 0.0007575757575757579 0.0007575757575757579 0.0007575757575757579 0.0007575757575757579 0.0007575757575757579 0.0007575757575757579 0.0007575757575757579 0.0007575757575757579 0.0007575757575757579 0.0007575757575757579 0.0007575757575757579 0.0007575757575757579 0.0007575757575757579 0.0007575757575757579 0.0007575757575757579 0.0007575757575757579 0.001515151515151516 0.001515151515151516 0.001515151515151516 0.001515151515151516 0.06818181818181818 0.001515151515151516 0.06818181818181818 0.1348484848484849 0.06818181818181818 0.06818181818181818 0.2015151515151515 0.001515151515151516 0.2015151515151515 0.001515151515151516 0.001515151515151516 0.06818181818181818 0.001515151515151516 0.06818181818181818 0.001515151515151516 0.001515151515151516 0.001515151515151516 0.001515151515151516 0.001515151515151516 0.001515151515151516 0.001515151515151516 0.001515151515151516 0.001515151515151516 0.001515151515151516 0.001515151515151516 0.001515151515151516 0.001515151515151516 0.001515151515151516 0.001515151515151516 0.001515151515151516 0.001515151515151516 0.001515151515151516 0.001515151515151516 0.001515151515151516 0.001515151515151516 0.001515151515151516 0.001515151515151516 0.001515151515151516 0.001515151515151516 0.001515151515151516 0.01136363636363637 0.01136363636363637 0.01136363636363637 0.01136363636363637 0.01136363636363637 0.01136363636363637 0.01136363636363637 0.01136363636363637 0.01136363636363637 0.01136363636363637 0.01136363636363637 0.01136363636363637 0.01136363636363637 0.5113636363636364 0.01136363636363637 0.01136363636363637 0.01136363636363637 0.01136363636363637 0.01136363636363637 0.01136363636363637 0.01136363636363637 0.01136363636363637 0.01136363636363637 0.01136363636363637 0.01136363636363637 0.01136363636363637 0.01136363636363637 0.01136363636363637 0.01136363636363637 0.01136363636363637 0.01136363636363637 0.01136363636363637 0.01136363636363637 0.01136363636363637 0.01136363636363637 0.01136363636363637 0.01136363636363637 0.01136363636363637 0.01136363636363637 0.01136363636363637 0.01136363636363637 0.01136363636363637 0.01136363636363637 0.01136363636363637 0.0002990430622009571 0.0002990430622009571 0.0002990430622009571 0.0002990430622009571 0.02661483253588516 0.01345693779904306 0.01345693779904306 0.01345693779904306 0.01345693779904306 0.03977272727272727 0.09240430622009567 0.03977272727272727 0.131877990430622 0.1187200956937799 0.06608851674641147 0.0002990430622009571 0.0002990430622009571 0.05293062200956936 0.1055622009569378 0.03977272727272727 0.02661483253588516 0.01345693779904306 0.02661483253588516 0.0002990430622009571 0.02661483253588516 0.03977272727272727 0.02661483253588516 0.03977272727272727 0.01345693779904306 0.01345693779904306 0.0002990430622009571 0.0002990430622009571 0.0002990430622009571 0.0002990430622009571 0.0002990430622009571 0.0002990430622009571 0.0002990430622009571 0.0002990430622009571 0.0002990430622009571 0.0002990430622009571 0.0002990430622009571 0.0002990430622009571 0.0002990430622009571 0.0002990430622009571 0.0001420454545454546 0.0001420454545454546 0.0001420454545454546 0.006392045454545453 0.006392045454545453 0.01889204545454545 0.03139204545454544 0.07514204545454545 0.01889204545454545 0.03139204545454544 0.07514204545454545 0.03764204545454544 0.1688920454545454 0.1251420454545454 0.04389204545454544 0.0001420454545454546 0.04389204545454544 0.05014204545454545 0.05014204545454545 0.05014204545454545 0.006392045454545453 0.006392045454545453 0.03139204545454544 0.01264204545454545 0.04389204545454544 0.0001420454545454546 0.006392045454545453 0.01889204545454545 0.01264204545454545 0.01264204545454545 0.006392045454545453 0.0001420454545454546 0.0001420454545454546 0.0001420454545454546 0.006392045454545453 0.0001420454545454546 0.0001420454545454546 0.0001420454545454546 0.0001420454545454546 0.0001420454545454546 0.0001420454545454546 0.0001420454545454546 0.0001420454545454546 0.0001420454545454546 0.000528541226215645 0.000528541226215645 0.000528541226215645 0.000528541226215645 0.04704016913319238 0.0935517970401691 0.02378435517970401 0.1400634249471458 0.02378435517970401 0.000528541226215645 0.1633192389006342 0.04704016913319238 0.1633192389006342 0.02378435517970401 0.02378435517970401 0.02378435517970401 0.07029598308668074 0.02378435517970401 0.000528541226215645 0.000528541226215645 0.04704016913319238 0.000528541226215645 0.02378435517970401 0.000528541226215645 0.000528541226215645 0.000528541226215645 0.02378435517970401 0.000528541226215645 0.000528541226215645 0.02378435517970401 0.000528541226215645 0.000528541226215645 0.000528541226215645 0.000528541226215645 0.000528541226215645 0.000528541226215645 0.000528541226215645 0.000528541226215645 0.000528541226215645 0.000528541226215645 0.000528541226215645 0.000528541226215645 0.000528541226215645 0.000528541226215645 0.0004370629370629372 0.0004370629370629372 0.0004370629370629372 0.0004370629370629372 0.01966783216783216 0.07736013986013983 0.05812937062937062 0.03889860139860139 0.01966783216783216 0.03889860139860139 0.1158216783216783 0.05812937062937062 0.173513986013986 0.1158216783216783 0.03889860139860139 0.03889860139860139 0.01966783216783216 0.05812937062937062 0.0004370629370629372 0.01966783216783216 0.05812937062937062 0.0004370629370629372 0.01966783216783216 0.01966783216783216 0.0004370629370629372 0.0004370629370629372 0.0004370629370629372 0.0004370629370629372 0.0004370629370629372 0.0004370629370629372 0.0004370629370629372 0.0004370629370629372 0.0004370629370629372 0.0004370629370629372 0.0004370629370629372 0.0004370629370629372 0.0004370629370629372 0.0004370629370629372 0.0004370629370629372 0.0004370629370629372 0.0004370629370629372 0.0004370629370629372 0.0004370629370629372 0.0004370629370629372 0.001196172248803828 0.001196172248803828 0.001196172248803828 0.001196172248803828 0.001196172248803828 0.05382775119617225 0.05382775119617225 0.1064593301435407 0.05382775119617225 0.001196172248803828 0.1064593301435407 0.1064593301435407 0.1590909090909091 0.001196172248803828 0.001196172248803828 0.05382775119617225 0.1590909090909091 0.1064593301435407 0.001196172248803828 0.001196172248803828 0.001196172248803828 0.001196172248803828 0.001196172248803828 0.001196172248803828 0.001196172248803828 0.001196172248803828 0.001196172248803828 0.001196172248803828 0.001196172248803828 0.001196172248803828 0.001196172248803828 0.001196172248803828 0.001196172248803828 0.001196172248803828 0.001196172248803828 0.001196172248803828 0.001196172248803828 0.001196172248803828 0.001196172248803828 0.001196172248803828 0.001196172248803828 0.001196172248803828 0.001196172248803828 0.001196172248803828 0.004545454545454549 0.004545454545454549 0.004545454545454549 0.004545454545454549 0.004545454545454549 0.004545454545454549 0.004545454545454549 0.004545454545454549 0.004545454545454549 0.2045454545454546 0.2045454545454546 0.004545454545454549 0.004545454545454549 0.004545454545454549 0.004545454545454549 0.2045454545454546 0.2045454545454546 0.004545454545454549 0.004545454545454549 0.004545454545454549 0.004545454545454549 0.004545454545454549 0.004545454545454549 0.004545454545454549 0.004545454545454549 0.004545454545454549 0.004545454545454549 0.004545454545454549 0.004545454545454549 0.004545454545454549 0.004545454545454549 0.004545454545454549 0.004545454545454549 0.004545454545454549 0.004545454545454549 0.004545454545454549 0.004545454545454549 0.004545454545454549 0.004545454545454549 0.004545454545454549 0.004545454545454549 0.004545454545454549 0.004545454545454549 0.004545454545454549 0.01136363636363637 0.01136363636363637 0.01136363636363637 0.01136363636363637 0.01136363636363637 0.01136363636363637 0.01136363636363637 0.01136363636363637 0.01136363636363637 0.01136363636363637 0.5113636363636364 0.01136363636363637 0.01136363636363637 0.01136363636363637 0.01136363636363637 0.01136363636363637 0.01136363636363637 0.01136363636363637 0.01136363636363637 0.01136363636363637 0.01136363636363637 0.01136363636363637 0.01136363636363637 0.01136363636363637 0.01136363636363637 0.01136363636363637 0.01136363636363637 0.01136363636363637 0.01136363636363637 0.01136363636363637 0.01136363636363637 0.01136363636363637 0.01136363636363637 0.01136363636363637 0.01136363636363637 0.01136363636363637 0.01136363636363637 0.01136363636363637 0.01136363636363637 0.01136363636363637 0.01136363636363637 0.01136363636363637 0.01136363636363637 0.01136363636363637 0.0007102272727272732 0.0007102272727272732 0.0007102272727272732 0.0007102272727272732 0.03196022727272727 0.03196022727272727 0.0007102272727272732 0.03196022727272727 0.0007102272727272732 0.0007102272727272732 0.09446022727272728 0.09446022727272728 0.09446022727272728 0.03196022727272727 0.03196022727272727 0.06321022727272728 0.06321022727272728 0.03196022727272727 0.0007102272727272732 0.06321022727272728 0.09446022727272728 0.03196022727272727 0.0007102272727272732 0.03196022727272727 0.09446022727272728 0.0007102272727272732 0.03196022727272727 0.0007102272727272732 0.0007102272727272732 0.03196022727272727 0.0007102272727272732 0.0007102272727272732 0.0007102272727272732 0.0007102272727272732 0.0007102272727272732 0.0007102272727272732 0.0007102272727272732 0.0007102272727272732 0.0007102272727272732 0.0007102272727272732 0.0007102272727272732 0.0007102272727272732 0.0007102272727272732 0.0007102272727272732 0.0001976284584980238 0.0001976284584980238 0.0001976284584980238 0.0001976284584980238 0.0001976284584980238 0.0001976284584980238 0.03498023715415019 0.04367588932806323 0.02628458498023715 0.04367588932806323 0.09584980237154149 0.07845849802371541 0.1132411067193676 0.09584980237154149 0.02628458498023715 0.06106719367588932 0.07845849802371541 0.04367588932806323 0.05237154150197627 0.06106719367588932 0.01758893280632411 0.008893280632411066 0.008893280632411066 0.008893280632411066 0.03498023715415019 0.0001976284584980238 0.02628458498023715 0.01758893280632411 0.01758893280632411 0.0001976284584980238 0.0001976284584980238 0.0001976284584980238 0.0001976284584980238 0.0001976284584980238 0.0001976284584980238 0.0001976284584980238 0.0001976284584980238 0.0001976284584980238 0.0001976284584980238 0.0001976284584980238 0.0001976284584980238 0.0001976284584980238 0.0001976284584980238 0.0001976284584980238 0.0004288164665523158 0.0004288164665523158 0.0004288164665523158 0.0004288164665523158 0.0192967409948542 0.0004288164665523158 0.0004288164665523158 0.03816466552315608 0.03816466552315608 0.03816466552315608 0.07590051457975984 0.09476843910806172 0.207975986277873 0.07590051457975984 0.0192967409948542 0.03816466552315608 0.07590051457975984 0.07590051457975984 0.05703259005145796 0.05703259005145796 0.03816466552315608 0.0192967409948542 0.0004288164665523158 0.0004288164665523158 0.0004288164665523158 0.0004288164665523158 0.0004288164665523158 0.0004288164665523158 0.0004288164665523158 0.0004288164665523158 0.0004288164665523158 0.0004288164665523158 0.0004288164665523158 0.0004288164665523158 0.0192967409948542 0.0004288164665523158 0.0004288164665523158 0.0004288164665523158 0.0004288164665523158 0.0004288164665523158 0.0004288164665523158 0.0004288164665523158 0.0004288164665523158 0.0004288164665523158 0.0006684491978609629 0.0006684491978609629 0.0006684491978609629 0.03008021390374331 0.088903743315508 0.03008021390374331 0.03008021390374331 0.03008021390374331 0.03008021390374331 0.03008021390374331 0.088903743315508 0.03008021390374331 0.2065508021390374 0.1183155080213903 0.05949197860962566 0.03008021390374331 0.03008021390374331 0.088903743315508 0.0006684491978609629 0.0006684491978609629 0.03008021390374331 0.0006684491978609629 0.0006684491978609629 0.0006684491978609629 0.0006684491978609629 0.0006684491978609629 0.0006684491978609629 0.0006684491978609629 0.03008021390374331 0.0006684491978609629 0.0006684491978609629 0.0006684491978609629 0.0006684491978609629 0.0006684491978609629 0.0006684491978609629 0.0006684491978609629 0.0006684491978609629 0.0006684491978609629 0.0006684491978609629 0.0006684491978609629 0.0006684491978609629 0.0006684491978609629 0.0006684491978609629 0.0006684491978609629 0.001262626262626263 0.001262626262626263 0.001262626262626263 0.001262626262626263 0.001262626262626263 0.001262626262626263 0.1679292929292929 0.1123737373737374 0.001262626262626263 0.001262626262626263 0.1123737373737374 0.001262626262626263 0.05681818181818182 0.1123737373737374 0.1123737373737374 0.001262626262626263 0.2234848484848485 0.05681818181818182 0.001262626262626263 0.001262626262626263 0.001262626262626263 0.001262626262626263 0.001262626262626263 0.001262626262626263 0.001262626262626263 0.001262626262626263 0.001262626262626263 0.001262626262626263 0.001262626262626263 0.001262626262626263 0.001262626262626263 0.001262626262626263 0.001262626262626263 0.001262626262626263 0.001262626262626263 0.001262626262626263 0.001262626262626263 0.001262626262626263 0.001262626262626263 0.001262626262626263 0.001262626262626263 0.001262626262626263 0.001262626262626263 0.001262626262626263 0.002525252525252527 0.002525252525252527 0.002525252525252527 0.002525252525252527 0.1136363636363636 0.002525252525252527 0.002525252525252527 0.002525252525252527 0.002525252525252527 0.1136363636363636 0.1136363636363636 0.1136363636363636 0.002525252525252527 0.3358585858585859 0.002525252525252527 0.1136363636363636 0.002525252525252527 0.002525252525252527 0.002525252525252527 0.002525252525252527 0.002525252525252527 0.002525252525252527 0.002525252525252527 0.002525252525252527 0.002525252525252527 0.002525252525252527 0.002525252525252527 0.002525252525252527 0.002525252525252527 0.002525252525252527 0.002525252525252527 0.002525252525252527 0.002525252525252527 0.002525252525252527 0.002525252525252527 0.002525252525252527 0.002525252525252527 0.002525252525252527 0.002525252525252527 0.002525252525252527 0.002525252525252527 0.002525252525252527 0.002525252525252527 0.002525252525252527 0.007575757575757576 0.007575757575757576 0.007575757575757576 0.007575757575757576 0.007575757575757576 0.3409090909090907 0.007575757575757576 0.007575757575757576 0.007575757575757576 0.007575757575757576 0.007575757575757576 0.007575757575757576 0.007575757575757576 0.3409090909090907 0.007575757575757576 0.007575757575757576 0.007575757575757576 0.007575757575757576 0.007575757575757576 0.007575757575757576 0.007575757575757576 0.007575757575757576 0.007575757575757576 0.007575757575757576 0.007575757575757576 0.007575757575757576 0.007575757575757576 0.007575757575757576 0.007575757575757576 0.007575757575757576 0.007575757575757576 0.007575757575757576 0.007575757575757576 0.007575757575757576 0.007575757575757576 0.007575757575757576 0.007575757575757576 0.007575757575757576 0.007575757575757576 0.007575757575757576 0.007575757575757576 0.007575757575757576 0.007575757575757576 0.007575757575757576 0.001262626262626264 0.001262626262626264 0.001262626262626264 0.001262626262626264 0.001262626262626264 0.1123737373737374 0.001262626262626264 0.05681818181818183 0.001262626262626264 0.001262626262626264 0.1123737373737374 0.001262626262626264 0.167929292929293 0.001262626262626264 0.05681818181818183 0.001262626262626264 0.05681818181818183 0.05681818181818183 0.001262626262626264 0.001262626262626264 0.05681818181818183 0.05681818181818183 0.001262626262626264 0.001262626262626264 0.05681818181818183 0.05681818181818183 0.05681818181818183 0.001262626262626264 0.001262626262626264 0.05681818181818183 0.001262626262626264 0.001262626262626264 0.001262626262626264 0.001262626262626264 0.001262626262626264 0.001262626262626264 0.001262626262626264 0.001262626262626264 0.001262626262626264 0.001262626262626264 0.001262626262626264 0.001262626262626264 0.001262626262626264 0.001262626262626264 0.0003551136363636365 0.0003551136363636365 0.0003551136363636365 0.0003551136363636365 0.0003551136363636365 0.0003551136363636365 0.01598011363636363 0.04723011363636363 0.01598011363636363 0.06285511363636362 0.1253551136363636 0.03160511363636363 0.1409801136363636 0.07848011363636362 0.03160511363636363 0.0003551136363636365 0.06285511363636362 0.1097301136363636 0.04723011363636363 0.04723011363636363 0.03160511363636363 0.0003551136363636365 0.01598011363636363 0.01598011363636363 0.03160511363636363 0.04723011363636363 0.03160511363636363 0.0003551136363636365 0.0003551136363636365 0.0003551136363636365 0.0003551136363636365 0.0003551136363636365 0.0003551136363636365 0.0003551136363636365 0.0003551136363636365 0.0003551136363636365 0.0003551136363636365 0.0003551136363636365 0.0003551136363636365 0.0003551136363636365 0.0003551136363636365 0.0003551136363636365 0.0003551136363636365 0.0003551136363636365 0.0009469696969696972 0.0009469696969696972 0.0009469696969696972 0.04261363636363635 0.04261363636363635 0.04261363636363635 0.0009469696969696972 0.1259469696969697 0.0009469696969696972 0.0009469696969696972 0.0009469696969696972 0.1259469696969697 0.2926136363636362 0.04261363636363635 0.04261363636363635 0.08428030303030301 0.04261363636363635 0.0009469696969696972 0.0009469696969696972 0.0009469696969696972 0.0009469696969696972 0.04261363636363635 0.0009469696969696972 0.0009469696969696972 0.04261363636363635 0.0009469696969696972 0.0009469696969696972 0.0009469696969696972 0.0009469696969696972 0.0009469696969696972 0.0009469696969696972 0.0009469696969696972 0.0009469696969696972 0.0009469696969696972 0.0009469696969696972 0.0009469696969696972 0.0009469696969696972 0.0009469696969696972 0.0009469696969696972 0.0009469696969696972 0.0009469696969696972 0.0009469696969696972 0.0009469696969696972 0.0009469696969696972 0.0007331378299120238 0.0007331378299120238 0.0007331378299120238 0.0007331378299120238 0.0007331378299120238 0.0007331378299120238 0.1297653958944281 0.03299120234604105 0.0007331378299120238 0.0007331378299120238 0.06524926686217009 0.06524926686217009 0.03299120234604105 0.1620234604105571 0.06524926686217009 0.06524926686217009 0.1297653958944281 0.06524926686217009 0.0007331378299120238 0.06524926686217009 0.03299120234604105 0.0007331378299120238 0.0007331378299120238 0.0007331378299120238 0.0007331378299120238 0.0007331378299120238 0.0007331378299120238 0.03299120234604105 0.03299120234604105 0.0007331378299120238 0.0007331378299120238 0.0007331378299120238 0.0007331378299120238 0.0007331378299120238 0.0007331378299120238 0.0007331378299120238 0.0007331378299120238 0.0007331378299120238 0.0007331378299120238 0.0007331378299120238 0.0007331378299120238 0.0007331378299120238 0.0007331378299120238 0.0007331378299120238 0.001748251748251749 0.001748251748251749 0.001748251748251749 0.001748251748251749 0.001748251748251749 0.07867132867132866 0.07867132867132866 0.1555944055944056 0.001748251748251749 0.001748251748251749 0.3094405594405594 0.07867132867132866 0.1555944055944056 0.001748251748251749 0.001748251748251749 0.001748251748251749 0.001748251748251749 0.001748251748251749 0.001748251748251749 0.001748251748251749 0.001748251748251749 0.001748251748251749 0.001748251748251749 0.001748251748251749 0.001748251748251749 0.001748251748251749 0.001748251748251749 0.001748251748251749 0.001748251748251749 0.07867132867132866 0.001748251748251749 0.001748251748251749 0.001748251748251749 0.001748251748251749 0.001748251748251749 0.001748251748251749 0.001748251748251749 0.001748251748251749 0.001748251748251749 0.001748251748251749 0.001748251748251749 0.001748251748251749 0.001748251748251749 0.001748251748251749 0.002272727272727273 0.002272727272727273 0.002272727272727273 0.002272727272727273 0.002272727272727273 0.002272727272727273 0.1022727272727273 0.1022727272727273 0.002272727272727273 0.2022727272727272 0.1022727272727273 0.002272727272727273 0.1022727272727273 0.2022727272727272 0.002272727272727273 0.1022727272727273 0.002272727272727273 0.002272727272727273 0.002272727272727273 0.002272727272727273 0.002272727272727273 0.002272727272727273 0.002272727272727273 0.002272727272727273 0.002272727272727273 0.002272727272727273 0.002272727272727273 0.002272727272727273 0.002272727272727273 0.002272727272727273 0.002272727272727273 0.002272727272727273 0.002272727272727273 0.002272727272727273 0.002272727272727273 0.002272727272727273 0.002272727272727273 0.002272727272727273 0.002272727272727273 0.002272727272727273 0.002272727272727273 0.002272727272727273 0.002272727272727273 0.002272727272727273 0.00757575757575758 0.00757575757575758 0.00757575757575758 0.00757575757575758 0.00757575757575758 0.00757575757575758 0.00757575757575758 0.3409090909090909 0.3409090909090909 0.00757575757575758 0.00757575757575758 0.00757575757575758 0.00757575757575758 0.00757575757575758 0.00757575757575758 0.00757575757575758 0.00757575757575758 0.00757575757575758 0.00757575757575758 0.00757575757575758 0.00757575757575758 0.00757575757575758 0.00757575757575758 0.00757575757575758 0.00757575757575758 0.00757575757575758 0.00757575757575758 0.00757575757575758 0.00757575757575758 0.00757575757575758 0.00757575757575758 0.00757575757575758 0.00757575757575758 0.00757575757575758 0.00757575757575758 0.00757575757575758 0.00757575757575758 0.00757575757575758 0.00757575757575758 0.00757575757575758 0.00757575757575758 0.00757575757575758 0.00757575757575758 0.00757575757575758 0.001420454545454547 0.001420454545454547 0.001420454545454547 0.001420454545454547 0.001420454545454547 0.001420454545454547 0.001420454545454547 0.001420454545454547 0.001420454545454547 0.001420454545454547 0.06392045454545456 0.001420454545454547 0.1889204545454546 0.06392045454545456 0.06392045454545456 0.1264204545454546 0.001420454545454547 0.001420454545454547 0.06392045454545456 0.06392045454545456 0.06392045454545456 0.001420454545454547 0.06392045454545456 0.001420454545454547 0.001420454545454547 0.001420454545454547 0.001420454545454547 0.1264204545454546 0.001420454545454547 0.06392045454545456 0.001420454545454547 0.001420454545454547 0.001420454545454547 0.001420454545454547 0.001420454545454547 0.001420454545454547 0.001420454545454547 0.001420454545454547 0.001420454545454547 0.001420454545454547 0.001420454545454547 0.001420454545454547 0.001420454545454547 0.001420454545454547 0.0005050505050505053 0.0005050505050505053 0.0005050505050505053 0.0005050505050505053 0.0005050505050505053 0.02272727272727272 0.02272727272727272 0.04494949494949494 0.02272727272727272 0.04494949494949494 0.08939393939393936 0.1116161616161616 0.08939393939393936 0.08939393939393936 0.0005050505050505053 0.04494949494949494 0.08939393939393936 0.04494949494949494 0.04494949494949494 0.04494949494949494 0.02272727272727272 0.06717171717171716 0.02272727272727272 0.0005050505050505053 0.02272727272727272 0.0005050505050505053 0.0005050505050505053 0.0005050505050505053 0.04494949494949494 0.0005050505050505053 0.0005050505050505053 0.0005050505050505053 0.0005050505050505053 0.0005050505050505053 0.0005050505050505053 0.0005050505050505053 0.0005050505050505053 0.0005050505050505053 0.0005050505050505053 0.0005050505050505053 0.0005050505050505053 0.0005050505050505053 0.0005050505050505053 0.0005050505050505053 0.001082251082251083 0.001082251082251083 0.001082251082251083 0.001082251082251083 0.04870129870129872 0.001082251082251083 0.001082251082251083 0.1915584415584416 0.001082251082251083 0.001082251082251083 0.04870129870129872 0.001082251082251083 0.09632034632034636 0.09632034632034636 0.04870129870129872 0.04870129870129872 0.09632034632034636 0.09632034632034636 0.09632034632034636 0.001082251082251083 0.001082251082251083 0.001082251082251083 0.001082251082251083 0.001082251082251083 0.09632034632034636 0.001082251082251083 0.001082251082251083 0.001082251082251083 0.001082251082251083 0.001082251082251083 0.001082251082251083 0.001082251082251083 0.001082251082251083 0.001082251082251083 0.001082251082251083 0.001082251082251083 0.001082251082251083 0.001082251082251083 0.001082251082251083 0.001082251082251083 0.001082251082251083 0.001082251082251083 0.001082251082251083 0.001082251082251083 0.0007836990595611288 0.0007836990595611288 0.0007836990595611288 0.06974921630094043 0.0007836990595611288 0.0007836990595611288 0.06974921630094043 0.1387147335423197 0.0007836990595611288 0.0007836990595611288 0.1042319749216301 0.06974921630094043 0.1042319749216301 0.1387147335423197 0.06974921630094043 0.06974921630094043 0.0007836990595611288 0.03526645768025077 0.0007836990595611288 0.06974921630094043 0.0007836990595611288 0.0007836990595611288 0.0007836990595611288 0.0007836990595611288 0.0007836990595611288 0.0007836990595611288 0.0007836990595611288 0.03526645768025077 0.0007836990595611288 0.0007836990595611288 0.0007836990595611288 0.0007836990595611288 0.0007836990595611288 0.0007836990595611288 0.0007836990595611288 0.0007836990595611288 0.0007836990595611288 0.0007836990595611288 0.0007836990595611288 0.0007836990595611288 0.0007836990595611288 0.0007836990595611288 0.0007836990595611288 0.0007836990595611288 0.002525252525252527 0.002525252525252527 0.002525252525252527 0.002525252525252527 0.002525252525252527 0.1136363636363636 0.1136363636363636 0.1136363636363636 0.002525252525252527 0.002525252525252527 0.3358585858585859 0.002525252525252527 0.002525252525252527 0.1136363636363636 0.002525252525252527 0.002525252525252527 0.002525252525252527 0.002525252525252527 0.002525252525252527 0.002525252525252527 0.002525252525252527 0.1136363636363636 0.002525252525252527 0.002525252525252527 0.002525252525252527 0.002525252525252527 0.002525252525252527 0.002525252525252527 0.002525252525252527 0.002525252525252527 0.002525252525252527 0.002525252525252527 0.002525252525252527 0.002525252525252527 0.002525252525252527 0.002525252525252527 0.002525252525252527 0.002525252525252527 0.002525252525252527 0.002525252525252527 0.002525252525252527 0.002525252525252527 0.002525252525252527 0.002525252525252527 0.004545454545454545 0.004545454545454545 0.004545454545454545 0.004545454545454545 0.004545454545454545 0.004545454545454545 0.2045454545454544 0.004545454545454545 0.004545454545454545 0.004545454545454545 0.2045454545454544 0.004545454545454545 0.4045454545454543 0.004545454545454545 0.004545454545454545 0.004545454545454545 0.004545454545454545 0.004545454545454545 0.004545454545454545 0.004545454545454545 0.004545454545454545 0.004545454545454545 0.004545454545454545 0.004545454545454545 0.004545454545454545 0.004545454545454545 0.004545454545454545 0.004545454545454545 0.004545454545454545 0.004545454545454545 0.004545454545454545 0.004545454545454545 0.004545454545454545 0.004545454545454545 0.004545454545454545 0.004545454545454545 0.004545454545454545 0.004545454545454545 0.004545454545454545 0.004545454545454545 0.004545454545454545 0.004545454545454545 0.004545454545454545 0.004545454545454545 0.007575757575757579 0.007575757575757579 0.007575757575757579 0.007575757575757579 0.007575757575757579 0.007575757575757579 0.007575757575757579 0.007575757575757579 0.007575757575757579 0.007575757575757579 0.3409090909090908 0.007575757575757579 0.007575757575757579 0.007575757575757579 0.007575757575757579 0.007575757575757579 0.007575757575757579 0.007575757575757579 0.3409090909090908 0.007575757575757579 0.007575757575757579 0.007575757575757579 0.007575757575757579 0.007575757575757579 0.007575757575757579 0.007575757575757579 0.007575757575757579 0.007575757575757579 0.007575757575757579 0.007575757575757579 0.007575757575757579 0.007575757575757579 0.007575757575757579 0.007575757575757579 0.007575757575757579 0.007575757575757579 0.007575757575757579 0.007575757575757579 0.007575757575757579 0.007575757575757579 0.007575757575757579 0.007575757575757579 0.007575757575757579 0.007575757575757579 0.003246753246753247 0.003246753246753247 0.003246753246753247 0.003246753246753247 0.003246753246753247 0.003246753246753247 0.003246753246753247 0.003246753246753247 0.146103896103896 0.003246753246753247 0.003246753246753247 0.003246753246753247 0.146103896103896 0.2889610389610389 0.146103896103896 0.003246753246753247 0.003246753246753247 0.003246753246753247 0.003246753246753247 0.003246753246753247 0.146103896103896 0.003246753246753247 0.003246753246753247 0.003246753246753247 0.003246753246753247 0.003246753246753247 0.003246753246753247 0.003246753246753247 0.003246753246753247 0.003246753246753247 0.003246753246753247 0.003246753246753247 0.003246753246753247 0.003246753246753247 0.003246753246753247 0.003246753246753247 0.003246753246753247 0.003246753246753247 0.003246753246753247 0.003246753246753247 0.003246753246753247 0.003246753246753247 0.003246753246753247 0.003246753246753247 0.001082251082251083 0.001082251082251083 0.001082251082251083 0.001082251082251083 0.001082251082251083 0.001082251082251083 0.001082251082251083 0.001082251082251083 0.04870129870129872 0.04870129870129872 0.09632034632034636 0.04870129870129872 0.04870129870129872 0.09632034632034636 0.04870129870129872 0.09632034632034636 0.09632034632034636 0.001082251082251083 0.001082251082251083 0.04870129870129872 0.001082251082251083 0.001082251082251083 0.04870129870129872 0.001082251082251083 0.09632034632034636 0.001082251082251083 0.001082251082251083 0.04870129870129872 0.04870129870129872 0.04870129870129872 0.001082251082251083 0.001082251082251083 0.001082251082251083 0.001082251082251083 0.001082251082251083 0.001082251082251083 0.001082251082251083 0.001082251082251083 0.001082251082251083 0.001082251082251083 0.001082251082251083 0.001082251082251083 0.001082251082251083 0.001082251082251083 0.001893939393939395 0.001893939393939395 0.001893939393939395 0.001893939393939395 0.001893939393939395 0.001893939393939395 0.001893939393939395 0.001893939393939395 0.001893939393939395 0.001893939393939395 0.001893939393939395 0.001893939393939395 0.1685606060606061 0.2518939393939394 0.001893939393939395 0.08522727272727272 0.08522727272727272 0.1685606060606061 0.08522727272727272 0.001893939393939395 0.001893939393939395 0.001893939393939395 0.001893939393939395 0.001893939393939395 0.001893939393939395 0.08522727272727272 0.001893939393939395 0.001893939393939395 0.001893939393939395 0.001893939393939395 0.001893939393939395 0.001893939393939395 0.001893939393939395 0.001893939393939395 0.001893939393939395 0.001893939393939395 0.001893939393939395 0.001893939393939395 0.001893939393939395 0.001893939393939395 0.001893939393939395 0.001893939393939395 0.001893939393939395 0.001893939393939395 0.001748251748251748 0.001748251748251748 0.001748251748251748 0.001748251748251748 0.001748251748251748 0.001748251748251748 0.001748251748251748 0.001748251748251748 0.001748251748251748 0.001748251748251748 0.1555944055944055 0.1555944055944055 0.1555944055944055 0.1555944055944055 0.001748251748251748 0.001748251748251748 0.001748251748251748 0.001748251748251748 0.07867132867132863 0.001748251748251748 0.07867132867132863 0.001748251748251748 0.001748251748251748 0.07867132867132863 0.001748251748251748 0.001748251748251748 0.001748251748251748 0.001748251748251748 0.001748251748251748 0.001748251748251748 0.001748251748251748 0.001748251748251748 0.07867132867132863 0.001748251748251748 0.001748251748251748 0.001748251748251748 0.001748251748251748 0.001748251748251748 0.001748251748251748 0.001748251748251748 0.001748251748251748 0.001748251748251748 0.001748251748251748 0.001748251748251748 0.00378787878787879 0.00378787878787879 0.00378787878787879 0.00378787878787879 0.1704545454545454 0.1704545454545454 0.1704545454545454 0.00378787878787879 0.00378787878787879 0.00378787878787879 0.00378787878787879 0.00378787878787879 0.00378787878787879 0.1704545454545454 0.00378787878787879 0.1704545454545454 0.00378787878787879 0.00378787878787879 0.00378787878787879 0.00378787878787879 0.00378787878787879 0.00378787878787879 0.00378787878787879 0.00378787878787879 0.00378787878787879 0.00378787878787879 0.00378787878787879 0.00378787878787879 0.00378787878787879 0.00378787878787879 0.00378787878787879 0.00378787878787879 0.00378787878787879 0.00378787878787879 0.00378787878787879 0.00378787878787879 0.00378787878787879 0.00378787878787879 0.00378787878787879 0.00378787878787879 0.00378787878787879 0.00378787878787879 0.00378787878787879 0.00378787878787879 0.003787878787878788 0.003787878787878788 0.003787878787878788 0.003787878787878788 0.003787878787878788 0.003787878787878788 0.003787878787878788 0.1704545454545454 0.003787878787878788 0.1704545454545454 0.003787878787878788 0.1704545454545454 0.003787878787878788 0.003787878787878788 0.003787878787878788 0.003787878787878788 0.337121212121212 0.003787878787878788 0.003787878787878788 0.003787878787878788 0.003787878787878788 0.003787878787878788 0.003787878787878788 0.003787878787878788 0.003787878787878788 0.003787878787878788 0.003787878787878788 0.003787878787878788 0.003787878787878788 0.003787878787878788 0.003787878787878788 0.003787878787878788 0.003787878787878788 0.003787878787878788 0.003787878787878788 0.003787878787878788 0.003787878787878788 0.003787878787878788 0.003787878787878788 0.003787878787878788 0.003787878787878788 0.003787878787878788 0.003787878787878788 0.003787878787878788 0.00757575757575758 0.00757575757575758 0.00757575757575758 0.00757575757575758 0.00757575757575758 0.00757575757575758 0.00757575757575758 0.00757575757575758 0.00757575757575758 0.00757575757575758 0.00757575757575758 0.00757575757575758 0.3409090909090909 0.3409090909090909 0.00757575757575758 0.00757575757575758 0.00757575757575758 0.00757575757575758 0.00757575757575758 0.00757575757575758 0.00757575757575758 0.00757575757575758 0.00757575757575758 0.00757575757575758 0.00757575757575758 0.00757575757575758 0.00757575757575758 0.00757575757575758 0.00757575757575758 0.00757575757575758 0.00757575757575758 0.00757575757575758 0.00757575757575758 0.00757575757575758 0.00757575757575758 0.00757575757575758 0.00757575757575758 0.00757575757575758 0.00757575757575758 0.00757575757575758 0.00757575757575758 0.00757575757575758 0.00757575757575758 0.00757575757575758 0.003787878787878791 0.003787878787878791 0.003787878787878791 0.003787878787878791 0.003787878787878791 0.003787878787878791 0.003787878787878791 0.003787878787878791 0.003787878787878791 0.1704545454545455 0.003787878787878791 0.003787878787878791 0.003787878787878791 0.3371212121212123 0.003787878787878791 0.003787878787878791 0.003787878787878791 0.1704545454545455 0.003787878787878791 0.003787878787878791 0.1704545454545455 0.003787878787878791 0.003787878787878791 0.003787878787878791 0.003787878787878791 0.003787878787878791 0.003787878787878791 0.003787878787878791 0.003787878787878791 0.003787878787878791 0.003787878787878791 0.003787878787878791 0.003787878787878791 0.003787878787878791 0.003787878787878791 0.003787878787878791 0.003787878787878791 0.003787878787878791 0.003787878787878791 0.003787878787878791 0.003787878787878791 0.003787878787878791 0.003787878787878791 0.003787878787878791 0.00174825174825175 0.00174825174825175 0.07867132867132867 0.00174825174825175 0.00174825174825175 0.00174825174825175 0.00174825174825175 0.00174825174825175 0.00174825174825175 0.00174825174825175 0.00174825174825175 0.07867132867132867 0.2325174825174826 0.00174825174825175 0.07867132867132867 0.00174825174825175 0.00174825174825175 0.00174825174825175 0.1555944055944056 0.00174825174825175 0.00174825174825175 0.00174825174825175 0.00174825174825175 0.07867132867132867 0.00174825174825175 0.07867132867132867 0.00174825174825175 0.00174825174825175 0.00174825174825175 0.00174825174825175 0.00174825174825175 0.00174825174825175 0.07867132867132867 0.00174825174825175 0.07867132867132867 0.00174825174825175 0.00174825174825175 0.00174825174825175 0.00174825174825175 0.00174825174825175 0.00174825174825175 0.00174825174825175 0.00174825174825175 0.00174825174825175 0.00206611570247934 0.00206611570247934 0.00206611570247934 0.00206611570247934 0.00206611570247934 0.00206611570247934 0.00206611570247934 0.09297520661157024 0.00206611570247934 0.00206611570247934 0.09297520661157024 0.00206611570247934 0.09297520661157024 0.09297520661157024 0.00206611570247934 0.00206611570247934 0.1838842975206612 0.00206611570247934 0.00206611570247934 0.1838842975206612 0.09297520661157024 0.00206611570247934 0.00206611570247934 0.00206611570247934 0.09297520661157024 0.00206611570247934 0.00206611570247934 0.00206611570247934 0.00206611570247934 0.00206611570247934 0.00206611570247934 0.00206611570247934 0.00206611570247934 0.00206611570247934 0.00206611570247934 0.00206611570247934 0.00206611570247934 0.00206611570247934 0.00206611570247934 0.00206611570247934 0.00206611570247934 0.00206611570247934 0.00206611570247934 0.00206611570247934 0.001420454545454547 0.001420454545454547 0.001420454545454547 0.001420454545454547 0.001420454545454547 0.001420454545454547 0.06392045454545457 0.06392045454545457 0.001420454545454547 0.06392045454545457 0.06392045454545457 0.06392045454545457 0.06392045454545457 0.1264204545454546 0.06392045454545457 0.06392045454545457 0.001420454545454547 0.06392045454545457 0.1264204545454546 0.001420454545454547 0.001420454545454547 0.001420454545454547 0.001420454545454547 0.06392045454545457 0.001420454545454547 0.001420454545454547 0.06392045454545457 0.001420454545454547 0.001420454545454547 0.001420454545454547 0.001420454545454547 0.001420454545454547 0.001420454545454547 0.001420454545454547 0.001420454545454547 0.001420454545454547 0.001420454545454547 0.001420454545454547 0.001420454545454547 0.001420454545454547 0.001420454545454547 0.001420454545454547 0.001420454545454547 0.001420454545454547 0.002525252525252526 0.002525252525252526 0.002525252525252526 0.002525252525252526 0.002525252525252526 0.1136363636363636 0.002525252525252526 0.002525252525252526 0.002525252525252526 0.1136363636363636 0.002525252525252526 0.1136363636363636 0.1136363636363636 0.1136363636363636 0.002525252525252526 0.1136363636363636 0.2247474747474747 0.002525252525252526 0.002525252525252526 0.002525252525252526 0.002525252525252526 0.002525252525252526 0.002525252525252526 0.002525252525252526 0.002525252525252526 0.002525252525252526 0.002525252525252526 0.002525252525252526 0.002525252525252526 0.002525252525252526 0.002525252525252526 0.002525252525252526 0.002525252525252526 0.002525252525252526 0.002525252525252526 0.002525252525252526 0.002525252525252526 0.002525252525252526 0.002525252525252526 0.002525252525252526 0.002525252525252526 0.002525252525252526 0.002525252525252526 0.002525252525252526 0.02272727272727273 0.02272727272727273 0.02272727272727273 0.02272727272727273 0.02272727272727273 0.02272727272727273 0.02272727272727273 0.02272727272727273 0.02272727272727273 0.02272727272727273 0.02272727272727273 0.02272727272727273 0.02272727272727273 0.02272727272727273 0.02272727272727273 0.02272727272727273 0.02272727272727273 0.02272727272727273 0.02272727272727273 0.02272727272727273 0.02272727272727273 0.02272727272727273 0.02272727272727273 0.02272727272727273 0.02272727272727273 0.02272727272727273 0.02272727272727273 0.02272727272727273 0.02272727272727273 0.02272727272727273 0.02272727272727273 0.02272727272727273 0.02272727272727273 0.02272727272727273 0.02272727272727273 0.02272727272727273 0.02272727272727273 0.02272727272727273 0.02272727272727273 0.02272727272727273 0.02272727272727273 0.02272727272727273 0.02272727272727273 0.02272727272727273 0.01136363636363637 0.01136363636363637 0.01136363636363637 0.01136363636363637 0.01136363636363637 0.01136363636363637 0.01136363636363637 0.5113636363636364 0.01136363636363637 0.01136363636363637 0.01136363636363637 0.01136363636363637 0.01136363636363637 0.01136363636363637 0.01136363636363637 0.01136363636363637 0.01136363636363637 0.01136363636363637 0.01136363636363637 0.01136363636363637 0.01136363636363637 0.01136363636363637 0.01136363636363637 0.01136363636363637 0.01136363636363637 0.01136363636363637 0.01136363636363637 0.01136363636363637 0.01136363636363637 0.01136363636363637 0.01136363636363637 0.01136363636363637 0.01136363636363637 0.01136363636363637 0.01136363636363637 0.01136363636363637 0.01136363636363637 0.01136363636363637 0.01136363636363637 0.01136363636363637 0.01136363636363637 0.01136363636363637 0.01136363636363637 0.01136363636363637 0.002525252525252527 0.002525252525252527 0.002525252525252527 0.002525252525252527 0.002525252525252527 0.002525252525252527 0.002525252525252527 0.002525252525252527 0.002525252525252527 0.1136363636363636 0.3358585858585859 0.002525252525252527 0.002525252525252527 0.002525252525252527 0.1136363636363636 0.002525252525252527 0.002525252525252527 0.002525252525252527 0.1136363636363636 0.002525252525252527 0.002525252525252527 0.002525252525252527 0.002525252525252527 0.002525252525252527 0.002525252525252527 0.1136363636363636 0.002525252525252527 0.1136363636363636 0.002525252525252527 0.002525252525252527 0.002525252525252527 0.002525252525252527 0.002525252525252527 0.002525252525252527 0.002525252525252527 0.002525252525252527 0.002525252525252527 0.002525252525252527 0.002525252525252527 0.002525252525252527 0.002525252525252527 0.002525252525252527 0.002525252525252527 0.002525252525252527 0.002066115702479339 0.002066115702479339 0.002066115702479339 0.002066115702479339 0.002066115702479339 0.0929752066115702 0.1838842975206611 0.002066115702479339 0.002066115702479339 0.0929752066115702 0.002066115702479339 0.002066115702479339 0.1838842975206611 0.002066115702479339 0.002066115702479339 0.002066115702479339 0.002066115702479339 0.0929752066115702 0.002066115702479339 0.0929752066115702 0.002066115702479339 0.002066115702479339 0.002066115702479339 0.002066115702479339 0.0929752066115702 0.002066115702479339 0.0929752066115702 0.002066115702479339 0.002066115702479339 0.002066115702479339 0.002066115702479339 0.002066115702479339 0.002066115702479339 0.002066115702479339 0.002066115702479339 0.002066115702479339 0.002066115702479339 0.002066115702479339 0.002066115702479339 0.002066115702479339 0.002066115702479339 0.002066115702479339 0.002066115702479339 0.002066115702479339 0.003787878787878789 0.003787878787878789 0.003787878787878789 0.003787878787878789 0.003787878787878789 0.003787878787878789 0.003787878787878789 0.003787878787878789 0.003787878787878789 0.003787878787878789 0.003787878787878789 0.003787878787878789 0.003787878787878789 0.1704545454545454 0.1704545454545454 0.003787878787878789 0.003787878787878789 0.003787878787878789 0.003787878787878789 0.1704545454545454 0.3371212121212121 0.003787878787878789 0.003787878787878789 0.003787878787878789 0.003787878787878789 0.003787878787878789 0.003787878787878789 0.003787878787878789 0.003787878787878789 0.003787878787878789 0.003787878787878789 0.003787878787878789 0.003787878787878789 0.003787878787878789 0.003787878787878789 0.003787878787878789 0.003787878787878789 0.003787878787878789 0.003787878787878789 0.003787878787878789 0.003787878787878789 0.003787878787878789 0.003787878787878789 0.003787878787878789 0.001515151515151516 0.001515151515151516 0.001515151515151516 0.001515151515151516 0.001515151515151516 0.001515151515151516 0.06818181818181816 0.06818181818181816 0.001515151515151516 0.001515151515151516 0.001515151515151516 0.06818181818181816 0.3348484848484848 0.001515151515151516 0.001515151515151516 0.001515151515151516 0.06818181818181816 0.06818181818181816 0.06818181818181816 0.001515151515151516 0.06818181818181816 0.001515151515151516 0.06818181818181816 0.001515151515151516 0.06818181818181816 0.001515151515151516 0.001515151515151516 0.001515151515151516 0.001515151515151516 0.001515151515151516 0.001515151515151516 0.001515151515151516 0.001515151515151516 0.001515151515151516 0.001515151515151516 0.001515151515151516 0.001515151515151516 0.001515151515151516 0.001515151515151516 0.001515151515151516 0.001515151515151516 0.001515151515151516 0.001515151515151516 0.001515151515151516 0.003787878787878788 0.003787878787878788 0.003787878787878788 0.003787878787878788 0.003787878787878788 0.003787878787878788 0.003787878787878788 0.337121212121212 0.003787878787878788 0.003787878787878788 0.1704545454545454 0.003787878787878788 0.337121212121212 0.003787878787878788 0.003787878787878788 0.003787878787878788 0.003787878787878788 0.003787878787878788 0.003787878787878788 0.003787878787878788 0.003787878787878788 0.003787878787878788 0.003787878787878788 0.003787878787878788 0.003787878787878788 0.003787878787878788 0.003787878787878788 0.003787878787878788 0.003787878787878788 0.003787878787878788 0.003787878787878788 0.003787878787878788 0.003787878787878788 0.003787878787878788 0.003787878787878788 0.003787878787878788 0.003787878787878788 0.003787878787878788 0.003787878787878788 0.003787878787878788 0.003787878787878788 0.003787878787878788 0.003787878787878788 0.003787878787878788 0.01136363636363637 0.01136363636363637 0.01136363636363637 0.01136363636363637 0.01136363636363637 0.01136363636363637 0.01136363636363637 0.01136363636363637 0.01136363636363637 0.01136363636363637 0.01136363636363637 0.01136363636363637 0.01136363636363637 0.5113636363636364 0.01136363636363637 0.01136363636363637 0.01136363636363637 0.01136363636363637 0.01136363636363637 0.01136363636363637 0.01136363636363637 0.01136363636363637 0.01136363636363637 0.01136363636363637 0.01136363636363637 0.01136363636363637 0.01136363636363637 0.01136363636363637 0.01136363636363637 0.01136363636363637 0.01136363636363637 0.01136363636363637 0.01136363636363637 0.01136363636363637 0.01136363636363637 0.01136363636363637 0.01136363636363637 0.01136363636363637 0.01136363636363637 0.01136363636363637 0.01136363636363637 0.01136363636363637 0.01136363636363637 0.01136363636363637 0.02272727272727273 0.02272727272727273 0.02272727272727273 0.02272727272727273 0.02272727272727273 0.02272727272727273 0.02272727272727273 0.02272727272727273 0.02272727272727273 0.02272727272727273 0.02272727272727273 0.02272727272727273 0.02272727272727273 0.02272727272727273 0.02272727272727273 0.02272727272727273 0.02272727272727273 0.02272727272727273 0.02272727272727273 0.02272727272727273 0.02272727272727273 0.02272727272727273 0.02272727272727273 0.02272727272727273 0.02272727272727273 0.02272727272727273 0.02272727272727273 0.02272727272727273 0.02272727272727273 0.02272727272727273 0.02272727272727273 0.02272727272727273 0.02272727272727273 0.02272727272727273 0.02272727272727273 0.02272727272727273 0.02272727272727273 0.02272727272727273 0.02272727272727273 0.02272727272727273 0.02272727272727273 0.02272727272727273 0.02272727272727273 0.02272727272727273 0.01136363636363637 0.01136363636363637 0.01136363636363637 0.01136363636363637 0.01136363636363637 0.01136363636363637 0.01136363636363637 0.01136363636363637 0.01136363636363637 0.01136363636363637 0.01136363636363637 0.01136363636363637 0.01136363636363637 0.01136363636363637 0.01136363636363637 0.01136363636363637 0.01136363636363637 0.01136363636363637 0.01136363636363637 0.01136363636363637 0.01136363636363637 0.01136363636363637 0.01136363636363637 0.01136363636363637 0.5113636363636364 0.01136363636363637 0.01136363636363637 0.01136363636363637 0.01136363636363637 0.01136363636363637 0.01136363636363637 0.01136363636363637 0.01136363636363637 0.01136363636363637 0.01136363636363637 0.01136363636363637 0.01136363636363637 0.01136363636363637 0.01136363636363637 0.01136363636363637 0.01136363636363637 0.01136363636363637 0.01136363636363637 0.01136363636363637 0.00206611570247934 0.00206611570247934 0.00206611570247934 0.00206611570247934 0.00206611570247934 0.00206611570247934 0.00206611570247934 0.00206611570247934 0.00206611570247934 0.00206611570247934 0.00206611570247934 0.00206611570247934 0.1838842975206612 0.09297520661157023 0.00206611570247934 0.00206611570247934 0.00206611570247934 0.09297520661157023 0.09297520661157023 0.09297520661157023 0.00206611570247934 0.00206611570247934 0.00206611570247934 0.1838842975206612 0.09297520661157023 0.00206611570247934 0.00206611570247934 0.09297520661157023 0.00206611570247934 0.00206611570247934 0.00206611570247934 0.00206611570247934 0.00206611570247934 0.00206611570247934 0.00206611570247934 0.00206611570247934 0.00206611570247934 0.00206611570247934 0.00206611570247934 0.00206611570247934 0.00206611570247934 0.00206611570247934 0.00206611570247934 0.00206611570247934 0.004545454545454547 0.004545454545454547 0.004545454545454547 0.004545454545454547 0.004545454545454547 0.004545454545454547 0.004545454545454547 0.004545454545454547 0.004545454545454547 0.2045454545454545 0.2045454545454545 0.004545454545454547 0.004545454545454547 0.004545454545454547 0.004545454545454547 0.2045454545454545 0.004545454545454547 0.004545454545454547 0.004545454545454547 0.004545454545454547 0.004545454545454547 0.004545454545454547 0.004545454545454547 0.004545454545454547 0.004545454545454547 0.004545454545454547 0.004545454545454547 0.2045454545454545 0.004545454545454547 0.004545454545454547 0.004545454545454547 0.004545454545454547 0.004545454545454547 0.004545454545454547 0.004545454545454547 0.004545454545454547 0.004545454545454547 0.004545454545454547 0.004545454545454547 0.004545454545454547 0.004545454545454547 0.004545454545454547 0.004545454545454547 0.004545454545454547 0.007575757575757576 0.007575757575757576 0.007575757575757576 0.007575757575757576 0.007575757575757576 0.007575757575757576 0.007575757575757576 0.007575757575757576 0.007575757575757576 0.007575757575757576 0.007575757575757576 0.007575757575757576 0.007575757575757576 0.007575757575757576 0.007575757575757576 0.007575757575757576 0.674242424242424 0.007575757575757576 0.007575757575757576 0.007575757575757576 0.007575757575757576 0.007575757575757576 0.007575757575757576 0.007575757575757576 0.007575757575757576 0.007575757575757576 0.007575757575757576 0.007575757575757576 0.007575757575757576 0.007575757575757576 0.007575757575757576 0.007575757575757576 0.007575757575757576 0.007575757575757576 0.007575757575757576 0.007575757575757576 0.007575757575757576 0.007575757575757576 0.007575757575757576 0.007575757575757576 0.007575757575757576 0.007575757575757576 0.007575757575757576 0.007575757575757576 0.00757575757575758 0.00757575757575758 0.00757575757575758 0.00757575757575758 0.00757575757575758 0.00757575757575758 0.00757575757575758 0.00757575757575758 0.00757575757575758 0.00757575757575758 0.00757575757575758 0.3409090909090909 0.00757575757575758 0.3409090909090909 0.00757575757575758 0.00757575757575758 0.00757575757575758 0.00757575757575758 0.00757575757575758 0.00757575757575758 0.00757575757575758 0.00757575757575758 0.00757575757575758 0.00757575757575758 0.00757575757575758 0.00757575757575758 0.00757575757575758 0.00757575757575758 0.00757575757575758 0.00757575757575758 0.00757575757575758 0.00757575757575758 0.00757575757575758 0.00757575757575758 0.00757575757575758 0.00757575757575758 0.00757575757575758 0.00757575757575758 0.00757575757575758 0.00757575757575758 0.00757575757575758 0.00757575757575758 0.00757575757575758 0.00757575757575758 0.01136363636363637 0.01136363636363637 0.01136363636363637 0.01136363636363637 0.01136363636363637 0.01136363636363637 0.01136363636363637 0.01136363636363637 0.01136363636363637 0.01136363636363637 0.5113636363636364 0.01136363636363637 0.01136363636363637 0.01136363636363637 0.01136363636363637 0.01136363636363637 0.01136363636363637 0.01136363636363637 0.01136363636363637 0.01136363636363637 0.01136363636363637 0.01136363636363637 0.01136363636363637 0.01136363636363637 0.01136363636363637 0.01136363636363637 0.01136363636363637 0.01136363636363637 0.01136363636363637 0.01136363636363637 0.01136363636363637 0.01136363636363637 0.01136363636363637 0.01136363636363637 0.01136363636363637 0.01136363636363637 0.01136363636363637 0.01136363636363637 0.01136363636363637 0.01136363636363637 0.01136363636363637 0.01136363636363637 0.01136363636363637 0.01136363636363637 0.01136363636363637 0.01136363636363637 0.01136363636363637 0.01136363636363637 0.01136363636363637 0.01136363636363637 0.01136363636363637 0.01136363636363637 0.01136363636363637 0.5113636363636364 0.01136363636363637 0.01136363636363637 0.01136363636363637 0.01136363636363637 0.01136363636363637 0.01136363636363637 0.01136363636363637 0.01136363636363637 0.01136363636363637 0.01136363636363637 0.01136363636363637 0.01136363636363637 0.01136363636363637 0.01136363636363637 0.01136363636363637 0.01136363636363637 0.01136363636363637 0.01136363636363637 0.01136363636363637 0.01136363636363637 0.01136363636363637 0.01136363636363637 0.01136363636363637 0.01136363636363637 0.01136363636363637 0.01136363636363637 0.01136363636363637 0.01136363636363637 0.01136363636363637 0.01136363636363637 0.01136363636363637 0.01136363636363637 0.01136363636363637 0.01136363636363637 0.005681818181818185 0.005681818181818185 0.005681818181818185 0.005681818181818185 0.005681818181818185 0.005681818181818185 0.005681818181818185 0.005681818181818185 0.005681818181818185 0.005681818181818185 0.005681818181818185 0.005681818181818185 0.005681818181818185 0.2556818181818181 0.005681818181818185 0.005681818181818185 0.005681818181818185 0.005681818181818185 0.005681818181818185 0.005681818181818185 0.005681818181818185 0.2556818181818181 0.005681818181818185 0.005681818181818185 0.005681818181818185 0.005681818181818185 0.2556818181818181 0.005681818181818185 0.005681818181818185 0.005681818181818185 0.005681818181818185 0.005681818181818185 0.005681818181818185 0.005681818181818185 0.005681818181818185 0.005681818181818185 0.005681818181818185 0.005681818181818185 0.005681818181818185 0.005681818181818185 0.005681818181818185 0.005681818181818185 0.005681818181818185 0.005681818181818185 0.005681818181818183 0.005681818181818183 0.005681818181818183 0.005681818181818183 0.005681818181818183 0.005681818181818183 0.005681818181818183 0.005681818181818183 0.005681818181818183 0.005681818181818183 0.005681818181818183 0.005681818181818183 0.005681818181818183 0.505681818181818 0.005681818181818183 0.005681818181818183 0.005681818181818183 0.005681818181818183 0.005681818181818183 0.2556818181818181 0.005681818181818183 0.005681818181818183 0.005681818181818183 0.005681818181818183 0.005681818181818183 0.005681818181818183 0.005681818181818183 0.005681818181818183 0.005681818181818183 0.005681818181818183 0.005681818181818183 0.005681818181818183 0.005681818181818183 0.005681818181818183 0.005681818181818183 0.005681818181818183 0.005681818181818183 0.005681818181818183 0.005681818181818183 0.005681818181818183 0.005681818181818183 0.005681818181818183 0.005681818181818183 0.005681818181818183 0.003787878787878791 0.003787878787878791 0.003787878787878791 0.003787878787878791 0.003787878787878791 0.003787878787878791 0.1704545454545455 0.003787878787878791 0.1704545454545455 0.003787878787878791 0.003787878787878791 0.003787878787878791 0.1704545454545455 0.003787878787878791 0.003787878787878791 0.003787878787878791 0.1704545454545455 0.003787878787878791 0.003787878787878791 0.003787878787878791 0.003787878787878791 0.003787878787878791 0.003787878787878791 0.003787878787878791 0.1704545454545455 0.003787878787878791 0.003787878787878791 0.003787878787878791 0.003787878787878791 0.003787878787878791 0.003787878787878791 0.003787878787878791 0.003787878787878791 0.003787878787878791 0.003787878787878791 0.003787878787878791 0.003787878787878791 0.003787878787878791 0.003787878787878791 0.003787878787878791 0.003787878787878791 0.003787878787878791 0.003787878787878791 0.003787878787878791 0.003787878787878788 0.003787878787878788 0.003787878787878788 0.003787878787878788 0.003787878787878788 0.003787878787878788 0.003787878787878788 0.003787878787878788 0.003787878787878788 0.003787878787878788 0.003787878787878788 0.1704545454545454 0.003787878787878788 0.003787878787878788 0.337121212121212 0.1704545454545454 0.003787878787878788 0.003787878787878788 0.003787878787878788 0.003787878787878788 0.1704545454545454 0.003787878787878788 0.003787878787878788 0.003787878787878788 0.003787878787878788 0.003787878787878788 0.003787878787878788 0.003787878787878788 0.003787878787878788 0.003787878787878788 0.003787878787878788 0.003787878787878788 0.003787878787878788 0.003787878787878788 0.003787878787878788 0.003787878787878788 0.003787878787878788 0.003787878787878788 0.003787878787878788 0.003787878787878788 0.003787878787878788 0.003787878787878788 0.003787878787878788 0.003787878787878788 0.02272727272727273 0.02272727272727273 0.02272727272727273 0.02272727272727273 0.02272727272727273 0.02272727272727273 0.02272727272727273 0.02272727272727273 0.02272727272727273 0.02272727272727273 0.02272727272727273 0.02272727272727273 0.02272727272727273 0.02272727272727273 0.02272727272727273 0.02272727272727273 0.02272727272727273 0.02272727272727273 0.02272727272727273 0.02272727272727273 0.02272727272727273 0.02272727272727273 0.02272727272727273 0.02272727272727273 0.02272727272727273 0.02272727272727273 0.02272727272727273 0.02272727272727273 0.02272727272727273 0.02272727272727273 0.02272727272727273 0.02272727272727273 0.02272727272727273 0.02272727272727273 0.02272727272727273 0.02272727272727273 0.02272727272727273 0.02272727272727273 0.02272727272727273 0.02272727272727273 0.02272727272727273 0.02272727272727273 0.02272727272727273 0.02272727272727273 0.01136363636363637 0.01136363636363637 0.01136363636363637 0.01136363636363637 0.01136363636363637 0.01136363636363637 0.5113636363636364 0.01136363636363637 0.01136363636363637 0.01136363636363637 0.01136363636363637 0.01136363636363637 0.01136363636363637 0.01136363636363637 0.01136363636363637 0.01136363636363637 0.01136363636363637 0.01136363636363637 0.01136363636363637 0.01136363636363637 0.01136363636363637 0.01136363636363637 0.01136363636363637 0.01136363636363637 0.01136363636363637 0.01136363636363637 0.01136363636363637 0.01136363636363637 0.01136363636363637 0.01136363636363637 0.01136363636363637 0.01136363636363637 0.01136363636363637 0.01136363636363637 0.01136363636363637 0.01136363636363637 0.01136363636363637 0.01136363636363637 0.01136363636363637 0.01136363636363637 0.01136363636363637 0.01136363636363637 0.01136363636363637 0.01136363636363637 0.01136363636363637 0.01136363636363637 0.01136363636363637 0.01136363636363637 0.01136363636363637 0.01136363636363637 0.01136363636363637 0.01136363636363637 0.01136363636363637 0.01136363636363637 0.01136363636363637 0.01136363636363637 0.5113636363636364 0.01136363636363637 0.01136363636363637 0.01136363636363637 0.01136363636363637 0.01136363636363637 0.01136363636363637 0.01136363636363637 0.01136363636363637 0.01136363636363637 0.01136363636363637 0.01136363636363637 0.01136363636363637 0.01136363636363637 0.01136363636363637 0.01136363636363637 0.01136363636363637 0.01136363636363637 0.01136363636363637 0.01136363636363637 0.01136363636363637 0.01136363636363637 0.01136363636363637 0.01136363636363637 0.01136363636363637 0.01136363636363637 0.01136363636363637 0.01136363636363637 0.01136363636363637 0.01136363636363637 0.01136363636363637 0.01136363636363637 0.02272727272727273 0.02272727272727273 0.02272727272727273 0.02272727272727273 0.02272727272727273 0.02272727272727273 0.02272727272727273 0.02272727272727273 0.02272727272727273 0.02272727272727273 0.02272727272727273 0.02272727272727273 0.02272727272727273 0.02272727272727273 0.02272727272727273 0.02272727272727273 0.02272727272727273 0.02272727272727273 0.02272727272727273 0.02272727272727273 0.02272727272727273 0.02272727272727273 0.02272727272727273 0.02272727272727273 0.02272727272727273 0.02272727272727273 0.02272727272727273 0.02272727272727273 0.02272727272727273 0.02272727272727273 0.02272727272727273 0.02272727272727273 0.02272727272727273 0.02272727272727273 0.02272727272727273 0.02272727272727273 0.02272727272727273 0.02272727272727273 0.02272727272727273 0.02272727272727273 0.02272727272727273 0.02272727272727273 0.02272727272727273 0.02272727272727273 0.005681818181818186 0.005681818181818186 0.005681818181818186 0.005681818181818186 0.005681818181818186 0.005681818181818186 0.005681818181818186 0.005681818181818186 0.005681818181818186 0.2556818181818182 0.005681818181818186 0.005681818181818186 0.005681818181818186 0.005681818181818186 0.005681818181818186 0.2556818181818182 0.005681818181818186 0.005681818181818186 0.005681818181818186 0.005681818181818186 0.005681818181818186 0.005681818181818186 0.005681818181818186 0.005681818181818186 0.005681818181818186 0.005681818181818186 0.005681818181818186 0.005681818181818186 0.2556818181818182 0.005681818181818186 0.005681818181818186 0.005681818181818186 0.005681818181818186 0.005681818181818186 0.005681818181818186 0.005681818181818186 0.005681818181818186 0.005681818181818186 0.005681818181818186 0.005681818181818186 0.005681818181818186 0.005681818181818186 0.005681818181818186 0.005681818181818186 0.001893939393939395 0.001893939393939395 0.001893939393939395 0.001893939393939395 0.001893939393939395 0.001893939393939395 0.001893939393939395 0.001893939393939395 0.08522727272727271 