<?xml version="1.0" encoding="ISO-8859-1"?>
<!-- This network was created in GeNIe Academic, which can be used for educational and research purposes only -->
<smile version="1.0" id="Unnamed" numsamples="10000" discsamples="10000">
	<nodes>
		<cpt id="OA_MAIS">
			<state id="State0" />
			<state id="State1" />
			<state id="State2" />
			<state id="State3" />
			<state id="State4" />
			<state id="State5" />
			<state id="State6" />
			<probabilities>0.3811259559020441 0.4589743208260182 0.07900139851816584 0.04947629958044453 0.01568125688100693 0.01130716814949266 0.004433600142827386</probabilities>
		</cpt>
		<cpt id="GV_MODELYR">
			<state id="s01_below_2000" />
			<state id="s02_2000_2001" />
			<state id="s03_2001_2002" />
			<state id="s04_2002_2003" />
			<state id="s05_2003_2004" />
			<state id="s06_2004_2005" />
			<state id="s07_2005_2006" />
			<state id="s08_2006_2007" />
			<state id="s09_2007_2008" />
			<state id="s10_2008_2009" />
			<state id="s11_2009_2010" />
			<state id="s12_2010_2011" />
			<state id="s13_2011_up" />
			<parents>OA_MAIS</parents>
			<probabilities>0.1302017654476671 0.1274695250105086 0.1343001261034048 0.1172236233711643 0.1058848255569567 0.1011034047919294 0.08949138293400587 0.07473728457335013 0.05807061790668347 0.02924548129466161 0.02173182009247582 0.009436738125262713 0.001103404791929382 0.1401108250796282 0.1312622714778131 0.1390898381255726 0.122300274881103 0.1120904053405471 0.09881757493782449 0.07714996291286703 0.0720450281425891 0.05729743880623063 0.02666783018456302 0.01634451764911209 0.006588420088136479 0.0002356123740128277 0.143660687138948 0.1594709638187899 0.1390493564406608 0.1377318333840073 0.08634843417452112 0.08239586500456066 0.07185568055133273 0.07646701124961995 0.0455052194182629 0.03167122732340124 0.01981351981351982 0.005979527718658154 5.067396371744199e-05 0.1746339885141147 0.166221790827469 0.1472943460325164 0.1315214753700558 0.09156353635848904 0.1115425058642724 0.05686322090107579 0.06106931974439861 0.03372967726280029 0.01480223246784761 0.006390034781201973 0.004286985359540564 8.088651621774651e-05 0.1591951095262353 0.1260825267447784 0.1558838512480896 0.1459500764136526 0.1128374936321956 0.07972491085073866 0.08303616912888435 0.05654610290371879 0.03005603667855323 0.02012226184411614 0.02012226184411614 0.01018848700967906 0.0002547121752419766 0.1746647847565279 0.1654904728299224 0.1838390966831334 0.1150317572335921 0.1012702893436838 0.1058574453069866 0.05081157374735355 0.05998588567395906 0.02328863796753704 0.0003528581510232887 0.0187014820042343 0.0003528581510232887 0.0003528581510232887 0.1404293381037567 0.1520572450805009 0.1404293381037567 0.1055456171735241 0.1288014311270125 0.08228980322003578 0.08228980322003578 0.07066189624329158 0.03577817531305903 0.03577817531305903 0.02415026833631485 0.0008944543828264761 0.0008944543828264761</probabilities>
		</cpt>
		<cpt id="GV_DVLONG">
			<state id="s01_below_n139" />
			<state id="s02_n139_n125" />
			<state id="s03_n125_n112" />
			<state id="s04_n112_n91" />
			<state id="s05_n91_n81" />
			<state id="s06_n81_n72" />
			<state id="s07_n72_n64" />
			<state id="s08_n64_n54" />
			<state id="s09_n54_n48" />
			<state id="s10_n48_n40" />
			<state id="s11_n40_n30" />
			<state id="s12_n30_n20" />
			<state id="s13_n20_n14" />
			<state id="s14_n14_n6" />
			<state id="s15_n6_0" />
			<state id="s16_0_7" />
			<state id="s17_7_15" />
			<state id="s18_15_25" />
			<state id="s19_25_35" />
			<state id="s20_35_43" />
			<state id="s21_43_54" />
			<state id="s22_54_58" />
			<state id="s23_58_71" />
			<state id="s24_71_81" />
			<state id="s25_81_up" />
			<parents>GV_MODELYR OA_MAIS</parents>
			<probabilities>4.192872117400418e-05 4.192872117400418e-05 4.192872117400418e-05 4.192872117400418e-05 4.192872117400418e-05 0.001090146750524109 0.001090146750524109 0.002138364779874214 0.003186582809224319 0.01471698113207547 0.04092243186582809 0.16041928721174 0.2044444444444445 0.3365199161425577 0.1184905660377359 0.01995807127882599 0.03358490566037736 0.03987421383647799 0.01471698113207547 0.004234800838574424 0.003186582809224319 0.001090146750524109 4.192872117400418e-05 4.192872117400418e-05 4.192872117400418e-05 3.236245954692556e-05 3.236245954692556e-05 3.236245954692556e-05 3.236245954692556e-05 3.236245954692556e-05 0.0008414239482200647 0.001650485436893204 0.0056957928802589 0.003268608414239482 0.01944983818770226 0.08255663430420714 0.1974433656957929 0.1950161812297735 0.2419417475728156 0.1044012944983819 0.02268608414239482 0.0283495145631068 0.04938511326860841 0.02754045307443366 0.01216828478964401 0.004077669902912621 0.0008414239482200647 0.002459546925566343 3.236245954692556e-05 3.236245954692556e-05 0.004748858447488585 0.000182648401826484 0.000182648401826484 0.000182648401826484 0.000182648401826484 0.009315068493150686 0.009315068493150686 0.01388127853881279 0.05497716894977169 0.03214611872146119 0.1371689497716895 0.2467579908675799 0.2010958904109589 0.1782648401826484 0.05041095890410959 0.01388127853881279 0.004748858447488585 0.01844748858447489 0.000182648401826484 0.004748858447488585 0.009315068493150686 0.004748858447488585 0.004748858447488585 0.000182648401826484 0.000182648401826484 0.0002395209580838323 0.0002395209580838323 0.0002395209580838323 0.0002395209580838323 0.0002395209580838323 0.0002395209580838323 0.03017964071856288 0.0481437125748503 0.06011976047904193 0.08407185628742517 0.1499401197604791 0.2637125748502995 0.1319760479041917 0.1439520958083833 0.05413173652694611 0.02419161676646707 0.0002395209580838323 0.0002395209580838323 0.0002395209580838323 0.0002395209580838323 0.0002395209580838323 0.0002395209580838323 0.006227544910179642 0.0002395209580838323 0.0002395209580838323 0.0008163265306122447 0.0008163265306122447 0.0008163265306122447 0.0008163265306122447 0.02122448979591837 0.0008163265306122447 0.02122448979591837 0.0008163265306122447 0.0416326530612245 0.08244897959183674 0.123265306122449 0.2048979591836735 0.0416326530612245 0.2661224489795919 0.06204081632653062 0.08244897959183674 0.0416326530612245 0.0008163265306122447 0.0008163265306122447 0.0008163265306122447 0.0008163265306122447 0.0008163265306122447 0.0008163265306122447 0.0008163265306122447 0.0008163265306122447 0.001025641025641026 0.001025641025641026 0.001025641025641026 0.05230769230769232 0.001025641025641026 0.02666666666666668 0.001025641025641026 0.07794871794871797 0.05230769230769232 0.05230769230769232 0.05230769230769232 0.2317948717948718 0.1035897435897436 0.1805128205128206 0.05230769230769232 0.05230769230769232 0.001025641025641026 0.001025641025641026 0.02666666666666668 0.001025641025641026 0.001025641025641026 0.02666666666666668 0.001025641025641026 0.001025641025641026 0.001025641025641026 0.003076923076923076 0.003076923076923076 0.003076923076923076 0.003076923076923076 0.08 0.08 0.1569230769230769 0.08 0.003076923076923076 0.003076923076923076 0.08 0.08 0.08 0.08 0.1569230769230769 0.08 0.003076923076923076 0.003076923076923076 0.003076923076923076 0.003076923076923076 0.003076923076923076 0.003076923076923076 0.003076923076923076 0.003076923076923076 0.003076923076923076 4.282655246252676e-05 4.282655246252676e-05 4.282655246252676e-05 4.282655246252676e-05 4.282655246252676e-05 0.001113490364025696 0.001113490364025696 0.001113490364025696 0.002184154175588865 0.01182012847965739 0.03537473233404711 0.1381584582441114 0.2216702355460385 0.3330192719486082 0.1124625267665953 0.03430406852248394 0.03751605995717345 0.03858672376873662 0.01717344753747323 0.00860813704496788 0.005396145610278373 4.282655246252676e-05 4.282655246252676e-05 4.282655246252676e-05 4.282655246252676e-05 3.454231433506044e-05 3.454231433506044e-05 3.454231433506044e-05 3.454231433506044e-05 3.454231433506044e-05 0.0008981001727115717 0.0008981001727115717 0.005215889464594128 0.009533678756476682 0.02075993091537133 0.06480138169257341 0.2072884283246977 0.1995164075993091 0.265146804835924 0.09588946459412781 0.02162348877374784 0.0268048359240069 0.04753022452504317 0.02075993091537133 0.006943005181347149 0.005215889464594128 3.454231433506044e-05 0.0008981001727115717 3.454231433506044e-05 3.454231433506044e-05 0.0001646090534979423 0.0001646090534979423 0.0001646090534979423 0.0001646090534979423 0.0001646090534979423 0.004279835390946503 0.008395061728395062 0.02074074074074074 0.02897119341563786 0.0454320987654321 0.1277366255144033 0.2347325102880659 0.1812345679012346 0.1688888888888889 0.07835390946502058 0.004279835390946503 0.01251028806584362 0.01251028806584362 0.02074074074074074 0.01662551440329218 0.0248559670781893 0.004279835390946503 0.004279835390946503 0.0001646090534979423 0.0001646090534979423 0.0002515723270440251 0.0002515723270440251 0.0002515723270440251 0.01283018867924529 0.0002515723270440251 0.01911949685534592 0.03169811320754717 0.06943396226415095 0.03798742138364781 0.08201257861635221 0.1008805031446541 0.2329559748427673 0.1323270440251572 0.1574842767295598 0.04427672955974844 0.02540880503144655 0.01283018867924529 0.01283018867924529 0.0002515723270440251 0.006540880503144656 0.01283018867924529 0.006540880503144656 0.0002515723270440251 0.0002515723270440251 0.0002515723270440251 0.001025641025641026 0.001025641025641026 0.001025641025641026 0.001025641025641026 0.05230769230769232 0.001025641025641026 0.001025641025641026 0.001025641025641026 0.1035897435897436 0.02666666666666668 0.07794871794871797 0.1292307692307693 0.07794871794871797 0.2061538461538462 0.1548717948717949 0.05230769230769232 0.05230769230769232 0.02666666666666668 0.001025641025641026 0.001025641025641026 0.02666666666666668 0.001025641025641026 0.001025641025641026 0.001025641025641026 0.001025641025641026 0.02810810810810812 0.001081081081081081 0.001081081081081081 0.02810810810810812 0.001081081081081081 0.02810810810810812 0.02810810810810812 0.05513513513513515 0.05513513513513515 0.05513513513513515 0.1362162162162162 0.1091891891891892 0.1362162162162162 0.1362162162162162 0.001081081081081081 0.05513513513513515 0.05513513513513515 0.02810810810810812 0.001081081081081081 0.02810810810810812 0.02810810810810812 0.001081081081081081 0.001081081081081081 0.001081081081081081 0.001081081081081081 0.002857142857142856 0.002857142857142856 0.002857142857142856 0.002857142857142856 0.002857142857142856 0.1457142857142857 0.1457142857142857 0.002857142857142856 0.1457142857142857 0.1457142857142857 0.002857142857142856 0.002857142857142856 0.1457142857142857 0.1457142857142857 0.002857142857142856 0.002857142857142856 0.002857142857142856 0.002857142857142856 0.002857142857142856 0.07428571428571429 0.002857142857142856 0.002857142857142856 0.002857142857142856 0.002857142857142856 0.002857142857142856 4.065040650406503e-05 4.065040650406503e-05 4.065040650406503e-05 4.065040650406503e-05 4.065040650406503e-05 4.065040650406503e-05 4.065040650406503e-05 0.003089430894308944 0.00410569105691057 0.01020325203252033 0.03459349593495935 0.1413008130081301 0.2043089430894309 0.3435365853658537 0.1169105691056911 0.02036585365853659 0.04373983739837399 0.04069105691056911 0.02341463414634146 0.0091869918699187 0.002073170731707317 0.001056910569105691 0.001056910569105691 4.065040650406503e-05 4.065040650406503e-05 3.259983700081498e-05 3.259983700081498e-05 3.259983700081498e-05 3.259983700081498e-05 0.0008475957620211898 3.259983700081498e-05 0.0008475957620211898 0.004107579462102689 0.005737571312143438 0.02122249388753056 0.08805215973920129 0.2111165444172779 0.2143765281173594 0.2290464547677261 0.09049714751426241 0.01551752241238794 0.02529747351263243 0.0358924205378973 0.03344743276283618 0.01225753871230644 0.009812550937245311 3.259983700081498e-05 0.001662591687041564 3.259983700081498e-05 3.259983700081498e-05 0.0001886792452830188 0.0001886792452830188 0.0001886792452830188 0.0001886792452830188 0.0001886792452830188 0.0001886792452830188 0.004905660377358492 0.01905660377358491 0.01905660377358491 0.05207547169811321 0.1133962264150944 0.250188679245283 0.2124528301886793 0.1983018867924529 0.06150943396226415 0.01905660377358491 0.009622641509433963 0.009622641509433963 0.01433962264150944 0.004905660377358492 0.004905660377358492 0.0001886792452830188 0.0001886792452830188 0.004905660377358492 0.0001886792452830188 0.0002836879432624113 0.0002836879432624113 0.0002836879432624113 0.0002836879432624113 0.02156028368794327 0.007375886524822696 0.02156028368794327 0.02865248226950355 0.05702127659574469 0.06411347517730498 0.1350354609929078 0.1988652482269504 0.1917730496453901 0.1279432624113475 0.04283687943262413 0.04283687943262413 0.007375886524822696 0.02156028368794327 0.01446808510638298 0.0002836879432624113 0.01446808510638298 0.0002836879432624113 0.0002836879432624113 0.0002836879432624113 0.0002836879432624113 0.0008333333333333332 0.0008333333333333332 0.0008333333333333332 0.0008333333333333332 0.02166666666666667 0.02166666666666667 0.0425 0.0425 0.06333333333333334 0.105 0.06333333333333334 0.2091666666666667 0.08416666666666668 0.1883333333333333 0.0425 0.02166666666666667 0.02166666666666667 0.0008333333333333332 0.0008333333333333332 0.0425 0.0008333333333333332 0.0008333333333333332 0.02166666666666667 0.0008333333333333332 0.0008333333333333332 0.0009756097560975609 0.0009756097560975609 0.0009756097560975609 0.0009756097560975609 0.02536585365853659 0.02536585365853659 0.0009756097560975609 0.04975609756097562 0.04975609756097562 0.04975609756097562 0.1229268292682927 0.2936585365853659 0.07414634146341464 0.07414634146341464 0.07414634146341464 0.07414634146341464 0.0009756097560975609 0.04975609756097562 0.0009756097560975609 0.0009756097560975609 0.0009756097560975609 0.0009756097560975609 0.0009756097560975609 0.02536585365853659 0.0009756097560975609 0.003076923076923076 0.003076923076923076 0.003076923076923076 0.003076923076923076 0.003076923076923076 0.08 0.08 0.08 0.003076923076923076 0.1569230769230769 0.1569230769230769 0.1569230769230769 0.08 0.003076923076923076 0.003076923076923076 0.08 0.08 0.003076923076923076 0.003076923076923076 0.003076923076923076 0.003076923076923076 0.003076923076923076 0.003076923076923076 0.003076923076923076 0.003076923076923076 4.656577415599533e-05 4.656577415599533e-05 4.656577415599533e-05 4.656577415599533e-05 0.001210710128055879 4.656577415599533e-05 4.656577415599533e-05 0.001210710128055879 0.002374854481955763 0.008195576251455181 0.03264260768335273 0.1572060535506403 0.1711757857974389 0.3725727590221188 0.1350873108265425 0.02332945285215366 0.03147846332945285 0.03962747380675204 0.01750873108265425 0.003538998835855646 0.002374854481955763 4.656577415599533e-05 4.656577415599533e-05 4.656577415599533e-05 4.656577415599533e-05 3.707136237256718e-05 3.707136237256718e-05 3.707136237256718e-05 3.707136237256718e-05 0.001890639481000927 3.707136237256718e-05 0.0009638554216867471 0.008378127896200184 0.004670991658943466 0.0259870250231696 0.06213160333642262 0.1807599629286376 0.2141241890639481 0.2697312326227989 0.08993512511584802 0.02227988878591288 0.03154772937905468 0.04266913809082484 0.02506024096385542 0.01393883225208526 0.002817423540315107 0.001890639481000927 0.0009638554216867471 3.707136237256718e-05 3.707136237256718e-05 0.0001904761904761904 0.0001904761904761904 0.0001904761904761904 0.0001904761904761904 0.0001904761904761904 0.0001904761904761904 0.009714285714285715 0.01923809523809524 0.024 0.07161904761904762 0.1287619047619048 0.2335238095238096 0.1763809523809524 0.224 0.05257142857142857 0.009714285714285715 0.009714285714285715 0.01447619047619048 0.024 0.0001904761904761904 0.0001904761904761904 0.0001904761904761904 0.0001904761904761904 0.0001904761904761904 0.0001904761904761904 0.0003174603174603174 0.008253968253968255 0.0003174603174603174 0.0003174603174603174 0.0003174603174603174 0.01619047619047619 0.03206349206349207 0.04000000000000001 0.03206349206349207 0.07968253968253969 0.2146031746031746 0.1907936507936508 0.1034920634920635 0.1828571428571429 0.03206349206349207 0.02412698412698413 0.008253968253968255 0.01619047619047619 0.008253968253968255 0.0003174603174603174 0.008253968253968255 0.0003174603174603174 0.0003174603174603174 0.0003174603174603174 0.0003174603174603174 0.0008888888888888888 0.0008888888888888888 0.0008888888888888888 0.02311111111111112 0.0008888888888888888 0.0008888888888888888 0.04533333333333334 0.04533333333333334 0.0008888888888888888 0.1564444444444445 0.08977777777777779 0.1786666666666667 0.08977777777777779 0.1564444444444445 0.08977777777777779 0.04533333333333334 0.02311111111111112 0.0008888888888888888 0.04533333333333334 0.0008888888888888888 0.0008888888888888888 0.0008888888888888888 0.0008888888888888888 0.0008888888888888888 0.0008888888888888888 0.001538461538461538 0.001538461538461538 0.001538461538461538 0.001538461538461538 0.04 0.001538461538461538 0.04 0.1169230769230769 0.04 0.07846153846153847 0.04 0.2323076923076923 0.04 0.1169230769230769 0.1169230769230769 0.04 0.04 0.001538461538461538 0.001538461538461538 0.001538461538461538 0.04 0.001538461538461538 0.001538461538461538 0.001538461538461538 0.001538461538461538 0.003999999999999999 0.003999999999999999 0.003999999999999999 0.003999999999999999 0.204 0.003999999999999999 0.003999999999999999 0.104 0.104 0.104 0.104 0.204 0.003999999999999999 0.003999999999999999 0.104 0.003999999999999999 0.003999999999999999 0.003999999999999999 0.003999999999999999 0.003999999999999999 0.003999999999999999 0.003999999999999999 0.003999999999999999 0.003999999999999999 0.003999999999999999 5.15463917525773e-05 5.15463917525773e-05 5.15463917525773e-05 5.15463917525773e-05 0.00134020618556701 5.15463917525773e-05 5.15463917525773e-05 0.00134020618556701 0.00134020618556701 0.007783505154639175 0.04 0.146958762886598 0.1675773195876289 0.358298969072165 0.1289175257731959 0.0245360824742268 0.0284020618556701 0.05932989690721649 0.01551546391752577 0.01036082474226804 0.003917525773195876 0.00134020618556701 0.002628865979381443 5.15463917525773e-05 5.15463917525773e-05 4.044489383215368e-05 4.044489383215368e-05 4.044489383215368e-05 4.044489383215368e-05 4.044489383215368e-05 4.044489383215368e-05 0.001051567239635996 0.00711830131445905 0.009140546006066733 0.01116279069767442 0.0677856420626896 0.1972093023255814 0.2143983822042467 0.2558543983822043 0.08295247724974723 0.02127401415571284 0.02430738119312437 0.06070778564206269 0.02531850353892821 0.01621840242669363 0.003073811931243681 4.044489383215368e-05 0.002062689585439838 4.044489383215368e-05 4.044489383215368e-05 0.000303030303030303 0.000303030303030303 0.000303030303030303 0.000303030303030303 0.000303030303030303 0.000303030303030303 0.01545454545454546 0.03060606060606062 0.03060606060606062 0.04575757575757577 0.1442424242424243 0.2503030303030304 0.1442424242424243 0.1896969696969698 0.04575757575757577 0.01545454545454546 0.02303030303030304 0.02303030303030304 0.000303030303030303 0.01545454545454546 0.01545454545454546 0.000303030303030303 0.007878787878787881 0.000303030303030303 0.000303030303030303 0.0004545454545454545 0.0004545454545454545 0.0004545454545454545 0.0004545454545454545 0.0004545454545454545 0.0004545454545454545 0.03454545454545455 0.02318181818181819 0.04590909090909092 0.1140909090909091 0.1368181818181818 0.2731818181818182 0.1140909090909091 0.1822727272727273 0.04590909090909092 0.0004545454545454545 0.01181818181818182 0.0004545454545454545 0.0004545454545454545 0.0004545454545454545 0.01181818181818182 0.0004545454545454545 0.0004545454545454545 0.0004545454545454545 0.0004545454545454545 0.001142857142857143 0.001142857142857143 0.001142857142857143 0.02971428571428572 0.001142857142857143 0.08685714285714288 0.02971428571428572 0.0582857142857143 0.0582857142857143 0.0582857142857143 0.2011428571428572 0.144 0.1154285714285714 0.0582857142857143 0.02971428571428572 0.0582857142857143 0.02971428571428572 0.001142857142857143 0.001142857142857143 0.02971428571428572 0.001142857142857143 0.001142857142857143 0.001142857142857143 0.001142857142857143 0.001142857142857143 0.001739130434782608 0.001739130434782608 0.001739130434782608 0.001739130434782608 0.001739130434782608 0.04521739130434783 0.001739130434782608 0.08869565217391304 0.08869565217391304 0.1321739130434783 0.04521739130434783 0.2626086956521739 0.04521739130434783 0.04521739130434783 0.08869565217391304 0.08869565217391304 0.04521739130434783 0.001739130434782608 0.001739130434782608 0.001739130434782608 0.001739130434782608 0.001739130434782608 0.001739130434782608 0.001739130434782608 0.001739130434782608 0.003333333333333332 0.003333333333333332 0.003333333333333332 0.003333333333333332 0.003333333333333332 0.17 0.003333333333333332 0.17 0.003333333333333332 0.003333333333333332 0.17 0.08666666666666667 0.17 0.08666666666666667 0.003333333333333332 0.003333333333333332 0.003333333333333332 0.003333333333333332 0.08666666666666667 0.003333333333333332 0.003333333333333332 0.003333333333333332 0.003333333333333332 0.003333333333333332 0.003333333333333332 5.398110661268554e-05 5.398110661268554e-05 5.398110661268554e-05 5.398110661268554e-05 0.001403508771929824 5.398110661268554e-05 5.398110661268554e-05 0.002753036437246963 0.002753036437246963 0.01759784075573549 0.04053981106612686 0.1336572199730094 0.1660458839406208 0.3360863697705803 0.1471524966261809 0.02299595141700405 0.04593792172739541 0.03919028340080971 0.02569500674763833 0.009500674763832657 0.004102564102564103 5.398110661268554e-05 0.004102564102564103 5.398110661268554e-05 5.398110661268554e-05 4.587155963302751e-05 4.587155963302751e-05 4.587155963302751e-05 4.587155963302751e-05 4.587155963302751e-05 0.001192660550458716 0.002339449541284404 0.005779816513761468 0.006926605504587157 0.01495412844036697 0.06311926605504588 0.2110550458715596 0.1972935779816514 0.2638073394495413 0.08949541284403671 0.02642201834862385 0.03100917431192661 0.04018348623853211 0.02527522935779817 0.01380733944954128 0.002339449541284404 0.001192660550458716 0.003486238532110092 4.587155963302751e-05 4.587155963302751e-05 0.0003174603174603174 0.0003174603174603174 0.0003174603174603174 0.0003174603174603174 0.0003174603174603174 0.008253968253968255 0.008253968253968255 0.01619047619047619 0.02412698412698413 0.04000000000000001 0.09555555555555556 0.2146031746031746 0.1828571428571429 0.2463492063492064 0.08761904761904762 0.0003174603174603174 0.03206349206349207 0.02412698412698413 0.008253968253968255 0.008253968253968255 0.0003174603174603174 0.0003174603174603174 0.0003174603174603174 0.0003174603174603174 0.0003174603174603174 0.0003738317757009345 0.0003738317757009345 0.0003738317757009345 0.009719626168224301 0.0003738317757009345 0.01906542056074767 0.02841121495327103 0.1031775700934579 0.04710280373831776 0.05644859813084113 0.1312149532710281 0.1872897196261682 0.1499065420560748 0.1312149532710281 0.03775700934579439 0.03775700934579439 0.02841121495327103 0.0003738317757009345 0.009719626168224301 0.0003738317757009345 0.009719626168224301 0.0003738317757009345 0.009719626168224301 0.0003738317757009345 0.0003738317757009345 0.0016 0.0016 0.0016 0.0016 0.0016 0.0016 0.04160000000000001 0.0016 0.0016 0.08160000000000002 0.08160000000000002 0.3216000000000001 0.2016 0.2016 0.0016 0.04160000000000001 0.0016 0.0016 0.0016 0.0016 0.0016 0.0016 0.0016 0.0016 0.0016 0.001666666666666666 0.001666666666666666 0.001666666666666666 0.04333333333333333 0.04333333333333333 0.04333333333333333 0.04333333333333333 0.04333333333333333 0.04333333333333333 0.04333333333333333 0.08499999999999999 0.2516666666666666 0.1683333333333333 0.04333333333333333 0.04333333333333333 0.04333333333333333 0.001666666666666666 0.001666666666666666 0.001666666666666666 0.04333333333333333 0.001666666666666666 0.001666666666666666 0.001666666666666666 0.001666666666666666 0.001666666666666666 0.004999999999999998 0.004999999999999998 0.004999999999999998 0.004999999999999998 0.004999999999999998 0.004999999999999998 0.13 0.13 0.004999999999999998 0.004999999999999998 0.004999999999999998 0.13 0.13 0.004999999999999998 0.13 0.13 0.13 0.004999999999999998 0.004999999999999998 0.004999999999999998 0.004999999999999998 0.004999999999999998 0.004999999999999998 0.004999999999999998 0.004999999999999998 6.097560975609754e-05 6.097560975609754e-05 6.097560975609754e-05 6.097560975609754e-05 6.097560975609754e-05 6.097560975609754e-05 0.004634146341463415 0.006158536585365854 0.001585365853658537 0.01073170731707317 0.03664634146341463 0.1403048780487805 0.1936585365853659 0.3354268292682927 0.1250609756097561 0.02292682926829268 0.03054878048780488 0.05036585365853659 0.02597560975609756 0.01073170731707317 0.003109756097560976 6.097560975609754e-05 0.001585365853658537 6.097560975609754e-05 6.097560975609754e-05 5.873715124816446e-05 5.873715124816446e-05 5.873715124816446e-05 5.873715124816446e-05 5.873715124816446e-05 0.001527165932452276 0.001527165932452276 0.002995594713656389 0.01033773861967695 0.02208516886930984 0.09256975036710721 0.1880176211453745 0.2027019089574156 0.2570337738619677 0.07788546255506609 0.01767988252569751 0.03236417033773863 0.04411160058737152 0.03089574155653451 0.01033773861967695 0.005932452276064613 5.873715124816446e-05 0.001527165932452276 5.873715124816446e-05 5.873715124816446e-05 0.0003636363636363636 0.0003636363636363636 0.0003636363636363636 0.0003636363636363636 0.0003636363636363636 0.009454545454545457 0.0003636363636363636 0.03672727272727273 0.02763636363636364 0.03672727272727273 0.1276363636363637 0.2458181818181819 0.1094545454545455 0.2730909090909091 0.04581818181818183 0.009454545454545457 0.0003636363636363636 0.02763636363636364 0.01854545454545455 0.01854545454545455 0.009454545454545457 0.0003636363636363636 0.0003636363636363636 0.0003636363636363636 0.0003636363636363636 0.0007272727272727272 0.0007272727272727272 0.0007272727272727272 0.0007272727272727272 0.0007272727272727272 0.0007272727272727272 0.0370909090909091 0.128 0.0370909090909091 0.07345454545454548 0.1461818181818182 0.1825454545454546 0.1098181818181819 0.1643636363636364 0.0370909090909091 0.0007272727272727272 0.0007272727272727272 0.0370909090909091 0.0370909090909091 0.0007272727272727272 0.0007272727272727272 0.0007272727272727272 0.0007272727272727272 0.0007272727272727272 0.0007272727272727272 0.001538461538461538 0.001538461538461538 0.04 0.001538461538461538 0.001538461538461538 0.001538461538461538 0.001538461538461538 0.1169230769230769 0.001538461538461538 0.07846153846153847 0.07846153846153847 0.1553846153846154 0.04 0.3092307692307692 0.07846153846153847 0.04 0.001538461538461538 0.001538461538461538 0.04 0.001538461538461538 0.001538461538461538 0.001538461538461538 0.001538461538461538 0.001538461538461538 0.001538461538461538 0.003333333333333332 0.17 0.003333333333333332 0.003333333333333332 0.003333333333333332 0.003333333333333332 0.003333333333333332 0.003333333333333332 0.003333333333333332 0.003333333333333332 0.003333333333333332 0.17 0.08666666666666667 0.2533333333333333 0.003333333333333332 0.08666666666666667 0.003333333333333332 0.08666666666666667 0.003333333333333332 0.003333333333333332 0.003333333333333332 0.003333333333333332 0.08666666666666667 0.003333333333333332 0.003333333333333332 0.004999999999999998 0.004999999999999998 0.004999999999999998 0.004999999999999998 0.004999999999999998 0.13 0.13 0.38 0.004999999999999998 0.13 0.004999999999999998 0.004999999999999998 0.004999999999999998 0.004999999999999998 0.004999999999999998 0.004999999999999998 0.13 0.004999999999999998 0.004999999999999998 0.004999999999999998 0.004999999999999998 0.004999999999999998 0.004999999999999998 0.004999999999999998 0.004999999999999998 7.299270072992699e-05 7.299270072992699e-05 7.299270072992699e-05 7.299270072992699e-05 7.299270072992699e-05 7.299270072992699e-05 7.299270072992699e-05 0.003722627737226277 7.299270072992699e-05 0.0164963503649635 0.02562043795620438 0.1551824817518248 0.1770802919708029 0.3121167883211678 0.1442335766423358 0.03291970802919707 0.03656934306569343 0.05481751824817518 0.02744525547445255 0.009197080291970803 0.003722627737226277 7.299270072992699e-05 7.299270072992699e-05 7.299270072992699e-05 7.299270072992699e-05 6.289308176100629e-05 6.289308176100629e-05 6.289308176100629e-05 6.289308176100629e-05 6.289308176100629e-05 6.289308176100629e-05 0.003207547169811322 0.01106918238993711 0.007924528301886793 0.02522012578616353 0.06138364779874215 0.1871698113207548 0.1934591194968554 0.2862264150943397 0.1085534591194969 0.01106918238993711 0.02679245283018868 0.04566037735849057 0.01735849056603774 0.006352201257861637 0.006352201257861637 0.001635220125786164 6.289308176100629e-05 6.289308176100629e-05 6.289308176100629e-05 0.0003418803418803418 0.0003418803418803418 0.0003418803418803418 0.0003418803418803418 0.0003418803418803418 0.0003418803418803418 0.0003418803418803418 0.02598290598290599 0.02598290598290599 0.07726495726495726 0.1114529914529915 0.2311111111111111 0.1883760683760684 0.1712820512820513 0.09435897435897436 0.01743589743589744 0.01743589743589744 0.0003418803418803418 0.008888888888888891 0.01743589743589744 0.008888888888888891 0.0003418803418803418 0.0003418803418803418 0.0003418803418803418 0.0003418803418803418 0.0006779661016949152 0.0006779661016949152 0.0006779661016949152 0.0006779661016949152 0.0006779661016949152 0.0006779661016949152 0.0006779661016949152 0.06847457627118646 0.03457627118644069 0.1701694915254237 0.2210169491525424 0.2210169491525424 0.1023728813559322 0.1023728813559322 0.03457627118644069 0.0006779661016949152 0.0176271186440678 0.0006779661016949152 0.0006779661016949152 0.0006779661016949152 0.0176271186440678 0.0006779661016949152 0.0006779661016949152 0.0006779661016949152 0.0006779661016949152 0.002222222222222221 0.002222222222222221 0.002222222222222221 0.05777777777777778 0.002222222222222221 0.002222222222222221 0.002222222222222221 0.05777777777777778 0.05777777777777778 0.1133333333333333 0.1688888888888889 0.3911111111111111 0.05777777777777778 0.05777777777777778 0.002222222222222221 0.002222222222222221 0.002222222222222221 0.002222222222222221 0.002222222222222221 0.002222222222222221 0.002222222222222221 0.002222222222222221 0.002222222222222221 0.002222222222222221 0.002222222222222221 0.002857142857142856 0.002857142857142856 0.002857142857142856 0.002857142857142856 0.07428571428571429 0.1457142857142857 0.07428571428571429 0.002857142857142856 0.002857142857142856 0.002857142857142856 0.2885714285714285 0.07428571428571429 0.07428571428571429 0.2171428571428571 0.002857142857142856 0.002857142857142856 0.002857142857142856 0.002857142857142856 0.002857142857142856 0.002857142857142856 0.002857142857142856 0.002857142857142856 0.002857142857142856 0.002857142857142856 0.002857142857142856 0.005714285714285712 0.005714285714285712 0.005714285714285712 0.005714285714285712 0.005714285714285712 0.1485714285714286 0.005714285714285712 0.005714285714285712 0.1485714285714286 0.005714285714285712 0.2914285714285714 0.1485714285714286 0.005714285714285712 0.005714285714285712 0.005714285714285712 0.005714285714285712 0.005714285714285712 0.005714285714285712 0.005714285714285712 0.005714285714285712 0.005714285714285712 0.1485714285714286 0.005714285714285712 0.005714285714285712 0.005714285714285712 9.389671361502345e-05 9.389671361502345e-05 9.389671361502345e-05 9.389671361502345e-05 9.389671361502345e-05 0.00244131455399061 9.389671361502345e-05 9.389671361502345e-05 9.389671361502345e-05 0.004788732394366197 0.04938967136150234 0.1127699530516432 0.1784976525821596 0.363943661971831 0.1104225352112676 0.01887323943661972 0.06347417840375587 0.05173708920187793 0.03061032863849765 0.007136150234741784 0.004788732394366197 9.389671361502345e-05 9.389671361502345e-05 9.389671361502345e-05 9.389671361502345e-05 7.905138339920946e-05 7.905138339920946e-05 7.905138339920946e-05 0.002055335968379447 0.002055335968379447 0.002055335968379447 0.002055335968379447 0.009960474308300394 0.00600790513833992 0.02577075098814229 0.06727272727272726 0.2115415019762846 0.2056126482213439 0.2253754940711462 0.0850592885375494 0.02972332015810276 0.02972332015810276 0.03762845849802371 0.02774703557312252 0.02379446640316205 0.004031620553359683 7.905138339920946e-05 0.002055335968379447 7.905138339920946e-05 7.905138339920946e-05 0.0005714285714285714 0.0005714285714285714 0.0005714285714285714 0.0005714285714285714 0.0005714285714285714 0.01485714285714286 0.04342857142857144 0.02914285714285715 0.02914285714285715 0.02914285714285715 0.1291428571428572 0.2434285714285715 0.2148571428571429 0.1434285714285714 0.05771428571428572 0.0005714285714285714 0.01485714285714286 0.01485714285714286 0.01485714285714286 0.01485714285714286 0.0005714285714285714 0.0005714285714285714 0.0005714285714285714 0.0005714285714285714 0.0005714285714285714 0.001212121212121212 0.001212121212121212 0.001212121212121212 0.001212121212121212 0.001212121212121212 0.03151515151515152 0.03151515151515152 0.001212121212121212 0.09212121212121215 0.06181818181818183 0.2436363636363637 0.1527272727272728 0.1527272727272728 0.09212121212121215 0.03151515151515152 0.001212121212121212 0.06181818181818183 0.001212121212121212 0.03151515151515152 0.001212121212121212 0.001212121212121212 0.001212121212121212 0.001212121212121212 0.001212121212121212 0.001212121212121212 0.003999999999999999 0.003999999999999999 0.003999999999999999 0.104 0.003999999999999999 0.104 0.104 0.104 0.003999999999999999 0.003999999999999999 0.003999999999999999 0.204 0.104 0.104 0.104 0.003999999999999999 0.003999999999999999 0.003999999999999999 0.003999999999999999 0.003999999999999999 0.003999999999999999 0.003999999999999999 0.003999999999999999 0.003999999999999999 0.003999999999999999 0.1733333333333333 0.1733333333333333 0.006666666666666663 0.006666666666666663 0.006666666666666663 0.006666666666666663 0.006666666666666663 0.006666666666666663 0.006666666666666663 0.006666666666666663 0.006666666666666663 0.3399999999999999 0.006666666666666663 0.006666666666666663 0.006666666666666663 0.006666666666666663 0.006666666666666663 0.006666666666666663 0.1733333333333333 0.006666666666666663 0.006666666666666663 0.006666666666666663 0.006666666666666663 0.006666666666666663 0.006666666666666663 0.009999999999999997 0.009999999999999997 0.009999999999999997 0.009999999999999997 0.009999999999999997 0.26 0.009999999999999997 0.009999999999999997 0.009999999999999997 0.26 0.009999999999999997 0.26 0.009999999999999997 0.009999999999999997 0.009999999999999997 0.009999999999999997 0.009999999999999997 0.009999999999999997 0.009999999999999997 0.009999999999999997 0.009999999999999997 0.009999999999999997 0.009999999999999997 0.009999999999999997 0.009999999999999997 0.0001860465116279069 0.0001860465116279069 0.0001860465116279069 0.0001860465116279069 0.0001860465116279069 0.0001860465116279069 0.0001860465116279069 0.004837209302325582 0.0001860465116279069 0.009488372093023256 0.04204651162790697 0.1211162790697674 0.2048372093023256 0.3071627906976744 0.1304186046511628 0.02809302325581395 0.06065116279069767 0.02809302325581395 0.0373953488372093 0.0187906976744186 0.004837209302325582 0.0001860465116279069 0.0001860465116279069 0.0001860465116279069 0.0001860465116279069 0.0001694915254237288 0.0001694915254237288 0.0001694915254237288 0.0001694915254237288 0.0001694915254237288 0.0001694915254237288 0.00440677966101695 0.01711864406779661 0.0001694915254237288 0.02135593220338983 0.08915254237288137 0.2332203389830509 0.1950847457627119 0.1950847457627119 0.09338983050847459 0.01288135593220339 0.02983050847457628 0.04254237288135593 0.05101694915254238 0.008644067796610172 0.0001694915254237288 0.00440677966101695 0.0001694915254237288 0.0001694915254237288 0.0001694915254237288 0.0008163265306122447 0.0008163265306122447 0.0008163265306122447 0.0008163265306122447 0.0008163265306122447 0.0008163265306122447 0.0416326530612245 0.0008163265306122447 0.0416326530612245 0.0416326530612245 0.1844897959183673 0.08244897959183674 0.1844897959183673 0.2457142857142857 0.1028571428571429 0.0008163265306122447 0.02122448979591837 0.0008163265306122447 0.0416326530612245 0.0008163265306122447 0.0008163265306122447 0.0008163265306122447 0.0008163265306122447 0.0008163265306122447 0.0008163265306122447 0.002666666666666666 0.002666666666666666 0.002666666666666666 0.002666666666666666 0.002666666666666666 0.002666666666666666 0.06933333333333333 0.002666666666666666 0.06933333333333333 0.002666666666666666 0.2693333333333333 0.136 0.136 0.2693333333333333 0.002666666666666666 0.002666666666666666 0.002666666666666666 0.002666666666666666 0.002666666666666666 0.002666666666666666 0.002666666666666666 0.002666666666666666 0.002666666666666666 0.002666666666666666 0.002666666666666666 0.005714285714285712 0.005714285714285712 0.005714285714285712 0.005714285714285712 0.005714285714285712 0.005714285714285712 0.005714285714285712 0.005714285714285712 0.005714285714285712 0.005714285714285712 0.1485714285714286 0.2914285714285714 0.1485714285714286 0.005714285714285712 0.1485714285714286 0.005714285714285712 0.005714285714285712 0.005714285714285712 0.1485714285714286 0.005714285714285712 0.005714285714285712 0.005714285714285712 0.005714285714285712 0.005714285714285712 0.005714285714285712 0.04000000000000001 0.04000000000000001 0.04000000000000001 0.04000000000000001 0.04000000000000001 0.04000000000000001 0.04000000000000001 0.04000000000000001 0.04000000000000001 0.04000000000000001 0.04000000000000001 0.04000000000000001 0.04000000000000001 0.04000000000000001 0.04000000000000001 0.04000000000000001 0.04000000000000001 0.04000000000000001 0.04000000000000001 0.04000000000000001 0.04000000000000001 0.04000000000000001 0.04000000000000001 0.04000000000000001 0.04000000000000001 0.009999999999999997 0.009999999999999997 0.009999999999999997 0.009999999999999997 0.009999999999999997 0.009999999999999997 0.009999999999999997 0.009999999999999997 0.009999999999999997 0.009999999999999997 0.76 0.009999999999999997 0.009999999999999997 0.009999999999999997 0.009999999999999997 0.009999999999999997 0.009999999999999997 0.009999999999999997 0.009999999999999997 0.009999999999999997 0.009999999999999997 0.009999999999999997 0.009999999999999997 0.009999999999999997 0.009999999999999997 0.00025 0.00025 0.00025 0.00025 0.00025 0.00025 0.006500000000000001 0.00025 0.006500000000000001 0.019 0.05025 0.13775 0.219 0.3002500000000001 0.13775 0.006500000000000001 0.04400000000000001 0.04400000000000001 0.019 0.00025 0.00025 0.00025 0.006500000000000001 0.00025 0.00025 0.0002758620689655172 0.0002758620689655172 0.0002758620689655172 0.0002758620689655172 0.0002758620689655172 0.0002758620689655172 0.0002758620689655172 0.00717241379310345 0.0002758620689655172 0.02786206896551725 0.0830344827586207 0.1864827586206897 0.1933793103448276 0.2485517241379311 0.07613793103448277 0.02096551724137932 0.04165517241379312 0.06924137931034484 0.02096551724137932 0.01406896551724138 0.0002758620689655172 0.0002758620689655172 0.0002758620689655172 0.0002758620689655172 0.00717241379310345 0.001290322580645161 0.001290322580645161 0.001290322580645161 0.0335483870967742 0.001290322580645161 0.001290322580645161 0.001290322580645161 0.06580645161290324 0.0335483870967742 0.001290322580645161 0.09806451612903228 0.3561290322580646 0.1303225806451613 0.1303225806451613 0.06580645161290324 0.001290322580645161 0.001290322580645161 0.001290322580645161 0.0335483870967742 0.001290322580645161 0.001290322580645161 0.001290322580645161 0.0335483870967742 0.001290322580645161 0.001290322580645161 0.005714285714285712 0.005714285714285712 0.005714285714285712 0.005714285714285712 0.005714285714285712 0.005714285714285712 0.1485714285714286 0.005714285714285712 0.005714285714285712 0.2914285714285714 0.005714285714285712 0.005714285714285712 0.1485714285714286 0.2914285714285714 0.005714285714285712 0.005714285714285712 0.005714285714285712 0.005714285714285712 0.005714285714285712 0.005714285714285712 0.005714285714285712 0.005714285714285712 0.005714285714285712 0.005714285714285712 0.005714285714285712 0.005714285714285712 0.005714285714285712 0.005714285714285712 0.005714285714285712 0.005714285714285712 0.005714285714285712 0.005714285714285712 0.1485714285714286 0.005714285714285712 0.005714285714285712 0.1485714285714286 0.2914285714285714 0.1485714285714286 0.1485714285714286 0.005714285714285712 0.005714285714285712 0.005714285714285712 0.005714285714285712 0.005714285714285712 0.005714285714285712 0.005714285714285712 0.005714285714285712 0.005714285714285712 0.005714285714285712 0.005714285714285712 0.007999999999999995 0.007999999999999995 0.007999999999999995 0.007999999999999995 0.007999999999999995 0.007999999999999995 0.208 0.007999999999999995 0.007999999999999995 0.007999999999999995 0.208 0.208 0.007999999999999995 0.208 0.007999999999999995 0.007999999999999995 0.007999999999999995 0.007999999999999995 0.007999999999999995 0.007999999999999995 0.007999999999999995 0.007999999999999995 0.007999999999999995 0.007999999999999995 0.007999999999999995 0.01333333333333333 0.01333333333333333 0.01333333333333333 0.01333333333333333 0.01333333333333333 0.01333333333333333 0.01333333333333333 0.3466666666666667 0.01333333333333333 0.01333333333333333 0.01333333333333333 0.01333333333333333 0.01333333333333333 0.01333333333333333 0.01333333333333333 0.3466666666666667 0.01333333333333333 0.01333333333333333 0.01333333333333333 0.01333333333333333 0.01333333333333333 0.01333333333333333 0.01333333333333333 0.01333333333333333 0.01333333333333333 0.0005714285714285713 0.0005714285714285713 0.0005714285714285713 0.0005714285714285713 0.0005714285714285713 0.0005714285714285713 0.0005714285714285713 0.0005714285714285713 0.0005714285714285713 0.01485714285714286 0.05771428571428571 0.1005714285714286 0.1862857142857143 0.3291428571428571 0.1862857142857143 0.02914285714285714 0.05771428571428571 0.0005714285714285713 0.01485714285714286 0.0005714285714285713 0.01485714285714286 0.0005714285714285713 0.0005714285714285713 0.0005714285714285713 0.0005714285714285713 0.0006779661016949152 0.0006779661016949152 0.0006779661016949152 0.0006779661016949152 0.0006779661016949152 0.0006779661016949152 0.0006779661016949152 0.0006779661016949152 0.0176271186440678 0.0176271186440678 0.05152542372881357 0.1701694915254237 0.2379661016949153 0.2210169491525424 0.1193220338983051 0.03457627118644069 0.05152542372881357 0.03457627118644069 0.0176271186440678 0.0176271186440678 0.0006779661016949152 0.0006779661016949152 0.0006779661016949152 0.0006779661016949152 0.0006779661016949152 0.003999999999999999 0.003999999999999999 0.003999999999999999 0.003999999999999999 0.003999999999999999 0.003999999999999999 0.003999999999999999 0.003999999999999999 0.003999999999999999 0.003999999999999999 0.003999999999999999 0.304 0.304 0.204 0.003999999999999999 0.003999999999999999 0.104 0.003999999999999999 0.003999999999999999 0.003999999999999999 0.003999999999999999 0.003999999999999999 0.003999999999999999 0.003999999999999999 0.003999999999999999 0.007999999999999995 0.007999999999999995 0.007999999999999995 0.007999999999999995 0.007999999999999995 0.007999999999999995 0.007999999999999995 0.208 0.007999999999999995 0.007999999999999995 0.208 0.208 0.208 0.007999999999999995 0.007999999999999995 0.007999999999999995 0.007999999999999995 0.007999999999999995 0.007999999999999995 0.007999999999999995 0.007999999999999995 0.007999999999999995 0.007999999999999995 0.007999999999999995 0.007999999999999995 0.009999999999999997 0.009999999999999997 0.009999999999999997 0.009999999999999997 0.009999999999999997 0.009999999999999997 0.009999999999999997 0.009999999999999997 0.009999999999999997 0.009999999999999997 0.26 0.009999999999999997 0.26 0.26 0.009999999999999997 0.009999999999999997 0.009999999999999997 0.009999999999999997 0.009999999999999997 0.009999999999999997 0.009999999999999997 0.009999999999999997 0.009999999999999997 0.009999999999999997 0.009999999999999997 0.04000000000000001 0.04000000000000001 0.04000000000000001 0.04000000000000001 0.04000000000000001 0.04000000000000001 0.04000000000000001 0.04000000000000001 0.04000000000000001 0.04000000000000001 0.04000000000000001 0.04000000000000001 0.04000000000000001 0.04000000000000001 0.04000000000000001 0.04000000000000001 0.04000000000000001 0.04000000000000001 0.04000000000000001 0.04000000000000001 0.04000000000000001 0.04000000000000001 0.04000000000000001 0.04000000000000001 0.04000000000000001 0.04000000000000001 0.04000000000000001 0.04000000000000001 0.04000000000000001 0.04000000000000001 0.04000000000000001 0.04000000000000001 0.04000000000000001 0.04000000000000001 0.04000000000000001 0.04000000000000001 0.04000000000000001 0.04000000000000001 0.04000000000000001 0.04000000000000001 0.04000000000000001 0.04000000000000001 0.04000000000000001 0.04000000000000001 0.04000000000000001 0.04000000000000001 0.04000000000000001 0.04000000000000001 0.04000000000000001 0.04000000000000001 0.004444444444444443 0.004444444444444443 0.004444444444444443 0.004444444444444443 0.004444444444444443 0.004444444444444443 0.004444444444444443 0.004444444444444443 0.004444444444444443 0.004444444444444443 0.004444444444444443 0.1155555555555556 0.1155555555555556 0.2266666666666667 0.1155555555555556 0.004444444444444443 0.2266666666666667 0.1155555555555556 0.004444444444444443 0.004444444444444443 0.004444444444444443 0.004444444444444443 0.004444444444444443 0.004444444444444443 0.004444444444444443 0.01333333333333333 0.01333333333333333 0.01333333333333333 0.01333333333333333 0.01333333333333333 0.01333333333333333 0.01333333333333333 0.01333333333333333 0.01333333333333333 0.01333333333333333 0.01333333333333333 0.3466666666666666 0.01333333333333333 0.3466666666666666 0.01333333333333333 0.01333333333333333 0.01333333333333333 0.01333333333333333 0.01333333333333333 0.01333333333333333 0.01333333333333333 0.01333333333333333 0.01333333333333333 0.01333333333333333 0.01333333333333333 0.04000000000000001 0.04000000000000001 0.04000000000000001 0.04000000000000001 0.04000000000000001 0.04000000000000001 0.04000000000000001 0.04000000000000001 0.04000000000000001 0.04000000000000001 0.04000000000000001 0.04000000000000001 0.04000000000000001 0.04000000000000001 0.04000000000000001 0.04000000000000001 0.04000000000000001 0.04000000000000001 0.04000000000000001 0.04000000000000001 0.04000000000000001 0.04000000000000001 0.04000000000000001 0.04000000000000001 0.04000000000000001 0.04000000000000001 0.04000000000000001 0.04000000000000001 0.04000000000000001 0.04000000000000001 0.04000000000000001 0.04000000000000001 0.04000000000000001 0.04000000000000001 0.04000000000000001 0.04000000000000001 0.04000000000000001 0.04000000000000001 0.04000000000000001 0.04000000000000001 0.04000000000000001 0.04000000000000001 0.04000000000000001 0.04000000000000001 0.04000000000000001 0.04000000000000001 0.04000000000000001 0.04000000000000001 0.04000000000000001 0.04000000000000001 0.04000000000000001 0.04000000000000001 0.04000000000000001 0.04000000000000001 0.04000000000000001 0.04000000000000001 0.04000000000000001 0.04000000000000001 0.04000000000000001 0.04000000000000001 0.04000000000000001 0.04000000000000001 0.04000000000000001 0.04000000000000001 0.04000000000000001 0.04000000000000001 0.04000000000000001 0.04000000000000001 0.04000000000000001 0.04000000000000001 0.04000000000000001 0.04000000000000001 0.04000000000000001 0.04000000000000001 0.04000000000000001 0.04000000000000001 0.04000000000000001 0.04000000000000001 0.04000000000000001 0.04000000000000001 0.04000000000000001 0.04000000000000001 0.04000000000000001 0.04000000000000001 0.04000000000000001 0.04000000000000001 0.04000000000000001 0.04000000000000001 0.04000000000000001 0.04000000000000001 0.04000000000000001 0.04000000000000001 0.04000000000000001 0.04000000000000001 0.04000000000000001 0.04000000000000001 0.04000000000000001 0.04000000000000001 0.04000000000000001 0.04000000000000001 0.04000000000000001 0.04000000000000001 0.04000000000000001 0.04000000000000001 0.04000000000000001 0.04000000000000001 0.04000000000000001 0.04000000000000001 0.04000000000000001 0.04000000000000001 0.04000000000000001 0.04000000000000001 0.04000000000000001 0.04000000000000001 0.04000000000000001 0.04000000000000001 0.04000000000000001 0.04000000000000001 0.04000000000000001 0.04000000000000001 0.04000000000000001 0.04000000000000001 0.04000000000000001 0.04000000000000001 0.04000000000000001</probabilities>
		</cpt>
		<cpt id="GV_ENERGY">
			<state id="s01_below_79" />
			<state id="s02_79_105" />
			<state id="s03_105_131" />
			<state id="s04_131_160" />
			<state id="s05_160_192" />
			<state id="s06_192_230" />
			<state id="s07_230_274" />
			<state id="s08_274_324" />
			<state id="s09_324_383" />
			<state id="s10_383_461" />
			<state id="s11_461_562" />
			<state id="s12_562_708" />
			<state id="s13_708_924" />
			<state id="s14_924_1401" />
			<state id="s15_1401_up" />
			<parents>GV_DVLONG OA_MAIS</parents>
			<probabilities>0.06666666666666668 0.06666666666666668 0.06666666666666668 0.06666666666666668 0.06666666666666668 0.06666666666666668 0.06666666666666668 0.06666666666666668 0.06666666666666668 0.06666666666666668 0.06666666666666668 0.06666666666666668 0.06666666666666668 0.06666666666666668 0.06666666666666668 0.06666666666666668 0.06666666666666668 0.06666666666666668 0.06666666666666668 0.06666666666666668 0.06666666666666668 0.06666666666666668 0.06666666666666668 0.06666666666666668 0.06666666666666668 0.06666666666666668 0.06666666666666668 0.06666666666666668 0.06666666666666668 0.06666666666666668 0.03333333333333335 0.03333333333333335 0.03333333333333335 0.03333333333333335 0.03333333333333335 0.03333333333333335 0.03333333333333335 0.03333333333333335 0.03333333333333335 0.03333333333333335 0.03333333333333335 0.03333333333333335 0.03333333333333335 0.03333333333333335 0.5333333333333333 0.06666666666666668 0.06666666666666668 0.06666666666666668 0.06666666666666668 0.06666666666666668 0.06666666666666668 0.06666666666666668 0.06666666666666668 0.06666666666666668 0.06666666666666668 0.06666666666666668 0.06666666666666668 0.06666666666666668 0.06666666666666668 0.06666666666666668 0.06666666666666668 0.06666666666666668 0.06666666666666668 0.06666666666666668 0.06666666666666668 0.06666666666666668 0.06666666666666668 0.06666666666666668 0.06666666666666668 0.06666666666666668 0.06666666666666668 0.06666666666666668 0.06666666666666668 0.06666666666666668 0.06666666666666668 0.02222222222222223 0.02222222222222223 0.02222222222222223 0.02222222222222223 0.02222222222222223 0.02222222222222223 0.02222222222222223 0.02222222222222223 0.02222222222222223 0.02222222222222223 0.02222222222222223 0.02222222222222223 0.02222222222222223 0.02222222222222223 0.6888888888888888 0.06666666666666668 0.06666666666666668 0.06666666666666668 0.06666666666666668 0.06666666666666668 0.06666666666666668 0.06666666666666668 0.06666666666666668 0.06666666666666668 0.06666666666666668 0.06666666666666668 0.06666666666666668 0.06666666666666668 0.06666666666666668 0.06666666666666668 0.06666666666666668 0.06666666666666668 0.06666666666666668 0.06666666666666668 0.06666666666666668 0.06666666666666668 0.06666666666666668 0.06666666666666668 0.06666666666666668 0.06666666666666668 0.06666666666666668 0.06666666666666668 0.06666666666666668 0.06666666666666668 0.06666666666666668 0.06666666666666668 0.06666666666666668 0.06666666666666668 0.06666666666666668 0.06666666666666668 0.06666666666666668 0.06666666666666668 0.06666666666666668 0.06666666666666668 0.06666666666666668 0.06666666666666668 0.06666666666666668 0.06666666666666668 0.06666666666666668 0.06666666666666668 0.06666666666666668 0.06666666666666668 0.06666666666666668 0.06666666666666668 0.06666666666666668 0.06666666666666668 0.06666666666666668 0.06666666666666668 0.06666666666666668 0.06666666666666668 0.06666666666666668 0.06666666666666668 0.06666666666666668 0.06666666666666668 0.06666666666666668 0.03333333333333334 0.03333333333333334 0.03333333333333334 0.03333333333333334 0.03333333333333334 0.03333333333333334 0.03333333333333334 0.03333333333333334 0.03333333333333334 0.03333333333333334 0.03333333333333334 0.03333333333333334 0.03333333333333334 0.5333333333333332 0.03333333333333334 0.06666666666666668 0.06666666666666668 0.06666666666666668 0.06666666666666668 0.06666666666666668 0.06666666666666668 0.06666666666666668 0.06666666666666668 0.06666666666666668 0.06666666666666668 0.06666666666666668 0.06666666666666668 0.06666666666666668 0.06666666666666668 0.06666666666666668 0.01666666666666667 0.01666666666666667 0.01666666666666667 0.01666666666666667 0.01666666666666667 0.01666666666666667 0.01666666666666667 0.01666666666666667 0.01666666666666667 0.01666666666666667 0.01666666666666667 0.01666666666666667 0.01666666666666667 0.01666666666666667 0.7666666666666667 0.06666666666666668 0.06666666666666668 0.06666666666666668 0.06666666666666668 0.06666666666666668 0.06666666666666668 0.06666666666666668 0.06666666666666668 0.06666666666666668 0.06666666666666668 0.06666666666666668 0.06666666666666668 0.06666666666666668 0.06666666666666668 0.06666666666666668 0.06666666666666668 0.06666666666666668 0.06666666666666668 0.06666666666666668 0.06666666666666668 0.06666666666666668 0.06666666666666668 0.06666666666666668 0.06666666666666668 0.06666666666666668 0.06666666666666668 0.06666666666666668 0.06666666666666668 0.06666666666666668 0.06666666666666668 0.06666666666666668 0.06666666666666668 0.06666666666666668 0.06666666666666668 0.06666666666666668 0.06666666666666668 0.06666666666666668 0.06666666666666668 0.06666666666666668 0.06666666666666668 0.06666666666666668 0.06666666666666668 0.06666666666666668 0.06666666666666668 0.06666666666666668 0.06666666666666668 0.06666666666666668 0.06666666666666668 0.06666666666666668 0.06666666666666668 0.06666666666666668 0.06666666666666668 0.06666666666666668 0.06666666666666668 0.06666666666666668 0.06666666666666668 0.06666666666666668 0.06666666666666668 0.06666666666666668 0.06666666666666668 0.06666666666666668 0.06666666666666668 0.06666666666666668 0.06666666666666668 0.06666666666666668 0.06666666666666668 0.06666666666666668 0.06666666666666668 0.06666666666666668 0.06666666666666668 0.06666666666666668 0.06666666666666668 0.06666666666666668 0.06666666666666668 0.06666666666666668 0.03333333333333334 0.03333333333333334 0.03333333333333334 0.03333333333333334 0.03333333333333334 0.03333333333333334 0.03333333333333334 0.03333333333333334 0.03333333333333334 0.03333333333333334 0.03333333333333334 0.03333333333333334 0.03333333333333334 0.5333333333333332 0.03333333333333334 0.06666666666666668 0.06666666666666668 0.06666666666666668 0.06666666666666668 0.06666666666666668 0.06666666666666668 0.06666666666666668 0.06666666666666668 0.06666666666666668 0.06666666666666668 0.06666666666666668 0.06666666666666668 0.06666666666666668 0.06666666666666668 0.06666666666666668 0.06666666666666668 0.06666666666666668 0.06666666666666668 0.06666666666666668 0.06666666666666668 0.06666666666666668 0.06666666666666668 0.06666666666666668 0.06666666666666668 0.06666666666666668 0.06666666666666668 0.06666666666666668 0.06666666666666668 0.06666666666666668 0.06666666666666668 0.06666666666666668 0.06666666666666668 0.06666666666666668 0.06666666666666668 0.06666666666666668 0.06666666666666668 0.06666666666666668 0.06666666666666668 0.06666666666666668 0.06666666666666668 0.06666666666666668 0.06666666666666668 0.06666666666666668 0.06666666666666668 0.06666666666666668 0.03333333333333335 0.03333333333333335 0.03333333333333335 0.03333333333333335 0.03333333333333335 0.03333333333333335 0.03333333333333335 0.03333333333333335 0.03333333333333335 0.03333333333333335 0.03333333333333335 0.03333333333333335 0.03333333333333335 0.03333333333333335 0.5333333333333333 0.03333333333333334 0.03333333333333334 0.03333333333333334 0.03333333333333334 0.03333333333333334 0.03333333333333334 0.03333333333333334 0.03333333333333334 0.03333333333333334 0.03333333333333334 0.03333333333333334 0.03333333333333334 0.03333333333333334 0.5333333333333332 0.03333333333333334 0.01666666666666667 0.01666666666666667 0.01666666666666667 0.01666666666666667 0.01666666666666667 0.01666666666666667 0.01666666666666667 0.01666666666666667 0.01666666666666667 0.01666666666666667 0.01666666666666667 0.01666666666666667 0.01666666666666667 0.01666666666666667 0.7666666666666667 0.01333333333333334 0.01333333333333334 0.01333333333333334 0.01333333333333334 0.01333333333333334 0.01333333333333334 0.01333333333333334 0.01333333333333334 0.01333333333333334 0.01333333333333334 0.01333333333333334 0.01333333333333334 0.01333333333333334 0.01333333333333334 0.8133333333333334 0.01333333333333334 0.01333333333333334 0.01333333333333334 0.01333333333333334 0.01333333333333334 0.01333333333333334 0.01333333333333334 0.01333333333333334 0.01333333333333334 0.01333333333333334 0.01333333333333334 0.01333333333333334 0.01333333333333334 0.01333333333333334 0.8133333333333334 0.06666666666666668 0.06666666666666668 0.06666666666666668 0.06666666666666668 0.06666666666666668 0.06666666666666668 0.06666666666666668 0.06666666666666668 0.06666666666666668 0.06666666666666668 0.06666666666666668 0.06666666666666668 0.06666666666666668 0.06666666666666668 0.06666666666666668 0.01666666666666667 0.01666666666666667 0.01666666666666667 0.2666666666666667 0.01666666666666667 0.01666666666666667 0.01666666666666667 0.01666666666666667 0.01666666666666667 0.01666666666666667 0.2666666666666667 0.01666666666666667 0.01666666666666667 0.01666666666666667 0.2666666666666667 0.01333333333333334 0.01333333333333334 0.01333333333333334 0.01333333333333334 0.01333333333333334 0.01333333333333334 0.01333333333333334 0.01333333333333334 0.2133333333333333 0.01333333333333334 0.01333333333333334 0.01333333333333334 0.2133333333333333 0.2133333333333333 0.2133333333333333 0.06666666666666668 0.06666666666666668 0.06666666666666668 0.06666666666666668 0.06666666666666668 0.06666666666666668 0.06666666666666668 0.06666666666666668 0.06666666666666668 0.06666666666666668 0.06666666666666668 0.06666666666666668 0.06666666666666668 0.06666666666666668 0.06666666666666668 0.01666666666666667 0.01666666666666667 0.01666666666666667 0.01666666666666667 0.01666666666666667 0.01666666666666667 0.01666666666666667 0.01666666666666667 0.01666666666666667 0.2666666666666667 0.01666666666666667 0.01666666666666667 0.01666666666666667 0.01666666666666667 0.5166666666666667 0.01333333333333334 0.01333333333333334 0.01333333333333334 0.01333333333333334 0.01333333333333334 0.01333333333333334 0.01333333333333334 0.01333333333333334 0.01333333333333334 0.01333333333333334 0.01333333333333334 0.01333333333333334 0.01333333333333334 0.01333333333333334 0.8133333333333334 0.01333333333333334 0.01333333333333334 0.01333333333333334 0.01333333333333334 0.01333333333333334 0.01333333333333334 0.01333333333333334 0.01333333333333334 0.01333333333333334 0.01333333333333334 0.01333333333333334 0.01333333333333334 0.01333333333333334 0.01333333333333334 0.8133333333333334 0.01666666666666667 0.01666666666666667 0.01666666666666667 0.01666666666666667 0.01666666666666667 0.01666666666666667 0.01666666666666667 0.01666666666666667 0.01666666666666667 0.01666666666666667 0.01666666666666667 0.01666666666666667 0.01666666666666667 0.2666666666666667 0.5166666666666667 0.01666666666666667 0.01666666666666667 0.01666666666666667 0.01666666666666667 0.01666666666666667 0.01666666666666667 0.01666666666666667 0.01666666666666667 0.2666666666666667 0.01666666666666667 0.2666666666666667 0.01666666666666667 0.2666666666666667 0.01666666666666667 0.01666666666666667 0.01111111111111112 0.01111111111111112 0.01111111111111112 0.01111111111111112 0.01111111111111112 0.01111111111111112 0.01111111111111112 0.01111111111111112 0.01111111111111112 0.01111111111111112 0.1777777777777778 0.01111111111111112 0.01111111111111112 0.6777777777777777 0.01111111111111112 0.009523809523809526 0.009523809523809526 0.009523809523809526 0.009523809523809526 0.009523809523809526 0.009523809523809526 0.009523809523809526 0.009523809523809526 0.009523809523809526 0.009523809523809526 0.009523809523809526 0.009523809523809526 0.1523809523809524 0.009523809523809526 0.7238095238095237 0.00666666666666667 0.00666666666666667 0.00666666666666667 0.00666666666666667 0.1066666666666667 0.00666666666666667 0.00666666666666667 0.00666666666666667 0.00666666666666667 0.00666666666666667 0.00666666666666667 0.00666666666666667 0.00666666666666667 0.1066666666666667 0.7066666666666667 0.01111111111111112 0.01111111111111112 0.01111111111111112 0.01111111111111112 0.01111111111111112 0.01111111111111112 0.01111111111111112 0.01111111111111112 0.01111111111111112 0.01111111111111112 0.01111111111111112 0.01111111111111112 0.01111111111111112 0.01111111111111112 0.8444444444444443 0.008333333333333337 0.008333333333333337 0.008333333333333337 0.008333333333333337 0.008333333333333337 0.008333333333333337 0.008333333333333337 0.008333333333333337 0.008333333333333337 0.008333333333333337 0.008333333333333337 0.008333333333333337 0.008333333333333337 0.1333333333333333 0.7583333333333333 0.00666666666666667 0.00666666666666667 0.00666666666666667 0.00666666666666667 0.00666666666666667 0.00666666666666667 0.00666666666666667 0.00666666666666667 0.00666666666666667 0.00666666666666667 0.00666666666666667 0.00666666666666667 0.00666666666666667 0.00666666666666667 0.9066666666666667 0.009523809523809526 0.009523809523809526 0.009523809523809526 0.009523809523809526 0.009523809523809526 0.1523809523809524 0.009523809523809526 0.009523809523809526 0.009523809523809526 0.009523809523809526 0.1523809523809524 0.009523809523809526 0.009523809523809526 0.1523809523809524 0.4380952380952381 0.004761904761904763 0.004761904761904763 0.004761904761904763 0.004761904761904763 0.004761904761904763 0.004761904761904763 0.004761904761904763 0.07619047619047618 0.07619047619047618 0.004761904761904763 0.004761904761904763 0.07619047619047618 0.07619047619047618 0.2904761904761904 0.3619047619047618 0.004166666666666668 0.004166666666666668 0.004166666666666668 0.004166666666666668 0.004166666666666668 0.004166666666666668 0.004166666666666668 0.004166666666666668 0.004166666666666668 0.004166666666666668 0.004166666666666668 0.06666666666666667 0.1291666666666667 0.004166666666666668 0.7541666666666667 0.002298850574712645 0.002298850574712645 0.002298850574712645 0.002298850574712645 0.002298850574712645 0.002298850574712645 0.002298850574712645 0.002298850574712645 0.002298850574712645 0.002298850574712645 0.002298850574712645 0.002298850574712645 0.002298850574712645 0.2091954022988506 0.7609195402298851 0.00740740740740741 0.00740740740740741 0.00740740740740741 0.00740740740740741 0.00740740740740741 0.00740740740740741 0.00740740740740741 0.00740740740740741 0.00740740740740741 0.00740740740740741 0.00740740740740741 0.00740740740740741 0.00740740740740741 0.1185185185185185 0.7851851851851851 0.01111111111111112 0.01111111111111112 0.01111111111111112 0.01111111111111112 0.01111111111111112 0.01111111111111112 0.01111111111111112 0.01111111111111112 0.01111111111111112 0.01111111111111112 0.01111111111111112 0.01111111111111112 0.01111111111111112 0.01111111111111112 0.8444444444444443 0.008333333333333337 0.008333333333333337 0.008333333333333337 0.008333333333333337 0.008333333333333337 0.008333333333333337 0.008333333333333337 0.008333333333333337 0.008333333333333337 0.008333333333333337 0.008333333333333337 0.008333333333333337 0.008333333333333337 0.008333333333333337 0.8833333333333333 0.003703703703703705 0.003703703703703705 0.05925925925925925 0.003703703703703705 0.003703703703703705 0.003703703703703705 0.003703703703703705 0.05925925925925925 0.05925925925925925 0.1148148148148148 0.1148148148148148 0.003703703703703705 0.05925925925925925 0.2814814814814814 0.2259259259259259 0.001129943502824859 0.001129943502824859 0.001129943502824859 0.001129943502824859 0.05197740112994351 0.001129943502824859 0.001129943502824859 0.01807909604519774 0.03502824858757062 0.03502824858757062 0.01807909604519774 0.03502824858757062 0.1028248587570621 0.1706214689265537 0.5265536723163842 0.001960784313725491 0.001960784313725491 0.001960784313725491 0.001960784313725491 0.03137254901960784 0.001960784313725491 0.001960784313725491 0.0607843137254902 0.001960784313725491 0.03137254901960784 0.03137254901960784 0.001960784313725491 0.1784313725490196 0.1784313725490196 0.4725490196078431 0.001234567901234568 0.001234567901234568 0.001234567901234568 0.001234567901234568 0.001234567901234568 0.01975308641975309 0.001234567901234568 0.001234567901234568 0.001234567901234568 0.001234567901234568 0.01975308641975309 0.01975308641975309 0.001234567901234568 0.2604938271604938 0.6679012345679013 0.005128205128205131 0.005128205128205131 0.005128205128205131 0.005128205128205131 0.005128205128205131 0.005128205128205131 0.005128205128205131 0.005128205128205131 0.005128205128205131 0.005128205128205131 0.005128205128205131 0.005128205128205131 0.005128205128205131 0.005128205128205131 0.9282051282051282 0.004761904761904763 0.004761904761904763 0.004761904761904763 0.004761904761904763 0.004761904761904763 0.004761904761904763 0.004761904761904763 0.004761904761904763 0.004761904761904763 0.004761904761904763 0.004761904761904763 0.004761904761904763 0.004761904761904763 0.2904761904761904 0.6476190476190475 0.006060606060606063 0.006060606060606063 0.006060606060606063 0.006060606060606063 0.006060606060606063 0.006060606060606063 0.006060606060606063 0.006060606060606063 0.006060606060606063 0.006060606060606063 0.006060606060606063 0.006060606060606063 0.006060606060606063 0.006060606060606063 0.9151515151515152 0.003921568627450982 0.003921568627450982 0.06274509803921569 0.003921568627450982 0.06274509803921569 0.1215686274509804 0.06274509803921569 0.003921568627450982 0.003921568627450982 0.06274509803921569 0.06274509803921569 0.003921568627450982 0.06274509803921569 0.2980392156862745 0.1803921568627451 0.001129943502824859 0.01807909604519774 0.01807909604519774 0.01807909604519774 0.01807909604519774 0.001129943502824859 0.001129943502824859 0.06892655367231638 0.001129943502824859 0.01807909604519774 0.05197740112994351 0.1028248587570621 0.1706214689265537 0.2214689265536723 0.2892655367231639 0.001418439716312057 0.001418439716312057 0.001418439716312057 0.001418439716312057 0.001418439716312057 0.001418439716312057 0.02269503546099291 0.001418439716312057 0.02269503546099291 0.02269503546099291 0.04397163120567376 0.02269503546099291 0.1929078014184397 0.150354609929078 0.5120567375886524 0.001449275362318841 0.001449275362318841 0.02318840579710145 0.001449275362318841 0.001449275362318841 0.001449275362318841 0.001449275362318841 0.001449275362318841 0.02318840579710145 0.02318840579710145 0.02318840579710145 0.04492753623188406 0.02318840579710145 0.2623188405797101 0.5666666666666667 0.005128205128205131 0.005128205128205131 0.005128205128205131 0.005128205128205131 0.005128205128205131 0.005128205128205131 0.005128205128205131 0.005128205128205131 0.005128205128205131 0.08205128205128205 0.005128205128205131 0.005128205128205131 0.005128205128205131 0.158974358974359 0.6974358974358975 0.006060606060606063 0.006060606060606063 0.006060606060606063 0.006060606060606063 0.006060606060606063 0.006060606060606063 0.006060606060606063 0.006060606060606063 0.006060606060606063 0.006060606060606063 0.006060606060606063 0.006060606060606063 0.006060606060606063 0.006060606060606063 0.9151515151515152 0.01333333333333334 0.01333333333333334 0.01333333333333334 0.01333333333333334 0.01333333333333334 0.01333333333333334 0.01333333333333334 0.01333333333333334 0.01333333333333334 0.01333333333333334 0.01333333333333334 0.01333333333333334 0.01333333333333334 0.01333333333333334 0.8133333333333334 0.0124031007751938 0.0124031007751938 0.03565891472868218 0.02403100775193799 0.02403100775193799 0.0124031007751938 0.02403100775193799 0.05891472868217055 0.04728682170542636 0.07054263565891473 0.1403100775193798 0.09379844961240311 0.08217054263565893 0.2333333333333334 0.1286821705426357 0.0003683241252302027 0.01694290976058932 0.01141804788213628 0.005893186003683241 0.01141804788213628 0.005893186003683241 0.03904235727440147 0.02799263351749539 0.02246777163904235 0.06666666666666667 0.05561694290976059 0.1053406998158379 0.1661141804788213 0.2158379373848987 0.248987108655617 0.0009132420091324204 0.0009132420091324204 0.0009132420091324204 0.0009132420091324204 0.0009132420091324204 0.01461187214611872 0.01461187214611872 0.02831050228310502 0.02831050228310502 0.04200913242009133 0.01461187214611872 0.06940639269406391 0.1789954337899543 0.2337899543378995 0.3707762557077625 0.0008230452674897122 0.0008230452674897122 0.0008230452674897122 0.0008230452674897122 0.0008230452674897122 0.0008230452674897122 0.0008230452674897122 0.01316872427983539 0.03786008230452675 0.01316872427983539 0.02551440329218107 0.0625514403292181 0.1119341563786008 0.2106995884773663 0.5193415637860083 0.002564102564102565 0.002564102564102565 0.002564102564102565 0.002564102564102565 0.002564102564102565 0.002564102564102565 0.002564102564102565 0.002564102564102565 0.002564102564102565 0.002564102564102565 0.04102564102564103 0.002564102564102565 0.1564102564102564 0.2333333333333333 0.5410256410256411 0.005128205128205131 0.005128205128205131 0.005128205128205131 0.005128205128205131 0.005128205128205131 0.005128205128205131 0.005128205128205131 0.005128205128205131 0.005128205128205131 0.005128205128205131 0.08205128205128205 0.005128205128205131 0.158974358974359 0.08205128205128205 0.6205128205128205 0.008333333333333337 0.008333333333333337 0.008333333333333337 0.008333333333333337 0.008333333333333337 0.008333333333333337 0.008333333333333337 0.008333333333333337 0.008333333333333337 0.008333333333333337 0.008333333333333337 0.1333333333333333 0.008333333333333337 0.008333333333333337 0.7583333333333333 0.01111111111111111 0.01111111111111111 0.02922705314009662 0.02922705314009662 0.02922705314009662 0.01473429951690821 0.04734299516908212 0.03647342995169082 0.06545893719806763 0.07995169082125604 0.1524154589371981 0.1016908212560386 0.1669082125603865 0.1415458937198068 0.08357487922705314 0.001648634724368882 0.004739824832560536 0.01246780010303967 0.0140133951571355 0.02637815558990211 0.02637815558990211 0.03101494075218959 0.04183410613086038 0.04801648634724369 0.07429160226687274 0.1021123132405976 0.1314786192684183 0.1886656362699639 0.1763008758371973 0.1206594538897475 0.0003472222222222223 0.0003472222222222223 0.005555555555555555 0.01076388888888889 0.0003472222222222223 0.01597222222222222 0.005555555555555555 0.04201388888888889 0.06805555555555555 0.04201388888888889 0.08888888888888888 0.1305555555555555 0.1878472222222222 0.2399305555555556 0.1618055555555555 0.007207207207207207 0.0004504504504504507 0.007207207207207207 0.007207207207207207 0.007207207207207207 0.01396396396396397 0.007207207207207207 0.03423423423423423 0.04099099099099099 0.0545045045045045 0.0545045045045045 0.08828828828828829 0.1761261261261261 0.2774774774774775 0.2234234234234234 0.001960784313725491 0.001960784313725491 0.03137254901960784 0.001960784313725491 0.0607843137254902 0.001960784313725491 0.001960784313725491 0.03137254901960784 0.001960784313725491 0.09019607843137255 0.03137254901960784 0.0607843137254902 0.09019607843137255 0.296078431372549 0.296078431372549 0.003030303030303032 0.003030303030303032 0.003030303030303032 0.003030303030303032 0.003030303030303032 0.003030303030303032 0.003030303030303032 0.003030303030303032 0.04848484848484848 0.04848484848484848 0.04848484848484848 0.09393939393939395 0.09393939393939395 0.2757575757575758 0.3666666666666666 0.005555555555555558 0.005555555555555558 0.005555555555555558 0.005555555555555558 0.005555555555555558 0.005555555555555558 0.005555555555555558 0.005555555555555558 0.005555555555555558 0.005555555555555558 0.005555555555555558 0.005555555555555558 0.005555555555555558 0.1722222222222222 0.7555555555555555 0.04002537266095783 0.03336504915953062 0.05144307009197591 0.04668569616238505 0.06286076752299399 0.07713288931176659 0.08189026324135745 0.1028227085315573 0.09330796067237554 0.08950206152870284 0.0914050111005392 0.08379321281319381 0.06761814145258485 0.06000634316523947 0.01814145258483984 0.00853635505193579 0.02213408876298395 0.02666666666666667 0.02949952785646837 0.03913125590179415 0.07085930122757318 0.06915958451369217 0.07765816808309726 0.08785646836638339 0.113918791312559 0.1031539187913126 0.1207176581680831 0.112219074598678 0.07992445703493863 0.03856468366383381 0.002938475665748392 0.01120293847566575 0.01120293847566575 0.01395775941230486 0.03324150596877869 0.03875114784205692 0.04701561065197428 0.09109274563820018 0.09660238751147841 0.08833792470156106 0.1076216712580349 0.1351698806244261 0.1213957759412305 0.1048668503213958 0.09660238751147841 0.0003189792663476875 0.005103668261562998 0.01467304625199362 0.005103668261562998 0.009888357256778311 0.009888357256778311 0.04816586921850079 0.05773524720893142 0.07687400318979266 0.07687400318979266 0.0960127591706539 0.1055821371610845 0.1869218500797448 0.1869218500797448 0.1199362041467305 0.001041666666666667 0.001041666666666667 0.01666666666666667 0.001041666666666667 0.01666666666666667 0.001041666666666667 0.01666666666666667 0.01666666666666667 0.01666666666666667 0.1104166666666667 0.03229166666666667 0.09479166666666666 0.1416666666666667 0.2197916666666667 0.3135416666666667 0.001333333333333334 0.001333333333333334 0.02133333333333333 0.001333333333333334 0.001333333333333334 0.06133333333333334 0.02133333333333333 0.04133333333333334 0.001333333333333334 0.04133333333333334 0.04133333333333334 0.08133333333333333 0.08133333333333333 0.08133333333333333 0.5213333333333333 0.00666666666666667 0.1066666666666667 0.00666666666666667 0.00666666666666667 0.00666666666666667 0.00666666666666667 0.00666666666666667 0.00666666666666667 0.00666666666666667 0.00666666666666667 0.00666666666666667 0.00666666666666667 0.00666666666666667 0.3066666666666667 0.5066666666666667 0.04514435695538058 0.08666189453591029 0.09167263183011215 0.09954664757814365 0.1160104986876641 0.1052732044858029 0.06733476497256025 0.0787878787878788 0.06805058458601766 0.06590312574564544 0.05373419231686948 0.0472918157957528 0.03512288236697686 0.02581722739203055 0.01364829396325459 0.02165558019216557 0.06101256467110126 0.07265336289726534 0.08096821877309683 0.07875092387287511 0.09150036954915006 0.09094604582409462 0.08595713229859572 0.09094604582409462 0.08429416112342943 0.07431633407243164 0.0648928307464893 0.05048041389504805 0.03828529194382854 0.01334072431633408 0.003836930455635492 0.02901678657074341 0.02901678657074341 0.06858513189448441 0.09016786570743406 0.05059952038369304 0.0973621103117506 0.09016786570743406 0.05419664268585132 0.1045563549160672 0.09016786570743406 0.1081534772182254 0.07218225419664269 0.0577937649880096 0.05419664268585132 0.000508905852417303 0.008142493638676845 0.01577608142493639 0.02340966921119593 0.03867684478371501 0.05394402035623409 0.07684478371501272 0.06921119592875317 0.06157760814249363 0.06921119592875317 0.08447837150127226 0.1302798982188295 0.12264631043257 0.09974554707379134 0.1455470737913486 0.002298850574712645 0.0367816091954023 0.002298850574712645 0.0367816091954023 0.0367816091954023 0.0367816091954023 0.07126436781609197 0.002298850574712645 0.002298850574712645 0.07126436781609197 0.1057471264367816 0.1057471264367816 0.1057471264367816 0.1402298850574712 0.2436781609195402 0.003174603174603176 0.003174603174603176 0.003174603174603176 0.003174603174603176 0.003174603174603176 0.003174603174603176 0.003174603174603176 0.003174603174603176 0.146031746031746 0.146031746031746 0.05079365079365079 0.09841269841269842 0.003174603174603176 0.05079365079365079 0.4793650793650793 0.008333333333333337 0.008333333333333337 0.008333333333333337 0.008333333333333337 0.1333333333333333 0.008333333333333337 0.008333333333333337 0.008333333333333337 0.008333333333333337 0.008333333333333337 0.008333333333333337 0.008333333333333337 0.1333333333333333 0.1333333333333333 0.5083333333333333 0.1374617126115328 0.1482487681448928 0.1174856838460514 0.100705819683047 0.0823278732188041 0.07273937941137301 0.0639499267545612 0.05995472100146491 0.04836862431748568 0.04197629511253163 0.041576774537222 0.02919163670262351 0.02279930749766946 0.02080170462112132 0.01241177253961912 0.07584866158217436 0.09648571855839688 0.09603708688500075 0.1050097203529236 0.08841034843726633 0.08078360998953192 0.08123224166292807 0.07495139823538208 0.07181097652160909 0.0547629729325557 0.049379392851802 0.04489307611784058 0.03412591595633318 0.03592044264991775 0.01034843726633767 0.04298245614035087 0.06929824561403508 0.06271929824561404 0.06600877192982456 0.07587719298245614 0.05285087719298245 0.09232456140350877 0.08574561403508771 0.09232456140350877 0.07916666666666666 0.06600877192982456 0.04956140350877192 0.05285087719298245 0.0725877192982456 0.03969298245614035 0.01425287356321839 0.02114942528735632 0.05563218390804597 0.02804597701149425 0.03494252873563218 0.04183908045977011 0.09701149425287356 0.04183908045977011 0.05563218390804597 0.04873563218390804 0.1108045977011494 0.09701149425287356 0.1452873563218391 0.09701149425287356 0.1108045977011494 0.001169590643274854 0.01871345029239766 0.01871345029239766 0.01871345029239766 0.03625730994152047 0.03625730994152047 0.01871345029239766 0.05380116959064327 0.07134502923976607 0.03625730994152047 0.05380116959064327 0.1064327485380117 0.08888888888888888 0.1941520467836257 0.2467836257309941 0.002380952380952382 0.002380952380952382 0.002380952380952382 0.002380952380952382 0.002380952380952382 0.002380952380952382 0.07380952380952381 0.03809523809523809 0.07380952380952381 0.07380952380952381 0.002380952380952382 0.07380952380952381 0.1452380952380952 0.1452380952380952 0.3595238095238095 0.01333333333333334 0.01333333333333334 0.01333333333333334 0.01333333333333334 0.01333333333333334 0.01333333333333334 0.01333333333333334 0.01333333333333334 0.01333333333333334 0.01333333333333334 0.2133333333333333 0.01333333333333334 0.01333333333333334 0.01333333333333334 0.6133333333333334 0.2406731113498031 0.1053347654851414 0.0924453992123165 0.08600071607590404 0.08600071607590404 0.08063014679556033 0.06451843895452918 0.05377730039384175 0.04303616183315432 0.04303616183315432 0.03336913712853563 0.02370211242391693 0.02585034013605442 0.006516290726817042 0.01510920157536699 0.1462735462735462 0.08976248976248974 0.0836199836199836 0.08853398853398851 0.09099099099099096 0.06027846027846027 0.07624897624897624 0.06764946764946764 0.06887796887796886 0.05904995904995904 0.04553644553644553 0.04676494676494676 0.03447993447993447 0.03202293202293201 0.009909909909909908 0.06127946127946128 0.08148148148148149 0.03097643097643098 0.08148148148148149 0.1016835016835017 0.08148148148148149 0.05117845117845118 0.05117845117845118 0.09158249158249158 0.03097643097643098 0.08148148148148149 0.1218855218855219 0.03097643097643098 0.05117845117845118 0.05117845117845118 0.02666666666666666 0.02666666666666666 0.02666666666666666 0.05166666666666666 0.07666666666666666 0.07666666666666666 0.02666666666666666 0.05166666666666666 0.05166666666666666 0.1266666666666666 0.05166666666666666 0.1016666666666666 0.1266666666666666 0.1266666666666666 0.05166666666666666 0.003174603174603176 0.003174603174603176 0.003174603174603176 0.003174603174603176 0.05079365079365079 0.05079365079365079 0.003174603174603176 0.09841269841269842 0.003174603174603176 0.05079365079365079 0.1936507936507936 0.003174603174603176 0.2412698412698412 0.146031746031746 0.146031746031746 0.005555555555555558 0.005555555555555558 0.005555555555555558 0.005555555555555558 0.08888888888888888 0.005555555555555558 0.08888888888888888 0.005555555555555558 0.005555555555555558 0.1722222222222222 0.1722222222222222 0.005555555555555558 0.08888888888888888 0.005555555555555558 0.3388888888888889 0.01333333333333334 0.01333333333333334 0.01333333333333334 0.01333333333333334 0.01333333333333334 0.01333333333333334 0.01333333333333334 0.01333333333333334 0.01333333333333334 0.01333333333333334 0.01333333333333334 0.2133333333333333 0.01333333333333334 0.01333333333333334 0.6133333333333334 0.2756554307116105 0.1127340823970037 0.09026217228464418 0.06217228464419475 0.05655430711610487 0.06779026217228463 0.01161048689138577 0.06217228464419475 0.05655430711610487 0.06779026217228463 0.0397003745318352 0.03408239700374532 0.03408239700374532 0.01161048689138577 0.01722846441947565 0.07140255009107468 0.0604735883424408 0.08233151183970856 0.09326047358834244 0.08779599271402549 0.06593806921675774 0.0604735883424408 0.06593806921675774 0.1096539162112933 0.07140255009107468 0.07140255009107468 0.04954462659380692 0.03861566484517304 0.04408014571948998 0.02768670309653916 0.004166666666666668 0.004166666666666668 0.004166666666666668 0.004166666666666668 0.06666666666666667 0.004166666666666668 0.004166666666666668 0.004166666666666668 0.06666666666666667 0.004166666666666668 0.1291666666666667 0.1916666666666667 0.1291666666666667 0.06666666666666667 0.3166666666666667 0.04848484848484848 0.003030303030303032 0.003030303030303032 0.003030303030303032 0.003030303030303032 0.04848484848484848 0.04848484848484848 0.04848484848484848 0.1848484848484848 0.04848484848484848 0.09393939393939395 0.1393939393939394 0.09393939393939395 0.09393939393939395 0.1393939393939394 0.07619047619047618 0.004761904761904763 0.004761904761904763 0.004761904761904763 0.004761904761904763 0.004761904761904763 0.004761904761904763 0.07619047619047618 0.004761904761904763 0.07619047619047618 0.004761904761904763 0.1476190476190476 0.219047619047619 0.219047619047619 0.1476190476190476 0.005128205128205131 0.005128205128205131 0.005128205128205131 0.005128205128205131 0.08205128205128205 0.005128205128205131 0.08205128205128205 0.005128205128205131 0.005128205128205131 0.005128205128205131 0.005128205128205131 0.005128205128205131 0.2358974358974359 0.2358974358974359 0.3128205128205128 0.01333333333333334 0.01333333333333334 0.2133333333333333 0.01333333333333334 0.01333333333333334 0.01333333333333334 0.01333333333333334 0.01333333333333334 0.01333333333333334 0.01333333333333334 0.01333333333333334 0.01333333333333334 0.01333333333333334 0.01333333333333334 0.6133333333333334 0.09082462253193961 0.1639953542392567 0.1570267131242741 0.1186991869918699 0.08385598141695702 0.0943089430894309 0.06643437862950058 0.02462253193960511 0.03507549361207898 0.03159117305458769 0.03507549361207898 0.0281068524970964 0.03159117305458769 0.02113821138211382 0.01765389082462253 0.0911725955204216 0.1227931488801054 0.1386034255599473 0.1267457180500659 0.1069828722002635 0.06350461133069828 0.03978919631093544 0.04374176548089591 0.04374176548089591 0.04374176548089591 0.06745718050065876 0.02793148880105402 0.02397891963109354 0.04374176548089591 0.01607378129117259 0.146031746031746 0.146031746031746 0.05079365079365079 0.003174603174603176 0.09841269841269842 0.09841269841269842 0.05079365079365079 0.09841269841269842 0.003174603174603176 0.003174603174603176 0.09841269841269842 0.003174603174603176 0.05079365079365079 0.003174603174603176 0.146031746031746 0.005555555555555557 0.005555555555555557 0.1722222222222222 0.005555555555555557 0.005555555555555557 0.2555555555555555 0.005555555555555557 0.1722222222222222 0.005555555555555557 0.005555555555555557 0.005555555555555557 0.1722222222222222 0.08888888888888886 0.005555555555555557 0.08888888888888886 0.008333333333333337 0.008333333333333337 0.008333333333333337 0.008333333333333337 0.008333333333333337 0.008333333333333337 0.1333333333333333 0.008333333333333337 0.1333333333333333 0.008333333333333337 0.008333333333333337 0.2583333333333334 0.1333333333333333 0.008333333333333337 0.2583333333333334 0.01333333333333334 0.01333333333333334 0.01333333333333334 0.01333333333333334 0.01333333333333334 0.01333333333333334 0.2133333333333333 0.01333333333333334 0.01333333333333334 0.01333333333333334 0.01333333333333334 0.01333333333333334 0.2133333333333333 0.01333333333333334 0.4133333333333334 0.01666666666666667 0.01666666666666667 0.01666666666666667 0.01666666666666667 0.01666666666666667 0.01666666666666667 0.01666666666666667 0.01666666666666667 0.01666666666666667 0.01666666666666667 0.01666666666666667 0.01666666666666667 0.01666666666666667 0.01666666666666667 0.7666666666666667 0.04974200206398348 0.04355005159958719 0.04045407636738905 0.07141382868937046 0.08379772961816304 0.1116615067079463 0.1147574819401445 0.08689370485036117 0.10546955624355 0.10546955624355 0.07141382868937046 0.04045407636738905 0.04045407636738905 0.02807017543859648 0.006398348813209494 0.01757877280265339 0.03499170812603648 0.04991708126036483 0.05240464344941956 0.05986733001658374 0.09220563847429518 0.139469320066335 0.1295190713101161 0.1170812603648424 0.07728026533996682 0.09220563847429518 0.07230514096185736 0.03250414593698175 0.02006633499170812 0.01260364842454394 0.002898550724637682 0.002898550724637682 0.08985507246376813 0.0463768115942029 0.1333333333333333 0.002898550724637682 0.08985507246376813 0.2202898550724638 0.0463768115942029 0.002898550724637682 0.1333333333333333 0.08985507246376813 0.08985507246376813 0.0463768115942029 0.002898550724637682 0.00666666666666667 0.00666666666666667 0.00666666666666667 0.00666666666666667 0.00666666666666667 0.1066666666666667 0.1066666666666667 0.1066666666666667 0.1066666666666667 0.00666666666666667 0.1066666666666667 0.00666666666666667 0.1066666666666667 0.2066666666666667 0.1066666666666667 0.03333333333333335 0.03333333333333335 0.03333333333333335 0.03333333333333335 0.03333333333333335 0.03333333333333335 0.03333333333333335 0.03333333333333335 0.03333333333333335 0.03333333333333335 0.03333333333333335 0.03333333333333335 0.03333333333333335 0.03333333333333335 0.5333333333333333 0.01333333333333334 0.01333333333333334 0.01333333333333334 0.01333333333333334 0.2133333333333333 0.2133333333333333 0.01333333333333334 0.01333333333333334 0.01333333333333334 0.01333333333333334 0.2133333333333333 0.01333333333333334 0.01333333333333334 0.01333333333333334 0.2133333333333333 0.06666666666666668 0.06666666666666668 0.06666666666666668 0.06666666666666668 0.06666666666666668 0.06666666666666668 0.06666666666666668 0.06666666666666668 0.06666666666666668 0.06666666666666668 0.06666666666666668 0.06666666666666668 0.06666666666666668 0.06666666666666668 0.06666666666666668 0.0832271762208068 0.07048832271762208 0.05138004246284501 0.04501061571125266 0.01953290870488323 0.05774946921443737 0.05138004246284501 0.04501061571125266 0.04501061571125266 0.07685774946921443 0.08959660297239916 0.1341825902335456 0.07685774946921443 0.1087048832271762 0.04501061571125266 0.02994350282485875 0.02994350282485875 0.0172316384180791 0.04265536723163842 0.03841807909604519 0.05112994350282486 0.03841807909604519 0.05112994350282486 0.0596045197740113 0.09774011299435029 0.09774011299435029 0.1612994350282486 0.1655367231638418 0.08079096045197739 0.03841807909604519 0.003030303030303032 0.003030303030303032 0.003030303030303032 0.003030303030303032 0.09393939393939395 0.09393939393939395 0.04848484848484848 0.003030303030303032 0.09393939393939395 0.1848484848484848 0.04848484848484848 0.04848484848484848 0.1393939393939394 0.1393939393939394 0.09393939393939395 0.008333333333333337 0.1333333333333333 0.008333333333333337 0.008333333333333337 0.008333333333333337 0.008333333333333337 0.008333333333333337 0.008333333333333337 0.008333333333333337 0.1333333333333333 0.1333333333333333 0.1333333333333333 0.1333333333333333 0.008333333333333337 0.2583333333333334 0.01333333333333334 0.01333333333333334 0.01333333333333334 0.01333333333333334 0.01333333333333334 0.01333333333333334 0.01333333333333334 0.01333333333333334 0.01333333333333334 0.2133333333333333 0.2133333333333333 0.4133333333333334 0.01333333333333334 0.01333333333333334 0.01333333333333334 0.02222222222222223 0.02222222222222223 0.02222222222222223 0.02222222222222223 0.02222222222222223 0.02222222222222223 0.02222222222222223 0.02222222222222223 0.02222222222222223 0.3555555555555555 0.02222222222222223 0.02222222222222223 0.02222222222222223 0.3555555555555555 0.02222222222222223 0.03333333333333335 0.03333333333333335 0.03333333333333335 0.03333333333333335 0.03333333333333335 0.03333333333333335 0.03333333333333335 0.5333333333333333 0.03333333333333335 0.03333333333333335 0.03333333333333335 0.03333333333333335 0.03333333333333335 0.03333333333333335 0.03333333333333335 0.1367231638418079 0.1028248587570621 0.01807909604519774 0.06892655367231638 0.05197740112994351 0.06892655367231638 0.01807909604519774 0.03502824858757062 0.001129943502824859 0.06892655367231638 0.03502824858757062 0.119774011299435 0.03502824858757062 0.1706214689265537 0.06892655367231638 0.07333333333333333 0.05515151515151515 0.009696969696969697 0.02787878787878788 0.01878787878787879 0.05515151515151515 0.01878787878787879 0.02787878787878788 0.01878787878787879 0.01878787878787879 0.04606060606060606 0.04606060606060606 0.1187878787878788 0.3096969696969697 0.1551515151515152 0.004444444444444446 0.004444444444444446 0.004444444444444446 0.07111111111111111 0.07111111111111111 0.07111111111111111 0.004444444444444446 0.07111111111111111 0.07111111111111111 0.07111111111111111 0.004444444444444446 0.07111111111111111 0.07111111111111111 0.1377777777777778 0.2711111111111111 0.03333333333333335 0.03333333333333335 0.03333333333333335 0.03333333333333335 0.03333333333333335 0.03333333333333335 0.03333333333333335 0.03333333333333335 0.03333333333333335 0.5333333333333333 0.03333333333333335 0.03333333333333335 0.03333333333333335 0.03333333333333335 0.03333333333333335 0.01666666666666667 0.01666666666666667 0.01666666666666667 0.01666666666666667 0.01666666666666667 0.01666666666666667 0.01666666666666667 0.01666666666666667 0.01666666666666667 0.01666666666666667 0.01666666666666667 0.01666666666666667 0.2666666666666667 0.2666666666666667 0.2666666666666667 0.02222222222222222 0.02222222222222222 0.02222222222222222 0.02222222222222222 0.02222222222222222 0.02222222222222222 0.02222222222222222 0.02222222222222222 0.02222222222222222 0.02222222222222222 0.6888888888888887 0.02222222222222222 0.02222222222222222 0.02222222222222222 0.02222222222222222 0.03333333333333335 0.03333333333333335 0.03333333333333335 0.03333333333333335 0.03333333333333335 0.03333333333333335 0.03333333333333335 0.03333333333333335 0.03333333333333335 0.5333333333333333 0.03333333333333335 0.03333333333333335 0.03333333333333335 0.03333333333333335 0.03333333333333335 0.1506172839506173 0.03950617283950617 0.07654320987654321 0.002469135802469137 0.07654320987654321 0.002469135802469137 0.03950617283950617 0.002469135802469137 0.002469135802469137 0.1135802469135802 0.07654320987654321 0.03950617283950617 0.07654320987654321 0.03950617283950617 0.2617283950617283 0.1682539682539682 0.04920634920634921 0.04920634920634921 0.07301587301587302 0.04920634920634921 0.02539682539682539 0.02539682539682539 0.001587301587301588 0.001587301587301588 0.001587301587301588 0.04920634920634921 0.07301587301587302 0.02539682539682539 0.1206349206349206 0.2873015873015873 0.004761904761904763 0.004761904761904763 0.004761904761904763 0.07619047619047618 0.004761904761904763 0.004761904761904763 0.004761904761904763 0.07619047619047618 0.07619047619047618 0.004761904761904763 0.004761904761904763 0.004761904761904763 0.004761904761904763 0.2904761904761904 0.4333333333333333 0.00740740740740741 0.00740740740740741 0.00740740740740741 0.00740740740740741 0.00740740740740741 0.00740740740740741 0.00740740740740741 0.00740740740740741 0.00740740740740741 0.00740740740740741 0.00740740740740741 0.00740740740740741 0.1185185185185185 0.1185185185185185 0.674074074074074 0.03333333333333335 0.03333333333333335 0.03333333333333335 0.03333333333333335 0.03333333333333335 0.03333333333333335 0.03333333333333335 0.03333333333333335 0.03333333333333335 0.03333333333333335 0.03333333333333335 0.03333333333333335 0.03333333333333335 0.03333333333333335 0.5333333333333333 0.02222222222222223 0.02222222222222223 0.02222222222222223 0.02222222222222223 0.02222222222222223 0.3555555555555555 0.02222222222222223 0.02222222222222223 0.02222222222222223 0.02222222222222223 0.02222222222222223 0.02222222222222223 0.02222222222222223 0.02222222222222223 0.3555555555555555 0.06666666666666668 0.06666666666666668 0.06666666666666668 0.06666666666666668 0.06666666666666668 0.06666666666666668 0.06666666666666668 0.06666666666666668 0.06666666666666668 0.06666666666666668 0.06666666666666668 0.06666666666666668 0.06666666666666668 0.06666666666666668 0.06666666666666668 0.01666666666666667 0.01666666666666667 0.01666666666666667 0.01666666666666667 0.2666666666666667 0.01666666666666667 0.01666666666666667 0.01666666666666667 0.01666666666666667 0.2666666666666667 0.01666666666666667 0.01666666666666667 0.01666666666666667 0.01666666666666667 0.2666666666666667 0.009523809523809526 0.009523809523809526 0.009523809523809526 0.009523809523809526 0.009523809523809526 0.009523809523809526 0.009523809523809526 0.009523809523809526 0.009523809523809526 0.1523809523809524 0.1523809523809524 0.2952380952380952 0.009523809523809526 0.009523809523809526 0.2952380952380952 0.02222222222222223 0.02222222222222223 0.02222222222222223 0.02222222222222223 0.02222222222222223 0.02222222222222223 0.02222222222222223 0.02222222222222223 0.02222222222222223 0.3555555555555555 0.02222222222222223 0.02222222222222223 0.02222222222222223 0.02222222222222223 0.3555555555555555 0.03333333333333335 0.5333333333333333 0.03333333333333335 0.03333333333333335 0.03333333333333335 0.03333333333333335 0.03333333333333335 0.03333333333333335 0.03333333333333335 0.03333333333333335 0.03333333333333335 0.03333333333333335 0.03333333333333335 0.03333333333333335 0.03333333333333335 0.06666666666666668 0.06666666666666668 0.06666666666666668 0.06666666666666668 0.06666666666666668 0.06666666666666668 0.06666666666666668 0.06666666666666668 0.06666666666666668 0.06666666666666668 0.06666666666666668 0.06666666666666668 0.06666666666666668 0.06666666666666668 0.06666666666666668 0.03333333333333335 0.03333333333333335 0.03333333333333335 0.03333333333333335 0.03333333333333335 0.03333333333333335 0.03333333333333335 0.03333333333333335 0.03333333333333335 0.03333333333333335 0.03333333333333335 0.03333333333333335 0.03333333333333335 0.03333333333333335 0.5333333333333333 0.03333333333333335 0.03333333333333335 0.03333333333333335 0.03333333333333335 0.03333333333333335 0.03333333333333335 0.03333333333333335 0.03333333333333335 0.03333333333333335 0.03333333333333335 0.03333333333333335 0.03333333333333335 0.03333333333333335 0.03333333333333335 0.5333333333333333 0.1185185185185185 0.007407407407407412 0.4518518518518519 0.007407407407407412 0.007407407407407412 0.1185185185185185 0.007407407407407412 0.007407407407407412 0.007407407407407412 0.007407407407407412 0.007407407407407412 0.007407407407407412 0.007407407407407412 0.007407407407407412 0.2296296296296297 0.07111111111111112 0.004444444444444447 0.3377777777777778 0.07111111111111112 0.004444444444444447 0.004444444444444447 0.004444444444444447 0.004444444444444447 0.004444444444444447 0.07111111111111112 0.004444444444444447 0.004444444444444447 0.07111111111111112 0.07111111111111112 0.2711111111111111 0.01333333333333334 0.01333333333333334 0.01333333333333334 0.01333333333333334 0.01333333333333334 0.01333333333333334 0.01333333333333334 0.01333333333333334 0.01333333333333334 0.01333333333333334 0.01333333333333334 0.01333333333333334 0.01333333333333334 0.01333333333333334 0.8133333333333334 0.02222222222222223 0.02222222222222223 0.02222222222222223 0.02222222222222223 0.02222222222222223 0.02222222222222223 0.02222222222222223 0.02222222222222223 0.02222222222222223 0.02222222222222223 0.3555555555555555 0.02222222222222223 0.02222222222222223 0.02222222222222223 0.3555555555555555 0.03333333333333335 0.03333333333333335 0.03333333333333335 0.03333333333333335 0.03333333333333335 0.03333333333333335 0.03333333333333335 0.03333333333333335 0.03333333333333335 0.03333333333333335 0.03333333333333335 0.03333333333333335 0.03333333333333335 0.03333333333333335 0.5333333333333333 0.03333333333333335 0.03333333333333335 0.03333333333333335 0.03333333333333335 0.03333333333333335 0.03333333333333335 0.03333333333333335 0.03333333333333335 0.03333333333333335 0.03333333333333335 0.03333333333333335 0.03333333333333335 0.03333333333333335 0.03333333333333335 0.5333333333333333 0.06666666666666668 0.06666666666666668 0.06666666666666668 0.06666666666666668 0.06666666666666668 0.06666666666666668 0.06666666666666668 0.06666666666666668 0.06666666666666668 0.06666666666666668 0.06666666666666668 0.06666666666666668 0.06666666666666668 0.06666666666666668 0.06666666666666668 0.06666666666666668 0.06666666666666668 0.06666666666666668 0.06666666666666668 0.06666666666666668 0.06666666666666668 0.06666666666666668 0.06666666666666668 0.06666666666666668 0.06666666666666668 0.06666666666666668 0.06666666666666668 0.06666666666666668 0.06666666666666668 0.06666666666666668 0.06666666666666668 0.06666666666666668 0.06666666666666668 0.06666666666666668 0.06666666666666668 0.06666666666666668 0.06666666666666668 0.06666666666666668 0.06666666666666668 0.06666666666666668 0.06666666666666668 0.06666666666666668 0.06666666666666668 0.06666666666666668 0.06666666666666668 0.03333333333333335 0.03333333333333335 0.03333333333333335 0.03333333333333335 0.03333333333333335 0.03333333333333335 0.03333333333333335 0.03333333333333335 0.03333333333333335 0.03333333333333335 0.03333333333333335 0.03333333333333335 0.03333333333333335 0.03333333333333335 0.5333333333333333 0.06666666666666668 0.06666666666666668 0.06666666666666668 0.06666666666666668 0.06666666666666668 0.06666666666666668 0.06666666666666668 0.06666666666666668 0.06666666666666668 0.06666666666666668 0.06666666666666668 0.06666666666666668 0.06666666666666668 0.06666666666666668 0.06666666666666668 0.06666666666666668 0.06666666666666668 0.06666666666666668 0.06666666666666668 0.06666666666666668 0.06666666666666668 0.06666666666666668 0.06666666666666668 0.06666666666666668 0.06666666666666668 0.06666666666666668 0.06666666666666668 0.06666666666666668 0.06666666666666668 0.06666666666666668 0.03333333333333335 0.03333333333333335 0.03333333333333335 0.03333333333333335 0.03333333333333335 0.03333333333333335 0.03333333333333335 0.03333333333333335 0.03333333333333335 0.03333333333333335 0.03333333333333335 0.03333333333333335 0.03333333333333335 0.03333333333333335 0.5333333333333333 0.06666666666666668 0.06666666666666668 0.06666666666666668 0.06666666666666668 0.06666666666666668 0.06666666666666668 0.06666666666666668 0.06666666666666668 0.06666666666666668 0.06666666666666668 0.06666666666666668 0.06666666666666668 0.06666666666666668 0.06666666666666668 0.06666666666666668 0.06666666666666668 0.06666666666666668 0.06666666666666668 0.06666666666666668 0.06666666666666668 0.06666666666666668 0.06666666666666668 