<?xml version="1.0" encoding="ISO-8859-1"?>
<!-- This network was created in GeNIe Academic, which can be used for educational and research purposes only -->
<smile version="1.0" id="Unnamed" numsamples="10000" discsamples="10000">
	<nodes>
		<cpt id="OA_MAIS">
			<state id="State0" />
			<state id="State1" />
			<state id="State2" />
			<state id="State3" />
			<state id="State4" />
			<state id="State5" />
			<state id="State6" />
			<probabilities>0.3811259559020441 0.4589743208260182 0.07900139851816584 0.04947629958044453 0.01568125688100693 0.01130716814949266 0.004433600142827386</probabilities>
		</cpt>
		<cpt id="GV_CURBWGT">
			<state id="s01_below_885" />
			<state id="s02_885_1035" />
			<state id="s03_1035_1255" />
			<state id="s04_1255_1475" />
			<state id="s05_1475_1695" />
			<state id="s06_1695_1855" />
			<state id="s07_1855_2075" />
			<state id="s08_2075_2255" />
			<state id="s09_2255_2555" />
			<state id="s10_2555_2795" />
			<state id="s11_2795_3165" />
			<state id="s12_3165_3455" />
			<state id="s13_3455_3715" />
			<state id="s14_3715_4095" />
			<state id="s15_4095_up" />
			<parents>OA_MAIS</parents>
			<probabilities>0.0006921675774134792 0.004653916211293262 0.1582058287795993 0.2196812386156649 0.2493260473588343 0.1039708561020037 0.115856102003643 0.05561020036429874 0.05943533697632059 0.02200364298724955 0.007795992714025503 0.001785063752276867 0.0004189435336976322 0.0005555555555555557 9.10746812386157e-06 0.001028549820381924 0.007948572508980902 0.1741425600302514 0.236082435242957 0.2486746076763093 0.1058498771034222 0.1068708640574778 0.04776706371714879 0.04629230478351294 0.01634335413121573 0.00726791453961051 0.001028549820381924 0.0002344488561164681 0.0002344488561164681 0.0002344488561164681 4.391743522178306e-05 0.007949055775142733 0.1943785682916118 0.243126921387791 0.2385155906895038 0.0995169082125604 0.09688186209925342 0.04418093983311375 0.05010979358805447 0.01848924022837067 0.004655248133509004 0.001361440491875275 4.391743522178306e-05 4.391743522178306e-05 0.0007026789635485289 7.010164738871364e-05 0.01373992288818787 0.2051174202593761 0.2345601121626358 0.2503329828250964 0.09891342446547494 0.08734665264633719 0.04528566421310901 0.04002804065895549 0.01373992288818787 0.00637924991237294 0.002173151069050123 0.001121626358219418 7.010164738871364e-05 0.001121626358219418 0.003532008830022075 0.01015452538631347 0.2154525386313466 0.2353200883002208 0.2452538631346579 0.1260485651214128 0.07969094922737308 0.03002207505518764 0.03333333333333334 0.02008830022075055 0.0002207505518763798 0.0002207505518763798 0.0002207505518763798 0.0002207505518763798 0.0002207505518763798 0.0003058103975535169 0.00489296636085627 0.2113149847094802 0.3168195718654434 0.2388379204892967 0.1058103975535168 0.07370030581039756 0.01865443425076452 0.01406727828746178 0.00489296636085627 0.009480122324159023 0.0003058103975535169 0.0003058103975535169 0.0003058103975535169 0.0003058103975535169 0.0007751937984496125 0.0007751937984496125 0.1751937984496124 0.210077519379845 0.337984496124031 0.09379844961240309 0.05891472868217054 0.03565891472868217 0.03565891472868217 0.04728682170542636 0.0007751937984496125 0.0007751937984496125 0.0007751937984496125 0.0007751937984496125 0.0007751937984496125</probabilities>
		</cpt>
		<cpt id="GV_DVLAT">
			<state id="s01_below_n104" />
			<state id="s03_n95_n86" />
			<state id="s04_n86_n76" />
			<state id="s05_n76_n67" />
			<state id="s06_n67_n58" />
			<state id="s07_n58_n49" />
			<state id="s08_n49_n39" />
			<state id="s09_n39_n30" />
			<state id="s10_n30_n21" />
			<state id="s11_n21_n11" />
			<state id="s12_n11_n2" />
			<state id="s13_n2_6" />
			<state id="s14_6_15" />
			<state id="s15_15_25" />
			<state id="s16_25_34" />
			<state id="s17_34_43" />
			<state id="s18_43_53" />
			<state id="s19_53_62" />
			<state id="s20_62_71" />
			<state id="s21_71_80" />
			<state id="s22_80_90" />
			<state id="s25_108_up" />
			<parents>OA_MAIS</parents>
			<probabilities>6.209637357178344e-06 0.0002794336810730253 6.209637357178344e-06 6.209637357178344e-06 0.0004160457029309488 0.0005526577247888724 0.001782165921510184 0.005743914555389965 0.01571659215101838 0.06913189269746647 0.182519870839543 0.5032848981619473 0.1612083954297069 0.04672752111276702 0.009569051167411823 0.002465226030799802 0.0004160457029309488 6.209637357178344e-06 6.209637357178344e-06 0.0001428216592151018 6.209637357178344e-06 6.209637357178344e-06 0.0001185994946630228 0.0001185994946630228 5.156499767957514e-06 5.156499767957514e-06 0.000232042489558088 0.0005723714742432839 0.002387459392564328 0.01134945598927448 0.02825246222863921 0.09892744804826487 0.1804929613778168 0.4163409477646575 0.1769762285360698 0.06750373846233178 0.01214355695353994 0.003181560356829785 0.00113958644871861 5.156499767957514e-06 5.156499767957514e-06 5.156499767957514e-06 0.0001185994946630228 0.0001185994946630228 2.994370583303392e-05 0.001347466762486526 0.001347466762486526 2.994370583303392e-05 2.994370583303392e-05 0.002006228290813272 0.003982512875793509 0.01913402802730866 0.03560306623547731 0.09291531919990419 0.1574739489759253 0.3722302072104444 0.1844831716373219 0.08501018085998324 0.02835668942388311 0.009911366630734221 0.003982512875793509 2.994370583303392e-05 0.001347466762486526 0.0006887052341597797 2.994370583303392e-05 2.994370583303392e-05 0.001099321288595737 4.779657776503205e-05 4.779657776503205e-05 4.779657776503205e-05 0.003202370710257146 0.005305420131918556 0.009511518975241374 0.0158206672402256 0.02843896377019406 0.08522129815505211 0.1167670394799733 0.3396902781760827 0.1872191951056305 0.1157155147691425 0.05367555683013097 0.02423286492687124 0.007408469553579966 0.002150845999426442 0.003202370710257146 4.779657776503205e-05 0.001099321288595737 4.779657776503205e-05 0.0001505117399157135 0.0001505117399157135 0.0001505117399157135 0.0001505117399157135 0.0001505117399157135 0.02001806140878988 0.02332931968693558 0.04319686935580975 0.03657435279951836 0.06637567730282962 0.05975316074653823 0.2782962071041541 0.1624021673690548 0.1259783263094521 0.1027995183624323 0.04981938591210114 0.01670680313064419 0.0100842865743528 0.0001505117399157135 0.003461770018061408 0.0001505117399157135 0.0001505117399157135 0.0002085070892410343 0.0002085070892410343 0.0002085070892410343 0.0002085070892410343 0.01855713094245205 0.00938281901584654 0.0323185988323603 0.03690575479566306 0.04149291075896581 0.07360300250208508 0.09653878231859885 0.261676396997498 0.1240617180984154 0.1148874061718099 0.07819015846538784 0.07360300250208508 0.02773144286905755 0.0002085070892410343 0.00938281901584654 0.0002085070892410343 0.0002085070892410343 0.0002085070892410343 0.0005285412262156451 0.01215644820295983 0.02378435517970402 0.01215644820295983 0.0354122621564482 0.01215644820295983 0.02378435517970402 0.02378435517970402 0.04704016913319239 0.07029598308668077 0.08192389006342495 0.3609936575052854 0.1051797040169133 0.09355179704016912 0.07029598308668077 0.0005285412262156451 0.02378435517970402 0.0005285412262156451 0.0005285412262156451 0.0005285412262156451 0.0005285412262156451 0.0005285412262156451</probabilities>
		</cpt>
		<cpt id="GV_DVLONG">
			<state id="s01_below_n139" />
			<state id="s02_n139_n125" />
			<state id="s03_n125_n112" />
			<state id="s04_n112_n91" />
			<state id="s05_n91_n81" />
			<state id="s06_n81_n72" />
			<state id="s07_n72_n64" />
			<state id="s08_n64_n54" />
			<state id="s09_n54_n48" />
			<state id="s10_n48_n40" />
			<state id="s11_n40_n30" />
			<state id="s12_n30_n20" />
			<state id="s13_n20_n14" />
			<state id="s14_n14_n6" />
			<state id="s15_n6_0" />
			<state id="s16_0_7" />
			<state id="s17_7_15" />
			<state id="s18_15_25" />
			<state id="s19_25_35" />
			<state id="s20_35_43" />
			<state id="s21_43_54" />
			<state id="s22_54_58" />
			<state id="s23_58_71" />
			<state id="s24_71_81" />
			<state id="s25_81_up" />
			<parents>OA_MAIS</parents>
			<probabilities>5.46448087431694e-06 5.46448087431694e-06 5.46448087431694e-06 5.46448087431694e-06 0.0004153005464480875 0.0004153005464480875 0.0008251366120218581 0.002327868852459017 0.002191256830601093 0.01161748633879782 0.03757377049180329 0.143448087431694 0.1907158469945356 0.341808743169399 0.1270546448087432 0.02418579234972678 0.03907650273224045 0.0439945355191257 0.02131693989071038 0.007928961748633881 0.003557377049180329 0.0004153005464480875 0.001098360655737705 5.46448087431694e-06 5.46448087431694e-06 4.537719795802608e-06 4.537719795802608e-06 4.537719795802608e-06 0.0001179807146908678 0.0004583096993760635 0.0005717526942711288 0.001479296653431651 0.006584231423709586 0.006584231423709586 0.02042427680090754 0.07328871242200793 0.2001179807146909 0.2045422575155984 0.2527555303460011 0.09223369256948383 0.02065116279069767 0.02859217243335224 0.04549517867271696 0.02666364152013613 0.01236982416335791 0.004655700510493477 0.000685195689166194 0.001592739648326716 4.537719795802608e-06 0.0001179807146908678 0.0006851119894598155 2.635046113306982e-05 2.635046113306982e-05 0.0006851119894598155 2.635046113306982e-05 0.003978919631093544 0.009907773386034253 0.02176548089591568 0.03032938076416337 0.04745718050065876 0.1258498023715415 0.238498023715415 0.1825032938076416 0.199631093544137 0.06458498023715414 0.009907773386034253 0.01320158102766798 0.01451910408432147 0.01386034255599473 0.009249011857707509 0.008590250329380763 0.001343873517786561 0.002661396574440052 0.0006851119894598155 2.635046113306982e-05 4.206098843322817e-05 0.001093585699263933 4.206098843322817e-05 0.003196635120925342 0.003196635120925342 0.009505783385909568 0.02948475289169295 0.05577287066246057 0.04736067297581493 0.0841640378548896 0.1546161934805468 0.2187592008412197 0.1367402733964248 0.1514616193480547 0.04105152471083071 0.02212407991587802 0.01160883280757098 0.009505783385909568 0.007402733964248159 0.001093585699263933 0.008454258675078864 0.001093585699263933 0.002145110410094637 4.206098843322817e-05 4.206098843322817e-05 0.0001324503311258278 0.0001324503311258278 0.003443708609271523 0.01337748344370861 0.01337748344370861 0.0166887417218543 0.02662251655629138 0.03986754966887417 0.03986754966887417 0.0829139072847682 0.1094039735099338 0.2087417218543046 0.09284768211920529 0.1855629139072847 0.06635761589403973 0.04317880794701986 0.02331125827814569 0.003443708609271523 0.01337748344370861 0.01006622516556291 0.003443708609271523 0.0001324503311258278 0.003443708609271523 0.0001324503311258278 0.0001324503311258278 0.009357798165137616 0.01394495412844037 0.0001834862385321101 0.01853211009174312 0.01853211009174312 0.03229357798165138 0.02311926605504587 0.05981651376146789 0.04605504587155963 0.05522935779816514 0.09651376146788991 0.224954128440367 0.09192660550458716 0.1240366972477064 0.05064220183486239 0.05522935779816514 0.01853211009174312 0.01853211009174312 0.009357798165137616 0.009357798165137616 0.009357798165137616 0.004770642201834862 0.004770642201834862 0.004770642201834862 0.0001834862385321101 0.0004651162790697674 0.0004651162790697674 0.0004651162790697674 0.0004651162790697674 0.03534883720930233 0.1051162790697674 0.08186046511627908 0.1167441860465116 0.04697674418604652 0.08186046511627908 0.1283720930232558 0.1051162790697674 0.08186046511627908 0.04697674418604652 0.04697674418604652 0.04697674418604652 0.03534883720930233 0.0004651162790697674 0.01209302325581395 0.01209302325581395 0.0004651162790697674 0.01209302325581395 0.0004651162790697674 0.0004651162790697674 0.0004651162790697674</probabilities>
		</cpt>
		<cpt id="GV_ENERGY">
			<state id="s01_below_79" />
			<state id="s02_79_105" />
			<state id="s03_105_131" />
			<state id="s04_131_160" />
			<state id="s05_160_192" />
			<state id="s06_192_230" />
			<state id="s07_230_274" />
			<state id="s08_274_324" />
			<state id="s09_324_383" />
			<state id="s10_383_461" />
			<state id="s11_461_562" />
			<state id="s12_562_708" />
			<state id="s13_708_924" />
			<state id="s14_924_1401" />
			<state id="s15_1401_up" />
			<parents>OA_MAIS</parents>
			<probabilities>0.1084790528233151 0.09946265938069218 0.09071948998178507 0.0833424408014572 0.08129326047358836 0.07951730418943534 0.06612932604735883 0.06681238615664845 0.05998178506375228 0.05970856102003643 0.05793260473588342 0.04659380692167577 0.04112932604735883 0.03716757741347905 0.0217304189435337 0.04640574777840801 0.05843070523728493 0.06274153904329741 0.06830024579315559 0.06637171487993949 0.07045566269616184 0.0731782945736434 0.07283796558895821 0.0757874834562299 0.0757874834562299 0.07283796558895821 0.07646814142560029 0.07295140858385327 0.06659860086972962 0.04084704102854981 0.01585419411506368 0.0290294246815986 0.02507685551163813 0.0375933245498463 0.05274483970136145 0.04022837066315328 0.05537988581466843 0.07250768555116383 0.07184892402283707 0.07053140096618359 0.07975406236275803 0.09556433904259994 0.1047870004391744 0.1113746157224418 0.1377250768555117 0.005327725201542237 0.008482299334034351 0.0189975464423414 0.01163687346652647 0.01794602173151069 0.02740974412898704 0.0400280406589555 0.0410795653697862 0.05159481247809325 0.05369786189975466 0.06947073256221523 0.0883981773571679 0.1294076410795654 0.1767262530669471 0.2597967052225728 0.003532008830022075 0.006843267108167771 0.01015452538631347 0.006843267108167771 0.02339955849889625 0.01346578366445916 0.01677704194260485 0.02671081677704194 0.02008830022075055 0.05982339955849889 0.04988962472406181 0.07637969094922738 0.11280353200883 0.1856512141280353 0.3876379690949227 0.0003058103975535169 0.0003058103975535169 0.00489296636085627 0.0003058103975535169 0.01406727828746178 0.02324159021406728 0.02782874617737003 0.01406727828746178 0.02782874617737003 0.05076452599388379 0.04617737003058104 0.04617737003058104 0.07828746177370031 0.1149847094801223 0.5507645259938838 0.0007751937984496125 0.0124031007751938 0.0124031007751938 0.0007751937984496125 0.0124031007751938 0.0007751937984496125 0.0007751937984496125 0.0124031007751938 0.0007751937984496125 0.0124031007751938 0.0124031007751938 0.02403100775193799 0.0124031007751938 0.08217054263565891 0.8031007751937984</probabilities>
		</cpt>
		<cpt id="GV_LANES">
			<state id="s1_below_1" />
			<state id="s2_1_2" />
			<state id="s3_2_3" />
			<state id="s4_3_4" />
			<state id="s5_4_5" />
			<state id="s6_5_6" />
			<state id="s7_6_up" />
			<parents>OA_MAIS</parents>
			<probabilities>0.02570257611241218 0.3732435597189696 0.1838992974238876 0.2017954722872756 0.1623145979703357 0.03403590944574551 0.01900858704137393 0.01771331334575804 0.3697269265051455 0.1858358317802447 0.2104529616724739 0.1604246009237501 0.03438943359533263 0.02145693217729519 0.01458686241294937 0.4170901562205911 0.1832298136645963 0.1964050442311313 0.1325051759834369 0.03500846979107849 0.02117447769621683 0.01066546492414 0.4533573681838666 0.1557758750187772 0.1883731410545291 0.1357969055129938 0.0327474838515848 0.02328376145410846 0.02696310312204351 0.4971617786187322 0.2024597918637654 0.1461684011352885 0.08987701040681172 0.02696310312204351 0.01040681173131504 0.0235910878112713 0.4777195281782438 0.1428571428571428 0.2437745740498034 0.07863695937090433 0.02817824377457405 0.005242463958060288 0.001661129568106313 0.4667774086378738 0.2109634551495017 0.1877076411960133 0.07142857142857144 0.0132890365448505 0.04817275747508306</probabilities>
		</cpt>
		<cpt id="GV_MODELYR">
			<state id="s01_below_2000" />
			<state id="s02_2000_2001" />
			<state id="s03_2001_2002" />
			<state id="s04_2002_2003" />
			<state id="s05_2003_2004" />
			<state id="s06_2004_2005" />
			<state id="s07_2005_2006" />
			<state id="s08_2006_2007" />
			<state id="s09_2007_2008" />
			<state id="s10_2008_2009" />
			<state id="s11_2009_2010" />
			<state id="s12_2010_2011" />
			<state id="s13_2011_up" />
			<parents>OA_MAIS</parents>
			<probabilities>0.1302017654476671 0.1274695250105086 0.1343001261034048 0.1172236233711643 0.1058848255569567 0.1011034047919294 0.08949138293400587 0.07473728457335013 0.05807061790668347 0.02924548129466161 0.02173182009247582 0.009436738125262713 0.001103404791929382 0.1401108250796282 0.1312622714778131 0.1390898381255726 0.122300274881103 0.1120904053405471 0.09881757493782449 0.07714996291286703 0.0720450281425891 0.05729743880623063 0.02666783018456302 0.01634451764911209 0.006588420088136479 0.0002356123740128277 0.143660687138948 0.1594709638187899 0.1390493564406608 0.1377318333840073 0.08634843417452112 0.08239586500456066 0.07185568055133273 0.07646701124961995 0.0455052194182629 0.03167122732340124 0.01981351981351982 0.005979527718658154 5.067396371744199e-05 0.1746339885141147 0.166221790827469 0.1472943460325164 0.1315214753700558 0.09156353635848904 0.1115425058642724 0.05686322090107579 0.06106931974439861 0.03372967726280029 0.01480223246784761 0.006390034781201973 0.004286985359540564 8.088651621774651e-05 0.1591951095262353 0.1260825267447784 0.1558838512480896 0.1459500764136526 0.1128374936321956 0.07972491085073866 0.08303616912888435 0.05654610290371879 0.03005603667855323 0.02012226184411614 0.02012226184411614 0.01018848700967906 0.0002547121752419766 0.1746647847565279 0.1654904728299224 0.1838390966831334 0.1150317572335921 0.1012702893436838 0.1058574453069866 0.05081157374735355 0.05998588567395906 0.02328863796753704 0.0003528581510232887 0.0187014820042343 0.0003528581510232887 0.0003528581510232887 0.1404293381037567 0.1520572450805009 0.1404293381037567 0.1055456171735241 0.1288014311270125 0.08228980322003578 0.08228980322003578 0.07066189624329158 0.03577817531305903 0.03577817531305903 0.02415026833631485 0.0008944543828264761 0.0008944543828264761</probabilities>
		</cpt>
		<cpt id="GV_OTVEHWGT">
			<state id="s01_below_760" />
			<state id="s02_760_1135" />
			<state id="s03_1135_1355" />
			<state id="s04_1355_1595" />
			<state id="s05_1595_1775" />
			<state id="s06_1775_2075" />
			<state id="s07_2075_2295" />
			<state id="s08_2295_2495" />
			<state id="s09_2495_2835" />
			<state id="s10_2835_3055" />
			<state id="s11_3055_3320" />
			<state id="s12_3320_3730" />
			<state id="s13_3730_4035" />
			<state id="s14_4035_4320" />
			<state id="s15_4320_up" />
			<parents>OA_MAIS</parents>
			<probabilities>0.0008287795992714027 0.08511839708561023 0.1889435336976321 0.2952276867030966 0.1430418943533698 0.1689981785063752 0.05233151183970857 0.0356648451730419 0.02282331511839709 0.004107468123861567 0.001921675774134791 0.0004189435336976322 0.0002823315118397087 9.10746812386157e-06 0.0002823315118397087 0.0009151068254868593 0.07522026848175457 0.1829911136320665 0.2901947438079031 0.1377273586689355 0.178566836831159 0.06251465305350727 0.03528833427869162 0.02689355265645679 0.005339383626394403 0.002389865759122707 0.0008016638305917941 0.0004613348459065985 0.0003478918510115333 0.0003478918510115333 0.0007026789635485288 0.06592007026789636 0.154852876592007 0.2925340360122969 0.1219148001756697 0.1976723759332455 0.07448397013614405 0.04813350900307422 0.03364075537988582 0.004655248133509003 0.003996486605182257 0.0007026789635485288 0.0007026789635485288 4.391743522178306e-05 4.391743522178306e-05 7.010164738871364e-05 0.04633718892393972 0.1188923939712583 0.2934454959691553 0.1577988082719944 0.1882930248860848 0.08524360322467578 0.04844023834560112 0.0421310900806169 0.007430774623203645 0.00637924991237294 0.002173151069050123 7.010164738871364e-05 7.010164738871364e-05 0.003224675779880827 0.0002207505518763798 0.03995584988962473 0.1094922737306843 0.222075055187638 0.1525386313465784 0.2353200883002208 0.09293598233995586 0.0631346578366446 0.04988962472406182 0.006843267108167772 0.01346578366445916 0.003532008830022075 0.0002207505518763798 0.003532008830022075 0.006843267108167772 0.0003058103975535169 0.03241590214067278 0.1012232415902141 0.2480122324159022 0.1654434250764526 0.1975535168195719 0.1012232415902141 0.06911314984709481 0.04617737003058104 0.01406727828746178 0.01406727828746178 0.0003058103975535169 0.009480122324159023 0.0003058103975535169 0.0003058103975535169 0.0007751937984496126 0.0007751937984496126 0.1170542635658915 0.2449612403100775 0.1286821705426357 0.2333333333333334 0.09379844961240311 0.07054263565891473 0.07054263565891473 0.0007751937984496126 0.03565891472868218 0.0007751937984496126 0.0007751937984496126 0.0007751937984496126 0.0007751937984496126</probabilities>
		</cpt>
		<cpt id="GV_SPLIMIT">
			<state id="s1_below_10" />
			<state id="s2_10_20" />
			<state id="s3_20_30" />
			<state id="s4_30_40" />
			<state id="s5_40_50" />
			<state id="s6_50_60" />
			<state id="s7_60_70" />
			<state id="s8_70_up" />
			<parents>OA_MAIS</parents>
			<probabilities>0.006984289617486338 0.004115437158469945 0.1013831967213115 0.37911543715847 0.3127219945355191 0.130891393442623 0.04359631147540984 0.02119193989071038 0.006026659103800341 0.002850255246738514 0.08804594441293251 0.3529353374929098 0.3355785592739648 0.1547504254112309 0.0407402155416903 0.01907260351673284 0.006669960474308301 0.001399868247694335 0.07254611330698288 0.3176054018445323 0.3327569169960474 0.1878293807641634 0.05673583662714098 0.02445652173913044 0.00538906414300736 0.002234490010515247 0.05165615141955836 0.2787854889589905 0.348186119873817 0.2241062039957939 0.0632229232386961 0.02641955835962145 0.01365894039735099 0.003725165562913907 0.07326158940397351 0.2752483443708609 0.3083609271523179 0.2222682119205298 0.05670529801324503 0.04677152317880795 0.009747706422018349 0.005160550458715597 0.05103211009174312 0.2345183486238532 0.330848623853211 0.2620412844036697 0.08314220183486239 0.02350917431192661 0.001453488372093023 0.001453488372093023 0.01308139534883721 0.1875 0.3502906976744186 0.3386627906976744 0.08284883720930232 0.02470930232558139</probabilities>
		</cpt>
		<cpt id="GV_WGTCDTR">
			<state id="SPassenger_Car" />
			<state id="STruck____10000_lbs__" />
			<state id="STruck____6000_lbs__" />
			<parents>OA_MAIS</parents>
			<probabilities>0.5944444444444446 0.1462204007285975 0.2593351548269581 0.6207978823974286 0.1148421251654377 0.2643599924371337 0.6194554238032499 0.1181379007465964 0.2624066754501537 0.639677532422012 0.1160182264283211 0.244304241149667 0.6997792494481236 0.07726269315673288 0.2229580573951435 0.7217125382262997 0.07033639143730887 0.2079510703363914 0.7131782945736435 0.06201550387596899 0.2248062015503876</probabilities>
		</cpt>
		<cpt id="OA_AGE">
			<state id="s01_below_10" />
			<state id="s02_10_20" />
			<state id="s03_20_30" />
			<state id="s04_30_40" />
			<state id="s05_40_50" />
			<state id="s06_50_60" />
			<state id="s07_60_70" />
			<state id="s08_70_80" />
			<state id="s09_80_90" />
			<state id="s10_90_up" />
			<parents>OA_MAIS</parents>
			<probabilities>0.0001502732240437158 0.1035655737704918 0.2709153005464481 0.1953688524590164 0.1724180327868852 0.1233743169398907 0.07282786885245902 0.0425 0.01654371584699453 0.002336065573770492 0.0001247872943845718 0.0848667044809983 0.2560521837776517 0.1959273964832672 0.1803857061826432 0.136596710153148 0.07828701077708453 0.04731707317073171 0.01941009642654566 0.001032331253545094 6.587615283267459e-05 0.06923583662714097 0.2523715415019763 0.1667325428194993 0.1739789196310936 0.14433465085639 0.100197628458498 0.05079051383399209 0.03893280632411068 0.003359683794466403 0.0001051524710830705 0.07266035751840168 0.2125131440588854 0.1820189274447949 0.1651945320715037 0.1683491062039958 0.09053627760252365 0.05478443743427971 0.0526813880126183 0.001156677181913775 0.0003311258278145696 0.08311258278145696 0.2122516556291391 0.1195364238410596 0.1526490066225166 0.126158940397351 0.1294701986754967 0.1162251655629139 0.05662251655629139 0.003642384105960265 0.0004587155963302754 0.08302752293577982 0.1977064220183486 0.1243119266055046 0.1564220183486239 0.1426605504587156 0.05550458715596331 0.1380733944954129 0.09220183486238533 0.00963302752293578 0.001162790697674419 0.05930232558139534 0.1872093023255814 0.1988372093023256 0.1406976744186046 0.2104651162790698 0.08255813953488371 0.05930232558139534 0.04767441860465116 0.01279069767441861</probabilities>
		</cpt>
		<cpt id="OA_BAGDEPLY">
			<state id="Deployed" />
			<state id="SNot_Deployed" />
			<parents>OA_MAIS</parents>
			<probabilities>0.2935109289617486 0.7064890710382513 0.5297220646625072 0.4702779353374929 0.6940052700922267 0.3059947299077734 0.770241850683491 0.2297581493165089 0.6506622516556292 0.3493377483443709 0.6903669724770642 0.3096330275229358 0.8081395348837209 0.1918604651162791</probabilities>
		</cpt>
		<cpt id="OA_HEIGHT">
			<state id="s1_below_165" />
			<state id="s2_165_175" />
			<state id="s3_175_up" />
			<parents>OA_MAIS</parents>
			<probabilities>0.2257285974499089 0.3522313296903461 0.422040072859745 0.2969181319720174 0.3547740593685007 0.348307808659482 0.2558190601668863 0.3671497584541063 0.3770311813790075 0.244304241149667 0.347353662811076 0.4083420960392569 0.2726269315673289 0.3123620309050772 0.4150110375275938 0.235474006116208 0.3042813455657492 0.4602446483180428 0.1434108527131783 0.4573643410852714 0.3992248062015504</probabilities>
		</cpt>
		<cpt id="OA_SEX">
			<state id="Female" />
			<state id="Male" />
			<parents>OA_MAIS</parents>
			<probabilities>0.4247950819672131 0.5752049180327868 0.5647759500850823 0.4352240499149178 0.5135046113306984 0.4864953886693018 0.4978969505783385 0.5021030494216614 0.4619205298013245 0.5380794701986755 0.4105504587155964 0.5894495412844037 0.3430232558139535 0.6569767441860465</probabilities>
		</cpt>
		<cpt id="OA_WEIGHT">
			<state id="s01_below_57" />
			<state id="s02_57_61" />
			<state id="s03_61_66" />
			<state id="s04_66_73" />
			<state id="s05_73_77" />
			<state id="s06_77_82" />
			<state id="s07_82_86" />
			<state id="s08_86_93" />
			<state id="s09_93_104" />
			<state id="s10_104_up" />
			<parents>OA_MAIS</parents>
			<probabilities>0.09905737704918031 0.07542349726775956 0.09646174863387977 0.1276092896174863 0.09577868852459015 0.09509562841530053 0.1005601092896175 0.1302049180327869 0.08949453551912567 0.0903142076502732 0.1026772546795235 0.08429948950652298 0.0959841179807147 0.1292229154849688 0.08906409529211572 0.08804310833806013 0.08690867838910948 0.1152694271128758 0.09394214407260353 0.1145887691435054 0.09163372859025035 0.0679183135704875 0.08636363636363638 0.1258893280632411 0.09163372859025035 0.09756258234519105 0.09888010540184455 0.1166666666666667 0.09690382081686431 0.1265480895915679 0.08527865404837012 0.07266035751840168 0.09158780231335435 0.1084121976866456 0.08317560462670871 0.08738170347003153 0.09789695057833858 0.1273396424815983 0.1031545741324921 0.1431125131440589 0.09966887417218544 0.05 0.07649006622516556 0.1129139072847682 0.09966887417218544 0.08973509933774836 0.09635761589403974 0.1327814569536424 0.08973509933774836 0.1526490066225166 0.1013761467889908 0.05091743119266055 0.09678899082568808 0.09678899082568808 0.1059633027522936 0.07844036697247707 0.06926605504587156 0.1151376146788991 0.08302752293577982 0.2022935779816514 0.05930232558139534 0.04767441860465116 0.04767441860465116 0.1174418604651163 0.07093023255813953 0.0941860465116279 0.1058139534883721 0.07093023255813953 0.1174418604651163 0.2686046511627907</probabilities>
		</cpt>
		<cpt id="VE_PDOF_TR">
			<state id="s01_below_22" />
			<state id="s02_22_40" />
			<state id="s03_40_57" />
			<state id="s04_57_75" />
			<state id="s05_75_92" />
			<state id="s06_92_110" />
			<state id="s07_110_127" />
			<state id="s08_127_145" />
			<state id="s09_145_162" />
			<state id="s10_162_180" />
			<state id="s11_180_197" />
			<state id="s12_197_215" />
			<state id="s13_215_232" />
			<state id="s14_232_250" />
			<state id="s15_250_267" />
			<state id="s16_267_285" />
			<state id="s17_285_302" />
			<state id="s18_302_320" />
			<state id="s19_320_337" />
			<state id="s20_337_up" />
			<parents>OA_MAIS</parents>
			<probabilities>0.003558743169398907 0.007793715846994535 0.03047131147540984 0.02227459016393443 0.04713797814207651 0.0616188524590164 0.164077868852459 0.2333401639344262 0.1348428961748634 0.0744603825136612 0.05096311475409836 0.0267827868852459 0.02691939890710383 0.005471311475409836 0.002602459016393443 0.001919398907103825 0.005198087431693988 0.07282103825136611 0.02227459016393443 0.005471311475409836 0.003749290981281906 0.007719795802609189 0.02723199092456041 0.02723199092456041 0.04980714690867839 0.07102098695405558 0.1976233692569484 0.157010777084515 0.1421497447532615 0.0879239931934203 0.06466817923993193 0.02087918321043676 0.02439591605218378 0.00579126488939308 0.001934203062960862 0.0005728871242200794 0.00318207600680658 0.08349971639251276 0.01963131026659104 0.003976176971072036 0.002009222661396574 0.005961791831357049 0.03165349143610013 0.03099472990777339 0.06920289855072465 0.05800395256916996 0.2154479578392622 0.202931488801054 0.1284914361001318 0.09752964426877471 0.05207509881422925 0.02308959156785243 0.01979578392621871 0.003326745718050066 0.00266798418972332 0.000691699604743083 0.00266798418972332 0.04021739130434782 0.008596837944664032 0.004644268774703557 0.00110410094637224 0.01056782334384858 0.05262881177707675 0.03580441640378548 0.09258675078864352 0.07050473186119874 0.2050998948475289 0.2292849631966351 0.1199263932702418 0.06629863301787592 0.03685594111461619 0.02318611987381703 0.01792849631966351 0.005310199789695057 0.00110410094637224 5.257623554153521e-05 0.002155625657202944 0.02108307045215562 0.007413249211356466 0.00110410094637224 0.006788079470198675 0.01341059602649007 0.08294701986754967 0.06307947019867551 0.1193708609271523 0.08625827814569537 0.1392384105960265 0.1723509933774834 0.06639072847682119 0.03658940397350994 0.05645695364238411 0.03327814569536424 0.05976821192052981 0.01341059602649007 0.006788079470198675 0.0001655629139072847 0.006788079470198675 0.02334437086092715 0.006788079470198675 0.006788079470198675 0.0139908256880734 0.02775229357798165 0.05986238532110092 0.07821100917431194 0.0919724770642202 0.05068807339449542 0.1240825688073395 0.188302752293578 0.0919724770642202 0.05068807339449542 0.04151376146788991 0.05986238532110092 0.0231651376146789 0.01857798165137615 0.0002293577981651376 0.0002293577981651376 0.0002293577981651376 0.06444954128440368 0.009403669724770643 0.00481651376146789 0.0005813953488372092 0.0005813953488372092 0.03546511627906977 0.04709302325581395 0.07034883720930232 0.04709302325581395 0.09360465116279071 0.2796511627906977 0.1168604651162791 0.05872093023255814 0.05872093023255814 0.04709302325581395 0.05872093023255814 0.02383720930232558 0.0005813953488372092 0.0005813953488372092 0.0005813953488372092 0.05872093023255814 0.0005813953488372092 0.0005813953488372092</probabilities>
		</cpt>
		<cpt id="GV_FOOTPRINT">
			<state id="s1_below_3" />
			<state id="s2_3_4" />
			<state id="s3_4_5" />
			<state id="s4_5_6" />
			<state id="s5_6_up" />
			<parents>OA_MAIS</parents>
			<probabilities>0.01273224043715847 0.7266666666666668 0.1824043715846995 0.06765027322404372 0.0105464480874317 0.01533749290981282 0.7607714123652864 0.1673511060692002 0.04891661939875213 0.007623369256948384 0.01660079051383399 0.7610013175230566 0.1661396574440052 0.04953886693017127 0.006719367588932805 0.02124079915878023 0.7646687697160883 0.1547844374342797 0.05173501577287067 0.007570977917981073 0.02052980132450331 0.7688741721854305 0.1695364238410596 0.03377483443708609 0.007284768211920531 0.01009174311926606 0.8357798165137614 0.1155963302752294 0.03302752293577982 0.005504587155963303 0.01395348837209302 0.8046511627906976 0.1302325581395349 0.04883720930232557 0.002325581395348837</probabilities>
		</cpt>
	</nodes>
	<extensions>
		<genie version="1.0" app="GeNIe 2.3.3828.0 ACADEMIC" name="3 - vehicle_safety_final (Impute)" faultnameformat="nodestate">
			<node id="GV_CURBWGT">
				<name>GV_CURBWGT</name>
				<interior color="e5f6f7" />
				<outline color="000080" />
				<font color="000000" name="Arial" size="8" />
				<position>466 167 538 215</position>
			</node>
			<node id="GV_DVLAT">
				<name>GV_DVLAT</name>
				<interior color="e5f6f7" />
				<outline color="000080" />
				<font color="000000" name="Arial" size="8" />
				<position>449 221 521 269</position>
			</node>
			<node id="GV_DVLONG">
				<name>GV_DVLONG</name>
				<interior color="e5f6f7" />
				<outline color="000080" />
				<font color="000000" name="Arial" size="8" />
				<position>403 268 475 316</position>
			</node>
			<node id="GV_ENERGY">
				<name>GV_ENERGY</name>
				<interior color="e5f6f7" />
				<outline color="000080" />
				<font color="000000" name="Arial" size="8" />
				<position>333 299 405 347</position>
			</node>
			<node id="GV_LANES">
				<name>GV_LANES</name>
				<interior color="e5f6f7" />
				<outline color="000080" />
				<font color="000000" name="Arial" size="8" />
				<position>251 310 323 358</position>
			</node>
			<node id="GV_MODELYR">
				<name>GV_MODELYR</name>
				<interior color="e5f6f7" />
				<outline color="000080" />
				<font color="000000" name="Arial" size="8" />
				<position>169 299 241 347</position>
			</node>
			<node id="GV_OTVEHWGT">
				<name>GV_OTVEHWGT</name>
				<interior color="e5f6f7" />
				<outline color="000080" />
				<font color="000000" name="Arial" size="8" />
				<position>99 268 171 316</position>
			</node>
			<node id="GV_SPLIMIT">
				<name>GV_SPLIMIT</name>
				<interior color="e5f6f7" />
				<outline color="000080" />
				<font color="000000" name="Arial" size="8" />
				<position>53 221 125 269</position>
			</node>
			<node id="GV_WGTCDTR">
				<name>GV_WGTCDTR</name>
				<interior color="e5f6f7" />
				<outline color="000080" />
				<font color="000000" name="Arial" size="8" />
				<position>36 167 108 215</position>
			</node>
			<node id="OA_AGE">
				<name>OA_AGE</name>
				<interior color="e5f6f7" />
				<outline color="000080" />
				<font color="000000" name="Arial" size="8" />
				<position>53 113 125 161</position>
			</node>
			<node id="OA_BAGDEPLY">
				<name>OA_BAGDEPLY</name>
				<interior color="e5f6f7" />
				<outline color="000080" />
				<font color="000000" name="Arial" size="8" />
				<position>99 66 171 114</position>
			</node>
			<node id="OA_HEIGHT">
				<name>OA_HEIGHT</name>
				<interior color="e5f6f7" />
				<outline color="000080" />
				<font color="000000" name="Arial" size="8" />
				<position>169 35 241 83</position>
			</node>
			<node id="OA_MAIS">
				<name>OA_MAIS</name>
				<interior color="ffff80" />
				<outline color="000080" />
				<font color="000000" name="Arial" size="8" />
				<position>251 167 323 215</position>
			</node>
			<node id="OA_SEX">
				<name>OA_SEX</name>
				<interior color="e5f6f7" />
				<outline color="000080" />
				<font color="000000" name="Arial" size="8" />
				<position>251 24 323 72</position>
			</node>
			<node id="OA_WEIGHT">
				<name>OA_WEIGHT</name>
				<interior color="e5f6f7" />
				<outline color="000080" />
				<font color="000000" name="Arial" size="8" />
				<position>333 35 405 83</position>
			</node>
			<node id="VE_PDOF_TR">
				<name>VE_PDOF_TR</name>
				<interior color="e5f6f7" />
				<outline color="000080" />
				<font color="000000" name="Arial" size="8" />
				<position>403 66 475 114</position>
			</node>
			<node id="GV_FOOTPRINT">
				<name>GV_FOOTPRINT</name>
				<interior color="e5f6f7" />
				<outline color="000080" />
				<font color="000000" name="Arial" size="8" />
				<position>449 113 521 161</position>
			</node>
			<textbox>
				<caption>Input file: 3 - vehicle_safety_final (Impute)\nData rows: 19203\nElapsed time: 0.797s\n\nLearning algorithm: Naive Bayes\nAlgorithm parameters:\nClass variable: OA_MAIS\n\nEM Log Likelihood: -525700</caption>
				<font color="000000" name="Arial" size="8" />
				<position>10 378 211 504</position>
			</textbox>
		</genie>
	</extensions>
</smile>
