<?xml version="1.0" encoding="ISO-8859-1"?>
<!-- This network was created in GeNIe Academic, which can be used for educational and research purposes only -->
<smile version="1.0" id="Unnamed" numsamples="10000" discsamples="10000">
	<nodes>
		<cpt id="OA_MAIS">
			<state id="State0" />
			<state id="State1" />
			<state id="State2" />
			<state id="State3" />
			<state id="State4" />
			<state id="State5" />
			<state id="State6" />
			<probabilities>0.33908222624455 0.4925605910544951 0.08591464317020139 0.05316302949580502 0.0158692212242296 0.01037077513290758 0.003039513677811551</probabilities>
		</cpt>
		<cpt id="x__GV_CURBWGT">
			<state id="s01_below_770" />
			<state id="s02_770_885" />
			<state id="s03_885_975" />
			<state id="s04_975_1035" />
			<state id="s05_1035_1075" />
			<state id="s06_1075_1135" />
			<state id="s07_1135_1175" />
			<state id="s08_1175_1255" />
			<state id="s09_1255_1295" />
			<state id="s10_1295_1355" />
			<state id="s11_1355_1435" />
			<state id="s12_1435_1475" />
			<state id="s13_1475_1555" />
			<state id="s14_1555_1635" />
			<state id="s15_1635_1695" />
			<state id="s16_1695_1775" />
			<state id="s17_1775_1855" />
			<state id="s18_1855_1935" />
			<state id="s19_1935_1995" />
			<state id="s20_1995_2075" />
			<state id="s21_2075_2155" />
			<state id="s22_2155_2215" />
			<state id="s23_2215_2255" />
			<state id="s24_2255_2315" />
			<state id="s25_2315_2395" />
			<state id="s26_2395_2455" />
			<state id="s27_2455_2515" />
			<state id="s28_2515_2595" />
			<state id="s29_2595_2675" />
			<state id="s30_2675_2755" />
			<state id="s31_2755_2815" />
			<state id="s32_2815_2875" />
			<state id="s33_2875_2980" />
			<state id="s34_2980_3070" />
			<state id="s35_3070_3160" />
			<state id="s36_3160_3200" />
			<state id="s37_3200_3285" />
			<state id="s38_3285_3335" />
			<state id="s39_3335_3445" />
			<state id="s40_3445_3760" />
			<state id="s41_3760_4080" />
			<state id="s42_4080_4210" />
			<state id="s43_4210_4280" />
			<state id="s44_4280_up" />
			<parents>OA_MAIS</parents>
			<probabilities>5.34005468215995e-06 0.0004752648667122353 0.001650076896787423 0.002354964114832536 0.01104857313738893 0.02984556561859194 0.03900909945317841 0.07989255809979495 0.02232676862611073 0.03877413704716337 0.105033535543404 0.0533418062200957 0.1170166182501709 0.1064433099794942 0.03383992652084758 0.0477027084757348 0.05193203178400548 0.04981737012987014 0.0296106032125769 0.03454481373889269 0.03243015208475736 0.01222338516746412 0.011518497949419 0.01245834757347915 0.01833240772385509 0.01269330997949419 0.006584287423103214 0.01433804682159946 0.008229024265208478 0.005644437799043063 0.002120001708817499 0.001180152084757348 0.003294813738892687 0.001180152084757348 0.0009451896787423104 5.34005468215995e-06 0.0009451896787423104 0.0002403024606971976 5.34005468215995e-06 0.0004752648667122353 0.0004752648667122353 5.34005468215995e-06 5.34005468215995e-06 5.34005468215995e-06 0.0003271962589335608 0.0004889562071703775 0.003077115378959443 0.004856474809564425 0.0144003117555366 0.03122334637216553 0.05241389959118849 0.08363356960089409 0.03041454663098144 0.04497294197229493 0.105794682509338 0.05888429752066116 0.1274705155730714 0.09172156701273493 0.03235566600982324 0.03914958383576954 0.05872253757242434 0.04545822181700538 0.03187038616511279 0.02944398694156055 0.02717934766624511 0.007444633981353491 0.01132687273903709 0.01181215258374754 0.01423855180729978 0.008253433722537572 0.007444633981353491 0.006474074291932591 0.005503514602511692 0.003885915120143526 0.001944795741301727 0.002106555689538543 0.00129775594835446 0.001459515896591277 0.00129775594835446 0.0001654363106967442 0.0006507161554071939 3.676362459927652e-06 0.0003271962589335608 0.0001654363106967442 3.676362459927652e-06 0.0001654363106967442 3.676362459927652e-06 0.0001654363106967442 2.106327407532229e-05 2.106327407532229e-05 0.003728199511332042 0.007435335748588764 0.01670317634173056 0.04172634594321343 0.05099418653635523 0.09733338950206423 0.02597101693487237 0.03523885752801417 0.1251369112814897 0.06026202712949703 0.1297708315780605 0.09084590108686497 0.03153172129075744 0.04172634594321343 0.05933524307018285 0.03709242564664253 0.02133709663830147 0.02597101693487237 0.02875136911281491 0.003728199511332042 0.007435335748588764 0.006508551689274583 0.01484960822310221 0.0102156879265313 0.003728199511332042 0.007435335748588764 0.004654983570646223 0.003728199511332042 0.0009478473333895023 0.001874631392703683 2.106327407532229e-05 0.0009478473333895023 0.0009478473333895023 0.0009478473333895023 2.106327407532229e-05 2.106327407532229e-05 2.106327407532229e-05 2.106327407532229e-05 2.106327407532229e-05 2.106327407532229e-05 0.0009478473333895023 2.106327407532229e-05 3.402286336418074e-05 3.402286336418074e-05 0.003028034839412084 0.01201007076755579 0.02548312465977136 0.05692025040827434 0.05392623843222644 0.08236935220468151 0.02847713663581926 0.03895617855198692 0.1033274360370168 0.07189031028851385 0.1332675557974959 0.09135138813282523 0.03147114861186717 0.04344719651605878 0.05242923244420249 0.03895617855198692 0.0209921066956995 0.01949510070767555 0.02698013064779531 0.004525040827436036 0.01201007076755579 0.01051306477953184 0.009016058791507889 0.003028034839412084 0.001531028851388132 0.01051306477953184 0.006022046815459987 0.001531028851388132 3.402286336418074e-05 0.001531028851388132 0.001531028851388132 3.402286336418074e-05 3.402286336418074e-05 3.402286336418074e-05 3.402286336418074e-05 0.001531028851388132 3.402286336418074e-05 0.001531028851388132 3.402286336418074e-05 3.402286336418074e-05 3.402286336418074e-05 3.402286336418074e-05 0.0001136363636363637 0.0001136363636363637 0.01011363636363636 0.005113636363636363 0.02511363636363636 0.04011363636363636 0.06011363636363636 0.1151136363636363 0.05511363636363636 0.03511363636363635 0.09011363636363635 0.05511363636363636 0.09511363636363636 0.1151136363636363 0.04011363636363636 0.04511363636363636 0.08511363636363635 0.03511363636363635 0.005113636363636363 0.02511363636363636 0.01011363636363636 0.005113636363636363 0.005113636363636363 0.01011363636363636 0.01011363636363636 0.01011363636363636 0.0001136363636363637 0.0001136363636363637 0.005113636363636363 0.005113636363636363 0.0001136363636363637 0.0001136363636363637 0.0001136363636363637 0.0001136363636363637 0.0001136363636363637 0.0001136363636363637 0.0001136363636363637 0.0001136363636363637 0.0001136363636363637 0.0001136363636363637 0.0001136363636363637 0.0001136363636363637 0.0001136363636363637 0.0001136363636363637 0.0001734906315058988 0.0001734906315058988 0.0001734906315058988 0.0001734906315058988 0.02307425399028452 0.01544066620402498 0.08414295628036084 0.1070437196391395 0.02307425399028452 0.08414295628036084 0.1757460097154753 0.07650936849410131 0.1604788341429562 0.07650936849410131 0.007807078417765439 0.04597501734906314 0.04597501734906314 0.0383414295628036 0.01544066620402498 0.007807078417765439 0.0001734906315058988 0.0001734906315058988 0.0001734906315058988 0.0001734906315058988 0.0001734906315058988 0.007807078417765439 0.0001734906315058988 0.0001734906315058988 0.0001734906315058988 0.0001734906315058988 0.0001734906315058988 0.0001734906315058988 0.0001734906315058988 0.0001734906315058988 0.0001734906315058988 0.0001734906315058988 0.0001734906315058988 0.0001734906315058988 0.0001734906315058988 0.0001734906315058988 0.0001734906315058988 0.0001734906315058988 0.0001734906315058988 0.0001734906315058988 0.000582750582750583 0.000582750582750583 0.000582750582750583 0.000582750582750583 0.000582750582750583 0.02622377622377621 0.02622377622377621 0.07750582750582749 0.05186480186480186 0.02622377622377621 0.18006993006993 0.07750582750582749 0.1031468531468531 0.1544289044289044 0.000582750582750583 0.05186480186480186 0.02622377622377621 0.02622377622377621 0.02622377622377621 0.02622377622377621 0.02622377622377621 0.000582750582750583 0.000582750582750583 0.000582750582750583 0.000582750582750583 0.000582750582750583 0.000582750582750583 0.02622377622377621 0.02622377622377621 0.000582750582750583 0.02622377622377621 0.000582750582750583 0.000582750582750583 0.000582750582750583 0.000582750582750583 0.000582750582750583 0.000582750582750583 0.000582750582750583 0.000582750582750583 0.000582750582750583 0.000582750582750583 0.000582750582750583 0.000582750582750583 0.000582750582750583</probabilities>
		</cpt>
		<cpt id="GV_DVLAT">
			<state id="s01_below_n89" />
			<state id="s02_n89_n85" />
			<state id="s03_n85_n76" />
			<state id="s04_n76_n70" />
			<state id="s05_n70_n61" />
			<state id="s06_n61_n53" />
			<state id="s07_n53_n46" />
			<state id="s08_n46_n40" />
			<state id="s09_n40_n36" />
			<state id="s10_n36_n30" />
			<state id="s11_n30_n24" />
			<state id="s12_n24_n18" />
			<state id="s13_n18_n14" />
			<state id="s14_n14_n6" />
			<state id="s15_n6_0" />
			<state id="s16_0_5" />
			<state id="s17_5_13" />
			<state id="s18_13_17" />
			<state id="s19_17_25" />
			<state id="s20_25_29" />
			<state id="s21_29_37" />
			<state id="s22_37_43" />
			<state id="s23_43_47" />
			<state id="s24_47_51" />
			<state id="s25_51_57" />
			<state id="s26_57_63" />
			<state id="s27_63_71" />
			<state id="s28_71_76" />
			<state id="s29_76_99" />
			<state id="s30_99_up" />
			<parents>OA_MAIS</parents>
			<probabilities>7.832080200501255e-06 7.832080200501255e-06 7.832080200501255e-06 7.832080200501255e-06 7.832080200501255e-06 7.832080200501255e-06 7.832080200501255e-06 0.001417606516290727 0.001887531328320802 0.003767230576441103 0.005646929824561404 0.021859335839599 0.0368969298245614 0.1334664786967418 0.1463894110275689 0.4297540726817042 0.1499138471177945 0.03619204260651629 0.02632362155388471 0.003767230576441103 0.001887531328320802 0.000712719298245614 7.832080200501255e-06 7.832080200501255e-06 7.832080200501255e-06 7.832080200501255e-06 7.832080200501255e-06 7.832080200501255e-06 7.832080200501255e-06 7.832080200501255e-06 5.391998274560553e-06 5.391998274560553e-06 5.391998274560553e-06 5.391998274560553e-06 0.0001671519465113772 0.0001671519465113772 0.0008141917394586434 0.0004906718429850103 0.003725870807721342 0.009225709047773105 0.01456378733958805 0.03915129947158418 0.04659225709047774 0.140736546964305 0.1235899924512024 0.3350102447967217 0.1758384557316942 0.05193033538229268 0.04335705812574141 0.00615227003127359 0.006475789927747224 0.00097595168769546 0.0003289118947481937 0.0003289118947481937 0.0001671519465113772 5.391998274560553e-06 5.391998274560553e-06 5.391998274560553e-06 5.391998274560553e-06 0.0001671519465113772 0.0009576768612913193 0.0009576768612913193 0.001884460920605499 3.089280197713934e-05 3.089280197713934e-05 0.002811244979919678 0.0009576768612913193 0.002811244979919678 0.005591597157862218 0.01671300586963238 0.02690763052208836 0.03988260735248687 0.03988260735248687 0.1307074451652765 0.08714859437751003 0.2984553599011431 0.1724127278344146 0.04915044794562867 0.06861291319122645 0.01949335804757492 0.01949335804757492 0.006518381217176398 0.003738029039233858 0.001884460920605499 3.089280197713934e-05 3.089280197713934e-05 0.001884460920605499 3.089280197713934e-05 0.0009576768612913193 3.089280197713934e-05 4.990019960079842e-05 4.990019960079842e-05 4.990019960079842e-05 4.990019960079842e-05 0.001546906187624751 0.00753493013972056 0.006037924151696608 0.006037924151696608 0.006037924151696608 0.01651696606786427 0.02549900199600799 0.04196606786427147 0.03747504990019961 0.1063373253493014 0.04346307385229542 0.2560379241516967 0.182684630738523 0.05693612774451098 0.09286427145708584 0.0314870259481038 0.04645708582834333 0.01651696606786427 0.006037924151696608 0.001546906187624751 0.006037924151696608 4.990019960079842e-05 0.003043912175648703 4.990019960079842e-05 0.001546906187624751 4.990019960079842e-05 0.0001666666666666667 0.0001666666666666667 0.0001666666666666667 0.0001666666666666667 0.0001666666666666667 0.01016666666666667 0.02516666666666667 0.01516666666666667 0.04516666666666667 0.03516666666666667 0.03016666666666667 0.02516666666666667 0.02516666666666667 0.05016666666666666 0.01016666666666667 0.2001666666666667 0.08016666666666668 0.08516666666666668 0.1251666666666667 0.04016666666666667 0.1101666666666667 0.05016666666666666 0.01016666666666667 0.0001666666666666667 0.01016666666666667 0.01016666666666667 0.0001666666666666667 0.005166666666666667 0.0001666666666666667 0.0001666666666666667 0.0002544529262086515 0.0002544529262086515 0.0002544529262086515 0.0002544529262086515 0.01552162849872774 0.02315521628498728 0.02315521628498728 0.03078880407124682 0.03078880407124682 0.03078880407124682 0.04605597964376591 0.04605597964376591 0.03078880407124682 0.03842239185750636 0.03078880407124682 0.1834605597964377 0.061323155216285 0.03078880407124682 0.09949109414758271 0.03842239185750636 0.1147582697201018 0.06895674300254453 0.01552162849872774 0.02315521628498728 0.0002544529262086515 0.0002544529262086515 0.01552162849872774 0.0002544529262086515 0.0002544529262086515 0.0002544529262086515 0.000854700854700855 0.02649572649572651 0.05213675213675215 0.02649572649572651 0.05213675213675215 0.02649572649572651 0.000854700854700855 0.02649572649572651 0.02649572649572651 0.02649572649572651 0.07777777777777779 0.000854700854700855 0.02649572649572651 0.1290598290598291 0.000854700854700855 0.1803418803418804 0.07777777777777779 0.02649572649572651 0.000854700854700855 0.05213675213675215 0.1034188034188034 0.000854700854700855 0.000854700854700855 0.05213675213675215 0.000854700854700855 0.000854700854700855 0.000854700854700855 0.000854700854700855 0.000854700854700855 0.000854700854700855</probabilities>
		</cpt>
		<cpt id="GV_DVLONG">
			<state id="s01_below_n139" />
			<state id="s02_n139_n125" />
			<state id="s03_n125_n112" />
			<state id="s04_n112_n99" />
			<state id="s05_n99_n91" />
			<state id="s06_n91_n81" />
			<state id="s07_n81_n72" />
			<state id="s08_n72_n64" />
			<state id="s09_n64_n54" />
			<state id="s10_n54_n48" />
			<state id="s11_n48_n44" />
			<state id="s12_n44_n34" />
			<state id="s13_n34_n26" />
			<state id="s14_n26_n18" />
			<state id="s15_n18_n14" />
			<state id="s16_n14_n6" />
			<state id="s17_n6_0" />
			<state id="s18_0_5" />
			<state id="s19_5_11" />
			<state id="s20_11_15" />
			<state id="s21_15_21" />
			<state id="s22_21_25" />
			<state id="s23_25_33" />
			<state id="s24_33_41" />
			<state id="s25_41_47" />
			<state id="s26_47_54" />
			<state id="s27_54_63" />
			<state id="s28_63_71" />
			<state id="s29_71_81" />
			<state id="s30_81_up" />
			<parents>OA_MAIS</parents>
			<probabilities>7.832080200501255e-06 7.832080200501255e-06 7.832080200501255e-06 7.832080200501255e-06 7.832080200501255e-06 0.0002427944862155389 0.0004777568922305764 0.0004777568922305764 0.001182644110275689 0.001887531328320802 0.004472117794486216 0.02514880952380952 0.06391760651629073 0.178579260651629 0.1522634711779448 0.3249608395989975 0.1193687343358396 0.02091948621553884 0.01739505012531328 0.02326911027568922 0.03055294486215539 0.01246083959899749 0.01504542606516291 0.004472117794486216 0.001417606516290727 0.0009476817042606516 0.0002427944862155389 0.0002427944862155389 7.832080200501255e-06 7.832080200501255e-06 5.391998274560553e-06 5.391998274560553e-06 5.391998274560553e-06 5.391998274560553e-06 5.391998274560553e-06 0.0003289118947481937 0.0001671519465113772 0.00097595168769546 0.004211150652431792 0.005828750134799957 0.008093389410115389 0.04966569610697726 0.1142079154534671 0.2132050037743988 0.1564272619432762 0.2355278766310795 0.08509112477084008 0.01472554728782487 0.01132858837485172 0.01747546640785075 0.02960746252561199 0.01262266796074625 0.02265178475142888 0.01181386821956217 0.002917071066537259 0.001622991480642726 0.00097595168769546 0.0003289118947481937 5.391998274560553e-06 0.0001671519465113772 3.089280197713934e-05 3.089280197713934e-05 3.089280197713934e-05 0.0009576768612913193 3.089280197713934e-05 3.089280197713934e-05 0.005591597157862218 0.005591597157862218 0.02412727834414581 0.03154155081865925 0.02134692616620328 0.08992894655545258 0.1575841828853877 0.2308001235712079 0.1205128205128205 0.1946555452579549 0.05193080012357121 0.009298733395118938 0.0111523015137473 0.002811244979919678 0.006518381217176398 0.006518381217176398 0.007445165276490578 0.006518381217176398 0.003738029039233858 0.006518381217176398 0.002811244979919678 0.0009576768612913193 0.0009576768612913193 3.089280197713934e-05 4.990019960079842e-05 0.001546906187624751 4.990019960079842e-05 0.001546906187624751 0.003043912175648703 0.001546906187624751 0.009031936127744512 0.0284930139720559 0.05394211576846308 0.04945109780439123 0.04645708582834333 0.1422654690618763 0.1542415169660679 0.1722055888223553 0.1003493013972056 0.1392714570858284 0.04196606786427147 0.01501996007984032 0.009031936127744512 0.00753493013972056 0.004540918163672656 0.001546906187624751 0.004540918163672656 0.001546906187624751 0.004540918163672656 0.004540918163672656 0.001546906187624751 4.990019960079842e-05 4.990019960079842e-05 4.990019960079842e-05 0.0001666666666666668 0.0001666666666666668 0.005166666666666669 0.0001666666666666668 0.01516666666666667 0.01516666666666667 0.01016666666666667 0.03516666666666668 0.02516666666666667 0.03516666666666668 0.04016666666666668 0.1051666666666667 0.1251666666666667 0.1501666666666667 0.08516666666666671 0.2101666666666667 0.04516666666666668 0.02516666666666667 0.03016666666666668 0.01016666666666667 0.0001666666666666668 0.005166666666666669 0.01016666666666667 0.0001666666666666668 0.005166666666666669 0.005166666666666669 0.005166666666666669 0.0001666666666666668 0.0001666666666666668 0.0001666666666666668 0.007888040712468196 0.007888040712468196 0.0002544529262086515 0.0002544529262086515 0.01552162849872774 0.02315521628498728 0.03078880407124682 0.02315521628498728 0.03842239185750636 0.03078880407124682 0.03078880407124682 0.061323155216285 0.09185750636132317 0.1834605597964377 0.09185750636132317 0.1529262086513995 0.03842239185750636 0.03842239185750636 0.03078880407124682 0.01552162849872774 0.01552162849872774 0.01552162849872774 0.007888040712468196 0.007888040712468196 0.01552162849872774 0.0002544529262086515 0.01552162849872774 0.0002544529262086515 0.007888040712468196 0.0002544529262086515 0.000854700854700855 0.000854700854700855 0.000854700854700855 0.000854700854700855 0.000854700854700855 0.05213675213675215 0.1290598290598291 0.07777777777777779 0.1290598290598291 0.02649572649572651 0.02649572649572651 0.1034188034188034 0.05213675213675215 0.1034188034188034 0.07777777777777779 0.05213675213675215 0.02649572649572651 0.05213675213675215 0.000854700854700855 0.05213675213675215 0.000854700854700855 0.000854700854700855 0.000854700854700855 0.000854700854700855 0.000854700854700855 0.000854700854700855 0.02649572649572651 0.000854700854700855 0.000854700854700855 0.000854700854700855</probabilities>
		</cpt>
		<cpt id="GV_ENERGY">
			<state id="s01_below_237" />
			<state id="s02_237_381" />
			<state id="s03_381_623" />
			<state id="s04_623_810" />
			<state id="s05_810_1081" />
			<state id="s06_1081_1302" />
			<state id="s07_1302_1553" />
			<state id="s08_1553_1745" />
			<state id="s09_1745_1958" />
			<state id="s10_1958_2129" />
			<state id="s11_2129_2281" />
			<state id="s12_2281_2470" />
			<state id="s13_2470_2582" />
			<state id="s14_2582_2717" />
			<state id="s15_2717_2947" />
			<state id="s16_2947_3097" />
			<state id="s17_3097_3274" />
			<state id="s18_3274_3466" />
			<state id="s19_3466_3614" />
			<state id="s20_3614_3770" />
			<state id="s21_3770_3988" />
			<state id="s22_3988_4098" />
			<state id="s23_4098_4282" />
			<state id="s24_4282_4542" />
			<state id="s25_4542_4674" />
			<state id="s26_4674_4841" />
			<state id="s27_4841_5002" />
			<state id="s28_5002_5175" />
			<state id="s29_5175_5376" />
			<state id="s30_5376_5612" />
			<state id="s31_5612_5811" />
			<state id="s32_5811_6056" />
			<state id="s33_6056_6346" />
			<state id="s34_6346_6575" />
			<state id="s35_6575_6970" />
			<state id="s36_6970_7302" />
			<state id="s37_7302_7613" />
			<state id="s38_7613_8231" />
			<state id="s39_8231_9249" />
			<state id="s40_9249_up" />
			<parents>OA_MAIS</parents>
			<probabilities>0.5401844454887217 0.1879757988721804 0.1452126409774436 0.047703242481203 0.03947955827067669 0.01762805451127819 0.00728970864661654 0.004000234962406014 0.003530310150375939 0.001415648496240601 0.001180686090225564 0.001885573308270677 0.0002408364661654135 0.0007107612781954885 5.874060150375937e-06 0.0002408364661654135 0.0002408364661654135 5.874060150375937e-06 0.0002408364661654135 0.0002408364661654135 5.874060150375937e-06 5.874060150375937e-06 5.874060150375937e-06 5.874060150375937e-06 5.874060150375937e-06 5.874060150375937e-06 5.874060150375937e-06 0.0002408364661654135 5.874060150375937e-06 5.874060150375937e-06 0.0002408364661654135 5.874060150375937e-06 5.874060150375937e-06 5.874060150375937e-06 5.874060150375937e-06 5.874060150375937e-06 5.874060150375937e-06 5.874060150375937e-06 5.874060150375937e-06 5.874060150375937e-06 0.380786962148172 0.2022039792947266 0.1923366224522808 0.08654561630540274 0.06276690391459072 0.02572387576835974 0.018444678097703 0.01019492073762536 0.007121481721125846 0.00323924296344225 0.001945163377547718 0.001621643481074085 0.001621643481074085 0.0004893238434163699 0.0004893238434163699 0.0006510837916531865 0.0006510837916531865 0.0008128437398900029 4.043998705920411e-06 0.0006510837916531865 0.0006510837916531865 4.043998705920411e-06 0.0001658039469427369 4.043998705920411e-06 4.043998705920411e-06 4.043998705920411e-06 0.0001658039469427369 4.043998705920411e-06 0.0001658039469427369 0.0003275638951795534 0.0001658039469427369 4.043998705920411e-06 4.043998705920411e-06 4.043998705920411e-06 4.043998705920411e-06 4.043998705920411e-06 4.043998705920411e-06 4.043998705920411e-06 4.043998705920411e-06 4.043998705920411e-06 0.2243049119555144 0.190940685820204 0.1872335495829472 0.1103104726598703 0.09548192771084342 0.03894810009267842 0.04821594068582022 0.021339202965709 0.01855885078776645 0.01021779425393884 0.009291010194624656 0.004657089898053755 0.003730305838739575 0.004657089898053755 0.01021779425393884 0.001876737720111215 0.002803521779425395 0.001876737720111215 0.001876737720111215 2.316960148285449e-05 2.316960148285449e-05 0.0009499536607970345 0.002803521779425395 0.0009499536607970345 2.316960148285449e-05 2.316960148285449e-05 2.316960148285449e-05 0.0009499536607970345 2.316960148285449e-05 0.0009499536607970345 2.316960148285449e-05 0.0009499536607970345 0.002803521779425395 0.0009499536607970345 0.0009499536607970345 0.0009499536607970345 2.316960148285449e-05 2.316960148285449e-05 2.316960148285449e-05 2.316960148285449e-05 0.1048278443113772 0.1332709580838323 0.1662050898203592 0.1362649700598802 0.1048278443113772 0.07638473053892213 0.049438622754491 0.04494760479041914 0.04195359281437124 0.01800149700598802 0.02249251497005987 0.02099550898203592 0.003031437125748502 0.007522455089820357 0.009019461077844309 0.01201347305389221 0.006025449101796405 0.01051646706586826 0.00153443113772455 0.004528443113772453 0.004528443113772453 0.003031437125748502 3.742514970059877e-05 0.00153443113772455 0.00153443113772455 0.003031437125748502 0.003031437125748502 0.003031437125748502 3.742514970059877e-05 3.742514970059877e-05 3.742514970059877e-05 3.742514970059877e-05 3.742514970059877e-05 3.742514970059877e-05 0.003031437125748502 3.742514970059877e-05 0.00153443113772455 3.742514970059877e-05 0.00153443113772455 3.742514970059877e-05 0.08512500000000002 0.07512500000000003 0.115125 0.08512500000000002 0.1451250000000001 0.09012500000000002 0.08512500000000002 0.06012500000000003 0.04012500000000001 0.02512500000000001 0.04012500000000001 0.02512500000000001 0.010125 0.000125 0.010125 0.000125 0.02512500000000001 0.005125000000000001 0.02012500000000001 0.000125 0.005125000000000001 0.015125 0.005125000000000001 0.005125000000000001 0.000125 0.000125 0.000125 0.005125000000000001 0.005125000000000001 0.000125 0.000125 0.000125 0.005125000000000001 0.000125 0.000125 0.000125 0.000125 0.005125000000000001 0.005125000000000001 0.000125 0.05362595419847331 0.08416030534351149 0.1604961832061069 0.09179389312977103 0.1070610687022901 0.03072519083969467 0.06125954198473285 0.06889312977099239 0.03072519083969467 0.03835877862595422 0.0001908396946564885 0.007824427480916033 0.007824427480916033 0.007824427480916033 0.03835877862595422 0.02309160305343512 0.01545801526717558 0.01545801526717558 0.01545801526717558 0.0001908396946564885 0.01545801526717558 0.007824427480916033 0.0001908396946564885 0.01545801526717558 0.007824427480916033 0.01545801526717558 0.007824427480916033 0.007824427480916033 0.007824427480916033 0.007824427480916033 0.007824427480916033 0.01545801526717558 0.007824427480916033 0.007824427480916033 0.0001908396946564885 0.0001908396946564885 0.0001908396946564885 0.0001908396946564885 0.007824427480916033 0.0001908396946564885 0.05192307692307691 0.0006410256410256407 0.02628205128205128 0.05192307692307691 0.02628205128205128 0.02628205128205128 0.05192307692307691 0.05192307692307691 0.05192307692307691 0.05192307692307691 0.02628205128205128 0.0006410256410256407 0.02628205128205128 0.02628205128205128 0.05192307692307691 0.0006410256410256407 0.02628205128205128 0.05192307692307691 0.02628205128205128 0.0006410256410256407 0.07756410256410255 0.0006410256410256407 0.07756410256410255 0.05192307692307691 0.0006410256410256407 0.0006410256410256407 0.0006410256410256407 0.0006410256410256407 0.02628205128205128 0.0006410256410256407 0.02628205128205128 0.02628205128205128 0.02628205128205128 0.0006410256410256407 0.0006410256410256407 0.0006410256410256407 0.0006410256410256407 0.0006410256410256407 0.0006410256410256407 0.05192307692307691</probabilities>
		</cpt>
		<cpt id="GV_LANES">
			<state id="s1_below_1" />
			<state id="s2_1_2" />
			<state id="s3_2_3" />
			<state id="s4_3_4" />
			<state id="s5_4_5" />
			<state id="s6_5_6" />
			<state id="s7_6_up" />
			<parents>OA_MAIS</parents>
			<probabilities>0.01883055853920516 0.3571764232008593 0.1854189044038668 0.2138493555316864 0.1673267991407089 0.0359828141783029 0.02141514500537057 0.01522854369829459 0.3686740305957388 0.1860470490363729 0.2119286407542635 0.1614595369043768 0.03561029717613347 0.02105190183481999 0.01681451079041441 0.4199655765920827 0.1854892095855951 0.1873427777042235 0.1298821660267444 0.03813054415464055 0.02237521514629948 0.006201881950384945 0.4582976903336186 0.1454234388366125 0.1978186484174508 0.1364414029084688 0.03165098374679213 0.02416595380667237 0.01571428571428572 0.5107142857142858 0.1857142857142858 0.1457142857142857 0.09071428571428573 0.03571428571428573 0.01571428571428572 0.02399127589967285 0.4362050163576881 0.1461286804798255 0.3064340239912759 0.06215921483097055 0.02399127589967285 0.00109051254089422 0.003663003663003663 0.542124542124542 0.1831501831501831 0.1318681318681318 0.05494505494505494 0.0293040293040293 0.05494505494505494</probabilities>
		</cpt>
		<cpt id="GV_MODELYR">
			<state id="s01_below_2001" />
			<state id="s02_2001_2002" />
			<state id="s03_2002_2003" />
			<state id="s04_2003_2004" />
			<state id="s05_2004_2005" />
			<state id="s06_2005_2006" />
			<state id="s07_2006_2007" />
			<state id="s08_2007_2008" />
			<state id="s09_2008_2009" />
			<state id="s10_2009_2010" />
			<state id="s11_2010_2011" />
			<state id="s12_2011_up" />
			<parents>OA_MAIS</parents>
			<probabilities>0.1409970238095238 0.1304237155388471 0.135592888471178 0.1158560463659148 0.110686873433584 0.09776394110275688 0.08907033208020049 0.07027333959899748 0.04983161027568922 0.02727521929824561 0.0209312343358396 0.01129777568922306 0.1464062331500054 0.1373476760487437 0.1420387145476114 0.1248921600345088 0.1164806427261943 0.09270193033538231 0.0731289765987275 0.06665857866925483 0.0556589021891513 0.02330691254178799 0.01505715518171034 0.006322117976922248 0.140021624961384 0.1594840902069818 0.1428019771393265 0.1437287611986407 0.08719493358047575 0.08534136546184738 0.0751467408093914 0.06865925239419216 0.04270929873339512 0.02695396972505406 0.0204664813098548 0.007491504479456288 0.1932385229540918 0.1677894211576846 0.1543163672654691 0.1333582834331337 0.08844810379241518 0.1049151696606786 0.04353792415169661 0.05551397205588823 0.03605289421157685 0.01509481037924152 0.004615768463073853 0.003118762475049901 0.1954166666666667 0.1254166666666667 0.1354166666666667 0.1504166666666667 0.09041666666666666 0.08541666666666667 0.07041666666666667 0.06041666666666667 0.03541666666666667 0.02541666666666667 0.02041666666666667 0.005416666666666666 0.1762086513994911 0.1762086513994911 0.1533078880407125 0.1304071246819338 0.09223918575063614 0.1227735368956743 0.04643765903307888 0.06170483460559797 0.01590330788804071 0.0006361323155216284 0.02353689567430025 0.0006361323155216284 0.155982905982906 0.1303418803418803 0.1303418803418803 0.07905982905982906 0.155982905982906 0.1047008547008547 0.1047008547008547 0.05341880341880342 0.002136752136752137 0.07905982905982906 0.002136752136752137 0.002136752136752137</probabilities>
		</cpt>
		<cpt id="GV_OTVEHWGT">
			<state id="s01_below_760" />
			<state id="s02_760_855" />
			<state id="s03_855_975" />
			<state id="s04_975_1135" />
			<state id="s05_1135_1295" />
			<state id="s06_1295_1395" />
			<state id="s07_1395_1535" />
			<state id="s08_1535_1645" />
			<state id="s09_1645_1805" />
			<state id="s10_1805_1925" />
			<state id="s11_1925_2065" />
			<state id="s12_2065_2205" />
			<state id="s13_2205_2305" />
			<state id="s14_2305_2385" />
			<state id="s15_2385_2545" />
			<state id="s16_2545_2665" />
			<state id="s17_2665_2745" />
			<state id="s18_2745_2880" />
			<state id="s19_2880_2970" />
			<state id="s20_2970_3055" />
			<state id="s21_3055_3160" />
			<state id="s22_3160_3350" />
			<state id="s23_3350_3515" />
			<state id="s24_3515_3730" />
			<state id="s25_3730_3935" />
			<state id="s26_3935_4035" />
			<state id="s27_4035_4125" />
			<state id="s28_4125_4285" />
			<state id="s29_4285_4470" />
			<state id="s30_4470_up" />
			<parents>OA_MAIS</parents>
			<probabilities>0.000712719298245614 0.0009476817042606516 0.006586779448621554 0.07613565162907268 0.1372258771929824 0.09657738095238096 0.1917371553884712 0.1254777568922306 0.1193687343358396 0.07966008771929825 0.04934993734335839 0.03760181704260651 0.01950971177944862 0.01340068922305764 0.02655858395989975 0.01011121553884712 0.002592418546365915 0.002592418546365915 0.001887531328320802 0.000712719298245614 7.832080200501255e-06 0.000712719298245614 0.0002427944862155389 7.832080200501255e-06 0.0002427944862155389 7.832080200501255e-06 7.832080200501255e-06 7.832080200501255e-06 7.832080200501255e-06 7.832080200501255e-06 0.0004906718429850103 0.001784751428879543 0.006475789927747224 0.06940040979186887 0.1315162299148064 0.09139976275207592 0.1818235738164564 0.1350749487760164 0.1176048743664402 0.08201768575434057 0.06082713253531759 0.03979833926453144 0.02038714547611345 0.0131079478054567 0.02313706459613933 0.008902189151299473 0.005019950393615875 0.004372910600668608 0.00146123153240591 0.001946511377116359 0.001299471584169093 0.0008141917394586434 0.0003289118947481937 0.0003289118947481937 5.391998274560553e-06 0.0001671519465113772 0.0001671519465113772 0.0001671519465113772 0.0001671519465113772 5.391998274560553e-06 3.089280197713933e-05 0.002811244979919678 0.004664813098548037 0.06397899289465553 0.1084646277417362 0.09178251467408091 0.1714859437751004 0.1418288538770466 0.1029039233858511 0.08992894655545255 0.06861291319122642 0.0426629595304294 0.02134692616620327 0.01578622181031819 0.03895582329317268 0.01207908557306147 0.005591597157862217 0.007445165276490576 0.002811244979919678 0.0009576768612913191 0.002811244979919678 0.0009576768612913191 0.0009576768612913191 3.089280197713933e-05 3.089280197713933e-05 0.0009576768612913191 3.089280197713933e-05 3.089280197713933e-05 3.089280197713933e-05 3.089280197713933e-05 4.990019960079842e-05 4.990019960079842e-05 0.004540918163672656 0.03747504990019961 0.08837325349301399 0.09286427145708584 0.1751996007984032 0.1392714570858284 0.1437624750499002 0.07939121756487028 0.07040918163672656 0.05244510978043913 0.0314870259481038 0.01951097804391218 0.02100798403193613 0.01501996007984032 0.01052894211576847 0.003043912175648703 0.001546906187624751 0.001546906187624751 0.006037924151696608 0.001546906187624751 0.001546906187624751 4.990019960079842e-05 4.990019960079842e-05 4.990019960079842e-05 4.990019960079842e-05 4.990019960079842e-05 4.990019960079842e-05 0.003043912175648703 0.0001666666666666667 0.0001666666666666667 0.005166666666666668 0.03016666666666667 0.04516666666666667 0.06016666666666668 0.1251666666666667 0.1401666666666667 0.1651666666666667 0.1301666666666667 0.08016666666666669 0.04516666666666667 0.05516666666666668 0.02016666666666667 0.04516666666666667 0.02016666666666667 0.005166666666666668 0.01016666666666667 0.005166666666666668 0.0001666666666666667 0.005166666666666668 0.0001666666666666667 0.005166666666666668 0.0001666666666666667 0.0001666666666666667 0.0001666666666666667 0.0001666666666666667 0.0001666666666666667 0.0001666666666666667 0.0001666666666666667 0.0002544529262086515 0.0002544529262086515 0.0002544529262086515 0.01552162849872773 0.06132315521628499 0.06132315521628499 0.1605597964376591 0.1529262086513995 0.1529262086513995 0.0994910941475827 0.07659033078880406 0.06895674300254452 0.0460559796437659 0.01552162849872773 0.05368956743002544 0.02315521628498728 0.007888040712468194 0.0002544529262086515 0.0002544529262086515 0.0002544529262086515 0.0002544529262086515 0.0002544529262086515 0.0002544529262086515 0.0002544529262086515 0.0002544529262086515 0.0002544529262086515 0.0002544529262086515 0.0002544529262086515 0.0002544529262086515 0.0002544529262086515 0.000854700854700855 0.000854700854700855 0.000854700854700855 0.000854700854700855 0.000854700854700855 0.07777777777777779 0.07777777777777779 0.1803418803418804 0.1547008547008547 0.05213675213675215 0.07777777777777779 0.1290598290598291 0.02649572649572651 0.05213675213675215 0.05213675213675215 0.02649572649572651 0.000854700854700855 0.02649572649572651 0.000854700854700855 0.000854700854700855 0.05213675213675215 0.000854700854700855 0.000854700854700855 0.000854700854700855 0.000854700854700855 0.000854700854700855 0.000854700854700855 0.000854700854700855 0.000854700854700855 0.000854700854700855</probabilities>
		</cpt>
		<cpt id="GV_SPLIMIT">
			<state id="s01_below_7" />
			<state id="s02_7_12" />
			<state id="s03_12_17" />
			<state id="s04_17_22" />
			<state id="s05_22_27" />
			<state id="s06_27_32" />
			<state id="s07_32_37" />
			<state id="s08_37_42" />
			<state id="s09_42_47" />
			<state id="s10_47_52" />
			<state id="s11_52_57" />
			<state id="s12_57_62" />
			<state id="s13_62_67" />
			<state id="s14_67_72" />
			<state id="s15_72_up" />
			<parents>OA_MAIS</parents>
			<probabilities>0.006829573934837094 0.0002506265664160402 0.002365288220551379 0.003070175438596492 0.08789160401002508 0.1146773182957394 0.2500156641604011 0.1351190476190477 0.205842731829574 0.05311716791979951 0.08483709273182959 0.02069235588972431 0.01904761904761905 0.0162280701754386 1.566416040100251e-05 0.005672382184837702 0.0001725439447859377 0.002598943168338186 0.003407742909522269 0.07959667852906288 0.1028901110751645 0.2384449476976167 0.13766849994608 0.2240483123045401 0.05306804701822496 0.1045077105575326 0.01715733850965168 0.01602501887199396 0.01424565944138898 0.0004960638412595708 0.007476058078467718 0.0009885696632684587 6.178560395427868e-05 0.0009885696632684587 0.06957059005251778 0.1029348161878283 0.215075687364844 0.1335186901451962 0.2141489033055299 0.06771702193388941 0.1279579857893111 0.02137781896818042 0.02137781896818042 0.01489033055298116 0.001915353722582639 0.006087824351297404 9.98003992015968e-05 0.001596806387225549 0.001596806387225549 0.05099800399201596 0.09890219560878241 0.1887225548902195 0.1213572854291417 0.2515968063872255 0.06596806387225548 0.1468063872255489 0.02405189620758482 0.02105788423153692 0.01956087824351297 0.001596806387225549 0.01033333333333333 0.0003333333333333334 0.005333333333333333 0.01033333333333333 0.06533333333333333 0.09033333333333333 0.1903333333333334 0.1553333333333333 0.1953333333333334 0.06033333333333334 0.1503333333333333 0.02033333333333333 0.01033333333333333 0.03533333333333333 0.0003333333333333334 0.0005089058524173029 0.0005089058524173029 0.008142493638676845 0.008142493638676845 0.04631043256997455 0.1150127226463104 0.1608142493638677 0.1760814249363868 0.1760814249363868 0.03867684478371501 0.1837150127226463 0.03867684478371501 0.02340966921119593 0.02340966921119593 0.0005089058524173029 0.001709401709401709 0.001709401709401709 0.001709401709401709 0.001709401709401709 0.001709401709401709 0.1042735042735042 0.1042735042735042 0.1299145299145299 0.1811965811965812 0.07863247863247863 0.2324786324786324 0.1299145299145299 0.001709401709401709 0.02735042735042735 0.001709401709401709</probabilities>
		</cpt>
		<cpt id="GV_WGTCDTR">
			<state id="SPassenger_Car" />
			<state id="STruck____10000_lbs__" />
			<state id="STruck____6000_lbs__" />
			<parents>OA_MAIS</parents>
			<probabilities>0.5966478696741855 0.1469298245614035 0.256422305764411 0.628491318882778 0.1081095654049391 0.263399115712283 0.642570281124498 0.08928019771393265 0.2681495211615693 0.654690618762475 0.08882235528942117 0.2564870259481038 0.7366666666666666 0.05666666666666666 0.2066666666666666 0.8040712468193384 0.02544529262086514 0.1704834605597964 0.7008547008547008 0.08547008547008547 0.2136752136752137</probabilities>
		</cpt>
		<cpt id="OA_AGE">
			<state id="s01_below_11" />
			<state id="s02_11_22" />
			<state id="s03_22_32" />
			<state id="s04_32_42" />
			<state id="s05_42_48" />
			<state id="s06_48_56" />
			<state id="s07_56_64" />
			<state id="s08_64_72" />
			<state id="s09_72_80" />
			<state id="s10_80_88" />
			<state id="s11_88_95" />
			<state id="s12_95_up" />
			<parents>OA_MAIS</parents>
			<probabilities>0.0002545426065162907 0.2124255952380952 0.248609805764411 0.1816455200501253 0.09658912907268169 0.1003485275689223 0.07050830200501253 0.04231281328320802 0.03291431704260651 0.0115327380952381 0.002369204260651629 0.0004895050125313283 1.347999568640138e-05 0.1760083036773428 0.2289038067507818 0.1894343793809986 0.1069368057802222 0.1143777633991157 0.08202577375175241 0.04660034508788957 0.03818882777957511 0.01538067507818397 0.001954599374528201 0.000175239943923218 7.723200494284832e-05 0.1529966017917825 0.2215786221810318 0.1789465554525796 0.09275563793636082 0.1205591597157862 0.09182885387704665 0.06309854803830707 0.03622181031819587 0.03714859437751004 0.004711152301513747 7.723200494284832e-05 0.000124750499001996 0.1453343313373253 0.1767714570858283 0.1632984031936128 0.1138972055888224 0.1423403193612774 0.09892714570858284 0.05251996007984033 0.05551397205588823 0.04952594810379242 0.001621756487025948 0.000124750499001996 0.0004166666666666666 0.1504166666666667 0.1704166666666667 0.1004166666666667 0.09541666666666666 0.1054166666666667 0.1104166666666667 0.1054166666666667 0.09541666666666666 0.06041666666666667 0.005416666666666666 0.0004166666666666666 0.0006361323155216284 0.1075063613231552 0.1685750636132315 0.1075063613231552 0.1227735368956743 0.1227735368956743 0.0693384223918575 0.07697201017811706 0.1304071246819338 0.07697201017811706 0.01590330788804071 0.0006361323155216284 0.002136752136752137 0.05341880341880342 0.1816239316239316 0.155982905982906 0.07905982905982906 0.155982905982906 0.1816239316239316 0.07905982905982906 0.05341880341880342 0.02777777777777778 0.02777777777777778 0.002136752136752137</probabilities>
		</cpt>
		<cpt id="OA_BAGDEPLY">
			<state id="Deployed" />
			<state id="SNot_Deployed" />
			<parents>OA_MAIS</parents>
			<probabilities>0.3643092105263158 0.6356907894736842 0.5714170171465546 0.4285829828534455 0.7187210379981465 0.2812789620018536 0.7761976047904192 0.2238023952095808 0.6375000000000001 0.3625 0.6374045801526718 0.3625954198473282 0.8076923076923077 0.1923076923076923</probabilities>
		</cpt>
		<cpt id="OA_HEIGHT">
			<state id="s01_below_68" />
			<state id="s02_68_96" />
			<state id="s03_96_120" />
			<state id="s04_120_126" />
			<state id="s05_126_133" />
			<state id="s06_133_138" />
			<state id="s07_138_143" />
			<state id="s08_143_148" />
			<state id="s09_148_151" />
			<state id="s10_151_154" />
			<state id="s11_154_156" />
			<state id="s12_156_158" />
			<state id="s13_158_160" />
			<state id="s14_160_164" />
			<state id="s15_164_166" />
			<state id="s16_166_169" />
			<state id="s17_169_171" />
			<state id="s18_171_175" />
			<state id="s19_175_179" />
			<state id="s20_179_181" />
			<state id="s21_181_184" />
			<state id="s22_184_186" />
			<state id="s23_186_189" />
			<state id="s24_189_192" />
			<state id="s25_192_194" />
			<state id="s26_194_199" />
			<state id="s27_199_204" />
			<state id="s28_204_208" />
			<state id="s29_208_213" />
			<state id="s30_213_up" />
			<parents>OA_MAIS</parents>
			<probabilities>7.832080200501255e-06 0.0004777568922305764 0.0002427944862155389 0.0002427944862155389 7.832080200501255e-06 0.0004777568922305764 0.0004777568922305764 0.00306234335839599 0.006351817042606516 0.01575031328320802 0.01363565162907268 0.03525219298245614 0.04347587719298245 0.06368264411027569 0.05992324561403509 0.08247963659147869 0.2253367794486215 0.1391055764411027 0.0813048245614035 0.06344768170426066 0.07284617794486216 0.02914317042606516 0.03360745614035088 0.01457550125313283 0.007291666666666667 0.006351817042606516 0.0009476817042606516 0.0002427944862155389 0.0002427944862155389 7.832080200501255e-06 0.0003289118947481937 0.0001671519465113772 5.391998274560553e-06 0.0003289118947481937 0.0008141917394586434 0.0001671519465113772 0.001137711635932276 0.00566699018656314 0.006961069772457673 0.02782810309500701 0.02637226356087566 0.06050361263884396 0.0627682519141594 0.0852528847190769 0.08331176534023509 0.0883263237355764 0.1467216650490672 0.1410600668607786 0.06115065243179123 0.05710665372587082 0.0579154534670549 0.02993098242208563 0.02491642402674431 0.01440202739135124 0.009549228944246738 0.005505230238326324 0.00146123153240591 5.391998274560553e-06 5.391998274560553e-06 0.0003289118947481937 3.089280197713934e-05 3.089280197713934e-05 3.089280197713934e-05 3.089280197713934e-05 3.089280197713934e-05 3.089280197713934e-05 3.089280197713934e-05 0.002811244979919678 0.009298733395118938 0.02690763052208836 0.02412727834414581 0.05563793636082793 0.05100401606425703 0.07139326536916898 0.08344145814025332 0.09178251467408094 0.1937287611986407 0.1344145814025332 0.06675934507259808 0.05193080012357121 0.06490577695396972 0.03061476675934507 0.01949335804757492 0.008371949335804757 0.007445165276490578 0.004664813098548038 0.0009576768612913193 3.089280197713934e-05 3.089280197713934e-05 3.089280197713934e-05 0.001546906187624751 4.990019960079842e-05 0.001546906187624751 4.990019960079842e-05 4.990019960079842e-05 4.990019960079842e-05 4.990019960079842e-05 0.00753493013972056 0.01202594810379242 0.01052894211576847 0.01052894211576847 0.04795409181636727 0.05543912175648703 0.07939121756487028 0.07340319361277446 0.09136726546906189 0.2006487025948104 0.1602295409181637 0.07789421157684633 0.03747504990019961 0.05993013972055889 0.02999001996007985 0.02400199600798404 0.01052894211576847 0.004540918163672656 0.001546906187624751 0.001546906187624751 4.990019960079842e-05 4.990019960079842e-05 4.990019960079842e-05 0.0001666666666666667 0.005166666666666667 0.0001666666666666667 0.0001666666666666667 0.0001666666666666667 0.0001666666666666667 0.0001666666666666667 0.005166666666666667 0.005166666666666667 0.03016666666666667 0.02016666666666667 0.07016666666666667 0.02516666666666667 0.09516666666666668 0.06516666666666666 0.08516666666666668 0.1701666666666667 0.1301666666666667 0.08016666666666668 0.07016666666666667 0.07516666666666667 0.02516666666666667 0.02516666666666667 0.0001666666666666667 0.005166666666666667 0.0001666666666666667 0.01016666666666667 0.0001666666666666667 0.0001666666666666667 0.0001666666666666667 0.0002544529262086515 0.0002544529262086515 0.0002544529262086515 0.0002544529262086515 0.0002544529262086515 0.0002544529262086515 0.0002544529262086515 0.0002544529262086515 0.0002544529262086515 0.0002544529262086515 0.0460559796437659 0.06132315521628499 0.0460559796437659 0.09185750636132316 0.06895674300254452 0.0994910941475827 0.1605597964376591 0.1223918575063613 0.06132315521628499 0.0842239185750636 0.06132315521628499 0.03842239185750636 0.02315521628498728 0.01552162849872773 0.007888040712468194 0.007888040712468194 0.0002544529262086515 0.0002544529262086515 0.0002544529262086515 0.0002544529262086515 0.0008547008547008548 0.0008547008547008548 0.0008547008547008548 0.0008547008547008548 0.0008547008547008548 0.0008547008547008548 0.0008547008547008548 0.0008547008547008548 0.0008547008547008548 0.0264957264957265 0.0008547008547008548 0.05213675213675213 0.07777777777777777 0.0264957264957265 0.07777777777777777 0.129059829059829 0.1034188034188034 0.2572649572649572 0.0264957264957265 0.129059829059829 0.05213675213675213 0.0008547008547008548 0.0264957264957265 0.0008547008547008548 0.0008547008547008548 0.0008547008547008548 0.0008547008547008548 0.0008547008547008548 0.0008547008547008548 0.0008547008547008548</probabilities>
		</cpt>
		<cpt id="OA_MANUSE">
			<state id="s1_below_0" />
			<state id="s2_0_up" />
			<parents>OA_MAIS</parents>
			<probabilities>0.07929981203007519 0.9207001879699248 0.1104011646716273 0.8895988353283728 0.1784059314179796 0.8215940685820204 0.2911676646706587 0.7088323353293413 0.1975 0.8025 0.3473282442748091 0.6526717557251908 0.3205128205128205 0.6794871794871795</probabilities>
		</cpt>
		<cpt id="OA_SEX">
			<state id="Female" />
			<state id="Male" />
			<parents>OA_MAIS</parents>
			<probabilities>0.4122415413533834 0.5877584586466165 0.5670494985441605 0.4329505014558396 0.5417052826691381 0.4582947173308619 0.5142215568862276 0.4857784431137725 0.4775 0.5225 0.4618320610687023 0.5381679389312977 0.3717948717948718 0.6282051282051282</probabilities>
		</cpt>
		<cpt id="OA_WEIGHT">
			<state id="s01_below_33" />
			<state id="s02_33_37" />
			<state id="s03_37_42" />
			<state id="s04_42_46" />
			<state id="s05_46_54" />
			<state id="s06_54_62" />
			<state id="s07_62_70" />
			<state id="s08_70_76" />
			<state id="s09_76_80" />
			<state id="s10_80_88" />
			<state id="s11_88_96" />
			<state id="s12_96_102" />
			<state id="s13_102_106" />
			<state id="s14_106_114" />
			<state id="s15_114_123" />
			<state id="s16_123_129" />
			<state id="s17_129_137" />
			<state id="s18_137_144" />
			<state id="s19_144_149" />
			<state id="s20_149_up" />
			<parents>OA_MAIS</parents>
			<probabilities>0.000481672932330827 0.000481672932330827 0.00118656015037594 0.004476033834586466 0.07167528195488722 0.09352678571428572 0.151797462406015 0.0853031015037594 0.2345042293233082 0.1473331766917293 0.08953242481203007 0.04441964285714286 0.01410949248120301 0.03102678571428572 0.01105498120300752 0.006590695488721804 0.007530545112781954 0.0009515977443609021 0.001421522556390977 0.002596334586466166 8.087997411840827e-06 8.087997411840827e-06 0.001787447428016823 0.009713684891620835 0.07829990294403107 0.1218133290197347 0.1758411517308315 0.09188773859592365 0.133945325137496 0.1376658039469427 0.09285829828534455 0.04788903267550955 0.01780168230346166 0.04271271433193142 0.01844872209640893 0.01019896473633129 0.008904885150436753 0.002758007117437723 0.001625687479780007 0.005831446133937237 4.633920296570898e-05 4.633920296570898e-05 0.001899907321594068 0.009314179796107509 0.0825301204819277 0.09735866543095459 0.1566728452270621 0.09087117701575533 0.1733549582947173 0.1316496756255792 0.09643188137164041 0.04638554216867469 0.0232159406858202 0.03619091751621872 0.02043558850787766 0.01302131603336423 0.009314179796107509 0.003753475440222428 0.001899907321594068 0.005607043558850788 7.485029940119759e-05 7.485029940119759e-05 0.00157185628742515 0.00905688622754491 0.068937125748503 0.08839820359281438 0.1512724550898204 0.08390718562874251 0.1812125748502994 0.1407934131736527 0.08690119760479043 0.04947604790419161 0.01654191616766467 0.04199101796407186 0.02402694610778443 0.004565868263473054 0.03151197604790419 0.006062874251497006 0.003068862275449102 0.01055389221556886 0.00025 0.00025 0.005250000000000001 0.005250000000000001 0.07525000000000001 0.08025000000000002 0.16525 0.08525000000000002 0.20525 0.12525 0.09025000000000002 0.04525000000000001 0.02525000000000001 0.03525 0.02525000000000001 0.005250000000000001 0.005250000000000001 0.00025 0.00025 0.02025 0.000381679389312977 0.000381679389312977 0.000381679389312977 0.01564885496183206 0.09961832061068703 0.1072519083969466 0.1072519083969466 0.06908396946564886 0.1377862595419847 0.1225190839694656 0.1225190839694656 0.03091603053435114 0.06908396946564886 0.03854961832061068 0.00801526717557252 0.00801526717557252 0.00801526717557252 0.01564885496183206 0.0232824427480916 0.01564885496183206 0.001282051282051282 0.001282051282051282 0.001282051282051282 0.02692307692307692 0.02692307692307692 0.05256410256410256 0.07820512820512819 0.02692307692307692 0.05256410256410256 0.3346153846153846 0.02692307692307692 0.1038461538461538 0.02692307692307692 0.1038461538461538 0.02692307692307692 0.001282051282051282 0.02692307692307692 0.02692307692307692 0.001282051282051282 0.05256410256410256</probabilities>
		</cpt>
		<cpt id="VE_GAD1">
			<state id="Front" />
			<state id="Left" />
			<state id="Rear" />
			<state id="Right" />
			<parents>OA_MAIS</parents>
			<probabilities>0.6299929511278195 0.1229440789473684 0.09427866541353383 0.1527843045112782 0.6147282432869622 0.1409333549013264 0.09968456810093822 0.1446538337107732 0.6499073215940686 0.1791010194624653 0.043790546802595 0.1272011121408712 0.6291167664670659 0.2398952095808383 0.02432634730538922 0.1066616766467066 0.38125 0.39125 0.02625 0.20125 0.299618320610687 0.3912213740458015 0.07061068702290076 0.2385496183206107 0.467948717948718 0.2371794871794872 0.03205128205128205 0.2628205128205128</probabilities>
		</cpt>
		<cpt id="VE_PDOF_TR">
			<state id="s01_below_20" />
			<state id="s02_20_40" />
			<state id="s03_40_60" />
			<state id="s04_60_80" />
			<state id="s05_80_100" />
			<state id="s06_100_120" />
			<state id="s07_120_140" />
			<state id="s08_140_160" />
			<state id="s09_160_180" />
			<state id="s10_180_200" />
			<state id="s11_200_220" />
			<state id="s12_220_240" />
			<state id="s13_240_260" />
			<state id="s14_260_280" />
			<state id="s15_280_300" />
			<state id="s16_300_320" />
			<state id="s17_320_330" />
			<state id="s18_330_340" />
			<state id="s19_340_350" />
			<state id="s20_350_up" />
			<parents>OA_MAIS</parents>
			<probabilities>0.00212640977443609 0.005885808270676691 0.02797227443609022 0.04817904135338346 0.05264332706766917 0.1087993421052632 0.3179158834586466 0.1348801691729323 0.07519971804511279 0.0615718984962406 0.05099859022556391 0.007060620300751879 0.002831296992481203 0.002596334586466166 0.003066259398496241 0.07684445488721804 0.01481437969924812 0.002361372180451128 0.001891447368421053 0.002361372180451128 0.002596247169200906 0.006802005823358137 0.02605143966353931 0.05613879003558719 0.05565351019087674 0.1326512455516014 0.2523536072468457 0.1483419605305726 0.09399061792300227 0.07150598511808477 0.04125687479780007 0.00566968618570042 0.002272727272727273 0.0008168877385959237 0.00194920737625364 0.08315270139113555 0.0123018440634099 0.003566806858621806 0.00146392753154319 0.00146392753154319 0.001899907321594068 0.001899907321594068 0.03155699721964782 0.08067655236329935 0.06028730305838739 0.1196014828544949 0.3058850787766451 0.1307228915662651 0.1168211306765524 0.05658016682113067 0.03619091751621872 0.006533827618164968 0.002826691380908248 0.001899907321594068 0.0009731232622798889 0.03619091751621872 0.004680259499536608 0.0009731232622798889 0.002826691380908248 0.0009731232622798889 0.00157185628742515 0.01055389221556886 0.03750000000000001 0.09139221556886228 0.09139221556886228 0.1078592814371258 0.3383982035928144 0.1228293413173653 0.07791916167664671 0.04498502994011976 0.03750000000000001 0.00905688622754491 0.00157185628742515 7.485029940119759e-05 0.003068862275449102 0.01803892215568862 0.003068862275449102 0.003068862275449102 7.485029940119759e-05 7.485029940119759e-05 0.005250000000000001 0.01525 0.06025000000000001 0.16025 0.13525 0.09525000000000002 0.23025 0.03525 0.04525000000000001 0.07025000000000002 0.09025000000000002 0.01525 0.01025 0.00025 0.00025 0.02025 0.005250000000000001 0.00025 0.00025 0.005250000000000001 0.01564885496183206 0.0232824427480916 0.05381679389312977 0.1759541984732824 0.09198473282442748 0.06908396946564886 0.1683206106870229 0.0767175572519084 0.04618320610687023 0.06908396946564886 0.09198473282442748 0.03854961832061068 0.000381679389312977 0.000381679389312977 0.000381679389312977 0.05381679389312977 0.00801526717557252 0.00801526717557252 0.00801526717557252 0.000381679389312977 0.001282051282051282 0.001282051282051282 0.02692307692307692 0.1038461538461538 0.1038461538461538 0.001282051282051282 0.2320512820512821 0.1551282051282051 0.1038461538461538 0.07820512820512819 0.05256410256410256 0.1038461538461538 0.001282051282051282 0.001282051282051282 0.001282051282051282 0.02692307692307692 0.001282051282051282 0.001282051282051282 0.001282051282051282 0.001282051282051282</probabilities>
		</cpt>
		<cpt id="GV_FOOTPRINT">
			<state id="s01_below_2" />
			<state id="s02_2_3" />
			<state id="s03_3_3" />
			<state id="s04_3_3" />
			<state id="s05_3_3" />
			<state id="s06_3_3" />
			<state id="s07_3_3" />
			<state id="s08_3_4" />
			<state id="s09_4_4" />
			<state id="s10_4_4" />
			<state id="s11_4_4" />
			<state id="s12_4_4" />
			<state id="s13_4_4" />
			<state id="s14_4_5" />
			<state id="s15_5_5" />
			<state id="s16_5_5" />
			<state id="s17_5_5" />
			<state id="s18_5_5" />
			<state id="s19_5_5" />
			<state id="s20_5_5" />
			<state id="s21_5_6" />
			<state id="s22_6_6" />
			<state id="s23_6_6" />
			<state id="s24_6_6" />
			<state id="s25_6_6" />
			<state id="s26_6_6" />
			<state id="s27_6_6" />
			<state id="s28_6_7" />
			<state id="s29_7_7" />
			<state id="s30_7_7" />
			<state id="s31_7_7" />
			<state id="s32_7_7" />
			<state id="s33_7_up" />
			<parents>OA_MAIS</parents>
			<probabilities>7.1200729095466e-06 0.0009469696969696971 0.01152027796764639 0.02961238323080429 0.05545824789245843 0.1224225336067442 0.0615672704488494 0.1358153907496013 0.09563681932102985 0.1569620072909547 0.06955599225336068 0.05827779676463888 0.04558982683982685 0.03995072909546594 0.0159845636819321 0.004236443381180224 0.01386990202779677 0.004706368193210299 0.00964057871952609 0.00564621781727045 0.03172704488493962 0.005411255411255413 0.01011050353155617 0.001416894508999772 0.001416894508999772 0.003766518569150149 0.002121781727044885 0.003531556163135111 0.0007120072909546595 0.0009469696969696971 7.1200729095466e-06 0.0002420824789245842 0.001181932102984735 0.0001666617648500534 0.001946021195455036 0.01294569767555856 0.03494505063576562 0.05548856406184132 0.1468829348156427 0.05565032401007813 0.1480152544533004 0.1072517474976226 0.1559414919169044 0.06632648059370803 0.05500328421713087 0.04626824701234277 0.03494505063576562 0.01051929845200631 0.001460741350744586 0.01213689793437448 0.003078340833112752 0.006798819642559534 0.003401860729586385 0.01634265658853171 0.005019460211954551 0.007931139280217249 0.001137221454270953 0.0004901816613236866 0.002431301040165486 0.002269541091928669 0.002916580884875935 0.0006519416095605032 0.0004901816613236866 0.00032842171308687 0.00032842171308687 0.0004901816613236866 2.808436543376305e-05 2.808436543376305e-05 0.01763698149240318 0.03617266267868678 0.063049400398798 0.1649956469233578 0.05748869604291293 0.1649956469233578 0.09641362653410848 0.1501671019743309 0.06119583228016964 0.06582975257674055 0.02690482208554499 0.03246552644143007 0.01485662931446064 0.0009548684247479431 0.008369140899261385 0.001881652484062123 0.003735220602690483 0.001881652484062123 0.01392984525514646 0.005588788721318843 0.008369140899261385 0.0009548684247479431 2.808436543376305e-05 0.0009548684247479431 0.0009548684247479431 2.808436543376305e-05 2.808436543376305e-05 2.808436543376305e-05 2.808436543376305e-05 2.808436543376305e-05 2.808436543376305e-05 4.536381781890767e-05 0.003039375793866812 0.01501542369805843 0.05393757938668119 0.06890763926692071 0.1826800943567411 0.05842859735075304 0.1153148248956632 0.1078297949555435 0.1392669207040464 0.06741063327889675 0.05842859735075304 0.03747051351841772 0.02399745962620214 0.006033387769914716 0.003039375793866812 0.01202141172201053 0.006033387769914716 0.003039375793866812 0.00154236980584286 0.02100344765015424 0.00154236980584286 0.004536381781890764 4.536381781890767e-05 0.00154236980584286 0.00154236980584286 0.00154236980584286 0.003039375793866812 4.536381781890767e-05 4.536381781890767e-05 4.536381781890767e-05 0.00154236980584286 4.536381781890767e-05 0.0001515151515151516 0.005151515151515151 0.02015151515151515 0.04015151515151515 0.05015151515151515 0.1851515151515151 0.04515151515151515 0.1551515151515151 0.07515151515151515 0.1601515151515151 0.08015151515151514 0.09015151515151514 0.04015151515151515 0.01015151515151515 0.0001515151515151516 0.0001515151515151516 0.01015151515151515 0.005151515151515151 0.0001515151515151516 0.0001515151515151516 0.01015151515151515 0.0001515151515151516 0.005151515151515151 0.0001515151515151516 0.0001515151515151516 0.01015151515151515 0.0001515151515151516 0.0001515151515151516 0.0001515151515151516 0.0001515151515151516 0.0001515151515151516 0.0001515151515151516 0.0001515151515151516 0.000231320842007865 0.000231320842007865 0.01549849641452694 0.03839925977330556 0.05366643534582465 0.1605366643534582 0.08420078649086281 0.1910710154984964 0.114735137635901 0.1910710154984964 0.06130002313208419 0.03076567198704603 0.03076567198704603 0.01549849641452694 0.000231320842007865 0.000231320842007865 0.000231320842007865 0.000231320842007865 0.007864908628267405 0.000231320842007865 0.000231320842007865 0.000231320842007865 0.000231320842007865 0.000231320842007865 0.000231320842007865 0.000231320842007865 0.000231320842007865 0.000231320842007865 0.000231320842007865 0.000231320842007865 0.000231320842007865 0.000231320842007865 0.000231320842007865 0.0007770007770007773 0.0007770007770007773 0.02641802641802641 0.05205905205905204 0.07770007770007767 0.1546231546231546 0.02641802641802641 0.2315462315462315 0.05205905205905204 0.1289821289821289 0.1289821289821289 0.0007770007770007773 0.0007770007770007773 0.0007770007770007773 0.02641802641802641 0.0007770007770007773 0.02641802641802641 0.0007770007770007773 0.02641802641802641 0.0007770007770007773 0.0007770007770007773 0.0007770007770007773 0.02641802641802641 0.0007770007770007773 0.0007770007770007773 0.0007770007770007773 0.0007770007770007773 0.0007770007770007773 0.0007770007770007773 0.0007770007770007773 0.0007770007770007773 0.0007770007770007773 0.0007770007770007773</probabilities>
		</cpt>
	</nodes>
	<extensions>
		<genie version="1.0" app="GeNIe 2.3.3828.0 ACADEMIC" name="2 - discretised" faultnameformat="nodestate">
			<node id="x__GV_CURBWGT">
				<name>GV_CURBWGT</name>
				<interior color="e5f6f7" />
				<outline color="000080" />
				<font color="000000" name="Arial" size="8" />
				<position>718 384 790 432</position>
			</node>
			<node id="GV_DVLAT">
				<name>GV_DVLAT</name>
				<interior color="e5f6f7" />
				<outline color="000080" />
				<font color="000000" name="Arial" size="8" />
				<position>703 438 775 486</position>
			</node>
			<node id="GV_DVLONG">
				<name>GV_DVLONG</name>
				<interior color="e5f6f7" />
				<outline color="000080" />
				<font color="000000" name="Arial" size="8" />
				<position>661 487 733 535</position>
			</node>
			<node id="GV_ENERGY">
				<name>GV_ENERGY</name>
				<interior color="e5f6f7" />
				<outline color="000080" />
				<font color="000000" name="Arial" size="8" />
				<position>597 523 669 571</position>
			</node>
			<node id="GV_LANES">
				<name>GV_LANES</name>
				<interior color="e5f6f7" />
				<outline color="000080" />
				<font color="000000" name="Arial" size="8" />
				<position>518 542 590 590</position>
			</node>
			<node id="GV_MODELYR">
				<name>GV_MODELYR</name>
				<interior color="e5f6f7" />
				<outline color="000080" />
				<font color="000000" name="Arial" size="8" />
				<position>436 542 508 590</position>
			</node>
			<node id="GV_OTVEHWGT">
				<name>GV_OTVEHWGT</name>
				<interior color="e5f6f7" />
				<outline color="000080" />
				<font color="000000" name="Arial" size="8" />
				<position>357 523 429 571</position>
			</node>
			<node id="GV_SPLIMIT">
				<name>GV_SPLIMIT</name>
				<interior color="e5f6f7" />
				<outline color="000080" />
				<font color="000000" name="Arial" size="8" />
				<position>293 487 365 535</position>
			</node>
			<node id="GV_WGTCDTR">
				<name>GV_WGTCDTR</name>
				<interior color="e5f6f7" />
				<outline color="000080" />
				<font color="000000" name="Arial" size="8" />
				<position>251 438 323 486</position>
			</node>
			<node id="OA_AGE">
				<name>OA_AGE</name>
				<interior color="e5f6f7" />
				<outline color="000080" />
				<font color="000000" name="Arial" size="8" />
				<position>236 384 308 432</position>
			</node>
			<node id="OA_BAGDEPLY">
				<name>OA_BAGDEPLY</name>
				<interior color="e5f6f7" />
				<outline color="000080" />
				<font color="000000" name="Arial" size="8" />
				<position>251 330 323 378</position>
			</node>
			<node id="OA_HEIGHT">
				<name>OA_HEIGHT</name>
				<interior color="e5f6f7" />
				<outline color="000080" />
				<font color="000000" name="Arial" size="8" />
				<position>293 281 365 329</position>
			</node>
			<node id="OA_MAIS">
				<name>OA_MAIS</name>
				<interior color="ffff80" />
				<outline color="000080" />
				<font color="000000" name="Arial" size="8" />
				<position>477 384 549 432</position>
			</node>
			<node id="OA_MANUSE">
				<name>OA_MANUSE</name>
				<interior color="e5f6f7" />
				<outline color="000080" />
				<font color="000000" name="Arial" size="8" />
				<position>357 245 429 293</position>
			</node>
			<node id="OA_SEX">
				<name>OA_SEX</name>
				<interior color="e5f6f7" />
				<outline color="000080" />
				<font color="000000" name="Arial" size="8" />
				<position>436 226 508 274</position>
			</node>
			<node id="OA_WEIGHT">
				<name>OA_WEIGHT</name>
				<interior color="e5f6f7" />
				<outline color="000080" />
				<font color="000000" name="Arial" size="8" />
				<position>518 226 590 274</position>
			</node>
			<node id="VE_GAD1">
				<name>VE_GAD1</name>
				<interior color="e5f6f7" />
				<outline color="000080" />
				<font color="000000" name="Arial" size="8" />
				<position>597 245 669 293</position>
			</node>
			<node id="VE_PDOF_TR">
				<name>VE_PDOF_TR</name>
				<interior color="e5f6f7" />
				<outline color="000080" />
				<font color="000000" name="Arial" size="8" />
				<position>661 281 733 329</position>
			</node>
			<node id="GV_FOOTPRINT">
				<name>GV_FOOTPRINT</name>
				<interior color="e5f6f7" />
				<outline color="000080" />
				<font color="000000" name="Arial" size="8" />
				<position>703 330 775 378</position>
			</node>
			<textbox>
				<caption>Input file: 2 - discretised\nData rows: 12548\nElapsed time: 0.75s\n\nLearning algorithm: Naive Bayes\nAlgorithm parameters:\nClass variable: OA_MAIS\n\nEM Log Likelihood: -423905</caption>
				<font color="000000" name="Arial" size="8" />
				<position>12 345 167 471</position>
			</textbox>
		</genie>
	</extensions>
</smile>
