<?xml version="1.0" encoding="ISO-8859-1"?>
<!-- This network was created in GeNIe Academic, which can be used for educational and research purposes only -->
<smile version="1.0" id="vehicle_safety_final__Impute___undersampled_categorised_" numsamples="10000" discsamples="10000">
	<nodes>
		<cpt id="OA_MAIS">
			<state id="State0" />
			<state id="State1" />
			<state id="State2" />
			<state id="State3" />
			<state id="State4" />
			<state id="State5" />
			<state id="State6" />
			<probabilities>0.1459078476751525 0.148116978750263 0.1598990111508521 0.1753629286766253 0.148116978750263 0.1598990111508521 0.062697243845992</probabilities>
		</cpt>
		<cpt id="GV_CURBWGT">
			<state id="s01_below_800" />
			<state id="s02_800_1035" />
			<state id="s03_1035_1335" />
			<state id="s04_1335_1555" />
			<state id="s05_1555_1675" />
			<state id="s06_1675_1935" />
			<state id="s07_1935_2075" />
			<state id="s08_2075_2210" />
			<state id="s09_2210_2350" />
			<state id="s10_2350_2570" />
			<state id="s11_2570_2735" />
			<state id="s12_2735_2910" />
			<state id="s13_2910_3130" />
			<state id="s14_3130_3355" />
			<state id="s15_3355_up" />
			<parents>OA_MAIS</parents>
			<probabilities>0.0003350083752093803 0.005360134003350084 0.2214405360134004 0.2867671691792295 0.1309882747068677 0.1460636515912898 0.06566164154103853 0.0254606365159129 0.0304857621440536 0.07068676716917922 0.005360134003350084 0.005360134003350084 0.005360134003350084 0.0003350083752093803 0.0003350083752093803 0.0003300330033003301 0.0003300330033003301 0.2429042904290429 0.2973597359735974 0.1389438943894389 0.1686468646864687 0.03003300330033003 0.02013201320132013 0.02013201320132013 0.03498349834983498 0.02508250825082508 0.01518151815181518 0.005280528052805281 0.0003300330033003301 0.0003300330033003301 0.0003058103975535169 0.009480122324159023 0.2296636085626912 0.2984709480122324 0.1012232415902141 0.1562691131498471 0.08287461773700307 0.02324159021406728 0.03241590214067278 0.04159021406727829 0.01406727828746178 0.0003058103975535169 0.00489296636085627 0.00489296636085627 0.0003058103975535169 0.0002789400278940028 0.02538354253835425 0.2638772663877266 0.2638772663877266 0.1132496513249651 0.1760111576011158 0.05467224546722454 0.04630404463040446 0.03375174337517434 0.01283124128312413 0.004463040446304044 0.0002789400278940028 0.0002789400278940028 0.0002789400278940028 0.004463040446304044 0.005280528052805281 0.01518151815181518 0.2874587458745875 0.2627062706270627 0.1290429042904291 0.1636963696369637 0.05478547854785479 0.02013201320132013 0.01023102310231023 0.03003300330033003 0.02013201320132013 0.0003300330033003301 0.0003300330033003301 0.0003300330033003301 0.0003300330033003301 0.0003058103975535169 0.00489296636085627 0.2709480122324159 0.4039755351681957 0.08746177370030582 0.1425076452599388 0.04159021406727829 0.01406727828746178 0.00489296636085627 0.01406727828746178 0.00489296636085627 0.009480122324159023 0.0003058103975535169 0.0003058103975535169 0.0003058103975535169 0.0007751937984496125 0.0007751937984496125 0.2333333333333333 0.3263565891472868 0.151937984496124 0.1286821705426356 0.03565891472868217 0.03565891472868217 0.0124031007751938 0.02403100775193799 0.03565891472868217 0.0124031007751938 0.0007751937984496125 0.0007751937984496125 0.0007751937984496125</probabilities>
		</cpt>
		<cpt id="GV_DVLAT">
			<state id="s01_below_n78" />
			<state id="s02_n78_n70" />
			<state id="s03_n70_n64" />
			<state id="s04_n64_n54" />
			<state id="s05_n54_n47" />
			<state id="s06_n47_n41" />
			<state id="s07_n41_n33" />
			<state id="s08_n33_n26" />
			<state id="s09_n26_n16" />
			<state id="s10_n16_n10" />
			<state id="s11_n10_0" />
			<state id="s12_0_3" />
			<state id="s13_3_13" />
			<state id="s14_13_17" />
			<state id="s15_17_25" />
			<state id="s16_25_31" />
			<state id="s17_31_44" />
			<state id="s18_44_56" />
			<state id="s19_56_61" />
			<state id="s20_61_up" />
			<parents>OA_MAIS</parents>
			<probabilities>0.0002512562814070351 0.0002512562814070351 0.0002512562814070351 0.0002512562814070351 0.0002512562814070351 0.0002512562814070351 0.00527638190954774 0.01030150753768844 0.02035175879396985 0.06557788944723619 0.2163316582914573 0.3520100502512563 0.2414572864321608 0.05050251256281409 0.03040201005025126 0.00527638190954774 0.0002512562814070351 0.0002512562814070351 0.0002512562814070351 0.0002512562814070351 0.0002475247524752475 0.0002475247524752475 0.0002475247524752475 0.0002475247524752475 0.0002475247524752475 0.0002475247524752475 0.005198019801980198 0.0150990099009901 0.04975247524752476 0.05965346534653466 0.1834158415841584 0.3121287128712871 0.2576732673267327 0.04480198019801981 0.04975247524752476 0.0150990099009901 0.0002475247524752475 0.005198019801980198 0.0002475247524752475 0.0002475247524752475 0.0002293577981651376 0.0002293577981651376 0.0002293577981651376 0.0002293577981651376 0.0002293577981651376 0.0002293577981651376 0.0139908256880734 0.02775229357798165 0.03692660550458716 0.07821100917431194 0.151605504587156 0.2662844036697248 0.2708715596330275 0.03233944954128441 0.05986238532110092 0.02775229357798165 0.01857798165137615 0.009403669724770643 0.0002293577981651376 0.00481651376146789 0.000209205020920502 0.000209205020920502 0.004393305439330543 0.000209205020920502 0.004393305439330543 0.000209205020920502 0.01276150627615063 0.01694560669456067 0.05878661087866108 0.08807531380753138 0.09644351464435146 0.2638075313807531 0.2387029288702928 0.03786610878661088 0.09225941422594142 0.04205020920502092 0.02949790794979079 0.008577405857740585 0.000209205020920502 0.004393305439330543 0.0002475247524752475 0.0002475247524752475 0.0002475247524752475 0.005198019801980198 0.0150990099009901 0.01014851485148515 0.03985148514851485 0.03985148514851485 0.05965346534653466 0.02004950495049505 0.07945544554455446 0.1834158415841584 0.1636138613861386 0.09430693069306931 0.1141089108910891 0.05965346534653466 0.08935643564356437 0.02004950495049505 0.005198019801980198 0.0002475247524752475 0.0002293577981651376 0.0002293577981651376 0.00481651376146789 0.01857798165137615 0.0139908256880734 0.01857798165137615 0.03233944954128441 0.02775229357798165 0.06444954128440368 0.04610091743119266 0.0919724770642202 0.2158256880733945 0.1470183486238532 0.02775229357798165 0.1011467889908257 0.05068807339449542 0.1011467889908257 0.02775229357798165 0.0002293577981651376 0.009403669724770643 0.03546511627906977 0.0122093023255814 0.0122093023255814 0.03546511627906977 0.0122093023255814 0.0122093023255814 0.02383720930232558 0.04709302325581395 0.0005813953488372092 0.0819767441860465 0.07034883720930232 0.2912790697674419 0.1633720930232558 0.03546511627906977 0.07034883720930232 0.05872093023255814 0.0122093023255814 0.02383720930232558 0.0005813953488372092 0.0005813953488372092</probabilities>
		</cpt>
		<cpt id="GV_DVLONG">
			<state id="s01_below_n137" />
			<state id="s02_n137_n125" />
			<state id="s03_n125_n112" />
			<state id="s04_n112_n91" />
			<state id="s05_n91_n81" />
			<state id="s06_n81_n73" />
			<state id="s07_n73_n64" />
			<state id="s08_n64_n54" />
			<state id="s09_n54_n48" />
			<state id="s10_n48_n38" />
			<state id="s11_n38_n28" />
			<state id="s12_n28_n20" />
			<state id="s13_n20_n6" />
			<state id="s14_n6_1" />
			<state id="s15_1_17" />
			<state id="s16_17_28" />
			<state id="s17_28_39" />
			<state id="s18_39_53" />
			<state id="s19_53_68" />
			<state id="s20_68_up" />
			<parents>OA_MAIS</parents>
			<probabilities>0.0002512562814070351 0.0002512562814070351 0.0002512562814070351 0.0002512562814070351 0.0002512562814070351 0.0002512562814070351 0.0002512562814070351 0.0002512562814070351 0.005276381909547739 0.005276381909547739 0.06055276381909548 0.1309045226130653 0.5278894472361809 0.1560301507537689 0.04547738693467337 0.04045226130653267 0.02537688442211055 0.0002512562814070351 0.0002512562814070351 0.0002512562814070351 0.0002475247524752475 0.0002475247524752475 0.0002475247524752475 0.0002475247524752475 0.0002475247524752475 0.0002475247524752475 0.005198019801980198 0.0150990099009901 0.0002475247524752475 0.02995049504950495 0.1141089108910891 0.223019801980198 0.4111386138613861 0.07450495049504952 0.05965346534653466 0.03985148514851485 0.0150990099009901 0.01014851485148515 0.0002475247524752475 0.0002475247524752475 0.0002293577981651376 0.0002293577981651376 0.0002293577981651376 0.0002293577981651376 0.0002293577981651376 0.00481651376146789 0.00481651376146789 0.0139908256880734 0.0231651376146789 0.07362385321100919 0.1653669724770642 0.1791284403669725 0.4176605504587156 0.05986238532110092 0.0231651376146789 0.0139908256880734 0.00481651376146789 0.0139908256880734 0.0002293577981651376 0.0002293577981651376 0.000209205020920502 0.000209205020920502 0.000209205020920502 0.000209205020920502 0.000209205020920502 0.004393305439330543 0.02531380753138075 0.04623430962343096 0.05878661087866108 0.09644351464435146 0.1466527196652719 0.1926778242677824 0.3098326359832635 0.04205020920502092 0.03368200836820084 0.01276150627615063 0.01276150627615063 0.01276150627615063 0.004393305439330543 0.000209205020920502 0.0002475247524752475 0.0002475247524752475 0.005198019801980198 0.02004950495049505 0.02004950495049505 0.02004950495049505 0.02995049504950495 0.04975247524752476 0.04480198019801981 0.07450495049504952 0.1438118811881188 0.1537128712871287 0.2626237623762376 0.1042079207920792 0.03985148514851485 0.005198019801980198 0.01014851485148515 0.0150990099009901 0.0002475247524752475 0.0002475247524752475 0.009403669724770643 0.0139908256880734 0.0002293577981651376 0.01857798165137615 0.01857798165137615 0.03233944954128441 0.0231651376146789 0.05986238532110092 0.04610091743119266 0.07362385321100919 0.1057339449541285 0.1974770642201835 0.2158256880733945 0.07821100917431194 0.04610091743119266 0.01857798165137615 0.009403669724770643 0.01857798165137615 0.009403669724770643 0.00481651376146789 0.0005813953488372092 0.0005813953488372092 0.0005813953488372092 0.0005813953488372092 0.03546511627906977 0.1052325581395349 0.0819767441860465 0.1168604651162791 0.04709302325581395 0.09360465116279071 0.1284883720930233 0.09360465116279071 0.1284883720930233 0.0819767441860465 0.04709302325581395 0.0122093023255814 0.0005813953488372092 0.0122093023255814 0.0122093023255814 0.0005813953488372092</probabilities>
		</cpt>
		<cpt id="GV_ENERGY">
			<state id="s01_below_113" />
			<state id="s02_113_167" />
			<state id="s03_167_230" />
			<state id="s04_230_290" />
			<state id="s05_290_366" />
			<state id="s06_366_468" />
			<state id="s07_468_577" />
			<state id="s08_577_717" />
			<state id="s09_717_877" />
			<state id="s10_877_1099" />
			<state id="s11_1099_1433" />
			<state id="s12_1433_1833" />
			<state id="s13_1833_2554" />
			<state id="s14_2554_3893" />
			<state id="s15_3893_up" />
			<parents>OA_MAIS</parents>
			<probabilities>0.2465661641541039 0.1460636515912898 0.1561139028475712 0.1360134003350084 0.06566164154103853 0.07068676716917922 0.06566164154103853 0.04053601340033501 0.0304857621440536 0.01541038525963149 0.01541038525963149 0.005360134003350084 0.0003350083752093803 0.0003350083752093803 0.005360134003350084 0.1092409240924092 0.1488448844884488 0.1389438943894389 0.09438943894389439 0.1042904290429043 0.08448844884488449 0.1042904290429043 0.05478547854785479 0.03003300330033003 0.06963696369636964 0.02508250825082508 0.005280528052805281 0.01518151815181518 0.01023102310231023 0.005280528052805281 0.03700305810397553 0.08287461773700307 0.04159021406727829 0.08287461773700307 0.1470948012232416 0.07370030581039756 0.07370030581039756 0.09663608562691132 0.08287461773700307 0.08746177370030582 0.07370030581039756 0.03700305810397553 0.05535168195718655 0.01406727828746178 0.01406727828746178 0.02538354253835425 0.03793584379358438 0.04211994421199441 0.04630404463040446 0.05467224546722454 0.07977684797768479 0.0714086471408647 0.1090655509065551 0.1216178521617852 0.05885634588563458 0.1216178521617852 0.08396094839609483 0.0714086471408647 0.04630404463040446 0.02956764295676429 0.02013201320132013 0.005280528052805281 0.02508250825082508 0.02508250825082508 0.03003300330033003 0.05478547854785479 0.06468646864686468 0.06468646864686468 0.06963696369636964 0.1191419141914191 0.1042904290429043 0.1141914191419142 0.1290429042904291 0.07458745874587459 0.09933993399339934 0.0003058103975535169 0.00489296636085627 0.03700305810397553 0.03700305810397553 0.02782874617737003 0.0599388379204893 0.04617737003058104 0.04159021406727829 0.07828746177370031 0.05076452599388379 0.06452599388379206 0.1195718654434251 0.1012232415902141 0.1700305810397554 0.1608562691131499 0.0124031007751938 0.02403100775193799 0.0007751937984496126 0.0124031007751938 0.0007751937984496126 0.0124031007751938 0.0124031007751938 0.02403100775193799 0.0124031007751938 0.04728682170542636 0.04728682170542636 0.1286821705426357 0.1286821705426357 0.2565891472868218 0.2798449612403101</probabilities>
		</cpt>
		<cpt id="GV_LANES">
			<state id="State1" />
			<state id="State2" />
			<state id="State3" />
			<state id="State4" />
			<state id="State5" />
			<state id="State6" />
			<state id="State7" />
			<parents>OA_MAIS</parents>
			<probabilities>0.02584350323043791 0.3575017946877244 0.2067480258435033 0.1916726489590812 0.1816223977027998 0.02081837760229721 0.0157932519741565 0.01555869872701556 0.3719943422913721 0.2086280056577087 0.2284299858557285 0.1393210749646394 0.01555869872701556 0.02050919377652052 0.01900393184796855 0.4226736566186107 0.1703800786369594 0.1979030144167759 0.1153342070773263 0.04652686762778506 0.02817824377457405 0.008965929468021518 0.4985056784219964 0.1261207411835027 0.155409444112373 0.1595935445307831 0.03825463239689181 0.01315002988643156 0.03041018387553042 0.5205091937765206 0.2234794908062235 0.1244695898161245 0.06506364922206508 0.02545968882602547 0.01060820367751061 0.0235910878112713 0.4777195281782438 0.1428571428571428 0.2437745740498034 0.07863695937090433 0.02817824377457405 0.005242463958060288 0.001661129568106313 0.4667774086378738 0.2109634551495017 0.1877076411960133 0.07142857142857144 0.0132890365448505 0.04817275747508306</probabilities>
		</cpt>
		<cpt id="GV_MODELYR">
			<state id="State2000" />
			<state id="State2001" />
			<state id="State2002" />
			<state id="State2003" />
			<state id="State2004" />
			<state id="State2005" />
			<state id="State2006" />
			<state id="State2007" />
			<state id="State2008" />
			<state id="State2009" />
			<state id="State2010" />
			<state id="State2011" />
			<state id="State2012" />
			<parents>OA_MAIS</parents>
			<probabilities>0.1662156938538848 0.1159644375724778 0.1260146888287592 0.146115191341322 0.1059141863161964 0.09586393505991496 0.07073830691921144 0.08078855817549285 0.03053730189408581 0.03053730189408581 0.005411673753382296 0.02048705063780441 0.005411673753382296 0.143945163747144 0.1191926884996192 0.1488956587966489 0.09444021325209445 0.1142421934501143 0.1092916984006093 0.0795887281035796 0.0795887281035796 0.0696877380045697 0.01028179741051028 0.03008377760853009 0.000380807311500381 0.000380807311500381 0.08750882145377559 0.1838390966831334 0.1379675370501059 0.1471418489767114 0.09668313338038109 0.09668313338038109 0.07374735356386733 0.06916019760056458 0.04163726182074806 0.04163726182074806 0.0187014820042343 0.004940014114326041 0.0003528581510232888 0.1635017701963309 0.1383971676858706 0.1383971676858706 0.1551335693595108 0.1091084647570003 0.1342130672674606 0.05471515931766977 0.04634695848084969 0.03379465722561956 0.004505954296749275 0.0170582555519794 0.004505954296749275 0.000321853878339234 0.1686976389946687 0.1439451637471439 0.1637471439451637 0.1241431835491241 0.1290936785986291 0.06968773800456968 0.06473724295506472 0.05978674790555977 0.03503427265803503 0.01523229246001523 0.01523229246001523 0.01028179741051028 0.0003808073115003808 0.1746647847565279 0.1654904728299224 0.1838390966831334 0.1150317572335921 0.1012702893436838 0.1058574453069866 0.05081157374735355 0.05998588567395906 0.02328863796753704 0.0003528581510232887 0.0187014820042343 0.0003528581510232887 0.0003528581510232887 0.1404293381037567 0.1520572450805009 0.1404293381037567 0.1055456171735241 0.1288014311270125 0.08228980322003578 0.08228980322003578 0.07066189624329158 0.03577817531305903 0.03577817531305903 0.02415026833631485 0.0008944543828264761 0.0008944543828264761</probabilities>
		</cpt>
		<cpt id="GV_OTVEHWGT">
			<state id="s01_below_780" />
			<state id="s02_780_1010" />
			<state id="s03_1010_1135" />
			<state id="s04_1135_1335" />
			<state id="s05_1335_1455" />
			<state id="s06_1455_1575" />
			<state id="s07_1575_1695" />
			<state id="s08_1695_1855" />
			<state id="s09_1855_2075" />
			<state id="s10_2075_2255" />
			<state id="s11_2255_2400" />
			<state id="s12_2400_2535" />
			<state id="s13_2535_2645" />
			<state id="s14_2645_2800" />
			<state id="s15_2800_2955" />
			<state id="s16_2955_3205" />
			<state id="s17_3205_3310" />
			<state id="s18_3310_3675" />
			<state id="s19_3675_4195" />
			<state id="s20_4195_up" />
			<parents>OA_MAIS</parents>
			<probabilities>0.00527638190954774 0.00527638190954774 0.1057788944723618 0.1560301507537689 0.1610552763819096 0.1309045226130653 0.1208542713567839 0.1158291457286432 0.1208542713567839 0.02035175879396985 0.01030150753768844 0.01030150753768844 0.01532663316582915 0.01030150753768844 0.00527638190954774 0.00527638190954774 0.0002512562814070351 0.0002512562814070351 0.0002512562814070351 0.0002512562814070351 0.0002475247524752475 0.0150990099009901 0.04975247524752476 0.1735148514851485 0.1190594059405941 0.1438118811881188 0.1388613861386139 0.1091584158415842 0.09925742574257426 0.06460396039603961 0.005198019801980198 0.0349009900990099 0.0150990099009901 0.02004950495049505 0.005198019801980198 0.005198019801980198 0.0002475247524752475 0.0002475247524752475 0.0002475247524752475 0.0002475247524752475 0.0002293577981651376 0.009403669724770643 0.04151376146788991 0.1240825688073395 0.1378440366972477 0.188302752293578 0.08738532110091744 0.09655963302752295 0.133256880733945 0.09655963302752295 0.03692660550458716 0.01857798165137615 0.0139908256880734 0.00481651376146789 0.0002293577981651376 0.00481651376146789 0.0002293577981651376 0.00481651376146789 0.0002293577981651376 0.0002293577981651376 0.0002092050209205021 0.01694560669456067 0.02112970711297072 0.1215481171548118 0.1550209205020921 0.1550209205020921 0.1173640167364017 0.150836820083682 0.07970711297071133 0.07970711297071133 0.03368200836820085 0.01694560669456067 0.02112970711297072 0.02112970711297072 0.0002092050209205021 0.004393305439330545 0.0002092050209205021 0.004393305439330545 0.0002092050209205021 0.0002092050209205021 0.0002475247524752475 0.0150990099009901 0.02995049504950495 0.07945544554455446 0.08935643564356437 0.1487623762376238 0.07450495049504952 0.2032178217821782 0.1190594059405941 0.07450495049504952 0.06955445544554456 0.02995049504950495 0.0150990099009901 0.0150990099009901 0.01014851485148515 0.0150990099009901 0.0002475247524752475 0.005198019801980198 0.0002475247524752475 0.005198019801980198 0.0002293577981651376 0.00481651376146789 0.02775229357798165 0.08279816513761469 0.1103211009174312 0.1470183486238532 0.08279816513761469 0.151605504587156 0.1378440366972477 0.07821100917431194 0.05068807339449542 0.05527522935779817 0.0231651376146789 0.009403669724770643 0.0139908256880734 0.009403669724770643 0.00481651376146789 0.0002293577981651376 0.009403669724770643 0.0002293577981651376 0.0005813953488372092 0.0005813953488372092 0.0005813953488372092 0.0819767441860465 0.1284883720930233 0.1401162790697675 0.07034883720930232 0.1866279069767442 0.1168604651162791 0.0819767441860465 0.05872093023255814 0.03546511627906977 0.0122093023255814 0.03546511627906977 0.0122093023255814 0.03546511627906977 0.0005813953488372092 0.0005813953488372092 0.0005813953488372092 0.0005813953488372092</probabilities>
		</cpt>
		<cpt id="GV_SPLIMIT">
			<state id="s1_below_10" />
			<state id="s2_10_20" />
			<state id="s3_20_30" />
			<state id="s4_30_40" />
			<state id="s5_40_50" />
			<state id="s6_50_60" />
			<state id="s7_60_70" />
			<state id="s8_70_up" />
			<parents>OA_MAIS</parents>
			<probabilities>0.0006281407035175879 0.005653266331658292 0.1061557788944724 0.4277638190954774 0.2669597989949749 0.1363065326633166 0.03580402010050251 0.0207286432160804 0.005569306930693069 0.01051980198019802 0.07487623762376237 0.307549504950495 0.3521039603960396 0.1689356435643564 0.05507425742574257 0.02537128712871287 0.009747706422018349 0.0005733944954128441 0.07855504587155963 0.3262614678899083 0.2987385321100918 0.2069954128440367 0.06479357798165138 0.0143348623853211 0.01307531380753138 0.004707112970711296 0.06328451882845187 0.2641213389121339 0.3896443514644351 0.2013598326359833 0.04654811715481171 0.01725941422594142 0.02042079207920792 0.005569306930693069 0.09467821782178218 0.2679455445544555 0.3125 0.213490099009901 0.05012376237623763 0.03527227722772278 0.009747706422018349 0.005160550458715597 0.05103211009174312 0.2345183486238532 0.330848623853211 0.2620412844036697 0.08314220183486239 0.02350917431192661 0.001453488372093023 0.001453488372093023 0.01308139534883721 0.1875 0.3502906976744186 0.3386627906976744 0.08284883720930232 0.02470930232558139</probabilities>
		</cpt>
		<cpt id="GV_WGTCDTR">
			<state id="SPassenger_Car" />
			<state id="STruck____10000_lbs__" />
			<state id="STruck____6000_lbs__" />
			<parents>OA_MAIS</parents>
			<probabilities>0.5745393634840871 0.1222780569514238 0.3031825795644891 0.6353135313531353 0.1056105610561056 0.259075907590759 0.5840978593272171 0.1207951070336391 0.2951070336391437 0.6206415620641562 0.1269177126917712 0.2524407252440725 0.6947194719471946 0.0759075907590759 0.2293729372937293 0.7217125382262997 0.07033639143730887 0.2079510703363914 0.7131782945736435 0.06201550387596899 0.2248062015503876</probabilities>
		</cpt>
		<cpt id="OA_AGE">
			<state id="s01_below_10" />
			<state id="s02_10_20" />
			<state id="s03_20_30" />
			<state id="s04_30_40" />
			<state id="s05_40_50" />
			<state id="s06_50_60" />
			<state id="s07_60_70" />
			<state id="s08_70_80" />
			<state id="s09_80_90" />
			<state id="s10_90_up" />
			<parents>OA_MAIS</parents>
			<probabilities>0.0005025125628140705 0.08090452261306534 0.2869346733668342 0.1663316582914573 0.2517587939698492 0.1010050251256281 0.0457286432160804 0.03567839195979899 0.02562814070351759 0.005527638190954774 0.0004950495049504953 0.09455445544554457 0.2777227722772277 0.1688118811881188 0.1886138613861386 0.1292079207920792 0.06485148514851485 0.05 0.02524752475247525 0.0004950495049504953 0.0004587155963302754 0.1059633027522936 0.2298165137614679 0.1472477064220184 0.1793577981651376 0.1334862385321101 0.1151376146788991 0.03256880733944954 0.0463302752293578 0.00963302752293578 0.0004184100418410043 0.07573221757322175 0.1928870292887029 0.1719665271966527 0.1803347280334728 0.1845188284518828 0.09246861924686192 0.0506276150627615 0.0506276150627615 0.0004184100418410043 0.0004950495049504953 0.08960396039603961 0.1985148514851485 0.1094059405940594 0.1589108910891089 0.149009900990099 0.1242574257425743 0.1094059405940594 0.05495049504950495 0.005445544554455446 0.0004587155963302754 0.08302752293577982 0.1977064220183486 0.1243119266055046 0.1564220183486239 0.1426605504587156 0.05550458715596331 0.1380733944954129 0.09220183486238533 0.00963302752293578 0.001162790697674419 0.05930232558139534 0.1872093023255814 0.1988372093023256 0.1406976744186046 0.2104651162790698 0.08255813953488371 0.05930232558139534 0.04767441860465116 0.01279069767441861</probabilities>
		</cpt>
		<cpt id="OA_BAGDEPLY">
			<state id="Deployed" />
			<state id="SNot_Deployed" />
			<parents>OA_MAIS</parents>
			<probabilities>0.2989949748743719 0.7010050251256281 0.4826732673267327 0.5173267326732673 0.7087155963302753 0.2912844036697248 0.7552301255230125 0.2447698744769874 0.6361386138613861 0.3638613861386139 0.6903669724770642 0.3096330275229358 0.8081395348837209 0.1918604651162791</probabilities>
		</cpt>
		<cpt id="OA_HEIGHT">
			<state id="s1_below_165" />
			<state id="s2_165_170" />
			<state id="s3_170_180" />
			<state id="s4_180_up" />
			<parents>OA_MAIS</parents>
			<probabilities>0.2324120603015075 0.1620603015075377 0.3530150753768844 0.2525125628140704 0.2438118811881188 0.1893564356435644 0.2834158415841584 0.2834158415841584 0.2993119266055046 0.180045871559633 0.2855504587155964 0.2350917431192661 0.2269874476987447 0.1433054393305439 0.3776150627615062 0.252092050209205 0.3032178217821782 0.1745049504950495 0.3032178217821782 0.2190594059405941 0.2350917431192661 0.1754587155963303 0.3084862385321101 0.2809633027522936 0.1424418604651163 0.2005813953488372 0.4215116279069767 0.2354651162790698</probabilities>
		</cpt>
		<cpt id="OA_SEX">
			<state id="Female" />
			<state id="Male" />
			<parents>OA_MAIS</parents>
			<probabilities>0.4045226130653267 0.5954773869346733 0.551980198019802 0.448019801980198 0.5160550458715597 0.4839449541284404 0.4581589958158995 0.5418410041841004 0.4925742574257426 0.5074257425742574 0.4105504587155964 0.5894495412844037 0.3430232558139535 0.6569767441860465</probabilities>
		</cpt>
		<cpt id="OA_WEIGHT">
			<state id="s1_below_70" />
			<state id="s2_70_100" />
			<state id="s3_100_130" />
			<state id="s4_130_up" />
			<parents>OA_MAIS</parents>
			<probabilities>0.3831658291457287 0.5288944723618091 0.07663316582914573 0.01130653266331658 0.3824257425742574 0.4616336633663367 0.1398514851485149 0.01608910891089109 0.3314220183486239 0.5378440366972478 0.1204128440366972 0.01032110091743119 0.3148535564853556 0.457112970711297 0.1851464435146443 0.04288702928870292 0.3626237623762376 0.4418316831683168 0.1695544554455446 0.02599009900990099 0.3222477064220184 0.44151376146789 0.1754587155963303 0.06077981651376147 0.2354651162790698 0.4331395348837209 0.2354651162790698 0.09593023255813954</probabilities>
		</cpt>
		<cpt id="VE_PDOF_TR">
			<state id="s1_below_95" />
			<state id="s2_95_125" />
			<state id="s3_125_135" />
			<state id="s4_135_175" />
			<state id="s5_175_up" />
			<parents>OA_MAIS</parents>
			<probabilities>0.09145728643216081 0.1618090452261307 0.0814070351758794 0.4231155778894473 0.2422110552763819 0.1396039603960396 0.1693069306930693 0.1049504950495049 0.3475247524752476 0.2386138613861386 0.1568807339449541 0.1018348623853211 0.1660550458715596 0.418348623853211 0.1568807339449541 0.201673640167364 0.09288702928870292 0.1556485355648536 0.3564853556485356 0.1933054393305439 0.2732673267326733 0.1544554455445545 0.0900990099009901 0.2435643564356436 0.2386138613861386 0.271559633027523 0.09724770642201835 0.07889908256880734 0.308256880733945 0.2440366972477064 0.1534883720930232 0.08372093023255814 0.06046511627906977 0.4325581395348838 0.2697674418604651</probabilities>
		</cpt>
		<cpt id="GV_FOOTPRINT">
			<state id="s1_below_4" />
			<state id="s2_4_5" />
			<state id="s3_5_6" />
			<state id="s4_6_7" />
			<state id="s5_7_up" />
			<parents>OA_MAIS</parents>
			<probabilities>0.3226130653266332 0.5336683417085427 0.07135678391959799 0.06633165829145729 0.006030150753768844 0.2930693069306931 0.6 0.05049504950495049 0.05049504950495049 0.005940594059405941 0.2761467889908257 0.6110091743119266 0.09724770642201835 0.01009174311926606 0.005504587155963303 0.3523012552301255 0.5322175732217573 0.06778242677824267 0.04686192468619246 0.0008368200836820083 0.3227722772277228 0.5851485148514852 0.05049504950495049 0.03564356435643565 0.005940594059405941 0.3128440366972478 0.6201834862385321 0.03302752293577982 0.03302752293577982 0.0009174311926605505 0.3511627906976744 0.5604651162790697 0.06046511627906976 0.02558139534883721 0.002325581395348837</probabilities>
		</cpt>
	</nodes>
	<extensions>
		<genie version="1.0" app="GeNIe 2.3.3828.0 ACADEMIC" name="Naive (Undersampled)" faultnameformat="nodestate">
			<node id="GV_CURBWGT">
				<name>GV_CURBWGT</name>
				<interior color="e5f6f7" />
				<outline color="000080" />
				<font color="000000" name="Arial" size="8" />
				<position>466 167 538 215</position>
			</node>
			<node id="GV_DVLAT">
				<name>GV_DVLAT</name>
				<interior color="e5f6f7" />
				<outline color="000080" />
				<font color="000000" name="Arial" size="8" />
				<position>449 221 521 269</position>
			</node>
			<node id="GV_DVLONG">
				<name>GV_DVLONG</name>
				<interior color="e5f6f7" />
				<outline color="000080" />
				<font color="000000" name="Arial" size="8" />
				<position>403 268 475 316</position>
			</node>
			<node id="GV_ENERGY">
				<name>GV_ENERGY</name>
				<interior color="e5f6f7" />
				<outline color="000080" />
				<font color="000000" name="Arial" size="8" />
				<position>333 299 405 347</position>
			</node>
			<node id="GV_LANES">
				<name>GV_LANES</name>
				<interior color="e5f6f7" />
				<outline color="000080" />
				<font color="000000" name="Arial" size="8" />
				<position>251 310 323 358</position>
			</node>
			<node id="GV_MODELYR">
				<name>GV_MODELYR</name>
				<interior color="e5f6f7" />
				<outline color="000080" />
				<font color="000000" name="Arial" size="8" />
				<position>169 299 241 347</position>
			</node>
			<node id="GV_OTVEHWGT">
				<name>GV_OTVEHWGT</name>
				<interior color="e5f6f7" />
				<outline color="000080" />
				<font color="000000" name="Arial" size="8" />
				<position>99 268 171 316</position>
			</node>
			<node id="GV_SPLIMIT">
				<name>GV_SPLIMIT</name>
				<interior color="e5f6f7" />
				<outline color="000080" />
				<font color="000000" name="Arial" size="8" />
				<position>53 221 125 269</position>
			</node>
			<node id="GV_WGTCDTR">
				<name>GV_WGTCDTR</name>
				<interior color="e5f6f7" />
				<outline color="000080" />
				<font color="000000" name="Arial" size="8" />
				<position>36 167 108 215</position>
			</node>
			<node id="OA_AGE">
				<name>OA_AGE</name>
				<interior color="e5f6f7" />
				<outline color="000080" />
				<font color="000000" name="Arial" size="8" />
				<position>53 113 125 161</position>
			</node>
			<node id="OA_BAGDEPLY">
				<name>OA_BAGDEPLY</name>
				<interior color="e5f6f7" />
				<outline color="000080" />
				<font color="000000" name="Arial" size="8" />
				<position>99 66 171 114</position>
			</node>
			<node id="OA_HEIGHT">
				<name>OA_HEIGHT</name>
				<interior color="e5f6f7" />
				<outline color="000080" />
				<font color="000000" name="Arial" size="8" />
				<position>169 35 241 83</position>
			</node>
			<node id="OA_MAIS">
				<name>OA_MAIS</name>
				<interior color="ffff80" />
				<outline color="000080" />
				<font color="000000" name="Arial" size="8" />
				<position>251 167 323 215</position>
			</node>
			<node id="OA_SEX">
				<name>OA_SEX</name>
				<interior color="e5f6f7" />
				<outline color="000080" />
				<font color="000000" name="Arial" size="8" />
				<position>251 24 323 72</position>
			</node>
			<node id="OA_WEIGHT">
				<name>OA_WEIGHT</name>
				<interior color="e5f6f7" />
				<outline color="000080" />
				<font color="000000" name="Arial" size="8" />
				<position>333 35 405 83</position>
			</node>
			<node id="VE_PDOF_TR">
				<name>VE_PDOF_TR</name>
				<interior color="e5f6f7" />
				<outline color="000080" />
				<font color="000000" name="Arial" size="8" />
				<position>403 66 475 114</position>
			</node>
			<node id="GV_FOOTPRINT">
				<name>GV_FOOTPRINT</name>
				<interior color="e5f6f7" />
				<outline color="000080" />
				<font color="000000" name="Arial" size="8" />
				<position>449 113 521 161</position>
			</node>
			<textbox>
				<caption>Input file: vehicle_safety_final (Impute - undersampled categorised)\nData rows: 1357\nElapsed time: 0.094s\n\nLearning algorithm: Naive Bayes\nAlgorithm parameters:\nClass variable: OA_MAIS\n\nEM Log Likelihood: -36389.1</caption>
				<font color="000000" name="Arial" size="8" />
				<position>10 378 333 504</position>
			</textbox>
		</genie>
	</extensions>
</smile>
