<?xml version="1.0" encoding="ISO-8859-1"?>
<!-- This network was created in GeNIe Academic, which can be used for educational and research purposes only -->
<smile version="1.0" id="Unnamed" numsamples="10000" discsamples="10000">
	<nodes>
		<cpt id="OA_MAIS">
			<state id="s1_below_0" />
			<state id="s2_0_1" />
			<state id="s3_1_2" />
			<state id="s4_2_3" />
			<state id="s5_3_4" />
			<state id="s6_4_5" />
			<state id="s7_5_up" />
			<probabilities>0.33908222624455 0.4925605910544951 0.08591464317020139 0.05316302949580502 0.0158692212242296 0.01037077513290758 0.003039513677811551</probabilities>
		</cpt>
		<cpt id="GV_WGTCDTR">
			<state id="SPassenger_Car" />
			<state id="STruck____10000_lbs__" />
			<state id="STruck____6000_lbs__" />
			<parents>OA_MAIS</parents>
			<probabilities>0.5966478696741855 0.1469298245614035 0.256422305764411 0.628491318882778 0.1081095654049391 0.263399115712283 0.642570281124498 0.08928019771393265 0.2681495211615693 0.654690618762475 0.08882235528942117 0.2564870259481038 0.7366666666666666 0.05666666666666666 0.2066666666666666 0.8040712468193384 0.02544529262086514 0.1704834605597964 0.7008547008547008 0.08547008547008547 0.2136752136752137</probabilities>
		</cpt>
		<cpt id="x__GV_CURBWGT">
			<state id="s01_below_770" />
			<state id="s02_770_885" />
			<state id="s03_885_975" />
			<state id="s04_975_1035" />
			<state id="s05_1035_1075" />
			<state id="s06_1075_1135" />
			<state id="s07_1135_1175" />
			<state id="s08_1175_1255" />
			<state id="s09_1255_1295" />
			<state id="s10_1295_1355" />
			<state id="s11_1355_1435" />
			<state id="s12_1435_1475" />
			<state id="s13_1475_1555" />
			<state id="s14_1555_1635" />
			<state id="s15_1635_1695" />
			<state id="s16_1695_1775" />
			<state id="s17_1775_1855" />
			<state id="s18_1855_1935" />
			<state id="s19_1935_1995" />
			<state id="s20_1995_2075" />
			<state id="s21_2075_2155" />
			<state id="s22_2155_2215" />
			<state id="s23_2215_2255" />
			<state id="s24_2255_2315" />
			<state id="s25_2315_2395" />
			<state id="s26_2395_2455" />
			<state id="s27_2455_2515" />
			<state id="s28_2515_2595" />
			<state id="s29_2595_2675" />
			<state id="s30_2675_2755" />
			<state id="s31_2755_2815" />
			<state id="s32_2815_2875" />
			<state id="s33_2875_2980" />
			<state id="s34_2980_3070" />
			<state id="s35_3070_3160" />
			<state id="s36_3160_3200" />
			<state id="s37_3200_3285" />
			<state id="s38_3285_3335" />
			<state id="s39_3335_3445" />
			<state id="s40_3445_3760" />
			<state id="s41_3760_4080" />
			<state id="s42_4080_4210" />
			<state id="s43_4210_4280" />
			<state id="s44_4280_up" />
			<parents>GV_WGTCDTR OA_MAIS</parents>
			<probabilities>8.947745168217618e-06 0.0004026485325697925 0.002764853256979242 0.003945955619183967 0.01851288475304224 0.04843414459556194 0.06418217609162494 0.1330798138869005 0.03741052254831784 0.06300107372942021 0.1413475304223336 0.07599319971367219 0.1626073729420187 0.1448908375089478 0.03386721546170366 0.02244989262705799 0.02914280601288476 0.01103256979241232 0.002764853256979242 0.002371152469577667 0.0004026485325697925 8.947745168217618e-06 8.947745168217618e-06 0.0004026485325697925 8.947745168217618e-06 0.0004026485325697925 8.947745168217618e-06 8.947745168217618e-06 8.947745168217618e-06 8.947745168217618e-06 8.947745168217618e-06 0.0004026485325697925 8.947745168217618e-06 8.947745168217618e-06 8.947745168217618e-06 8.947745168217618e-06 8.947745168217618e-06 8.947745168217618e-06 8.947745168217618e-06 8.947745168217618e-06 8.947745168217618e-06 8.947745168217618e-06 8.947745168217618e-06 8.947745168217618e-06 0.0002631825200018716 0.0005205165395592572 0.004637860852477426 0.007468535067608668 0.0229085762410518 0.04709797407944605 0.08261006877836524 0.1322755345529407 0.04735530809900343 0.06691269358536472 0.1392235530809901 0.07360337809385675 0.165214289056286 0.1134901511252515 0.02856992467131428 0.01827656388901886 0.03242993496467506 0.009269873204510367 0.003093856735133113 0.001292518598231414 0.001549852617788799 5.848500444486039e-06 0.0005205165395592572 0.0002631825200018716 5.848500444486039e-06 5.848500444486039e-06 5.848500444486039e-06 0.0002631825200018716 0.0002631825200018716 5.848500444486039e-06 5.848500444486039e-06 5.848500444486039e-06 5.848500444486039e-06 0.0002631825200018716 0.0002631825200018716 5.848500444486039e-06 5.848500444486039e-06 5.848500444486039e-06 5.848500444486039e-06 5.848500444486039e-06 5.848500444486039e-06 5.848500444486039e-06 5.848500444486039e-06 5.848500444486039e-06 3.274823159549385e-05 3.274823159549385e-05 0.005796436992402408 0.01156012575320932 0.02596934765522661 0.06343332460047155 0.07928346869269057 0.1484477338223735 0.03893764736704217 0.05190594707885773 0.1527705003929787 0.07351977993188365 0.1556523447733822 0.1066609903065234 0.02596934765522661 0.01156012575320932 0.03317395860623525 0.005796436992402408 0.00435551480220068 3.274823159549385e-05 0.001473670421797222 3.274823159549385e-05 3.274823159549385e-05 3.274823159549385e-05 3.274823159549385e-05 0.001473670421797222 3.274823159549385e-05 3.274823159549385e-05 0.001473670421797222 3.274823159549385e-05 3.274823159549385e-05 3.274823159549385e-05 3.274823159549385e-05 3.274823159549385e-05 3.274823159549385e-05 3.274823159549385e-05 3.274823159549385e-05 3.274823159549385e-05 3.274823159549385e-05 3.274823159549385e-05 3.274823159549385e-05 3.274823159549385e-05 3.274823159549385e-05 3.274823159549385e-05 5.188875051888755e-05 5.188875051888755e-05 0.00461809879618099 0.0183167289331673 0.03886467413864676 0.08452677459526778 0.08224366957243673 0.1256226650062267 0.04343088418430886 0.05484640929846411 0.1050747198007472 0.09137608966376093 0.1484537152345372 0.1027916147779162 0.0228829389788294 0.0274491490244915 0.03201535907015361 0.006901203819012041 0.00461809879618099 0.002334993773349938 5.188875051888755e-05 5.188875051888755e-05 5.188875051888755e-05 5.188875051888755e-05 5.188875051888755e-05 0.002334993773349938 5.188875051888755e-05 5.188875051888755e-05 5.188875051888755e-05 5.188875051888755e-05 5.188875051888755e-05 5.188875051888755e-05 5.188875051888755e-05 5.188875051888755e-05 5.188875051888755e-05 5.188875051888755e-05 5.188875051888755e-05 5.188875051888755e-05 5.188875051888755e-05 5.188875051888755e-05 5.188875051888755e-05 5.188875051888755e-05 5.188875051888755e-05 5.188875051888755e-05 0.0001535626535626536 0.0001535626535626536 0.01366707616707617 0.006910319410319408 0.03393734643734643 0.0542076167076167 0.08123464373464372 0.1488022113022113 0.07447788697788697 0.03393734643734643 0.08799140049140047 0.07447788697788697 0.1082616707616707 0.1352886977886978 0.04745085995085994 0.02042383292383292 0.06772113022113022 0.0001535626535626536 0.0001535626535626536 0.0001535626535626536 0.0001535626535626536 0.0001535626535626536 0.0001535626535626536 0.0001535626535626536 0.006910319410319408 0.0001535626535626536 0.0001535626535626536 0.0001535626535626536 0.0001535626535626536 0.0001535626535626536 0.0001535626535626536 0.0001535626535626536 0.0001535626535626536 0.0001535626535626536 0.0001535626535626536 0.0001535626535626536 0.0001535626535626536 0.0001535626535626536 0.0001535626535626536 0.0001535626535626536 0.0001535626535626536 0.0001535626535626536 0.0001535626535626536 0.0001535626535626536 0.0002144082332761579 0.0002144082332761579 0.0002144082332761579 0.0002144082332761579 0.02851629502572898 0.01908233276157804 0.1039879931389365 0.1228559176672384 0.01908233276157804 0.1039879931389365 0.1700257289879931 0.08512006861063463 0.1700257289879931 0.09455403087478557 0.009648370497427099 0.01908233276157804 0.04738421955403086 0.0002144082332761579 0.0002144082332761579 0.0002144082332761579 0.0002144082332761579 0.0002144082332761579 0.0002144082332761579 0.0002144082332761579 0.0002144082332761579 0.0002144082332761579 0.0002144082332761579 0.0002144082332761579 0.0002144082332761579 0.0002144082332761579 0.0002144082332761579 0.0002144082332761579 0.0002144082332761579 0.0002144082332761579 0.0002144082332761579 0.0002144082332761579 0.0002144082332761579 0.0002144082332761579 0.0002144082332761579 0.0002144082332761579 0.0002144082332761579 0.0002144082332761579 0.0002144082332761579 0.0002144082332761579 0.0008116883116883122 0.0008116883116883122 0.0008116883116883122 0.0008116883116883122 0.0008116883116883122 0.03652597402597402 0.03652597402597402 0.1079545454545455 0.07224025974025974 0.03652597402597402 0.1793831168831169 0.1079545454545455 0.1079545454545455 0.2150974025974026 0.0008116883116883122 0.03652597402597402 0.03652597402597402 0.0008116883116883122 0.0008116883116883122 0.0008116883116883122 0.0008116883116883122 0.0008116883116883122 0.0008116883116883122 0.0008116883116883122 0.0008116883116883122 0.0008116883116883122 0.0008116883116883122 0.0008116883116883122 0.0008116883116883122 0.0008116883116883122 0.0008116883116883122 0.0008116883116883122 0.0008116883116883122 0.0008116883116883122 0.0008116883116883122 0.0008116883116883122 0.0008116883116883122 0.0008116883116883122 0.0008116883116883122 0.0008116883116883122 0.0008116883116883122 0.0008116883116883122 0.0008116883116883122 0.0008116883116883122 3.630554748765613e-05 3.630554748765613e-05 3.630554748765613e-05 3.630554748765613e-05 3.630554748765613e-05 3.630554748765613e-05 3.630554748765613e-05 3.630554748765613e-05 3.630554748765613e-05 3.630554748765613e-05 3.630554748765613e-05 3.630554748765613e-05 3.630554748765613e-05 0.001633749636944525 3.630554748765613e-05 0.006426081905315131 0.01121841417368574 0.05115451641010747 0.03198518733662504 0.05275196049956433 0.1374164972407784 0.06553151321521929 0.06872640139413302 0.0799085100203311 0.1182471681672959 0.07192128957304676 0.04316729596282312 0.09428550682544293 0.05594684867847807 0.03837496369445251 0.01441330235259948 0.006426081905315131 0.02240052279988382 0.008023525994772001 0.004828637815858263 3.630554748765613e-05 0.006426081905315131 0.001633749636944525 3.630554748765613e-05 0.003231193726401394 0.003231193726401394 3.630554748765613e-05 3.630554748765613e-05 3.630554748765613e-05 3.397200706617749e-05 3.397200706617749e-05 3.397200706617749e-05 3.397200706617749e-05 3.397200706617749e-05 3.397200706617749e-05 3.397200706617749e-05 3.397200706617749e-05 3.397200706617749e-05 3.397200706617749e-05 3.397200706617749e-05 3.397200706617749e-05 0.001528740317977986 0.001528740317977986 0.001528740317977986 3.397200706617749e-05 0.00900258187253703 0.04338225302350863 0.0553403995108031 0.05384563119989129 0.1390474249218644 0.05085609457806767 0.0897200706617747 0.09420437559451013 0.1196154368800109 0.06580377768718576 0.05982470444353852 0.05235086288897949 0.04338225302350863 0.03291887484712597 0.01797119173800788 0.01946596004891969 0.01199211849436065 0.01199211849436065 0.01049735018344884 0.001528740317977986 0.006013045250713412 3.397200706617749e-05 0.003023508628889795 3.397200706617749e-05 3.397200706617749e-05 0.001528740317977986 3.397200706617749e-05 0.001528740317977986 0.0002343017806935334 0.0002343017806935334 0.0002343017806935334 0.0002343017806935334 0.0002343017806935334 0.0002343017806935334 0.0002343017806935334 0.0002343017806935334 0.0002343017806935334 0.0002343017806935334 0.0002343017806935334 0.0002343017806935334 0.0002343017806935334 0.0002343017806935334 0.0002343017806935334 0.0002343017806935334 0.010543580131209 0.06208997188378632 0.0002343017806935334 0.1033270852858482 0.1858013120899719 0.04147141518275538 0.07239925023430177 0.05178069353327085 0.1548734770384255 0.07239925023430177 0.04147141518275538 0.05178069353327085 0.03116213683223993 0.04147141518275538 0.010543580131209 0.02085285848172446 0.0002343017806935334 0.010543580131209 0.010543580131209 0.010543580131209 0.0002343017806935334 0.0002343017806935334 0.0002343017806935334 0.0002343017806935334 0.0002343017806935334 0.0002343017806935334 0.010543580131209 0.0002343017806935334 0.000378787878787879 0.000378787878787879 0.000378787878787879 0.000378787878787879 0.000378787878787879 0.000378787878787879 0.000378787878787879 0.000378787878787879 0.000378787878787879 0.000378787878787879 0.000378787878787879 0.000378787878787879 0.000378787878787879 0.01704545454545454 0.000378787878787879 0.000378787878787879 0.06704545454545453 0.05037878787878787 0.01704545454545454 0.0837121212121212 0.1003787878787879 0.03371212121212121 0.1170454545454545 0.1003787878787879 0.1003787878787879 0.01704545454545454 0.01704545454545454 0.1170454545454545 0.06704545454545453 0.01704545454545454 0.000378787878787879 0.01704545454545454 0.01704545454545454 0.000378787878787879 0.000378787878787879 0.000378787878787879 0.000378787878787879 0.01704545454545454 0.000378787878787879 0.01704545454545454 0.000378787878787879 0.000378787878787879 0.000378787878787879 0.000378787878787879 0.001893939393939395 0.001893939393939395 0.001893939393939395 0.001893939393939395 0.001893939393939395 0.001893939393939395 0.001893939393939395 0.001893939393939395 0.001893939393939395 0.001893939393939395 0.001893939393939395 0.001893939393939395 0.001893939393939395 0.001893939393939395 0.001893939393939395 0.001893939393939395 0.001893939393939395 0.001893939393939395 0.001893939393939395 0.168560606060606 0.168560606060606 0.001893939393939395 0.08522727272727271 0.168560606060606 0.001893939393939395 0.168560606060606 0.001893939393939395 0.001893939393939395 0.08522727272727271 0.08522727272727271 0.001893939393939395 0.001893939393939395 0.001893939393939395 0.001893939393939395 0.001893939393939395 0.001893939393939395 0.001893939393939395 0.001893939393939395 0.001893939393939395 0.001893939393939395 0.001893939393939395 0.001893939393939395 0.001893939393939395 0.001893939393939395 0.005681818181818183 0.005681818181818183 0.005681818181818183 0.005681818181818183 0.005681818181818183 0.005681818181818183 0.005681818181818183 0.005681818181818183 0.005681818181818183 0.005681818181818183 0.005681818181818183 0.005681818181818183 0.005681818181818183 0.005681818181818183 0.005681818181818183 0.005681818181818183 0.005681818181818183 0.2556818181818181 0.505681818181818 0.005681818181818183 0.005681818181818183 0.005681818181818183 0.005681818181818183 0.005681818181818183 0.005681818181818183 0.005681818181818183 0.005681818181818183 0.005681818181818183 0.005681818181818183 0.005681818181818183 0.005681818181818183 0.005681818181818183 0.005681818181818183 0.005681818181818183 0.005681818181818183 0.005681818181818183 0.005681818181818183 0.005681818181818183 0.005681818181818183 0.005681818181818183 0.005681818181818183 0.005681818181818183 0.005681818181818183 0.005681818181818183 0.005681818181818185 0.005681818181818185 0.005681818181818185 0.005681818181818185 0.005681818181818185 0.005681818181818185 0.005681818181818185 0.005681818181818185 0.005681818181818185 0.005681818181818185 0.005681818181818185 0.005681818181818185 0.005681818181818185 0.005681818181818185 0.005681818181818185 0.005681818181818185 0.005681818181818185 0.005681818181818185 0.005681818181818185 0.005681818181818185 0.2556818181818181 0.005681818181818185 0.005681818181818185 0.005681818181818185 0.005681818181818185 0.005681818181818185 0.005681818181818185 0.005681818181818185 0.2556818181818181 0.005681818181818185 0.2556818181818181 0.005681818181818185 0.005681818181818185 0.005681818181818185 0.005681818181818185 0.005681818181818185 0.005681818181818185 0.005681818181818185 0.005681818181818185 0.005681818181818185 0.005681818181818185 0.005681818181818185 0.005681818181818185 0.005681818181818185 2.081252081252084e-05 0.0009365634365634369 2.081252081252084e-05 2.081252081252084e-05 2.081252081252084e-05 0.003683816183816185 0.00276806526806527 0.001852314352314353 2.081252081252084e-05 0.004599567099567102 0.08060689310689315 0.03115634365634367 0.07785964035964039 0.07694388944388947 0.05313436563436566 0.1300574425574426 0.1282259407259408 0.1392149517149518 0.09068015318015321 0.09892191142191147 0.04672410922410924 0.0100940725940726 0.005515318015318018 0.001852314352314353 0.003683816183816185 0.007346819846819851 0.0009365634365634369 0.001852314352314353 2.081252081252084e-05 2.081252081252084e-05 2.081252081252084e-05 2.081252081252084e-05 2.081252081252084e-05 2.081252081252084e-05 0.0009365634365634369 2.081252081252084e-05 2.081252081252084e-05 2.081252081252084e-05 2.081252081252084e-05 2.081252081252084e-05 2.081252081252084e-05 2.081252081252084e-05 2.081252081252084e-05 2.081252081252084e-05 0.0006278252134605727 0.0006278252134605727 0.0006278252134605727 0.0006278252134605727 1.395167141023496e-05 0.006152687091913613 0.001855572297561248 0.001855572297561248 0.002469445839611586 0.01106367542831631 0.0693816619230984 0.04789608795133658 0.08902561526870922 0.07674814442770246 0.05403482337183996 0.104986327362018 0.1418187398850383 0.1326106367542832 0.09086723589486023 0.08657012110050787 0.04237122607288354 0.007380434176014289 0.004924940007812938 0.005538813549863276 0.004924940007812938 0.004311066465762599 0.003697192923712261 0.002469445839611586 0.002469445839611586 0.001241698755510911 1.395167141023496e-05 1.395167141023496e-05 1.395167141023496e-05 1.395167141023496e-05 1.395167141023496e-05 1.395167141023496e-05 1.395167141023496e-05 1.395167141023496e-05 1.395167141023496e-05 0.0006278252134605727 1.395167141023496e-05 1.395167141023496e-05 1.395167141023496e-05 1.395167141023496e-05 7.836990595611293e-05 7.836990595611293e-05 7.836990595611293e-05 7.836990595611293e-05 7.836990595611293e-05 0.003526645768025079 7.836990595611293e-05 0.006974921630094047 0.003526645768025079 0.006974921630094047 0.1000783699059562 0.04835423197492165 0.110423197492163 0.08283699059561132 0.05525078369905959 0.1276645768025079 0.1380094043887148 0.1035266457680251 0.06904388714733545 0.06214733542319752 0.04145768025078372 7.836990595611293e-05 0.003526645768025079 0.006974921630094047 0.003526645768025079 0.01042319749216301 7.836990595611293e-05 0.01042319749216301 0.003526645768025079 7.836990595611293e-05 7.836990595611293e-05 7.836990595611293e-05 7.836990595611293e-05 7.836990595611293e-05 7.836990595611293e-05 7.836990595611293e-05 7.836990595611293e-05 7.836990595611293e-05 7.836990595611293e-05 7.836990595611293e-05 7.836990595611293e-05 7.836990595611293e-05 7.836990595611293e-05 7.836990595611293e-05 0.0001321353065539113 0.0001321353065539113 0.0001321353065539113 0.0001321353065539113 0.0001321353065539113 0.005946088794926004 0.0001321353065539113 0.0001321353065539113 0.0001321353065539113 0.0117600422832981 0.1338530655391121 0.04664376321353066 0.1396670190274842 0.08734143763213531 0.06408562367864694 0.09896934460887949 0.09896934460887949 0.1164112050739958 0.06408562367864694 0.04082980972515856 0.06989957716701903 0.005946088794926004 0.005946088794926004 0.005946088794926004 0.0001321353065539113 0.0001321353065539113 0.0001321353065539113 0.0001321353065539113 0.0001321353065539113 0.0001321353065539113 0.0001321353065539113 0.0001321353065539113 0.0001321353065539113 0.0001321353065539113 0.0001321353065539113 0.0001321353065539113 0.0001321353065539113 0.0001321353065539113 0.0001321353065539113 0.0001321353065539113 0.0001321353065539113 0.0001321353065539113 0.0001321353065539113 0.0001321353065539113 0.0005411255411255413 0.0005411255411255413 0.0005411255411255413 0.0005411255411255413 0.0005411255411255413 0.0005411255411255413 0.0005411255411255413 0.02435064935064934 0.0005411255411255413 0.04816017316017315 0.1195887445887446 0.0005411255411255413 0.07196969696969696 0.07196969696969696 0.02435064935064934 0.1433982683982684 0.1672077922077922 0.1672077922077922 0.02435064935064934 0.07196969696969696 0.0005411255411255413 0.02435064935064934 0.0005411255411255413 0.0005411255411255413 0.02435064935064934 0.0005411255411255413 0.0005411255411255413 0.0005411255411255413 0.0005411255411255413 0.0005411255411255413 0.0005411255411255413 0.0005411255411255413 0.0005411255411255413 0.0005411255411255413 0.0005411255411255413 0.0005411255411255413 0.0005411255411255413 0.0005411255411255413 0.0005411255411255413 0.0005411255411255413 0.0005411255411255413 0.0005411255411255413 0.0005411255411255413 0.0005411255411255413 0.0009881422924901196 0.0009881422924901196 0.0009881422924901196 0.0009881422924901196 0.0009881422924901196 0.0009881422924901196 0.0009881422924901196 0.04446640316205535 0.04446640316205535 0.0009881422924901196 0.2183794466403162 0.04446640316205535 0.1314229249011858 0.0009881422924901196 0.0009881422924901196 0.174901185770751 0.04446640316205535 0.174901185770751 0.0009881422924901196 0.04446640316205535 0.0009881422924901196 0.0009881422924901196 0.0009881422924901196 0.0009881422924901196 0.0009881422924901196 0.04446640316205535 0.0009881422924901196 0.0009881422924901196 0.0009881422924901196 0.0009881422924901196 0.0009881422924901196 0.0009881422924901196 0.0009881422924901196 0.0009881422924901196 0.0009881422924901196 0.0009881422924901196 0.0009881422924901196 0.0009881422924901196 0.0009881422924901196 0.0009881422924901196 0.0009881422924901196 0.0009881422924901196 0.0009881422924901196 0.0009881422924901196 0.002525252525252526 0.002525252525252526 0.002525252525252526 0.002525252525252526 0.002525252525252526 0.002525252525252526 0.002525252525252526 0.002525252525252526 0.002525252525252526 0.002525252525252526 0.2247474747474747 0.002525252525252526 0.1136363636363636 0.002525252525252526 0.002525252525252526 0.1136363636363636 0.002525252525252526 0.1136363636363636 0.1136363636363636 0.1136363636363636 0.002525252525252526 0.002525252525252526 0.002525252525252526 0.002525252525252526 0.002525252525252526 0.002525252525252526 0.002525252525252526 0.1136363636363636 0.002525252525252526 0.002525252525252526 0.002525252525252526 0.002525252525252526 0.002525252525252526 0.002525252525252526 0.002525252525252526 0.002525252525252526 0.002525252525252526 0.002525252525252526 0.002525252525252526 0.002525252525252526 0.002525252525252526 0.002525252525252526 0.002525252525252526 0.002525252525252526</probabilities>
		</cpt>
		<cpt id="GV_ENERGY">
			<state id="s01_below_237" />
			<state id="s02_237_381" />
			<state id="s03_381_623" />
			<state id="s04_623_810" />
			<state id="s05_810_1081" />
			<state id="s06_1081_1302" />
			<state id="s07_1302_1553" />
			<state id="s08_1553_1745" />
			<state id="s09_1745_1958" />
			<state id="s10_1958_2129" />
			<state id="s11_2129_2281" />
			<state id="s12_2281_2470" />
			<state id="s13_2470_2582" />
			<state id="s14_2582_2717" />
			<state id="s15_2717_2947" />
			<state id="s16_2947_3097" />
			<state id="s17_3097_3274" />
			<state id="s18_3274_3466" />
			<state id="s19_3466_3614" />
			<state id="s20_3614_3770" />
			<state id="s21_3770_3988" />
			<state id="s22_3988_4098" />
			<state id="s23_4098_4282" />
			<state id="s24_4282_4542" />
			<state id="s25_4542_4674" />
			<state id="s26_4674_4841" />
			<state id="s27_4841_5002" />
			<state id="s28_5002_5175" />
			<state id="s29_5175_5376" />
			<state id="s30_5376_5612" />
			<state id="s31_5612_5811" />
			<state id="s32_5811_6056" />
			<state id="s33_6056_6346" />
			<state id="s34_6346_6575" />
			<state id="s35_6575_6970" />
			<state id="s36_6970_7302" />
			<state id="s37_7302_7613" />
			<state id="s38_7613_8231" />
			<state id="s39_8231_9249" />
			<state id="s40_9249_up" />
			<parents>x__GV_CURBWGT OA_MAIS</parents>
			<probabilities>0.025 0.025 0.025 0.025 0.025 0.025 0.025 0.025 0.025 0.025 0.025 0.025 0.025 0.025 0.025 0.025 0.025 0.025 0.025 0.025 0.025 0.025 0.025 0.025 0.025 0.025 0.025 0.025 0.025 0.025 0.025 0.025 0.025 0.025 0.025 0.025 0.025 0.025 0.025 0.025 0.3416666666666667 0.008333333333333333 0.008333333333333333 0.008333333333333333 0.3416666666666667 0.008333333333333333 0.008333333333333333 0.008333333333333333 0.008333333333333333 0.008333333333333333 0.008333333333333333 0.008333333333333333 0.008333333333333333 0.008333333333333333 0.008333333333333333 0.008333333333333333 0.008333333333333333 0.008333333333333333 0.008333333333333333 0.008333333333333333 0.008333333333333333 0.008333333333333333 0.008333333333333333 0.008333333333333333 0.008333333333333333 0.008333333333333333 0.008333333333333333 0.008333333333333333 0.008333333333333333 0.008333333333333333 0.008333333333333333 0.008333333333333333 0.008333333333333333 0.008333333333333333 0.008333333333333333 0.008333333333333333 0.008333333333333333 0.008333333333333333 0.008333333333333333 0.008333333333333333 0.025 0.025 0.025 0.025 0.025 0.025 0.025 0.025 0.025 0.025 0.025 0.025 0.025 0.025 0.025 0.025 0.025 0.025 0.025 0.025 0.025 0.025 0.025 0.025 0.025 0.025 0.025 0.025 0.025 0.025 0.025 0.025 0.025 0.025 0.025 0.025 0.025 0.025 0.025 0.025 0.025 0.025 0.025 0.025 0.025 0.025 0.025 0.025 0.025 0.025 0.025 0.025 0.025 0.025 0.025 0.025 0.025 0.025 0.025 0.025 0.025 0.025 0.025 0.025 0.025 0.025 0.025 0.025 0.025 0.025 0.025 0.025 0.025 0.025 0.025 0.025 0.025 0.025 0.025 0.025 0.025 0.025 0.025 0.025 0.025 0.025 0.025 0.025 0.025 0.025 0.025 0.025 0.025 0.025 0.025 0.025 0.025 0.025 0.025 0.025 0.025 0.025 0.025 0.025 0.025 0.025 0.025 0.025 0.025 0.025 0.025 0.025 0.025 0.025 0.025 0.025 0.025 0.025 0.025 0.025 0.025 0.025 0.025 0.025 0.025 0.025 0.025 0.025 0.025 0.025 0.025 0.025 0.025 0.025 0.025 0.025 0.025 0.025 0.025 0.025 0.025 0.025 0.025 0.025 0.025 0.025 0.025 0.025 0.025 0.025 0.025 0.025 0.025 0.025 0.025 0.025 0.025 0.025 0.025 0.025 0.025 0.025 0.025 0.025 0.025 0.025 0.025 0.025 0.025 0.025 0.025 0.025 0.025 0.025 0.025 0.025 0.025 0.025 0.025 0.025 0.025 0.025 0.025 0.025 0.025 0.025 0.025 0.025 0.025 0.025 0.025 0.025 0.025 0.025 0.025 0.025 0.025 0.025 0.025 0.025 0.6750000000000002 0.008333333333333333 0.008333333333333333 0.008333333333333333 0.008333333333333333 0.008333333333333333 0.008333333333333333 0.008333333333333333 0.008333333333333333 0.008333333333333333 0.008333333333333333 0.008333333333333333 0.008333333333333333 0.008333333333333333 0.008333333333333333 0.008333333333333333 0.008333333333333333 0.008333333333333333 0.008333333333333333 0.008333333333333333 0.008333333333333333 0.008333333333333333 0.008333333333333333 0.008333333333333333 0.008333333333333333 0.008333333333333333 0.008333333333333333 0.008333333333333333 0.008333333333333333 0.008333333333333333 0.008333333333333333 0.008333333333333333 0.008333333333333333 0.008333333333333333 0.008333333333333333 0.008333333333333333 0.008333333333333333 0.008333333333333333 0.008333333333333333 0.008333333333333333 0.7562500000000002 0.006249999999999999 0.006249999999999999 0.006249999999999999 0.006249999999999999 0.006249999999999999 0.006249999999999999 0.006249999999999999 0.006249999999999999 0.006249999999999999 0.006249999999999999 0.006249999999999999 0.006249999999999999 0.006249999999999999 0.006249999999999999 0.006249999999999999 0.006249999999999999 0.006249999999999999 0.006249999999999999 0.006249999999999999 0.006249999999999999 0.006249999999999999 0.006249999999999999 0.006249999999999999 0.006249999999999999 0.006249999999999999 0.006249999999999999 0.006249999999999999 0.006249999999999999 0.006249999999999999 0.006249999999999999 0.006249999999999999 0.006249999999999999 0.006249999999999999 0.006249999999999999 0.006249999999999999 0.006249999999999999 0.006249999999999999 0.006249999999999999 0.006249999999999999 0.025 0.025 0.025 0.025 0.025 0.025 0.025 0.025 0.025 0.025 0.025 0.025 0.025 0.025 0.025 0.025 0.025 0.025 0.025 0.025 0.025 0.025 0.025 0.025 0.025 0.025 0.025 0.025 0.025 0.025 0.025 0.025 0.025 0.025 0.025 0.025 0.025 0.025 0.025 0.025 0.025 0.025 0.025 0.025 0.025 0.025 0.025 0.025 0.025 0.025 0.025 0.025 0.025 0.025 0.025 0.025 0.025 0.025 0.025 0.025 0.025 0.025 0.025 0.025 0.025 0.025 0.025 0.025 0.025 0.025 0.025 0.025 0.025 0.025 0.025 0.025 0.025 0.025 0.025 0.025 0.025 0.025 0.025 0.025 0.025 0.025 0.025 0.025 0.025 0.025 0.025 0.025 0.025 0.025 0.025 0.025 0.025 0.025 0.025 0.025 0.025 0.025 0.025 0.025 0.025 0.025 0.025 0.025 0.025 0.025 0.025 0.025 0.025 0.025 0.025 0.025 0.025 0.025 0.025 0.025 0.025 0.025 0.025 0.025 0.025 0.025 0.025 0.025 0.025 0.025 0.025 0.025 0.025 0.025 0.025 0.025 0.025 0.025 0.025 0.025 0.025 0.025 0.025 0.025 0.025 0.025 0.025 0.025 0.025 0.025 0.025 0.025 0.025 0.025 0.025 0.025 0.025 0.025 0.025 0.025 0.025 0.025 0.025 0.025 0.025 0.025 0.025 0.025 0.025 0.025 0.025 0.025 0.025 0.025 0.025 0.025 0.025 0.025 0.025 0.025 0.025 0.025 0.025 0.025 0.025 0.025 0.025 0.025 0.025 0.025 0.025 0.025 0.025 0.025 0.025 0.025 0.025 0.025 0.025 0.025 0.7531249999999997 0.1281249999999999 0.003124999999999998 0.003124999999999998 0.003124999999999998 0.003124999999999998 0.003124999999999998 0.003124999999999998 0.003124999999999998 0.003124999999999998 0.003124999999999998 0.003124999999999998 0.003124999999999998 0.003124999999999998 0.003124999999999998 0.003124999999999998 0.003124999999999998 0.003124999999999998 0.003124999999999998 0.003124999999999998 0.003124999999999998 0.003124999999999998 0.003124999999999998 0.003124999999999998 0.003124999999999998 0.003124999999999998 0.003124999999999998 0.003124999999999998 0.003124999999999998 0.003124999999999998 0.003124999999999998 0.003124999999999998 0.003124999999999998 0.003124999999999998 0.003124999999999998 0.003124999999999998 0.003124999999999998 0.003124999999999998 0.003124999999999998 0.003124999999999998 0.5012499999999998 0.2012499999999999 0.2012499999999999 0.001249999999999999 0.001249999999999999 0.001249999999999999 0.001249999999999999 0.001249999999999999 0.001249999999999999 0.001249999999999999 0.05124999999999997 0.001249999999999999 0.001249999999999999 0.001249999999999999 0.001249999999999999 0.001249999999999999 0.001249999999999999 0.001249999999999999 0.001249999999999999 0.001249999999999999 0.001249999999999999 0.001249999999999999 0.001249999999999999 0.001249999999999999 0.001249999999999999 0.001249999999999999 0.001249999999999999 0.001249999999999999 0.001249999999999999 0.001249999999999999 0.001249999999999999 0.001249999999999999 0.001249999999999999 0.001249999999999999 0.001249999999999999 0.001249999999999999 0.001249999999999999 0.001249999999999999 0.001249999999999999 0.001249999999999999 0.6050000000000002 0.005 0.205 0.005 0.005 0.005 0.005 0.005 0.005 0.005 0.005 0.005 0.005 0.005 0.005 0.005 0.005 0.005 0.005 0.005 0.005 0.005 0.005 0.005 0.005 0.005 0.005 0.005 0.005 0.005 0.005 0.005 0.005 0.005 0.005 0.005 0.005 0.005 0.005 0.005 0.008333333333333335 0.3416666666666668 0.008333333333333335 0.3416666666666668 0.008333333333333335 0.008333333333333335 0.008333333333333335 0.008333333333333335 0.008333333333333335 0.008333333333333335 0.008333333333333335 0.008333333333333335 0.008333333333333335 0.008333333333333335 0.008333333333333335 0.008333333333333335 0.008333333333333335 0.008333333333333335 0.008333333333333335 0.008333333333333335 0.008333333333333335 0.008333333333333335 0.008333333333333335 0.008333333333333335 0.008333333333333335 0.008333333333333335 0.008333333333333335 0.008333333333333335 0.008333333333333335 0.008333333333333335 0.008333333333333335 0.008333333333333335 0.008333333333333335 0.008333333333333335 0.008333333333333335 0.008333333333333335 0.008333333333333335 0.008333333333333335 0.008333333333333335 0.008333333333333335 0.008333333333333335 0.3416666666666668 0.008333333333333335 0.008333333333333335 0.3416666666666668 0.008333333333333335 0.008333333333333335 0.008333333333333335 0.008333333333333335 0.008333333333333335 0.008333333333333335 0.008333333333333335 0.008333333333333335 0.008333333333333335 0.008333333333333335 0.008333333333333335 0.008333333333333335 0.008333333333333335 0.008333333333333335 0.008333333333333335 0.008333333333333335 0.008333333333333335 0.008333333333333335 0.008333333333333335 0.008333333333333335 0.008333333333333335 0.008333333333333335 0.008333333333333335 0.008333333333333335 0.008333333333333335 0.008333333333333335 0.008333333333333335 0.008333333333333335 0.008333333333333335 0.008333333333333335 0.008333333333333335 0.008333333333333335 0.008333333333333335 0.008333333333333335 0.008333333333333335 0.025 0.025 0.025 0.025 0.025 0.025 0.025 0.025 0.025 0.025 0.025 0.025 0.025 0.025 0.025 0.025 0.025 0.025 0.025 0.025 0.025 0.025 0.025 0.025 0.025 0.025 0.025 0.025 0.025 0.025 0.025 0.025 0.025 0.025 0.025 0.025 0.025 0.025 0.025 0.025 0.025 0.025 0.025 0.025 0.025 0.025 0.025 0.025 0.025 0.025 0.025 0.025 0.025 0.025 0.025 0.025 0.025 0.025 0.025 0.025 0.025 0.025 0.025 0.025 0.025 0.025 0.025 0.025 0.025 0.025 0.025 0.025 0.025 0.025 0.025 0.025 0.025 0.025 0.025 0.025 0.4568181818181818 0.1840909090909091 0.09318181818181817 0.1840909090909091 0.002272727272727272 0.002272727272727272 0.002272727272727272 0.002272727272727272 0.002272727272727272 0.002272727272727272 0.002272727272727272 0.002272727272727272 0.002272727272727272 0.002272727272727272 0.002272727272727272 0.002272727272727272 0.002272727272727272 0.002272727272727272 0.002272727272727272 0.002272727272727272 0.002272727272727272 0.002272727272727272 0.002272727272727272 0.002272727272727272 0.002272727272727272 0.002272727272727272 0.002272727272727272 0.002272727272727272 0.002272727272727272 0.002272727272727272 0.002272727272727272 0.002272727272727272 0.002272727272727272 0.002272727272727272 0.002272727272727272 0.002272727272727272 0.002272727272727272 0.002272727272727272 0.002272727272727272 0.002272727272727272 0.4524193548387096 0.2588709677419354 0.1298387096774193 0.09758064516129029 0.0008064516129032254 0.03306451612903225 0.0008064516129032254 0.0008064516129032254 0.0008064516129032254 0.0008064516129032254 0.0008064516129032254 0.0008064516129032254 0.0008064516129032254 0.0008064516129032254 0.0008064516129032254 0.0008064516129032254 0.0008064516129032254 0.0008064516129032254 0.0008064516129032254 0.0008064516129032254 0.0008064516129032254 0.0008064516129032254 0.0008064516129032254 0.0008064516129032254 0.0008064516129032254 0.0008064516129032254 0.0008064516129032254 0.0008064516129032254 0.0008064516129032254 0.0008064516129032254 0.0008064516129032254 0.0008064516129032254 0.0008064516129032254 0.0008064516129032254 0.0008064516129032254 0.0008064516129032254 0.0008064516129032254 0.0008064516129032254 0.0008064516129032254 0.0008064516129032254 0.225 0.1138888888888889 0.1138888888888889 0.1138888888888889 0.225 0.002777777777777777 0.002777777777777777 0.1138888888888889 0.002777777777777777 0.002777777777777777 0.002777777777777777 0.002777777777777777 0.002777777777777777 0.002777777777777777 0.002777777777777777 0.002777777777777777 0.002777777777777777 0.002777777777777777 0.002777777777777777 0.002777777777777777 0.002777777777777777 0.002777777777777777 0.002777777777777777 0.002777777777777777 0.002777777777777777 0.002777777777777777 0.002777777777777777 0.002777777777777777 0.002777777777777777 0.002777777777777777 0.002777777777777777 0.002777777777777777 0.002777777777777777 0.002777777777777777 0.002777777777777777 0.002777777777777777 0.002777777777777777 0.002777777777777777 0.002777777777777777 0.002777777777777777 0.002777777777777778 0.1138888888888889 0.1138888888888889 0.2250000000000001 0.1138888888888889 0.002777777777777778 0.1138888888888889 0.002777777777777778 0.2250000000000001 0.002777777777777778 0.002777777777777778 0.002777777777777778 0.002777777777777778 0.002777777777777778 0.002777777777777778 0.002777777777777778 0.002777777777777778 0.002777777777777778 0.002777777777777778 0.002777777777777778 0.002777777777777778 0.002777777777777778 0.002777777777777778 0.002777777777777778 0.002777777777777778 0.002777777777777778 0.002777777777777778 0.002777777777777778 0.002777777777777778 0.002777777777777778 0.002777777777777778 0.002777777777777778 0.002777777777777778 0.002777777777777778 0.002777777777777778 0.002777777777777778 0.002777777777777778 0.002777777777777778 0.002777777777777778 0.002777777777777778 0.0125 0.0125 0.0125 0.0125 0.5125000000000003 0.0125 0.0125 0.0125 0.0125 0.0125 0.0125 0.0125 0.0125 0.0125 0.0125 0.0125 0.0125 0.0125 0.0125 0.0125 0.0125 0.0125 0.0125 0.0125 0.0125 0.0125 0.0125 0.0125 0.0125 0.0125 0.0125 0.0125 0.0125 0.0125 0.0125 0.0125 0.0125 0.0125 0.0125 0.0125 0.025 0.025 0.025 0.025 0.025 0.025 0.025 0.025 0.025 0.025 0.025 0.025 0.025 0.025 0.025 0.025 0.025 0.025 0.025 0.025 0.025 0.025 0.025 0.025 0.025 0.025 0.025 0.025 0.025 0.025 0.025 0.025 0.025 0.025 0.025 0.025 0.025 0.025 0.025 0.025 0.025 0.025 0.025 0.025 0.025 0.025 0.025 0.025 0.025 0.025 0.025 0.025 0.025 0.025 0.025 0.025 0.025 0.025 0.025 0.025 0.025 0.025 0.025 0.025 0.025 0.025 0.025 0.025 0.025 0.025 0.025 0.025 0.025 0.025 0.025 0.025 0.025 0.025 0.025 0.025 0.5630208333333334 0.2088541666666667 0.1463541666666667 0.0005208333333333333 0.0005208333333333333 0.04218750000000001 0.02135416666666667 0.0005208333333333333 0.0005208333333333333 0.0005208333333333333 0.0005208333333333333 0.0005208333333333333 0.0005208333333333333 0.0005208333333333333 0.0005208333333333333 0.0005208333333333333 0.0005208333333333333 0.0005208333333333333 0.0005208333333333333 0.0005208333333333333 0.0005208333333333333 0.0005208333333333333 0.0005208333333333333 0.0005208333333333333 0.0005208333333333333 0.0005208333333333333 0.0005208333333333333 0.0005208333333333333 0.0005208333333333333 0.0005208333333333333 0.0005208333333333333 0.0005208333333333333 0.0005208333333333333 0.0005208333333333333 0.0005208333333333333 0.0005208333333333333 0.0005208333333333333 0.0005208333333333333 0.0005208333333333333 0.0005208333333333333 0.3891666666666668 0.2669444444444445 0.2002777777777779 0.0780555555555556 0.03361111111111113 0.01138888888888889 0.0002777777777777778 0.0002777777777777778 0.0002777777777777778 0.0002777777777777778 0.0002777777777777778 0.0002777777777777778 0.0002777777777777778 0.0002777777777777778 0.0002777777777777778 0.0002777777777777778 0.01138888888888889 0.0002777777777777778 0.0002777777777777778 0.0002777777777777778 0.0002777777777777778 0.0002777777777777778 0.0002777777777777778 0.0002777777777777778 0.0002777777777777778 0.0002777777777777778 0.0002777777777777778 0.0002777777777777778 0.0002777777777777778 0.0002777777777777778 0.0002777777777777778 0.0002777777777777778 0.0002777777777777778 0.0002777777777777778 0.0002777777777777778 0.0002777777777777778 0.0002777777777777778 0.0002777777777777778 0.0002777777777777778 0.0002777777777777778 0.1592105263157894 0.05394736842105261 0.1592105263157894 0.1592105263157894 0.1592105263157894 0.106578947368421 0.05394736842105261 0.05394736842105261 0.05394736842105261 0.00131578947368421 0.00131578947368421 0.00131578947368421 0.00131578947368421 0.00131578947368421 0.00131578947368421 0.00131578947368421 0.00131578947368421 0.00131578947368421 0.00131578947368421 0.00131578947368421 0.00131578947368421 0.00131578947368421 0.00131578947368421 0.00131578947368421 0.00131578947368421 0.00131578947368421 0.00131578947368421 0.00131578947368421 0.00131578947368421 0.00131578947368421 0.00131578947368421 0.00131578947368421 0.00131578947368421 0.00131578947368421 0.00131578947368421 0.00131578947368421 0.00131578947368421 0.00131578947368421 0.00131578947368421 0.00131578947368421 0.05694444444444442 0.3347222222222221 0.1124999999999999 0.05694444444444442 0.1680555555555555 0.05694444444444442 0.1680555555555555 0.001388888888888888 0.001388888888888888 0.001388888888888888 0.001388888888888888 0.001388888888888888 0.001388888888888888 0.001388888888888888 0.001388888888888888 0.001388888888888888 0.001388888888888888 0.001388888888888888 0.001388888888888888 0.001388888888888888 0.001388888888888888 0.001388888888888888 0.001388888888888888 0.001388888888888888 0.001388888888888888 0.001388888888888888 0.001388888888888888 0.001388888888888888 0.001388888888888888 0.001388888888888888 0.001388888888888888 0.001388888888888888 0.001388888888888888 0.001388888888888888 0.001388888888888888 0.001388888888888888 0.001388888888888888 0.001388888888888888 0.001388888888888888 0.001388888888888888 0.004166666666666667 0.1708333333333334 0.5041666666666668 0.004166666666666667 0.004166666666666667 0.004166666666666667 0.004166666666666667 0.004166666666666667 0.004166666666666667 0.1708333333333334 0.004166666666666667 0.004166666666666667 0.004166666666666667 0.004166666666666667 0.004166666666666667 0.004166666666666667 0.004166666666666667 0.004166666666666667 0.004166666666666667 0.004166666666666667 0.004166666666666667 0.004166666666666667 0.004166666666666667 0.004166666666666667 0.004166666666666667 0.004166666666666667 0.004166666666666667 0.004166666666666667 0.004166666666666667 0.004166666666666667 0.004166666666666667 0.004166666666666667 0.004166666666666667 0.004166666666666667 0.004166666666666667 0.004166666666666667 0.004166666666666667 0.004166666666666667 0.004166666666666667 0.004166666666666667 0.006250000000000002 0.2562500000000001 0.006250000000000002 0.006250000000000002 0.2562500000000001 0.006250000000000002 0.2562500000000001 0.006250000000000002 0.006250000000000002 0.006250000000000002 0.006250000000000002 0.006250000000000002 0.006250000000000002 0.006250000000000002 0.006250000000000002 0.006250000000000002 0.006250000000000002 0.006250000000000002 0.006250000000000002 0.006250000000000002 0.006250000000000002 0.006250000000000002 0.006250000000000002 0.006250000000000002 0.006250000000000002 0.006250000000000002 0.006250000000000002 0.006250000000000002 0.006250000000000002 0.006250000000000002 0.006250000000000002 0.006250000000000002 0.006250000000000002 0.006250000000000002 0.006250000000000002 0.006250000000000002 0.006250000000000002 0.006250000000000002 0.006250000000000002 0.006250000000000002 0.025 0.025 0.025 0.025 0.025 0.025 0.025 0.025 0.025 0.025 0.025 0.025 0.025 0.025 0.025 0.025 0.025 0.025 0.025 0.025 0.025 0.025 0.025 0.025 0.025 0.025 0.025 0.025 0.025 0.025 0.025 0.025 0.025 0.025 0.025 0.025 0.025 0.025 0.025 0.025 0.6486328124999999 0.1173828125 0.1330078125 0.0392578125 0.02363281249999999 0.008007812499999998 0.008007812499999998 0.0158203125 0.0001953124999999999 0.0001953124999999999 0.0001953124999999999 0.0001953124999999999 0.0001953124999999999 0.0001953124999999999 0.0001953124999999999 0.0001953124999999999 0.0001953124999999999 0.0001953124999999999 0.0001953124999999999 0.0001953124999999999 0.0001953124999999999 0.0001953124999999999 0.0001953124999999999 0.0001953124999999999 0.0001953124999999999 0.0001953124999999999 0.0001953124999999999 0.0001953124999999999 0.0001953124999999999 0.0001953124999999999 0.0001953124999999999 0.0001953124999999999 0.0001953124999999999 0.0001953124999999999 0.0001953124999999999 0.0001953124999999999 0.0001953124999999999 0.0001953124999999999 0.0001953124999999999 0.0001953124999999999 0.4279639175257731 0.2217783505154638 0.1908505154639175 0.06198453608247421 0.06713917525773194 0.01559278350515463 0.0001288659793814432 0.0001288659793814432 0.005283505154639173 0.0001288659793814432 0.0001288659793814432 0.005283505154639173 0.0001288659793814432 0.0001288659793814432 0.0001288659793814432 0.0001288659793814432 0.0001288659793814432 0.0001288659793814432 0.0001288659793814432 0.0001288659793814432 0.0001288659793814432 0.0001288659793814432 0.0001288659793814432 0.0001288659793814432 0.0001288659793814432 0.0001288659793814432 0.0001288659793814432 0.0001288659793814432 0.0001288659793814432 0.0001288659793814432 0.0001288659793814432 0.0001288659793814432 0.0001288659793814432 0.0001288659793814432 0.0001288659793814432 0.0001288659793814432 0.0001288659793814432 0.0001288659793814432 0.0001288659793814432 0.0001288659793814432 0.2831521739130434 0.1309782608695652 0.2831521739130434 0.1309782608695652 0.04402173913043476 0.08749999999999998 0.0005434782608695648 0.02228260869565216 0.0005434782608695648 0.0005434782608695648 0.0005434782608695648 0.0005434782608695648 0.0005434782608695648 0.0005434782608695648 0.0005434782608695648 0.0005434782608695648 0.0005434782608695648 0.0005434782608695648 0.0005434782608695648 0.0005434782608695648 0.0005434782608695648 0.0005434782608695648 0.0005434782608695648 0.0005434782608695648 0.0005434782608695648 0.0005434782608695648 0.0005434782608695648 0.0005434782608695648 0.0005434782608695648 0.0005434782608695648 0.0005434782608695648 0.0005434782608695648 0.0005434782608695648 0.0005434782608695648 0.0005434782608695648 0.0005434782608695648 0.0005434782608695648 0.0005434782608695648 0.0005434782608695648 0.0005434782608695648 0.1801282051282051 0.1801282051282051 0.257051282051282 0.1544871794871794 0.05192307692307691 0.1032051282051282 0.02628205128205127 0.0006410256410256406 0.0006410256410256406 0.0006410256410256406 0.0006410256410256406 0.0006410256410256406 0.0006410256410256406 0.0006410256410256406 0.0006410256410256406 0.0006410256410256406 0.0006410256410256406 0.02628205128205127 0.0006410256410256406 0.0006410256410256406 0.0006410256410256406 0.0006410256410256406 0.0006410256410256406 0.0006410256410256406 0.0006410256410256406 0.0006410256410256406 0.0006410256410256406 0.0006410256410256406 0.0006410256410256406 0.0006410256410256406 0.0006410256410256406 0.0006410256410256406 0.0006410256410256406 0.0006410256410256406 0.0006410256410256406 0.0006410256410256406 0.0006410256410256406 0.0006410256410256406 0.0006410256410256406 0.0006410256410256406 0.002777777777777778 0.002777777777777778 0.002777777777777778 0.1138888888888889 0.2250000000000001 0.1138888888888889 0.002777777777777778 0.1138888888888889 0.1138888888888889 0.1138888888888889 0.1138888888888889 0.002777777777777778 0.002777777777777778 0.002777777777777778 0.002777777777777778 0.002777777777777778 0.002777777777777778 0.002777777777777778 0.002777777777777778 0.002777777777777778 0.002777777777777778 0.002777777777777778 0.002777777777777778 0.002777777777777778 0.002777777777777778 0.002777777777777778 0.002777777777777778 0.002777777777777778 0.002777777777777778 0.002777777777777778 0.002777777777777778 0.002777777777777778 0.002777777777777778 0.002777777777777778 0.002777777777777778 0.002777777777777778 0.002777777777777778 0.002777777777777778 0.002777777777777778 0.002777777777777778 0.008333333333333335 0.3416666666666668 0.3416666666666668 0.008333333333333335 0.008333333333333335 0.008333333333333335 0.008333333333333335 0.008333333333333335 0.008333333333333335 0.008333333333333335 0.008333333333333335 0.008333333333333335 0.008333333333333335 0.008333333333333335 0.008333333333333335 0.008333333333333335 0.008333333333333335 0.008333333333333335 0.008333333333333335 0.008333333333333335 0.008333333333333335 0.008333333333333335 0.008333333333333335 0.008333333333333335 0.008333333333333335 0.008333333333333335 0.008333333333333335 0.008333333333333335 0.008333333333333335 0.008333333333333335 0.008333333333333335 0.008333333333333335 0.008333333333333335 0.008333333333333335 0.008333333333333335 0.008333333333333335 0.008333333333333335 0.008333333333333335 0.008333333333333335 0.008333333333333335 0.0125 0.0125 0.0125 0.0125 0.0125 0.0125 0.5125000000000003 0.0125 0.0125 0.0125 0.0125 0.0125 0.0125 0.0125 0.0125 0.0125 0.0125 0.0125 0.0125 0.0125 0.0125 0.0125 0.0125 0.0125 0.0125 0.0125 0.0125 0.0125 0.0125 0.0125 0.0125 0.0125 0.0125 0.0125 0.0125 0.0125 0.0125 0.0125 0.0125 0.0125 0.7007485029940117 0.1378742514970059 0.1079341317365269 0.02410179640718562 0.01811377245508981 0.006137724550898201 0.0001497005988023951 0.0001497005988023951 0.0001497005988023951 0.0001497005988023951 0.0001497005988023951 0.0001497005988023951 0.0001497005988023951 0.0001497005988023951 0.0001497005988023951 0.0001497005988023951 0.0001497005988023951 0.0001497005988023951 0.0001497005988023951 0.0001497005988023951 0.0001497005988023951 0.0001497005988023951 0.0001497005988023951 0.0001497005988023951 0.0001497005988023951 0.0001497005988023951 0.0001497005988023951 0.0001497005988023951 0.0001497005988023951 0.0001497005988023951 0.0001497005988023951 0.0001497005988023951 0.0001497005988023951 0.0001497005988023951 0.0001497005988023951 0.0001497005988023951 0.0001497005988023951 0.0001497005988023951 0.0001497005988023951 0.0001497005988023951 0.4677692307692307 0.2154615384615384 0.1816153846153846 0.06161538461538459 0.03084615384615384 0.01546153846153846 0.01238461538461538 0.003153846153846152 0.003153846153846152 7.692307692307687e-05 7.692307692307687e-05 0.006230769230769229 7.692307692307687e-05 7.692307692307687e-05 7.692307692307687e-05 7.692307692307687e-05 7.692307692307687e-05 7.692307692307687e-05 7.692307692307687e-05 7.692307692307687e-05 7.692307692307687e-05 7.692307692307687e-05 7.692307692307687e-05 7.692307692307687e-05 7.692307692307687e-05 7.692307692307687e-05 7.692307692307687e-05 7.692307692307687e-05 7.692307692307687e-05 7.692307692307687e-05 7.692307692307687e-05 7.692307692307687e-05 7.692307692307687e-05 7.692307692307687e-05 7.692307692307687e-05 7.692307692307687e-05 7.692307692307687e-05 7.692307692307687e-05 7.692307692307687e-05 7.692307692307687e-05 0.2504464285714286 0.196875 0.196875 0.1611607142857143 0.1254464285714286 0.01830357142857143 0.0004464285714285713 0.0004464285714285713 0.0004464285714285713 0.0004464285714285713 0.0004464285714285713 0.0004464285714285713 0.0004464285714285713 0.01830357142857143 0.0004464285714285713 0.0004464285714285713 0.0004464285714285713 0.0004464285714285713 0.0004464285714285713 0.0004464285714285713 0.0004464285714285713 0.0004464285714285713 0.0004464285714285713 0.0004464285714285713 0.0004464285714285713 0.0004464285714285713 0.0004464285714285713 0.0004464285714285713 0.0004464285714285713 0.0004464285714285713 0.0004464285714285713 0.0004464285714285713 0.0004464285714285713 0.0004464285714285713 0.01830357142857143 0.0004464285714285713 0.0004464285714285713 0.0004464285714285713 0.0004464285714285713 0.0004464285714285713 0.05472972972972971 0.2979729729729729 0.1087837837837838 0.1087837837837838 0.02770270270270269 0.08175675675675673 0.02770270270270269 0.1087837837837838 0.05472972972972971 0.0006756756756756752 0.02770270270270269 0.02770270270270269 0.0006756756756756752 0.0006756756756756752 0.05472972972972971 0.0006756756756756752 0.0006756756756756752 0.0006756756756756752 0.0006756756756756752 0.0006756756756756752 0.0006756756756756752 0.0006756756756756752 0.0006756756756756752 0.0006756756756756752 0.0006756756756756752 0.0006756756756756752 0.0006756756756756752 0.0006756756756756752 0.0006756756756756752 0.0006756756756756752 0.0006756756756756752 0.0006756756756756752 0.0006756756756756752 0.0006756756756756752 0.0006756756756756752 0.0006756756756756752 0.0006756756756756752 0.0006756756756756752 0.0006756756756756752 0.0006756756756756752 0.07884615384615383 0.1557692307692307 0.001923076923076922 0.001923076923076922 0.001923076923076922 0.07884615384615383 0.2326923076923076 0.07884615384615383 0.07884615384615383 0.07884615384615383 0.001923076923076922 0.001923076923076922 0.001923076923076922 0.001923076923076922 0.001923076923076922 0.001923076923076922 0.1557692307692307 0.001923076923076922 0.001923076923076922 0.001923076923076922 0.001923076923076922 0.001923076923076922 0.001923076923076922 0.001923076923076922 0.001923076923076922 0.001923076923076922 0.001923076923076922 0.001923076923076922 0.001923076923076922 0.001923076923076922 0.001923076923076922 0.001923076923076922 0.001923076923076922 0.001923076923076922 0.001923076923076922 0.001923076923076922 0.001923076923076922 0.001923076923076922 0.001923076923076922 0.001923076923076922 0.08541666666666664 0.002083333333333332 0.3354166666666666 0.08541666666666664 0.08541666666666664 0.002083333333333332 0.002083333333333332 0.08541666666666664 0.08541666666666664 0.002083333333333332 0.002083333333333332 0.002083333333333332 0.002083333333333332 0.08541666666666664 0.08541666666666664 0.002083333333333332 0.002083333333333332 0.002083333333333332 0.002083333333333332 0.002083333333333332 0.002083333333333332 0.002083333333333332 0.002083333333333332 0.002083333333333332 0.002083333333333332 0.002083333333333332 0.002083333333333332 0.002083333333333332 0.002083333333333332 0.002083333333333332 0.002083333333333332 0.002083333333333332 0.002083333333333332 0.002083333333333332 0.002083333333333332 0.002083333333333332 0.002083333333333332 0.002083333333333332 0.002083333333333332 0.002083333333333332 0.0125 0.0125 0.0125 0.0125 0.0125 0.0125 0.0125 0.0125 0.0125 0.0125 0.0125 0.0125 0.0125 0.0125 0.0125 0.0125 0.0125 0.0125 0.0125 0.0125 0.5125000000000002 0.0125 0.0125 0.0125 0.0125 0.0125 0.0125 0.0125 0.0125 0.0125 0.0125 0.0125 0.0125 0.0125 0.0125 0.0125 0.0125 0.0125 0.0125 0.0125 0.6305718475073312 0.1994868035190615 0.09391495601173018 0.02353372434017595 0.0411290322580645 0.003005865102639295 0.003005865102639295 0.003005865102639295 7.331378299120229e-05 7.331378299120229e-05 7.331378299120229e-05 7.331378299120229e-05 7.331378299120229e-05 7.331378299120229e-05 7.331378299120229e-05 7.331378299120229e-05 7.331378299120229e-05 7.331378299120229e-05 7.331378299120229e-05 7.331378299120229e-05 7.331378299120229e-05 7.331378299120229e-05 7.331378299120229e-05 7.331378299120229e-05 7.331378299120229e-05 7.331378299120229e-05 7.331378299120229e-05 7.331378299120229e-05 7.331378299120229e-05 7.331378299120229e-05 7.331378299120229e-05 7.331378299120229e-05 7.331378299120229e-05 7.331378299120229e-05 7.331378299120229e-05 7.331378299120229e-05 7.331378299120229e-05 7.331378299120229e-05 7.331378299120229e-05 7.331378299120229e-05 0.4537162162162162 0.1950289575289575 0.1795849420849421 0.0791988416988417 0.04638030888030888 0.02321428571428572 0.009700772200772203 0.00583976833976834 0.00390926640926641 4.826254826254825e-05 4.826254826254825e-05 4.826254826254825e-05 4.826254826254825e-05 4.826254826254825e-05 4.826254826254825e-05 4.826254826254825e-05 4.826254826254825e-05 4.826254826254825e-05 4.826254826254825e-05 4.826254826254825e-05 0.001978764478764479 4.826254826254825e-05 4.826254826254825e-05 4.826254826254825e-05 4.826254826254825e-05 4.826254826254825e-05 4.826254826254825e-05 4.826254826254825e-05 4.826254826254825e-05 4.826254826254825e-05 4.826254826254825e-05 4.826254826254825e-05 4.826254826254825e-05 4.826254826254825e-05 4.826254826254825e-05 4.826254826254825e-05 4.826254826254825e-05 4.826254826254825e-05 4.826254826254825e-05 4.826254826254825e-05 0.2455188679245284 0.2549528301886793 0.1511792452830189 0.1134433962264151 0.0662735849056604 0.05683962264150946 0.01910377358490567 0.02853773584905661 0.03797169811320757 0.0002358490566037736 0.00966981132075472 0.0002358490566037736 0.0002358490566037736 0.0002358490566037736 0.0002358490566037736 0.0002358490566037736 0.0002358490566037736 0.0002358490566037736 0.0002358490566037736 0.0002358490566037736 0.0002358490566037736 0.0002358490566037736 0.00966981132075472 0.0002358490566037736 0.0002358490566037736 0.0002358490566037736 0.0002358490566037736 0.0002358490566037736 0.0002358490566037736 0.0002358490566037736 0.0002358490566037736 0.0002358490566037736 0.0002358490566037736 0.0002358490566037736 0.0002358490566037736 0.0002358490566037736 0.0002358490566037736 0.0002358490566037736 0.0002358490566037736 0.0002358490566037736 0.05401785714285712 0.196875 0.2147321428571428 0.1611607142857142 0.1433035714285714 0.03616071428571428 0.01830357142857142 0.01830357142857142 0.07187499999999999 0.0004464285714285711 0.01830357142857142 0.01830357142857142 0.0004464285714285711 0.0004464285714285711 0.0004464285714285711 0.0004464285714285711 0.0004464285714285711 0.03616071428571428 0.0004464285714285711 0.0004464285714285711 0.0004464285714285711 0.0004464285714285711 0.0004464285714285711 0.0004464285714285711 0.0004464285714285711 0.0004464285714285711 0.0004464285714285711 0.0004464285714285711 0.0004464285714285711 0.0004464285714285711 0.0004464285714285711 0.0004464285714285711 0.0004464285714285711 0.0004464285714285711 0.0004464285714285711 0.0004464285714285711 0.0004464285714285711 0.0004464285714285711 0.0004464285714285711 0.0004464285714285711 0.04270833333333332 0.04270833333333332 0.2510416666666666 0.08437499999999998 0.1260416666666666 0.08437499999999998 0.08437499999999998 0.08437499999999998 0.04270833333333332 0.001041666666666666 0.001041666666666666 0.08437499999999998 0.001041666666666666 0.001041666666666666 0.001041666666666666 0.001041666666666666 0.001041666666666666 0.001041666666666666 0.001041666666666666 0.001041666666666666 0.001041666666666666 0.04270833333333332 0.001041666666666666 0.001041666666666666 0.001041666666666666 0.001041666666666666 0.001041666666666666 0.001041666666666666 0.001041666666666666 0.001041666666666666 0.001041666666666666 0.001041666666666666 0.001041666666666666 0.001041666666666666 0.001041666666666666 0.001041666666666666 0.001041666666666666 0.001041666666666666 0.001041666666666666 0.001041666666666666 0.001666666666666666 0.135 0.2016666666666666 0.2016666666666666 0.135 0.001666666666666666 0.001666666666666666 0.06833333333333332 0.001666666666666666 0.06833333333333332 0.001666666666666666 0.001666666666666666 0.001666666666666666 0.001666666666666666 0.06833333333333332 0.001666666666666666 0.001666666666666666 0.001666666666666666 0.001666666666666666 0.001666666666666666 0.001666666666666666 0.001666666666666666 0.001666666666666666 0.001666666666666666 0.001666666666666666 0.001666666666666666 0.001666666666666666 0.001666666666666666 0.001666666666666666 0.06833333333333332 0.001666666666666666 0.001666666666666666 0.001666666666666666 0.001666666666666666 0.001666666666666666 0.001666666666666666 0.001666666666666666 0.001666666666666666 0.001666666666666666 0.001666666666666666 0.00625 0.00625 0.00625 0.00625 0.00625 0.00625 0.00625 0.2562500000000001 0.00625 0.00625 0.2562500000000001 0.00625 0.00625 0.00625 0.00625 0.00625 0.00625 0.00625 0.00625 0.00625 0.00625 0.00625 0.2562500000000001 0.00625 0.00625 0.00625 0.00625 0.00625 0.00625 0.00625 0.00625 0.00625 0.00625 0.00625 0.00625 0.00625 0.00625 0.00625 0.00625 0.00625 0.5940104166666668 0.2294270833333334 0.09401041666666669 0.02109375 0.03151041666666667 0.01067708333333334 0.0002604166666666667 0.0002604166666666667 0.0002604166666666667 0.01067708333333334 0.0002604166666666667 0.0002604166666666667 0.0002604166666666667 0.0002604166666666667 0.0002604166666666667 0.0002604166666666667 0.0002604166666666667 0.0002604166666666667 0.0002604166666666667 0.0002604166666666667 0.0002604166666666667 0.0002604166666666667 0.0002604166666666667 0.0002604166666666667 0.0002604166666666667 0.0002604166666666667 0.0002604166666666667 0.0002604166666666667 0.0002604166666666667 0.0002604166666666667 0.0002604166666666667 0.0002604166666666667 0.0002604166666666667 0.0002604166666666667 0.0002604166666666667 0.0002604166666666667 0.0002604166666666667 0.0002604166666666667 0.0002604166666666667 0.0002604166666666667 0.3969576719576719 0.2276455026455026 0.180026455026455 0.0689153439153439 0.06362433862433861 0.016005291005291 0.016005291005291 0.005423280423280422 0.005423280423280422 0.005423280423280422 0.0001322751322751322 0.0001322751322751322 0.0001322751322751322 0.0001322751322751322 0.0001322751322751322 0.0001322751322751322 0.0001322751322751322 0.0001322751322751322 0.0001322751322751322 0.005423280423280422 0.0001322751322751322 0.0001322751322751322 0.0001322751322751322 0.0001322751322751322 0.0001322751322751322 0.0001322751322751322 0.0001322751322751322 0.0001322751322751322 0.0001322751322751322 0.0001322751322751322 0.005423280423280422 0.0001322751322751322 0.0001322751322751322 0.0001322751322751322 0.0001322751322751322 0.0001322751322751322 0.0001322751322751322 0.0001322751322751322 0.0001322751322751322 0.0001322751322751322 0.2422413793103447 0.2077586206896551 0.03534482758620688 0.1732758620689654 0.1387931034482758 0.03534482758620688 0.06982758620689652 0.0008620689655172407 0.0008620689655172407 0.0008620689655172407 0.0008620689655172407 0.0008620689655172407 0.0008620689655172407 0.03534482758620688 0.03534482758620688 0.0008620689655172407 0.0008620689655172407 0.0008620689655172407 0.0008620689655172407 0.0008620689655172407 0.0008620689655172407 0.0008620689655172407 0.0008620689655172407 0.0008620689655172407 0.0008620689655172407 0.0008620689655172407 0.0008620689655172407 0.0008620689655172407 0.0008620689655172407 0.0008620689655172407 0.0008620689655172407 0.0008620689655172407 0.0008620689655172407 0.0008620689655172407 0.0008620689655172407 0.0008620689655172407 0.0008620689655172407 0.0008620689655172407 0.0008620689655172407 0.0008620689655172407 0.2512499999999999 0.10125 0.2512499999999999 0.10125 0.10125 0.05124999999999998 0.05124999999999998 0.001249999999999999 0.001249999999999999 0.001249999999999999 0.001249999999999999 0.001249999999999999 0.001249999999999999 0.001249999999999999 0.001249999999999999 0.001249999999999999 0.001249999999999999 0.001249999999999999 0.001249999999999999 0.001249999999999999 0.001249999999999999 0.001249999999999999 0.001249999999999999 0.001249999999999999 0.001249999999999999 0.001249999999999999 0.001249999999999999 0.001249999999999999 0.001249999999999999 0.001249999999999999 0.001249999999999999 0.001249999999999999 0.001249999999999999 0.001249999999999999 0.05124999999999998 0.001249999999999999 0.001249999999999999 0.001249999999999999 0.001249999999999999 0.001249999999999999 0.002083333333333333 0.08541666666666668 0.16875 0.16875 0.16875 0.08541666666666668 0.002083333333333333 0.002083333333333333 0.002083333333333333 0.002083333333333333 0.002083333333333333 0.002083333333333333 0.002083333333333333 0.002083333333333333 0.002083333333333333 0.002083333333333333 0.08541666666666668 0.002083333333333333 0.002083333333333333 0.002083333333333333 0.002083333333333333 0.002083333333333333 0.002083333333333333 0.002083333333333333 0.002083333333333333 0.002083333333333333 0.002083333333333333 0.002083333333333333 0.08541666666666668 0.002083333333333333 0.002083333333333333 0.002083333333333333 0.08541666666666668 0.002083333333333333 0.002083333333333333 0.002083333333333333 0.002083333333333333 0.002083333333333333 0.002083333333333333 0.002083333333333333 0.00625 0.2562500000000001 0.00625 0.00625 0.2562500000000001 0.00625 0.00625 0.00625 0.00625 0.00625 0.00625 0.00625 0.00625 0.00625 0.00625 0.00625 0.00625 0.00625 0.00625 0.00625 0.00625 0.00625 0.00625 0.00625 0.2562500000000001 0.00625 0.00625 0.00625 0.00625 0.00625 0.00625 0.00625 0.00625 0.00625 0.00625 0.00625 0.00625 0.00625 0.00625 0.00625 0.3416666666666668 0.008333333333333335 0.008333333333333335 0.008333333333333335 0.008333333333333335 0.008333333333333335 0.008333333333333335 0.3416666666666668 0.008333333333333335 0.008333333333333335 0.008333333333333335 0.008333333333333335 0.008333333333333335 0.008333333333333335 0.008333333333333335 0.008333333333333335 0.008333333333333335 0.008333333333333335 0.008333333333333335 0.008333333333333335 0.008333333333333335 0.008333333333333335 0.008333333333333335 0.008333333333333335 0.008333333333333335 0.008333333333333335 0.008333333333333335 0.008333333333333335 0.008333333333333335 0.008333333333333335 0.008333333333333335 0.008333333333333335 0.008333333333333335 0.008333333333333335 0.008333333333333335 0.008333333333333335 0.008333333333333335 0.008333333333333335 0.008333333333333335 0.008333333333333335 0.6085843373493974 0.1507530120481927 0.1206325301204819 0.04231927710843372 0.04231927710843372 0.01822289156626505 0.0001506024096385541 0.0001506024096385541 0.0001506024096385541 0.0001506024096385541 0.00617469879518072 0.00617469879518072 0.0001506024096385541 0.0001506024096385541 0.0001506024096385541 0.0001506024096385541 0.0001506024096385541 0.0001506024096385541 0.0001506024096385541 0.0001506024096385541 0.0001506024096385541 0.0001506024096385541 0.0001506024096385541 0.0001506024096385541 0.0001506024096385541 0.0001506024096385541 0.0001506024096385541 0.0001506024096385541 0.0001506024096385541 0.0001506024096385541 0.0001506024096385541 0.0001506024096385541 0.0001506024096385541 0.0001506024096385541 0.0001506024096385541 0.0001506024096385541 0.0001506024096385541 0.0001506024096385541 0.0001506024096385541 0.0001506024096385541 0.4301971326164875 0.1936379928315412 0.1793010752688172 0.07894265232974911 0.04668458781362007 0.01801075268817205 0.01801075268817205 0.01442652329749104 0.007258064516129032 0.003673835125448029 8.960573476702506e-05 0.003673835125448029 8.960573476702506e-05 8.960573476702506e-05 0.003673835125448029 8.960573476702506e-05 8.960573476702506e-05 8.960573476702506e-05 8.960573476702506e-05 8.960573476702506e-05 8.960573476702506e-05 8.960573476702506e-05 8.960573476702506e-05 8.960573476702506e-05 8.960573476702506e-05 8.960573476702506e-05 8.960573476702506e-05 8.960573476702506e-05 8.960573476702506e-05 8.960573476702506e-05 8.960573476702506e-05 8.960573476702506e-05 8.960573476702506e-05 8.960573476702506e-05 8.960573476702506e-05 8.960573476702506e-05 8.960573476702506e-05 8.960573476702506e-05 8.960573476702506e-05 8.960573476702506e-05 0.333974358974359 0.1801282051282051 0.2057692307692308 0.05192307692307692 0.1288461538461539 0.0006410256410256408 0.05192307692307692 0.0006410256410256408 0.0006410256410256408 0.0006410256410256408 0.0006410256410256408 0.0006410256410256408 0.02628205128205128 0.0006410256410256408 0.0006410256410256408 0.0006410256410256408 0.0006410256410256408 0.0006410256410256408 0.0006410256410256408 0.0006410256410256408 0.0006410256410256408 0.0006410256410256408 0.0006410256410256408 0.0006410256410256408 0.0006410256410256408 0.0006410256410256408 0.0006410256410256408 0.0006410256410256408 0.0006410256410256408 0.0006410256410256408 0.0006410256410256408 0.0006410256410256408 0.0006410256410256408 0.0006410256410256408 0.0006410256410256408 0.0006410256410256408 0.0006410256410256408 0.0006410256410256408 0.0006410256410256408 0.0006410256410256408 0.07499999999999998 0.112037037037037 0.2601851851851851 0.07499999999999998 0.2601851851851851 0.07499999999999998 0.03796296296296295 0.0009259259259259254 0.0009259259259259254 0.0009259259259259254 0.03796296296296295 0.0009259259259259254 0.0009259259259259254 0.0009259259259259254 0.0009259259259259254 0.0009259259259259254 0.0009259259259259254 0.03796296296296295 0.0009259259259259254 0.0009259259259259254 0.0009259259259259254 0.0009259259259259254 0.0009259259259259254 0.0009259259259259254 0.0009259259259259254 0.0009259259259259254 0.0009259259259259254 0.0009259259259259254 0.0009259259259259254 0.0009259259259259254 0.0009259259259259254 0.0009259259259259254 0.0009259259259259254 0.0009259259259259254 0.0009259259259259254 0.0009259259259259254 0.0009259259259259254 0.0009259259259259254 0.0009259259259259254 0.0009259259259259254 0.003125 0.128125 0.128125 0.128125 0.128125 0.003125 0.003125 0.003125 0.003125 0.003125 0.128125 0.003125 0.003125 0.003125 0.003125 0.003125 0.003125 0.003125 0.003125 0.003125 0.003125 0.128125 0.003125 0.128125 0.003125 0.003125 0.003125 0.003125 0.003125 0.003125 0.003125 0.003125 0.003125 0.003125 0.003125 0.003125 0.003125 0.003125 0.003125 0.003125 0.002083333333333333 0.08541666666666668 0.002083333333333333 0.08541666666666668 0.08541666666666668 0.08541666666666668 0.08541666666666668 0.16875 0.002083333333333333 0.08541666666666668 0.002083333333333333 0.002083333333333333 0.002083333333333333 0.002083333333333333 0.002083333333333333 0.002083333333333333 0.002083333333333333 0.002083333333333333 0.002083333333333333 0.002083333333333333 0.08541666666666668 0.002083333333333333 0.002083333333333333 0.002083333333333333 0.002083333333333333 0.08541666666666668 0.002083333333333333 0.002083333333333333 0.002083333333333333 0.002083333333333333 0.002083333333333333 0.002083333333333333 0.002083333333333333 0.002083333333333333 0.002083333333333333 0.002083333333333333 0.002083333333333333 0.002083333333333333 0.08541666666666668 0.002083333333333333 0.0125 0.0125 0.0125 0.0125 0.0125 0.0125 0.0125 0.0125 0.0125 0.0125 0.0125 0.0125 0.5125000000000002 0.0125 0.0125 0.0125 0.0125 0.0125 0.0125 0.0125 0.0125 0.0125 0.0125 0.0125 0.0125 0.0125 0.0125 0.0125 0.0125 0.0125 0.0125 0.0125 0.0125 0.0125 0.0125 0.0125 0.0125 0.0125 0.0125 0.0125 0.5647879464285717 0.2076450892857144 0.1094308035714286 0.04469866071428573 0.03130580357142859 0.01568080357142858 0.006752232142857145 0.004520089285714287 0.002287946428571429 5.580357142857143e-05 5.580357142857143e-05 0.006752232142857145 5.580357142857143e-05 5.580357142857143e-05 5.580357142857143e-05 5.580357142857143e-05 0.002287946428571429 5.580357142857143e-05 0.002287946428571429 5.580357142857143e-05 5.580357142857143e-05 5.580357142857143e-05 5.580357142857143e-05 5.580357142857143e-05 5.580357142857143e-05 5.580357142857143e-05 5.580357142857143e-05 5.580357142857143e-05 5.580357142857143e-05 5.580357142857143e-05 5.580357142857143e-05 5.580357142857143e-05 5.580357142857143e-05 5.580357142857143e-05 5.580357142857143e-05 5.580357142857143e-05 5.580357142857143e-05 5.580357142857143e-05 5.580357142857143e-05 5.580357142857143e-05 0.404618320610687 0.1908778625954199 0.2015648854961832 0.08858778625954199 0.05347328244274809 0.0183587786259542 0.01683206106870229 0.01225190839694656 0.006145038167938932 0.003091603053435114 3.81679389312977e-05 3.81679389312977e-05 3.81679389312977e-05 3.81679389312977e-05 3.81679389312977e-05 0.001564885496183206 0.001564885496183206 3.81679389312977e-05 3.81679389312977e-05 3.81679389312977e-05 3.81679389312977e-05 3.81679389312977e-05 3.81679389312977e-05 3.81679389312977e-05 3.81679389312977e-05 3.81679389312977e-05 3.81679389312977e-05 3.81679389312977e-05 3.81679389312977e-05 3.81679389312977e-05 3.81679389312977e-05 3.81679389312977e-05 3.81679389312977e-05 3.81679389312977e-05 3.81679389312977e-05 3.81679389312977e-05 3.81679389312977e-05 3.81679389312977e-05 3.81679389312977e-05 3.81679389312977e-05 0.301654411764706 0.2281250000000001 0.1472426470588236 0.09577205882352946 0.08841911764705887 0.05165441176470591 0.02959558823529413 0.0001838235294117647 0.007536764705882356 0.0001838235294117647 0.007536764705882356 0.0001838235294117647 0.007536764705882356 0.0001838235294117647 0.01488970588235295 0.0001838235294117647 0.0001838235294117647 0.0001838235294117647 0.007536764705882356 0.0001838235294117647 0.0001838235294117647 0.0001838235294117647 0.0001838235294117647 0.0001838235294117647 0.0001838235294117647 0.0001838235294117647 0.0001838235294117647 0.0001838235294117647 0.0001838235294117647 0.0001838235294117647 0.0001838235294117647 0.0001838235294117647 0.007536764705882356 0.0001838235294117647 0.0001838235294117647 0.0001838235294117647 0.0001838235294117647 0.0001838235294117647 0.0001838235294117647 0.0001838235294117647 0.04321428571428573 0.1146428571428572 0.2146428571428572 0.1860714285714287 0.08607142857142862 0.08607142857142862 0.04321428571428573 0.02892857142857144 0.04321428571428573 0.02892857142857144 0.01464285714285715 0.0003571428571428572 0.0003571428571428572 0.0003571428571428572 0.01464285714285715 0.01464285714285715 0.0003571428571428572 0.0003571428571428572 0.01464285714285715 0.01464285714285715 0.01464285714285715 0.0003571428571428572 0.0003571428571428572 0.0003571428571428572 0.01464285714285715 0.01464285714285715 0.0003571428571428572 0.0003571428571428572 0.0003571428571428572 0.0003571428571428572 0.0003571428571428572 0.0003571428571428572 0.0003571428571428572 0.0003571428571428572 0.0003571428571428572 0.0003571428571428572 0.0003571428571428572 0.0003571428571428572 0.0003571428571428572 0.0003571428571428572 0.106578947368421 0.00131578947368421 0.05394736842105262 0.05394736842105262 0.106578947368421 0.106578947368421 0.106578947368421 0.2118421052631579 0.1592105263157894 0.00131578947368421 0.00131578947368421 0.05394736842105262 0.00131578947368421 0.00131578947368421 0.00131578947368421 0.00131578947368421 0.00131578947368421 0.00131578947368421 0.00131578947368421 0.00131578947368421 0.00131578947368421 0.00131578947368421 0.00131578947368421 0.00131578947368421 0.00131578947368421 0.00131578947368421 0.00131578947368421 0.00131578947368421 0.00131578947368421 0.00131578947368421 0.00131578947368421 0.00131578947368421 0.00131578947368421 0.00131578947368421 0.00131578947368421 0.00131578947368421 0.00131578947368421 0.00131578947368421 0.00131578947368421 0.00131578947368421 0.04270833333333332 0.1260416666666666 0.08437499999999998 0.08437499999999998 0.1260416666666666 0.04270833333333332 0.04270833333333332 0.04270833333333332 0.04270833333333332 0.001041666666666666 0.001041666666666666 0.001041666666666666 0.04270833333333332 0.001041666666666666 0.08437499999999998 0.08437499999999998 0.001041666666666666 0.001041666666666666 0.04270833333333332 0.001041666666666666 0.001041666666666666 0.001041666666666666 0.001041666666666666 0.001041666666666666 0.001041666666666666 0.001041666666666666 0.001041666666666666 0.04270833333333332 0.001041666666666666 0.001041666666666666 0.001041666666666666 0.001041666666666666 0.001041666666666666 0.04270833333333332 0.001041666666666666 0.001041666666666666 0.001041666666666666 0.001041666666666666 0.001041666666666666 0.001041666666666666 0.128125 0.003125 0.003125 0.003125 0.003125 0.128125 0.003125 0.003125 0.128125 0.003125 0.003125 0.003125 0.003125 0.003125 0.128125 0.003125 0.003125 0.128125 0.003125 0.003125 0.128125 0.003125 0.003125 0.003125 0.003125 0.003125 0.003125 0.003125 0.003125 0.003125 0.003125 0.128125 0.003125 0.003125 0.003125 0.003125 0.003125 0.003125 0.003125 0.003125 0.587828947368421 0.1711622807017543 0.1360745614035087 0.04835526315789473 0.02642543859649122 0.01326754385964912 0.01326754385964912 0.0001096491228070175 0.0001096491228070175 0.0001096491228070175 0.0001096491228070175 0.0001096491228070175 0.0001096491228070175 0.0001096491228070175 0.0001096491228070175 0.0001096491228070175 0.0001096491228070175 0.0001096491228070175 0.0001096491228070175 0.0001096491228070175 0.0001096491228070175 0.0001096491228070175 0.0001096491228070175 0.0001096491228070175 0.0001096491228070175 0.0001096491228070175 0.0001096491228070175 0.0001096491228070175 0.0001096491228070175 0.0001096491228070175 0.0001096491228070175 0.0001096491228070175 0.0001096491228070175 0.0001096491228070175 0.0001096491228070175 0.0001096491228070175 0.0001096491228070175 0.0001096491228070175 0.0001096491228070175 0.0001096491228070175 0.3781506849315067 0.2082876712328766 0.2165068493150684 0.06034246575342463 0.0685616438356164 0.01650684931506849 0.02472602739726026 0.005547945205479449 0.01376712328767123 0.00280821917808219 0.00280821917808219 6.849315068493145e-05 6.849315068493145e-05 6.849315068493145e-05 6.849315068493145e-05 6.849315068493145e-05 6.849315068493145e-05 6.849315068493145e-05 6.849315068493145e-05 6.849315068493145e-05 6.849315068493145e-05 6.849315068493145e-05 6.849315068493145e-05 6.849315068493145e-05 6.849315068493145e-05 6.849315068493145e-05 6.849315068493145e-05 6.849315068493145e-05 6.849315068493145e-05 6.849315068493145e-05 6.849315068493145e-05 6.849315068493145e-05 6.849315068493145e-05 6.849315068493145e-05 6.849315068493145e-05 6.849315068493145e-05 6.849315068493145e-05 6.849315068493145e-05 6.849315068493145e-05 6.849315068493145e-05 0.2579545454545455 0.1518939393939395 0.2579545454545455 0.106439393939394 0.06098484848484852 0.0306818181818182 0.07613636363636368 0.04583333333333335 0.0003787878787878788 0.0003787878787878788 0.0003787878787878788 0.0003787878787878788 0.0003787878787878788 0.0003787878787878788 0.0003787878787878788 0.0003787878787878788 0.0003787878787878788 0.0003787878787878788 0.0003787878787878788 0.0003787878787878788 0.0003787878787878788 0.0003787878787878788 0.0003787878787878788 0.0003787878787878788 0.0003787878787878788 0.0003787878787878788 0.0003787878787878788 0.0003787878787878788 0.0003787878787878788 0.0003787878787878788 0.0003787878787878788 0.0003787878787878788 0.0003787878787878788 0.0003787878787878788 0.0003787878787878788 0.0003787878787878788 0.0003787878787878788 0.0003787878787878788 0.0003787878787878788 0.0003787878787878788 0.1433673469387755 0.061734693877551 0.225 0.1637755102040816 0.1229591836734694 0.061734693877551 0.02091836734693877 0.04132653061224489 0.04132653061224489 0.04132653061224489 0.02091836734693877 0.02091836734693877 0.0005102040816326528 0.02091836734693877 0.0005102040816326528 0.0005102040816326528 0.0005102040816326528 0.0005102040816326528 0.0005102040816326528 0.0005102040816326528 0.0005102040816326528 0.0005102040816326528 0.0005102040816326528 0.0005102040816326528 0.0005102040816326528 0.0005102040816326528 0.0005102040816326528 0.0005102040816326528 0.0005102040816326528 0.0005102040816326528 0.0005102040816326528 0.0005102040816326528 0.0005102040816326528 0.0005102040816326528 0.0005102040816326528 0.0005102040816326528 0.0005102040816326528 0.0005102040816326528 0.0005102040816326528 0.0005102040816326528 0.08541666666666665 0.002083333333333332 0.2520833333333333 0.08541666666666665 0.002083333333333332 0.16875 0.002083333333333332 0.08541666666666665 0.002083333333333332 0.002083333333333332 0.08541666666666665 0.002083333333333332 0.08541666666666665 0.002083333333333332 0.002083333333333332 0.002083333333333332 0.002083333333333332 0.002083333333333332 0.002083333333333332 0.002083333333333332 0.002083333333333332 0.002083333333333332 0.002083333333333332 0.002083333333333332 0.002083333333333332 0.002083333333333332 0.002083333333333332 0.002083333333333332 0.002083333333333332 0.002083333333333332 0.002083333333333332 0.002083333333333332 0.002083333333333332 0.002083333333333332 0.002083333333333332 0.002083333333333332 0.002083333333333332 0.08541666666666665 0.002083333333333332 0.002083333333333332 0.0931818181818182 0.0931818181818182 0.002272727272727273 0.0931818181818182 0.002272727272727273 0.002272727272727273 0.0931818181818182 0.002272727272727273 0.002272727272727273 0.0931818181818182 0.002272727272727273 0.002272727272727273 0.002272727272727273 0.002272727272727273 0.0931818181818182 0.002272727272727273 0.002272727272727273 0.0931818181818182 0.002272727272727273 0.002272727272727273 0.0931818181818182 0.002272727272727273 0.002272727272727273 0.0931818181818182 0.002272727272727273 0.002272727272727273 0.002272727272727273 0.002272727272727273 0.002272727272727273 0.002272727272727273 0.002272727272727273 0.0931818181818182 0.002272727272727273 0.002272727272727273 0.002272727272727273 0.002272727272727273 0.002272727272727273 0.002272727272727273 0.002272727272727273 0.002272727272727273 0.00625 0.00625 0.00625 0.2562500000000001 0.00625 0.00625 0.00625 0.00625 0.00625 0.00625 0.00625 0.00625 0.00625 0.00625 0.00625 0.00625 0.00625 0.2562500000000001 0.00625 0.00625 0.00625 0.00625 0.00625 0.2562500000000001 0.00625 0.00625 0.00625 0.00625 0.00625 0.00625 0.00625 0.00625 0.00625 0.00625 0.00625 0.00625 0.00625 0.00625 0.00625 0.00625 0.5491482965931864 0.1643787575150301 0.160370741482966 0.0561623246492986 0.0281062124248497 0.02009018036072144 0.006062124248496995 0.006062124248496995 0.006062124248496995 0.002054108216432866 5.010020040080159e-05 5.010020040080159e-05 5.010020040080159e-05 5.010020040080159e-05 5.010020040080159e-05 5.010020040080159e-05 5.010020040080159e-05 5.010020040080159e-05 5.010020040080159e-05 5.010020040080159e-05 5.010020040080159e-05 5.010020040080159e-05 5.010020040080159e-05 5.010020040080159e-05 5.010020040080159e-05 5.010020040080159e-05 5.010020040080159e-05 5.010020040080159e-05 5.010020040080159e-05 5.010020040080159e-05 5.010020040080159e-05 5.010020040080159e-05 5.010020040080159e-05 5.010020040080159e-05 5.010020040080159e-05 5.010020040080159e-05 5.010020040080159e-05 5.010020040080159e-05 5.010020040080159e-05 5.010020040080159e-05 0.3561787072243345 0.2116920152091255 0.1964828897338403 0.09255386565272497 0.06467046894803548 0.03425221799746514 0.01650823827629911 0.01143852978453739 0.005101394169835235 0.001299112801013941 0.003833967046894803 0.002566539923954372 0.002566539923954372 3.168567807351076e-05 3.168567807351076e-05 3.168567807351076e-05 3.168567807351076e-05 3.168567807351076e-05 3.168567807351076e-05 3.168567807351076e-05 3.168567807351076e-05 3.168567807351076e-05 3.168567807351076e-05 3.168567807351076e-05 3.168567807351076e-05 3.168567807351076e-05 3.168567807351076e-05 3.168567807351076e-05 3.168567807351076e-05 3.168567807351076e-05 3.168567807351076e-05 3.168567807351076e-05 3.168567807351076e-05 3.168567807351076e-05 3.168567807351076e-05 3.168567807351076e-05 3.168567807351076e-05 3.168567807351076e-05 3.168567807351076e-05 3.168567807351076e-05 0.1420212765957447 0.1562056737588653 0.2413120567375887 0.08528368794326244 0.1349290780141844 0.04982269503546101 0.07819148936170216 0.04982269503546101 0.01436170212765958 0.01436170212765958 0.007269503546099293 0.0001773049645390071 0.0001773049645390071 0.007269503546099293 0.007269503546099293 0.007269503546099293 0.0001773049645390071 0.0001773049645390071 0.0001773049645390071 0.0001773049645390071 0.0001773049645390071 0.0001773049645390071 0.0001773049645390071 0.0001773049645390071 0.0001773049645390071 0.0001773049645390071 0.0001773049645390071 0.0001773049645390071 0.0001773049645390071 0.0001773049645390071 0.0001773049645390071 0.0001773049645390071 0.0001773049645390071 0.0001773049645390071 0.0001773049645390071 0.0001773049645390071 0.0001773049645390071 0.0001773049645390071 0.0001773049645390071 0.0001773049645390071 0.1002777777777778 0.1447222222222223 0.1447222222222223 0.1447222222222223 0.07805555555555559 0.1002777777777778 0.07805555555555559 0.01138888888888889 0.03361111111111112 0.02250000000000001 0.01138888888888889 0.05583333333333336 0.0002777777777777778 0.0002777777777777778 0.01138888888888889 0.02250000000000001 0.0002777777777777778 0.0002777777777777778 0.0002777777777777778 0.01138888888888889 0.0002777777777777778 0.0002777777777777778 0.0002777777777777778 0.0002777777777777778 0.0002777777777777778 0.01138888888888889 0.0002777777777777778 0.0002777777777777778 0.0002777777777777778 0.0002777777777777778 0.0002777777777777778 0.0002777777777777778 0.0002777777777777778 0.0002777777777777778 0.0002777777777777778 0.0002777777777777778 0.01138888888888889 0.0002777777777777778 0.0002777777777777778 0.0002777777777777778 0.10125 0.001249999999999999 0.001249999999999999 0.05124999999999998 0.25125 0.15125 0.05124999999999998 0.10125 0.001249999999999999 0.001249999999999999 0.05124999999999998 0.10125 0.001249999999999999 0.001249999999999999 0.001249999999999999 0.001249999999999999 0.001249999999999999 0.001249999999999999 0.05124999999999998 0.001249999999999999 0.001249999999999999 0.001249999999999999 0.05124999999999998 0.001249999999999999 0.001249999999999999 0.001249999999999999 0.001249999999999999 0.001249999999999999 0.001249999999999999 0.001249999999999999 0.001249999999999999 0.001249999999999999 0.001249999999999999 0.001249999999999999 0.001249999999999999 0.001249999999999999 0.001249999999999999 0.001249999999999999 0.001249999999999999 0.001249999999999999 0.04659090909090907 0.04659090909090907 0.3193181818181817 0.09204545454545451 0.1375 0.001136363636363636 0.001136363636363636 0.04659090909090907 0.09204545454545451 0.001136363636363636 0.001136363636363636 0.001136363636363636 0.001136363636363636 0.001136363636363636 0.001136363636363636 0.001136363636363636 0.04659090909090907 0.001136363636363636 0.04659090909090907 0.001136363636363636 0.001136363636363636 0.001136363636363636 0.001136363636363636 0.001136363636363636 0.001136363636363636 0.001136363636363636 0.001136363636363636 0.001136363636363636 0.04659090909090907 0.001136363636363636 0.04659090909090907 0.001136363636363636 0.001136363636363636 0.001136363636363636 0.001136363636363636 0.001136363636363636 0.001136363636363636 0.001136363636363636 0.001136363636363636 0.001136363636363636 0.005 0.005 0.005 0.005 0.005 0.005 0.005 0.005 0.005 0.205 0.005 0.005 0.005 0.205 0.005 0.005 0.005 0.005 0.005 0.005 0.005 0.005 0.005 0.005 0.005 0.005 0.005 0.005 0.005 0.005 0.205 0.005 0.205 0.005 0.005 0.005 0.005 0.005 0.005 0.005 0.5419052863436123 0.1740638766519824 0.1498348017621146 0.06393171806167401 0.03309471365638767 0.01987885462555066 0.002257709251101322 5.506607929515417e-05 0.002257709251101322 0.004460352422907489 0.004460352422907489 5.506607929515417e-05 5.506607929515417e-05 0.002257709251101322 5.506607929515417e-05 5.506607929515417e-05 5.506607929515417e-05 5.506607929515417e-05 5.506607929515417e-05 5.506607929515417e-05 5.506607929515417e-05 5.506607929515417e-05 5.506607929515417e-05 5.506607929515417e-05 5.506607929515417e-05 5.506607929515417e-05 5.506607929515417e-05 5.506607929515417e-05 5.506607929515417e-05 5.506607929515417e-05 5.506607929515417e-05 5.506607929515417e-05 5.506607929515417e-05 5.506607929515417e-05 5.506607929515417e-05 5.506607929515417e-05 5.506607929515417e-05 5.506607929515417e-05 5.506607929515417e-05 5.506607929515417e-05 0.3856073943661972 0.2113116197183099 0.1655369718309859 0.08455105633802817 0.06694542253521127 0.03525528169014085 0.01941021126760564 0.008846830985915493 0.007086267605633804 0.003565140845070423 4.401408450704224e-05 4.401408450704224e-05 0.001804577464788732 0.003565140845070423 4.401408450704224e-05 4.401408450704224e-05 4.401408450704224e-05 0.003565140845070423 4.401408450704224e-05 4.401408450704224e-05 0.001804577464788732 4.401408450704224e-05 4.401408450704224e-05 4.401408450704224e-05 4.401408450704224e-05 4.401408450704224e-05 4.401408450704224e-05 4.401408450704224e-05 4.401408450704224e-05 4.401408450704224e-05 4.401408450704224e-05 4.401408450704224e-05 4.401408450704224e-05 4.401408450704224e-05 4.401408450704224e-05 4.401408450704224e-05 4.401408450704224e-05 4.401408450704224e-05 4.401408450704224e-05 4.401408450704224e-05 0.2426767676767678 0.2022727272727274 0.1618686868686869 0.1315656565656566 0.0810606060606061 0.01035353535353536 0.04065656565656568 0.01035353535353536 0.02045454545454546 0.03055555555555557 0.01035353535353536 0.01035353535353536 0.0002525252525252525 0.0002525252525252525 0.0002525252525252525 0.0002525252525252525 0.0002525252525252525 0.0002525252525252525 0.0002525252525252525 0.0002525252525252525 0.0002525252525252525 0.01035353535353536 0.0002525252525252525 0.0002525252525252525 0.0002525252525252525 0.0002525252525252525 0.0002525252525252525 0.0002525252525252525 0.0002525252525252525 0.01035353535353536 0.0002525252525252525 0.0002525252525252525 0.01035353535353536 0.01035353535353536 0.0002525252525252525 0.0002525252525252525 0.0002525252525252525 0.0002525252525252525 0.0002525252525252525 0.0002525252525252525 0.1294354838709677 0.1133064516129032 0.1294354838709677 0.09717741935483871 0.09717741935483871 0.09717741935483871 0.06491935483870968 0.0810483870967742 0.06491935483870968 0.03266129032258065 0.03266129032258065 0.0004032258064516127 0.0004032258064516127 0.0004032258064516127 0.0004032258064516127 0.0004032258064516127 0.01653225806451613 0.0004032258064516127 0.0004032258064516127 0.0004032258064516127 0.0004032258064516127 0.01653225806451613 0.0004032258064516127 0.0004032258064516127 0.0004032258064516127 0.0004032258064516127 0.0004032258064516127 0.0004032258064516127 0.0004032258064516127 0.0004032258064516127 0.0004032258064516127 0.0004032258064516127 0.0004032258064516127 0.0004032258064516127 0.0004032258064516127 0.0004032258064516127 0.0004032258064516127 0.0004032258064516127 0.01653225806451613 0.0004032258064516127 0.1260416666666666 0.04270833333333332 0.08437499999999998 0.04270833333333332 0.209375 0.001041666666666666 0.08437499999999998 0.001041666666666666 0.04270833333333332 0.04270833333333332 0.04270833333333332 0.001041666666666666 0.04270833333333332 0.001041666666666666 0.04270833333333332 0.001041666666666666 0.04270833333333332 0.04270833333333332 0.04270833333333332 0.001041666666666666 0.04270833333333332 0.001041666666666666 0.001041666666666666 0.001041666666666666 0.001041666666666666 0.001041666666666666 0.001041666666666666 0.001041666666666666 0.001041666666666666 0.001041666666666666 0.001041666666666666 0.001041666666666666 0.001041666666666666 0.001041666666666666 0.001041666666666666 0.001041666666666666 0.001041666666666666 0.001041666666666666 0.001041666666666666 0.001041666666666666 0.002272727272727271 0.002272727272727271 0.09318181818181814 0.09318181818181814 0.002272727272727271 0.002272727272727271 0.2749999999999999 0.184090909090909 0.002272727272727271 0.002272727272727271 0.002272727272727271 0.09318181818181814 0.002272727272727271 0.002272727272727271 0.002272727272727271 0.09318181818181814 0.002272727272727271 0.002272727272727271 0.002272727272727271 0.002272727272727271 0.002272727272727271 0.09318181818181814 0.002272727272727271 0.002272727272727271 0.002272727272727271 0.002272727272727271 0.002272727272727271 0.002272727272727271 0.002272727272727271 0.002272727272727271 0.002272727272727271 0.002272727272727271 0.002272727272727271 0.002272727272727271 0.002272727272727271 0.002272727272727271 0.002272727272727271 0.002272727272727271 0.002272727272727271 0.002272727272727271 0.003571428571428571 0.003571428571428571 0.003571428571428571 0.003571428571428571 0.1464285714285715 0.003571428571428571 0.1464285714285715 0.003571428571428571 0.003571428571428571 0.1464285714285715 0.003571428571428571 0.003571428571428571 0.003571428571428571 0.003571428571428571 0.1464285714285715 0.003571428571428571 0.003571428571428571 0.003571428571428571 0.1464285714285715 0.003571428571428571 0.003571428571428571 0.003571428571428571 0.003571428571428571 0.1464285714285715 0.003571428571428571 0.003571428571428571 0.003571428571428571 0.003571428571428571 0.003571428571428571 0.003571428571428571 0.003571428571428571 0.003571428571428571 0.003571428571428571 0.003571428571428571 0.003571428571428571 0.003571428571428571 0.003571428571428571 0.003571428571428571 0.003571428571428571 0.003571428571428571 0.5312068965517242 0.1518965517241379 0.1725862068965517 0.04844827586206896 0.02086206896551724 0.0346551724137931 0.007068965517241377 0.007068965517241377 0.007068965517241377 0.007068965517241377 0.0001724137931034482 0.007068965517241377 0.0001724137931034482 0.0001724137931034482 0.0001724137931034482 0.0001724137931034482 0.0001724137931034482 0.0001724137931034482 0.0001724137931034482 0.0001724137931034482 0.0001724137931034482 0.0001724137931034482 0.0001724137931034482 0.0001724137931034482 0.0001724137931034482 0.0001724137931034482 0.0001724137931034482 0.0001724137931034482 0.0001724137931034482 0.0001724137931034482 0.0001724137931034482 0.0001724137931034482 0.0001724137931034482 0.0001724137931034482 0.0001724137931034482 0.0001724137931034482 0.0001724137931034482 0.0001724137931034482 0.0001724137931034482 0.0001724137931034482 0.3732587064676616 0.2140547263681591 0.1643034825870646 0.08967661691542286 0.08470149253731341 0.0349502487562189 0.01504975124378109 0.01007462686567164 0.0001243781094527363 0.005099502487562187 0.005099502487562187 0.0001243781094527363 0.0001243781094527363 0.0001243781094527363 0.0001243781094527363 0.0001243781094527363 0.0001243781094527363 0.0001243781094527363 0.0001243781094527363 0.0001243781094527363 0.0001243781094527363 0.0001243781094527363 0.0001243781094527363 0.0001243781094527363 0.0001243781094527363 0.0001243781094527363 0.0001243781094527363 0.0001243781094527363 0.0001243781094527363 0.0001243781094527363 0.0001243781094527363 0.0001243781094527363 0.0001243781094527363 0.0001243781094527363 0.0001243781094527363 0.0001243781094527363 0.0001243781094527363 0.0001243781094527363 0.0001243781094527363 0.0001243781094527363 0.2292857142857142 0.2007142857142857 0.0864285714285714 0.115 0.1435714285714285 0.02928571428571427 0.02928571428571427 0.02928571428571427 0.02928571428571427 0.0007142857142857137 0.0007142857142857137 0.02928571428571427 0.0007142857142857137 0.0007142857142857137 0.02928571428571427 0.0007142857142857137 0.0007142857142857137 0.0007142857142857137 0.0007142857142857137 0.0007142857142857137 0.0007142857142857137 0.0007142857142857137 0.0007142857142857137 0.0007142857142857137 0.0007142857142857137 0.0007142857142857137 0.0007142857142857137 0.0007142857142857137 0.0007142857142857137 0.0007142857142857137 0.0007142857142857137 0.02928571428571427 0.0007142857142857137 0.0007142857142857137 0.0007142857142857137 0.0007142857142857137 0.0007142857142857137 0.0007142857142857137 0.0007142857142857137 0.0007142857142857137 0.09204545454545451 0.04659090909090907 0.1375 0.04659090909090907 0.04659090909090907 0.09204545454545451 0.09204545454545451 0.09204545454545451 0.09204545454545451 0.001136363636363636 0.04659090909090907 0.001136363636363636 0.001136363636363636 0.09204545454545451 0.001136363636363636 0.04659090909090907 0.001136363636363636 0.001136363636363636 0.001136363636363636 0.001136363636363636 0.04659090909090907 0.001136363636363636 0.001136363636363636 0.001136363636363636 0.001136363636363636 0.001136363636363636 0.001136363636363636 0.001136363636363636 0.001136363636363636 0.001136363636363636 0.001136363636363636 0.001136363636363636 0.001136363636363636 0.001136363636363636 0.001136363636363636 0.001136363636363636 0.001136363636363636 0.001136363636363636 0.001136363636363636 0.001136363636363636 0.1138888888888889 0.1138888888888889 0.225 0.1138888888888889 0.1138888888888889 0.002777777777777777 0.225 0.002777777777777777 0.002777777777777777 0.002777777777777777 0.002777777777777777 0.002777777777777777 0.002777777777777777 0.002777777777777777 0.002777777777777777 0.002777777777777777 0.002777777777777777 0.002777777777777777 0.002777777777777777 0.002777777777777777 0.002777777777777777 0.002777777777777777 0.002777777777777777 0.002777777777777777 0.002777777777777777 0.002777777777777777 0.002777777777777777 0.002777777777777777 0.002777777777777777 0.002777777777777777 0.002777777777777777 0.002777777777777777 0.002777777777777777 0.002777777777777777 0.002777777777777777 0.002777777777777777 0.002777777777777777 0.002777777777777777 0.002777777777777777 0.002777777777777777 0.0125 0.0125 0.0125 0.0125 0.0125 0.0125 0.0125 0.0125 0.0125 0.0125 0.0125 0.0125 0.0125 0.0125 0.0125 0.0125 0.0125 0.5125000000000002 0.0125 0.0125 0.0125 0.0125 0.0125 0.0125 0.0125 0.0125 0.0125 0.0125 0.0125 0.0125 0.0125 0.0125 0.0125 0.0125 0.0125 0.0125 0.0125 0.0125 0.0125 0.0125 0.025 0.025 0.025 0.025 0.025 0.025 0.025 0.025 0.025 0.025 0.025 0.025 0.025 0.025 0.025 0.025 0.025 0.025 0.025 0.025 0.025 0.025 0.025 0.025 0.025 0.025 0.025 0.025 0.025 0.025 0.025 0.025 0.025 0.025 0.025 0.025 0.025 0.025 0.025 0.025 0.5883578431372548 0.2011029411764705 0.1275735294117647 0.04424019607843137 0.009926470588235292 0.0001225490196078431 0.009926470588235292 0.0001225490196078431 0.009926470588235292 0.0001225490196078431 0.0001225490196078431 0.0001225490196078431 0.0001225490196078431 0.0001225490196078431 0.0001225490196078431 0.0001225490196078431 0.0001225490196078431 0.0001225490196078431 0.0001225490196078431 0.0001225490196078431 0.0001225490196078431 0.0001225490196078431 0.0001225490196078431 0.0001225490196078431 0.0001225490196078431 0.0001225490196078431 0.0001225490196078431 0.005024509803921567 0.0001225490196078431 0.0001225490196078431 0.0001225490196078431 0.0001225490196078431 0.0001225490196078431 0.0001225490196078431 0.0001225490196078431 0.0001225490196078431 0.0001225490196078431 0.0001225490196078431 0.0001225490196078431 0.0001225490196078431 0.3663580246913579 0.1359053497942386 0.2593621399176954 0.08240740740740737 0.09886831275720161 0.0001028806584362139 0.02890946502057612 0.0001028806584362139 0.00833333333333333 0.00833333333333333 0.0001028806584362139 0.0001028806584362139 0.0001028806584362139 0.0001028806584362139 0.004218106995884771 0.0001028806584362139 0.004218106995884771 0.0001028806584362139 0.0001028806584362139 0.0001028806584362139 0.0001028806584362139 0.0001028806584362139 0.0001028806584362139 0.0001028806584362139 0.0001028806584362139 0.0001028806584362139 0.0001028806584362139 0.0001028806584362139 0.0001028806584362139 0.0001028806584362139 0.0001028806584362139 0.0001028806584362139 0.0001028806584362139 0.0001028806584362139 0.0001028806584362139 0.0001028806584362139 0.0001028806584362139 0.0001028806584362139 0.0001028806584362139 0.0001028806584362139 0.2396739130434783 0.1092391304347826 0.1744565217391304 0.1527173913043478 0.06576086956521739 0.02228260869565217 0.04402173913043478 0.04402173913043478 0.02228260869565217 0.02228260869565217 0.000543478260869565 0.000543478260869565 0.02228260869565217 0.000543478260869565 0.04402173913043478 0.000543478260869565 0.000543478260869565 0.000543478260869565 0.000543478260869565 0.000543478260869565 0.000543478260869565 0.000543478260869565 0.02228260869565217 0.000543478260869565 0.000543478260869565 0.000543478260869565 0.000543478260869565 0.000543478260869565 0.000543478260869565 0.000543478260869565 0.000543478260869565 0.000543478260869565 0.000543478260869565 0.000543478260869565 0.000543478260869565 0.000543478260869565 0.000543478260869565 0.000543478260869565 0.000543478260869565 0.000543478260869565 0.1341666666666666 0.1008333333333333 0.1341666666666666 0.1341666666666666 0.06749999999999996 0.06749999999999996 0.03416666666666665 0.06749999999999996 0.06749999999999996 0.0008333333333333326 0.03416666666666665 0.0008333333333333326 0.0008333333333333326 0.03416666666666665 0.0008333333333333326 0.03416666666666665 0.0008333333333333326 0.0008333333333333326 0.0008333333333333326 0.0008333333333333326 0.03416666666666665 0.03416666666666665 0.0008333333333333326 0.0008333333333333326 0.0008333333333333326 0.0008333333333333326 0.0008333333333333326 0.0008333333333333326 0.0008333333333333326 0.0008333333333333326 0.0008333333333333326 0.0008333333333333326 0.0008333333333333326 0.0008333333333333326 0.0008333333333333326 0.0008333333333333326 0.0008333333333333326 0.0008333333333333326 0.0008333333333333326 0.0008333333333333326 0.002499999999999999 0.2025 0.002499999999999999 0.1025 0.1025 0.1025 0.002499999999999999 0.002499999999999999 0.002499999999999999 0.1025 0.1025 0.002499999999999999 0.002499999999999999 0.002499999999999999 0.002499999999999999 0.002499999999999999 0.002499999999999999 0.002499999999999999 0.2025 0.002499999999999999 0.002499999999999999 0.002499999999999999 0.002499999999999999 0.002499999999999999 0.002499999999999999 0.002499999999999999 0.002499999999999999 0.002499999999999999 0.002499999999999999 0.002499999999999999 0.002499999999999999 0.002499999999999999 0.002499999999999999 0.002499999999999999 0.002499999999999999 0.002499999999999999 0.002499999999999999 0.002499999999999999 0.002499999999999999 0.002499999999999999 0.003571428571428572 0.003571428571428572 0.1464285714285715 0.1464285714285715 0.1464285714285715 0.1464285714285715 0.1464285714285715 0.1464285714285715 0.003571428571428572 0.003571428571428572 0.003571428571428572 0.003571428571428572 0.003571428571428572 0.003571428571428572 0.003571428571428572 0.003571428571428572 0.003571428571428572 0.003571428571428572 0.003571428571428572 0.003571428571428572 0.003571428571428572 0.003571428571428572 0.003571428571428572 0.003571428571428572 0.003571428571428572 0.003571428571428572 0.003571428571428572 0.003571428571428572 0.003571428571428572 0.003571428571428572 0.003571428571428572 0.003571428571428572 0.003571428571428572 0.003571428571428572 0.003571428571428572 0.003571428571428572 0.003571428571428572 