<?xml version="1.0" encoding="ISO-8859-1"?>
<!-- This network was created in GeNIe Academic, which can be used for educational and research purposes only -->
<smile version="1.0" id="vehicle_safety_final__Impute___undersampled_categorised_" numsamples="10000" discsamples="10000">
	<nodes>
		<cpt id="OA_MAIS">
			<state id="State0" />
			<state id="State1" />
			<state id="State2" />
			<state id="State3" />
			<state id="State4" />
			<state id="State5" />
			<state id="State6" />
			<probabilities>0.1459078476751525 0.148116978750263 0.1598990111508521 0.1753629286766253 0.148116978750263 0.1598990111508521 0.062697243845992</probabilities>
		</cpt>
		<cpt id="OA_BAGDEPLY">
			<state id="Deployed" />
			<state id="SNot_Deployed" />
			<parents>OA_MAIS</parents>
			<probabilities>0.2989949748743719 0.7010050251256281 0.4826732673267327 0.5173267326732673 0.7087155963302753 0.2912844036697248 0.7552301255230125 0.2447698744769874 0.6361386138613861 0.3638613861386139 0.6903669724770642 0.3096330275229358 0.8081395348837209 0.1918604651162791</probabilities>
		</cpt>
		<cpt id="GV_DVLONG">
			<state id="s01_below_n137" />
			<state id="s02_n137_n125" />
			<state id="s03_n125_n112" />
			<state id="s04_n112_n91" />
			<state id="s05_n91_n81" />
			<state id="s06_n81_n73" />
			<state id="s07_n73_n64" />
			<state id="s08_n64_n54" />
			<state id="s09_n54_n48" />
			<state id="s10_n48_n38" />
			<state id="s11_n38_n28" />
			<state id="s12_n28_n20" />
			<state id="s13_n20_n6" />
			<state id="s14_n6_1" />
			<state id="s15_1_17" />
			<state id="s16_17_28" />
			<state id="s17_28_39" />
			<state id="s18_39_53" />
			<state id="s19_53_68" />
			<state id="s20_68_up" />
			<parents>OA_BAGDEPLY OA_MAIS</parents>
			<probabilities>0.0008333333333333331 0.0008333333333333331 0.0008333333333333331 0.0008333333333333331 0.0008333333333333331 0.0008333333333333331 0.0008333333333333331 0.0008333333333333331 0.01750000000000001 0.01750000000000001 0.1508333333333334 0.2175000000000001 0.5675000000000001 0.01750000000000001 0.0008333333333333331 0.0008333333333333331 0.0008333333333333331 0.0008333333333333331 0.0008333333333333331 0.0008333333333333331 0.0005102040816326528 0.0005102040816326528 0.0005102040816326528 0.0005102040816326528 0.0005102040816326528 0.0005102040816326528 0.01071428571428571 0.02091836734693877 0.0005102040816326528 0.04132653061224489 0.2147959183673469 0.2760204081632653 0.3576530612244898 0.04132653061224489 0.0005102040816326528 0.02091836734693877 0.01071428571428571 0.0005102040816326528 0.0005102040816326528 0.0005102040816326528 0.0003225806451612902 0.0003225806451612902 0.0003225806451612902 0.0003225806451612902 0.0003225806451612902 0.006774193548387097 0.006774193548387097 0.01967741935483871 0.02612903225806451 0.0970967741935484 0.2261290322580645 0.2067741935483871 0.3745161290322581 0.01967741935483871 0.0003225806451612902 0.006774193548387097 0.0003225806451612902 0.006774193548387097 0.0003225806451612902 0.0003225806451612902 0.0002762430939226518 0.0002762430939226518 0.0002762430939226518 0.0002762430939226518 0.0002762430939226518 0.005801104972375691 0.03342541436464088 0.06104972375690608 0.07762430939226519 0.1273480662983425 0.193646408839779 0.2157458563535911 0.2323204419889502 0.0223756906077348 0.01132596685082873 0.005801104972375691 0.0002762430939226518 0.01132596685082873 0.0002762430939226518 0.0002762430939226518 0.000387596899224806 0.000387596899224806 0.00813953488372093 0.0313953488372093 0.0313953488372093 0.0313953488372093 0.04689922480620155 0.07790697674418605 0.0624031007751938 0.1089147286821705 0.1941860465116279 0.1554263565891473 0.1941860465116279 0.03914728682170542 0.00813953488372093 0.000387596899224806 0.000387596899224806 0.00813953488372093 0.000387596899224806 0.000387596899224806 0.01357615894039735 0.02019867549668874 0.0003311258278145694 0.02019867549668874 0.02682119205298013 0.0466887417218543 0.03344370860927152 0.07317880794701988 0.06655629139072848 0.1062913907284768 0.1195364238410596 0.2122516556291391 0.1658940397350993 0.05993377483443709 0.02019867549668874 0.0003311258278145694 0.006953642384105961 0.006953642384105961 0.0003311258278145694 0.0003311258278145694 0.000714285714285714 0.000714285714285714 0.000714285714285714 0.000714285714285714 0.04357142857142857 0.1292857142857143 0.08642857142857142 0.1292857142857143 0.05785714285714285 0.115 0.115 0.1007142857142857 0.1435714285714286 0.04357142857142857 0.015 0.000714285714285714 0.000714285714285714 0.000714285714285714 0.015 0.000714285714285714 0.000357142857142857 0.000357142857142857 0.000357142857142857 0.000357142857142857 0.000357142857142857 0.000357142857142857 0.000357142857142857 0.000357142857142857 0.000357142857142857 0.000357142857142857 0.02178571428571428 0.09321428571428572 0.5075 0.2146428571428571 0.06464285714285714 0.0575 0.03607142857142857 0.000357142857142857 0.000357142857142857 0.000357142857142857 0.000476190476190476 0.000476190476190476 0.000476190476190476 0.000476190476190476 0.000476190476190476 0.000476190476190476 0.000476190476190476 0.01 0.000476190476190476 0.01952380952380952 0.01952380952380952 0.1719047619047619 0.4576190476190476 0.1052380952380953 0.1147619047619048 0.05761904761904763 0.01952380952380952 0.01952380952380952 0.000476190476190476 0.000476190476190476 0.0007812499999999998 0.0007812499999999998 0.0007812499999999998 0.0007812499999999998 0.0007812499999999998 0.0007812499999999998 0.0007812499999999998 0.0007812499999999998 0.01640625 0.01640625 0.01640625 0.11015625 0.5164062500000001 0.15703125 0.07890625000000001 0.03203125 0.01640625 0.03203125 0.0007812499999999998 0.0007812499999999998 0.0008474576271186438 0.0008474576271186438 0.0008474576271186438 0.0008474576271186438 0.0008474576271186438 0.0008474576271186438 0.0008474576271186438 0.0008474576271186438 0.0008474576271186438 0.0008474576271186438 0.0008474576271186438 0.1194915254237288 0.5432203389830509 0.102542372881356 0.102542372881356 0.03474576271186441 0.0516949152542373 0.01779661016949153 0.01779661016949153 0.0008474576271186438 0.0006756756756756754 0.0006756756756756754 0.0006756756756756754 0.0006756756756756754 0.0006756756756756754 0.0006756756756756754 0.0006756756756756754 0.0006756756756756754 0.01418918918918919 0.01418918918918919 0.05472972972972973 0.1493243243243244 0.3790540540540541 0.2168918918918919 0.09527027027027027 0.01418918918918919 0.0277027027027027 0.0277027027027027 0.0006756756756756754 0.0006756756756756754 0.0007352941176470585 0.0007352941176470585 0.0007352941176470585 0.01544117647058824 0.0007352941176470585 0.0007352941176470585 0.0007352941176470585 0.03014705882352941 0.0007352941176470585 0.0007352941176470585 0.07426470588235294 0.1625 0.324264705882353 0.1183823529411765 0.1036764705882353 0.05955882352941176 0.01544117647058824 0.04485294117647058 0.03014705882352941 0.01544117647058824 0.002941176470588234 0.002941176470588234 0.002941176470588234 0.002941176470588234 0.002941176470588234 0.002941176470588234 0.06176470588235294 0.06176470588235294 0.002941176470588234 0.002941176470588234 0.1794117647058823 0.06176470588235294 0.06176470588235294 0.238235294117647 0.1794117647058823 0.06176470588235294 0.002941176470588234 0.06176470588235294 0.002941176470588234 0.002941176470588234</probabilities>
		</cpt>
		<cpt id="GV_ENERGY">
			<state id="s01_below_113" />
			<state id="s02_113_167" />
			<state id="s03_167_230" />
			<state id="s04_230_290" />
			<state id="s05_290_366" />
			<state id="s06_366_468" />
			<state id="s07_468_577" />
			<state id="s08_577_717" />
			<state id="s09_717_877" />
			<state id="s10_877_1099" />
			<state id="s11_1099_1433" />
			<state id="s12_1433_1833" />
			<state id="s13_1833_2554" />
			<state id="s14_2554_3893" />
			<state id="s15_3893_up" />
			<parents>GV_DVLONG OA_MAIS</parents>
			<probabilities>0.06666666666666668 0.06666666666666668 0.06666666666666668 0.06666666666666668 0.06666666666666668 0.06666666666666668 0.06666666666666668 0.06666666666666668 0.06666666666666668 0.06666666666666668 0.06666666666666668 0.06666666666666668 0.06666666666666668 0.06666666666666668 0.06666666666666668 0.06666666666666668 0.06666666666666668 0.06666666666666668 0.06666666666666668 0.06666666666666668 0.06666666666666668 0.06666666666666668 0.06666666666666668 0.06666666666666668 0.06666666666666668 0.06666666666666668 0.06666666666666668 0.06666666666666668 0.06666666666666668 0.06666666666666668 0.06666666666666668 0.06666666666666668 0.06666666666666668 0.06666666666666668 0.06666666666666668 0.06666666666666668 0.06666666666666668 0.06666666666666668 0.06666666666666668 0.06666666666666668 0.06666666666666668 0.06666666666666668 0.06666666666666668 0.06666666666666668 0.06666666666666668 0.06666666666666668 0.06666666666666668 0.06666666666666668 0.06666666666666668 0.06666666666666668 0.06666666666666668 0.06666666666666668 0.06666666666666668 0.06666666666666668 0.06666666666666668 0.06666666666666668 0.06666666666666668 0.06666666666666668 0.06666666666666668 0.06666666666666668 0.06666666666666668 0.06666666666666668 0.06666666666666668 0.06666666666666668 0.06666666666666668 0.06666666666666668 0.06666666666666668 0.06666666666666668 0.06666666666666668 0.06666666666666668 0.06666666666666668 0.06666666666666668 0.06666666666666668 0.06666666666666668 0.06666666666666668 0.02222222222222223 0.02222222222222223 0.02222222222222223 0.02222222222222223 0.02222222222222223 0.02222222222222223 0.02222222222222223 0.02222222222222223 0.02222222222222223 0.02222222222222223 0.02222222222222223 0.3555555555555555 0.02222222222222223 0.02222222222222223 0.3555555555555555 0.06666666666666668 0.06666666666666668 0.06666666666666668 0.06666666666666668 0.06666666666666668 0.06666666666666668 0.06666666666666668 0.06666666666666668 0.06666666666666668 0.06666666666666668 0.06666666666666668 0.06666666666666668 0.06666666666666668 0.06666666666666668 0.06666666666666668 0.06666666666666668 0.06666666666666668 0.06666666666666668 0.06666666666666668 0.06666666666666668 0.06666666666666668 0.06666666666666668 0.06666666666666668 0.06666666666666668 0.06666666666666668 0.06666666666666668 0.06666666666666668 0.06666666666666668 0.06666666666666668 0.06666666666666668 0.06666666666666668 0.06666666666666668 0.06666666666666668 0.06666666666666668 0.06666666666666668 0.06666666666666668 0.06666666666666668 0.06666666666666668 0.06666666666666668 0.06666666666666668 0.06666666666666668 0.06666666666666668 0.06666666666666668 0.06666666666666668 0.06666666666666668 0.06666666666666668 0.06666666666666668 0.06666666666666668 0.06666666666666668 0.06666666666666668 0.06666666666666668 0.06666666666666668 0.06666666666666668 0.06666666666666668 0.06666666666666668 0.06666666666666668 0.06666666666666668 0.06666666666666668 0.06666666666666668 0.06666666666666668 0.06666666666666668 0.06666666666666668 0.06666666666666668 0.06666666666666668 0.06666666666666668 0.06666666666666668 0.06666666666666668 0.06666666666666668 0.06666666666666668 0.06666666666666668 0.06666666666666668 0.06666666666666668 0.06666666666666668 0.06666666666666668 0.06666666666666668 0.06666666666666668 0.06666666666666668 0.06666666666666668 0.06666666666666668 0.06666666666666668 0.06666666666666668 0.06666666666666668 0.06666666666666668 0.06666666666666668 0.06666666666666668 0.06666666666666668 0.06666666666666668 0.06666666666666668 0.06666666666666668 0.06666666666666668 0.01666666666666667 0.01666666666666667 0.01666666666666667 0.01666666666666667 0.01666666666666667 0.01666666666666667 0.01666666666666667 0.01666666666666667 0.01666666666666667 0.01666666666666667 0.01666666666666667 0.01666666666666667 0.01666666666666667 0.01666666666666667 0.7666666666666667 0.06666666666666668 0.06666666666666668 0.06666666666666668 0.06666666666666668 0.06666666666666668 0.06666666666666668 0.06666666666666668 0.06666666666666668 0.06666666666666668 0.06666666666666668 0.06666666666666668 0.06666666666666668 0.06666666666666668 0.06666666666666668 0.06666666666666668 0.06666666666666668 0.06666666666666668 0.06666666666666668 0.06666666666666668 0.06666666666666668 0.06666666666666668 0.06666666666666668 0.06666666666666668 0.06666666666666668 0.06666666666666668 0.06666666666666668 0.06666666666666668 0.06666666666666668 0.06666666666666668 0.06666666666666668 0.06666666666666668 0.06666666666666668 0.06666666666666668 0.06666666666666668 0.06666666666666668 0.06666666666666668 0.06666666666666668 0.06666666666666668 0.06666666666666668 0.06666666666666668 0.06666666666666668 0.06666666666666668 0.06666666666666668 0.06666666666666668 0.06666666666666668 0.06666666666666668 0.06666666666666668 0.06666666666666668 0.06666666666666668 0.06666666666666668 0.06666666666666668 0.06666666666666668 0.06666666666666668 0.06666666666666668 0.06666666666666668 0.06666666666666668 0.06666666666666668 0.06666666666666668 0.06666666666666668 0.06666666666666668 0.06666666666666668 0.06666666666666668 0.06666666666666668 0.06666666666666668 0.06666666666666668 0.06666666666666668 0.06666666666666668 0.06666666666666668 0.06666666666666668 0.06666666666666668 0.06666666666666668 0.06666666666666668 0.06666666666666668 0.06666666666666668 0.06666666666666668 0.03333333333333335 0.03333333333333335 0.03333333333333335 0.03333333333333335 0.03333333333333335 0.03333333333333335 0.03333333333333335 0.03333333333333335 0.03333333333333335 0.5333333333333333 0.03333333333333335 0.03333333333333335 0.03333333333333335 0.03333333333333335 0.03333333333333335 0.06666666666666668 0.06666666666666668 0.06666666666666668 0.06666666666666668 0.06666666666666668 0.06666666666666668 0.06666666666666668 0.06666666666666668 0.06666666666666668 0.06666666666666668 0.06666666666666668 0.06666666666666668 0.06666666666666668 0.06666666666666668 0.06666666666666668 0.06666666666666668 0.06666666666666668 0.06666666666666668 0.06666666666666668 0.06666666666666668 0.06666666666666668 0.06666666666666668 0.06666666666666668 0.06666666666666668 0.06666666666666668 0.06666666666666668 0.06666666666666668 0.06666666666666668 0.06666666666666668 0.06666666666666668 0.06666666666666668 0.06666666666666668 0.06666666666666668 0.06666666666666668 0.06666666666666668 0.06666666666666668 0.06666666666666668 0.06666666666666668 0.06666666666666668 0.06666666666666668 0.06666666666666668 0.06666666666666668 0.06666666666666668 0.06666666666666668 0.06666666666666668 0.06666666666666668 0.06666666666666668 0.06666666666666668 0.06666666666666668 0.06666666666666668 0.06666666666666668 0.06666666666666668 0.06666666666666668 0.06666666666666668 0.06666666666666668 0.06666666666666668 0.06666666666666668 0.06666666666666668 0.06666666666666668 0.06666666666666668 0.06666666666666668 0.06666666666666668 0.06666666666666668 0.06666666666666668 0.06666666666666668 0.06666666666666668 0.06666666666666668 0.06666666666666668 0.06666666666666668 0.06666666666666668 0.06666666666666668 0.06666666666666668 0.06666666666666668 0.06666666666666668 0.06666666666666668 0.06666666666666668 0.06666666666666668 0.06666666666666668 0.06666666666666668 0.06666666666666668 0.06666666666666668 0.06666666666666668 0.06666666666666668 0.06666666666666668 0.06666666666666668 0.06666666666666668 0.06666666666666668 0.06666666666666668 0.06666666666666668 0.06666666666666668 0.01333333333333334 0.01333333333333334 0.01333333333333334 0.01333333333333334 0.01333333333333334 0.01333333333333334 0.01333333333333334 0.01333333333333334 0.01333333333333334 0.01333333333333334 0.01333333333333334 0.01333333333333334 0.01333333333333334 0.2133333333333333 0.6133333333333334 0.01333333333333334 0.01333333333333334 0.01333333333333334 0.01333333333333334 0.01333333333333334 0.01333333333333334 0.01333333333333334 0.01333333333333334 0.01333333333333334 0.01333333333333334 0.01333333333333334 0.01333333333333334 0.01333333333333334 0.01333333333333334 0.8133333333333334 0.06666666666666668 0.06666666666666668 0.06666666666666668 0.06666666666666668 0.06666666666666668 0.06666666666666668 0.06666666666666668 0.06666666666666668 0.06666666666666668 0.06666666666666668 0.06666666666666668 0.06666666666666668 0.06666666666666668 0.06666666666666668 0.06666666666666668 0.06666666666666668 0.06666666666666668 0.06666666666666668 0.06666666666666668 0.06666666666666668 0.06666666666666668 0.06666666666666668 0.06666666666666668 0.06666666666666668 0.06666666666666668 0.06666666666666668 0.06666666666666668 0.06666666666666668 0.06666666666666668 0.06666666666666668 0.06666666666666668 0.06666666666666668 0.06666666666666668 0.06666666666666668 0.06666666666666668 0.06666666666666668 0.06666666666666668 0.06666666666666668 0.06666666666666668 0.06666666666666668 0.06666666666666668 0.06666666666666668 0.06666666666666668 0.06666666666666668 0.06666666666666668 0.06666666666666668 0.06666666666666668 0.06666666666666668 0.06666666666666668 0.06666666666666668 0.06666666666666668 0.06666666666666668 0.06666666666666668 0.06666666666666668 0.06666666666666668 0.06666666666666668 0.06666666666666668 0.06666666666666668 0.06666666666666668 0.06666666666666668 0.06666666666666668 0.06666666666666668 0.06666666666666668 0.06666666666666668 0.06666666666666668 0.06666666666666668 0.06666666666666668 0.06666666666666668 0.06666666666666668 0.06666666666666668 0.06666666666666668 0.06666666666666668 0.06666666666666668 0.06666666666666668 0.06666666666666668 0.01333333333333334 0.01333333333333334 0.01333333333333334 0.01333333333333334 0.01333333333333334 0.01333333333333334 0.01333333333333334 0.01333333333333334 0.01333333333333334 0.01333333333333334 0.01333333333333334 0.2133333333333333 0.01333333333333334 0.2133333333333333 0.4133333333333334 0.01333333333333334 0.01333333333333334 0.01333333333333334 0.01333333333333334 0.01333333333333334 0.01333333333333334 0.01333333333333334 0.01333333333333334 0.01333333333333334 0.01333333333333334 0.01333333333333334 0.01333333333333334 0.01333333333333334 0.4133333333333334 0.4133333333333334 0.01666666666666667 0.01666666666666667 0.01666666666666667 0.01666666666666667 0.01666666666666667 0.01666666666666667 0.01666666666666667 0.01666666666666667 0.01666666666666667 0.2666666666666667 0.01666666666666667 0.01666666666666667 0.01666666666666667 0.2666666666666667 0.2666666666666667 0.06666666666666668 0.06666666666666668 0.06666666666666668 0.06666666666666668 0.06666666666666668 0.06666666666666668 0.06666666666666668 0.06666666666666668 0.06666666666666668 0.06666666666666668 0.06666666666666668 0.06666666666666668 0.06666666666666668 0.06666666666666668 0.06666666666666668 0.06666666666666668 0.06666666666666668 0.06666666666666668 0.06666666666666668 0.06666666666666668 0.06666666666666668 0.06666666666666668 0.06666666666666668 0.06666666666666668 0.06666666666666668 0.06666666666666668 0.06666666666666668 0.06666666666666668 0.06666666666666668 0.06666666666666668 0.03333333333333335 0.03333333333333335 0.03333333333333335 0.03333333333333335 0.03333333333333335 0.03333333333333335 0.03333333333333335 0.03333333333333335 0.03333333333333335 0.03333333333333335 0.03333333333333335 0.03333333333333335 0.03333333333333335 0.03333333333333335 0.5333333333333333 0.03333333333333335 0.03333333333333335 0.03333333333333335 0.03333333333333335 0.03333333333333335 0.03333333333333335 0.03333333333333335 0.03333333333333335 0.03333333333333335 0.03333333333333335 0.03333333333333335 0.03333333333333335 0.03333333333333335 0.03333333333333335 0.5333333333333333 0.01333333333333334 0.01333333333333334 0.01333333333333334 0.01333333333333334 0.01333333333333334 0.01333333333333334 0.01333333333333334 0.01333333333333334 0.01333333333333334 0.01333333333333334 0.01333333333333334 0.01333333333333334 0.01333333333333334 0.4133333333333334 0.4133333333333334 0.008333333333333337 0.008333333333333337 0.008333333333333337 0.008333333333333337 0.008333333333333337 0.008333333333333337 0.008333333333333337 0.008333333333333337 0.008333333333333337 0.008333333333333337 0.1333333333333333 0.1333333333333333 0.008333333333333337 0.2583333333333334 0.3833333333333334 0.00666666666666667 0.00666666666666667 0.00666666666666667 0.00666666666666667 0.00666666666666667 0.00666666666666667 0.00666666666666667 0.00666666666666667 0.00666666666666667 0.00666666666666667 0.00666666666666667 0.00666666666666667 0.00666666666666667 0.4066666666666667 0.5066666666666667 0.06666666666666668 0.06666666666666668 0.06666666666666668 0.06666666666666668 0.06666666666666668 0.06666666666666668 0.06666666666666668 0.06666666666666668 0.06666666666666668 0.06666666666666668 0.06666666666666668 0.06666666666666668 0.06666666666666668 0.06666666666666668 0.06666666666666668 0.03333333333333335 0.03333333333333335 0.03333333333333335 0.03333333333333335 0.03333333333333335 0.03333333333333335 0.03333333333333335 0.03333333333333335 0.03333333333333335 0.03333333333333335 0.03333333333333335 0.03333333333333335 0.03333333333333335 0.03333333333333335 0.5333333333333333 0.03333333333333335 0.03333333333333335 0.03333333333333335 0.03333333333333335 0.03333333333333335 0.03333333333333335 0.03333333333333335 0.03333333333333335 0.5333333333333333 0.03333333333333335 0.03333333333333335 0.03333333333333335 0.03333333333333335 0.03333333333333335 0.03333333333333335 0.009523809523809526 0.009523809523809526 0.009523809523809526 0.009523809523809526 0.009523809523809526 0.009523809523809526 0.009523809523809526 0.009523809523809526 0.009523809523809526 0.009523809523809526 0.1523809523809524 0.009523809523809526 0.1523809523809524 0.2952380952380952 0.2952380952380952 0.009523809523809528 0.009523809523809528 0.009523809523809528 0.009523809523809528 0.009523809523809528 0.009523809523809528 0.009523809523809528 0.009523809523809528 0.009523809523809528 0.009523809523809528 0.1523809523809524 0.009523809523809528 0.580952380952381 0.009523809523809528 0.1523809523809524 0.01111111111111112 0.01111111111111112 0.01111111111111112 0.01111111111111112 0.01111111111111112 0.01111111111111112 0.01111111111111112 0.01111111111111112 0.01111111111111112 0.01111111111111112 0.01111111111111112 0.01111111111111112 0.01111111111111112 0.5111111111111111 0.3444444444444444 0.008333333333333337 0.008333333333333337 0.008333333333333337 0.008333333333333337 0.008333333333333337 0.008333333333333337 0.008333333333333337 0.008333333333333337 0.008333333333333337 0.008333333333333337 0.008333333333333337 0.1333333333333333 0.008333333333333337 0.1333333333333333 0.6333333333333333 0.06666666666666668 0.06666666666666668 0.06666666666666668 0.06666666666666668 0.06666666666666668 0.06666666666666668 0.06666666666666668 0.06666666666666668 0.06666666666666668 0.06666666666666668 0.06666666666666668 0.06666666666666668 0.06666666666666668 0.06666666666666668 0.06666666666666668 0.01666666666666667 0.01666666666666667 0.01666666666666667 0.01666666666666667 0.2666666666666667 0.01666666666666667 0.01666666666666667 0.01666666666666667 0.01666666666666667 0.2666666666666667 0.01666666666666667 0.01666666666666667 0.01666666666666667 0.2666666666666667 0.01666666666666667 0.01666666666666667 0.01666666666666667 0.01666666666666667 0.01666666666666667 0.01666666666666667 0.01666666666666667 0.01666666666666667 0.01666666666666667 0.01666666666666667 0.5166666666666666 0.01666666666666667 0.01666666666666667 0.01666666666666667 0.2666666666666666 0.01666666666666667 0.005555555555555558 0.005555555555555558 0.005555555555555558 0.005555555555555558 0.005555555555555558 0.005555555555555558 0.005555555555555558 0.005555555555555558 0.005555555555555558 0.005555555555555558 0.1722222222222222 0.3388888888888889 0.08888888888888888 0.1722222222222222 0.1722222222222222 0.006060606060606063 0.006060606060606063 0.006060606060606063 0.006060606060606063 0.006060606060606063 0.006060606060606063 0.006060606060606063 0.006060606060606063 0.006060606060606063 0.006060606060606063 0.006060606060606063 0.006060606060606063 0.09696969696969697 0.1878787878787879 0.6424242424242425 0.004761904761904763 0.004761904761904763 0.004761904761904763 0.004761904761904763 0.004761904761904763 0.004761904761904763 0.004761904761904763 0.004761904761904763 0.004761904761904763 0.07619047619047618 0.219047619047619 0.004761904761904763 0.07619047619047618 0.4333333333333333 0.1476190476190476 0.006060606060606063 0.006060606060606063 0.006060606060606063 0.006060606060606063 0.006060606060606063 0.006060606060606063 0.006060606060606063 0.006060606060606063 0.006060606060606063 0.006060606060606063 0.006060606060606063 0.09696969696969697 0.1878787878787879 0.2787878787878788 0.3696969696969697 0.03333333333333335 0.03333333333333335 0.03333333333333335 0.03333333333333335 0.03333333333333335 0.03333333333333335 0.03333333333333335 0.03333333333333335 0.03333333333333335 0.03333333333333335 0.5333333333333333 0.03333333333333335 0.03333333333333335 0.03333333333333335 0.03333333333333335 0.06666666666666668 0.06666666666666668 0.06666666666666668 0.06666666666666668 0.06666666666666668 0.06666666666666668 0.06666666666666668 0.06666666666666668 0.06666666666666668 0.06666666666666668 0.06666666666666668 0.06666666666666668 0.06666666666666668 0.06666666666666668 0.06666666666666668 0.01111111111111112 0.01111111111111112 0.01111111111111112 0.01111111111111112 0.01111111111111112 0.1777777777777778 0.01111111111111112 0.01111111111111112 0.01111111111111112 0.1777777777777778 0.01111111111111112 0.01111111111111112 0.5111111111111111 0.01111111111111112 0.01111111111111112 0.004444444444444446 0.004444444444444446 0.004444444444444446 0.004444444444444446 0.004444444444444446 0.004444444444444446 0.004444444444444446 0.07111111111111111 0.07111111111111111 0.1377777777777778 0.2044444444444445 0.1377777777777778 0.1377777777777778 0.2044444444444445 0.004444444444444446 0.00666666666666667 0.00666666666666667 0.00666666666666667 0.00666666666666667 0.00666666666666667 0.1066666666666667 0.00666666666666667 0.00666666666666667 0.00666666666666667 0.00666666666666667 0.1066666666666667 0.1066666666666667 0.5066666666666667 0.1066666666666667 0.00666666666666667 0.006060606060606063 0.006060606060606063 0.006060606060606063 0.006060606060606063 0.006060606060606063 0.006060606060606063 0.006060606060606063 0.006060606060606063 0.006060606060606063 0.006060606060606063 0.006060606060606063 0.1878787878787879 0.2787878787878788 0.4606060606060606 0.006060606060606063 0.01333333333333334 0.01333333333333334 0.01333333333333334 0.01333333333333334 0.01333333333333334 0.01333333333333334 0.01333333333333334 0.01333333333333334 0.01333333333333334 0.01333333333333334 0.01333333333333334 0.01333333333333334 0.2133333333333333 0.4133333333333334 0.2133333333333333 0.03333333333333335 0.03333333333333335 0.03333333333333335 0.03333333333333335 0.03333333333333335 0.03333333333333335 0.03333333333333335 0.03333333333333335 0.03333333333333335 0.03333333333333335 0.03333333333333335 0.5333333333333333 0.03333333333333335 0.03333333333333335 0.03333333333333335 0.009523809523809526 0.009523809523809526 0.1523809523809524 0.009523809523809526 0.1523809523809524 0.009523809523809526 0.009523809523809526 0.1523809523809524 0.009523809523809526 0.4380952380952381 0.009523809523809526 0.009523809523809526 0.009523809523809526 0.009523809523809526 0.009523809523809526 0.003921568627450982 0.003921568627450982 0.003921568627450982 0.003921568627450982 0.003921568627450982 0.06274509803921569 0.06274509803921569 0.2392156862745098 0.2392156862745098 0.003921568627450982 0.1803921568627451 0.06274509803921569 0.1215686274509804 0.003921568627450982 0.003921568627450982 0.002777777777777779 0.002777777777777779 0.002777777777777779 0.002777777777777779 0.04444444444444445 0.04444444444444445 0.04444444444444445 0.08611111111111112 0.08611111111111112 0.04444444444444445 0.3361111111111111 0.1694444444444445 0.04444444444444445 0.08611111111111112 0.002777777777777779 0.004166666666666668 0.004166666666666668 0.06666666666666667 0.004166666666666668 0.004166666666666668 0.004166666666666668 0.004166666666666668 0.004166666666666668 0.1916666666666667 0.06666666666666667 0.1291666666666667 0.1916666666666667 0.06666666666666667 0.1291666666666667 0.1291666666666667 0.003921568627450982 0.003921568627450982 0.003921568627450982 0.003921568627450982 0.003921568627450982 0.003921568627450982 0.06274509803921569 0.003921568627450982 0.1803921568627451 0.06274509803921569 0.06274509803921569 0.003921568627450982 0.1215686274509804 0.2392156862745098 0.2392156862745098 0.00740740740740741 0.00740740740740741 0.00740740740740741 0.00740740740740741 0.00740740740740741 0.00740740740740741 0.00740740740740741 0.1185185185185185 0.00740740740740741 0.00740740740740741 0.00740740740740741 0.1185185185185185 0.2296296296296296 0.3407407407407407 0.1185185185185185 0.005128205128205131 0.08205128205128205 0.08205128205128205 0.08205128205128205 0.005128205128205131 0.2358974358974359 0.3128205128205128 0.005128205128205131 0.08205128205128205 0.005128205128205131 0.08205128205128205 0.005128205128205131 0.005128205128205131 0.005128205128205131 0.005128205128205131 0.002777777777777779 0.002777777777777779 0.002777777777777779 0.08611111111111111 0.1694444444444444 0.1277777777777778 0.1277777777777778 0.1694444444444444 0.04444444444444444 0.08611111111111111 0.08611111111111111 0.002777777777777779 0.08611111111111111 0.002777777777777779 0.002777777777777779 0.001801801801801802 0.001801801801801802 0.001801801801801802 0.001801801801801802 0.08288288288288287 0.08288288288288287 0.08288288288288287 0.245045045045045 0.1099099099099099 0.218018018018018 0.05585585585585585 0.05585585585585585 0.05585585585585585 0.001801801801801802 0.001801801801801802 0.001851851851851852 0.001851851851851852 0.001851851851851852 0.02962962962962962 0.0574074074074074 0.0574074074074074 0.08518518518518517 0.08518518518518517 0.224074074074074 0.02962962962962962 0.1407407407407407 0.1407407407407407 0.0574074074074074 0.0574074074074074 0.02962962962962962 0.03555555555555556 0.002222222222222224 0.002222222222222224 0.03555555555555556 0.002222222222222224 0.0688888888888889 0.03555555555555556 0.1022222222222222 0.0688888888888889 0.1688888888888889 0.1355555555555556 0.1355555555555556 0.1355555555555556 0.03555555555555556 0.03555555555555556 0.002777777777777778 0.04444444444444443 0.002777777777777778 0.002777777777777778 0.0861111111111111 0.04444444444444443 0.04444444444444443 0.0861111111111111 0.0861111111111111 0.0861111111111111 0.1277777777777778 0.0861111111111111 0.002777777777777778 0.2111111111111111 0.0861111111111111 0.005555555555555558 0.005555555555555558 0.005555555555555558 0.005555555555555558 0.005555555555555558 0.005555555555555558 0.005555555555555558 0.005555555555555558 0.005555555555555558 0.005555555555555558 0.1722222222222222 0.3388888888888889 0.08888888888888888 0.1722222222222222 0.1722222222222222 0.1506172839506173 0.07654320987654323 0.002469135802469137 0.1876543209876543 0.1135802469135803 0.1506172839506173 0.1506172839506173 0.07654320987654323 0.03950617283950618 0.002469135802469137 0.03950617283950618 0.002469135802469137 0.002469135802469137 0.002469135802469137 0.002469135802469137 0.04492753623188405 0.1101449275362319 0.2405797101449275 0.06666666666666665 0.06666666666666665 0.08840579710144926 0.1753623188405797 0.04492753623188405 0.02318840579710145 0.06666666666666665 0.02318840579710145 0.02318840579710145 0.02318840579710145 0.001449275362318841 0.001449275362318841 0.001666666666666667 0.05166666666666666 0.02666666666666666 0.07666666666666666 0.2766666666666666 0.07666666666666666 0.05166666666666666 0.1016666666666666 0.1266666666666666 0.05166666666666666 0.1016666666666666 0.05166666666666666 0.001666666666666667 0.001666666666666667 0.001666666666666667 0.02269503546099291 0.001418439716312057 0.02269503546099291 0.04397163120567376 0.08652482269503545 0.1078014184397163 0.1078014184397163 0.150354609929078 0.1929078014184397 0.08652482269503545 0.06524822695035461 0.02269503546099291 0.08652482269503545 0.001418439716312057 0.001418439716312057 0.002083333333333335 0.002083333333333335 0.002083333333333335 0.002083333333333335 0.03333333333333334 0.09583333333333337 0.03333333333333334 0.06458333333333335 0.06458333333333335 0.2208333333333334 0.1583333333333334 0.1895833333333334 0.06458333333333335 0.03333333333333334 0.03333333333333334 0.001515151515151516 0.001515151515151516 0.0696969696969697 0.04696969696969697 0.001515151515151516 0.04696969696969697 0.0696969696969697 0.0696969696969697 0.0696969696969697 0.04696969696969697 0.04696969696969697 0.0696969696969697 0.1378787878787879 0.09242424242424242 0.2287878787878788 0.1185185185185185 0.00740740740740741 0.00740740740740741 0.00740740740740741 0.00740740740740741 0.00740740740740741 0.00740740740740741 0.00740740740740741 0.00740740740740741 0.2296296296296296 0.1185185185185185 0.1185185185185185 0.1185185185185185 0.1185185185185185 0.1185185185185185 0.2930817610062893 0.170440251572327 0.170440251572327 0.1421383647798742 0.08553459119496855 0.03836477987421383 0.03836477987421383 0.01949685534591195 0.01006289308176101 0.01949685534591195 0.0006289308176100631 0.0006289308176100631 0.0006289308176100631 0.0006289308176100631 0.01006289308176101 0.1198412698412699 0.2150793650793651 0.1555555555555556 0.1317460317460318 0.07222222222222224 0.09603174603174605 0.07222222222222224 0.04841269841269842 0.03650793650793652 0.02460317460317461 0.02460317460317461 0.0007936507936507942 0.0007936507936507942 0.0007936507936507942 0.0007936507936507942 0.05507246376811595 0.1420289855072464 0.05507246376811595 0.1420289855072464 0.1746376811594203 0.08768115942028987 0.07681159420289856 0.03333333333333334 0.04420289855072464 0.05507246376811595 0.06594202898550726 0.01159420289855073 0.04420289855072464 0.0007246376811594206 0.01159420289855073 0.02755555555555556 0.1075555555555556 0.06755555555555556 0.0808888888888889 0.05422222222222223 0.0808888888888889 0.1075555555555556 0.1208888888888889 0.09422222222222223 0.0808888888888889 0.0808888888888889 0.0408888888888889 0.0408888888888889 0.0008888888888888894 0.01422222222222222 0.03827160493827161 0.01975308641975309 0.07530864197530864 0.05679012345679012 0.03827160493827161 0.07530864197530864 0.1123456790123457 0.07530864197530864 0.07530864197530864 0.07530864197530864 0.07530864197530864 0.07530864197530864 0.1493827160493827 0.05679012345679012 0.001234567901234568 0.00138888888888889 0.00138888888888889 0.00138888888888889 0.0638888888888889 0.08472222222222223 0.1263888888888889 0.02222222222222222 0.08472222222222223 0.08472222222222223 0.0638888888888889 0.04305555555555556 0.2305555555555556 0.08472222222222223 0.08472222222222223 0.02222222222222222 0.005555555555555558 0.08888888888888888 0.005555555555555558 0.005555555555555558 0.005555555555555558 0.005555555555555558 0.08888888888888888 0.005555555555555558 0.08888888888888888 0.08888888888888888 0.08888888888888888 0.2555555555555555 0.08888888888888888 0.1722222222222222 0.005555555555555558 0.2520833333333334 0.2208333333333334 0.2208333333333334 0.09583333333333337 0.03333333333333334 0.06458333333333335 0.03333333333333334 0.002083333333333335 0.06458333333333335 0.002083333333333335 0.002083333333333335 0.002083333333333335 0.002083333333333335 0.002083333333333335 0.002083333333333335 0.1916666666666667 0.2541666666666667 0.1291666666666667 0.06666666666666668 0.1291666666666667 0.06666666666666668 0.004166666666666669 0.004166666666666669 0.004166666666666669 0.1291666666666667 0.004166666666666669 0.004166666666666669 0.004166666666666669 0.004166666666666669 0.004166666666666669 0.1476190476190476 0.1476190476190476 0.07619047619047618 0.07619047619047618 0.07619047619047618 0.004761904761904763 0.07619047619047618 0.07619047619047618 0.004761904761904763 0.07619047619047618 0.004761904761904763 0.07619047619047618 0.07619047619047618 0.07619047619047618 0.004761904761904763 0.1878787878787879 0.006060606060606063 0.09696969696969697 0.09696969696969697 0.09696969696969697 0.2787878787878788 0.006060606060606063 0.09696969696969697 0.006060606060606063 0.006060606060606063 0.09696969696969697 0.006060606060606063 0.006060606060606063 0.006060606060606063 0.006060606060606063 0.04848484848484848 0.003030303030303031 0.003030303030303031 0.003030303030303031 0.09393939393939393 0.04848484848484848 0.1393939393939394 0.09393939393939393 0.09393939393939393 0.1848484848484848 0.1393939393939394 0.09393939393939393 0.003030303030303031 0.04848484848484848 0.003030303030303031 0.003703703703703705 0.003703703703703705 0.05925925925925925 0.05925925925925925 0.003703703703703705 0.1703703703703704 0.05925925925925925 0.003703703703703705 0.1703703703703704 0.003703703703703705 0.1148148148148148 0.1148148148148148 0.1703703703703704 0.05925925925925925 0.003703703703703705 0.008333333333333337 0.1333333333333333 0.008333333333333337 0.008333333333333337 0.008333333333333337 0.008333333333333337 0.008333333333333337 0.1333333333333333 0.008333333333333337 0.008333333333333337 0.008333333333333337 0.008333333333333337 0.2583333333333334 0.1333333333333333 0.2583333333333334 0.4066666666666667 0.1066666666666667 0.3066666666666667 0.1066666666666667 0.00666666666666667 0.00666666666666667 0.00666666666666667 0.00666666666666667 0.00666666666666667 0.00666666666666667 0.00666666666666667 0.00666666666666667 0.00666666666666667 0.00666666666666667 0.00666666666666667 0.3128205128205128 0.2358974358974359 0.08205128205128205 0.005128205128205131 0.158974358974359 0.005128205128205131 0.08205128205128205 0.005128205128205131 0.005128205128205131 0.08205128205128205 0.005128205128205131 0.005128205128205131 0.005128205128205131 0.005128205128205131 0.005128205128205131 0.1777777777777778 0.01111111111111112 0.1777777777777778 0.1777777777777778 0.01111111111111112 0.01111111111111112 0.1777777777777778 0.01111111111111112 0.01111111111111112 0.01111111111111112 0.01111111111111112 0.01111111111111112 0.01111111111111112 0.01111111111111112 0.1777777777777778 0.00740740740740741 0.1185185185185185 0.3407407407407407 0.1185185185185185 0.00740740740740741 0.00740740740740741 0.00740740740740741 0.2296296296296296 0.1185185185185185 0.00740740740740741 0.00740740740740741 0.00740740740740741 0.00740740740740741 0.00740740740740741 0.00740740740740741 0.00740740740740741 0.00740740740740741 0.00740740740740741 0.1185185185185185 0.1185185185185185 0.00740740740740741 0.1185185185185185 0.1185185185185185 0.1185185185185185 0.1185185185185185 0.00740740740740741 0.00740740740740741 0.1185185185185185 0.00740740740740741 0.1185185185185185 0.006060606060606063 0.006060606060606063 0.09696969696969697 0.1878787878787879 0.006060606060606063 0.006060606060606063 0.006060606060606063 0.006060606060606063 0.1878787878787879 0.09696969696969697 0.006060606060606063 0.1878787878787879 0.09696969696969697 0.09696969696969697 0.006060606060606063 0.01333333333333334 0.01333333333333334 0.01333333333333334 0.01333333333333334 0.01333333333333334 0.01333333333333334 0.01333333333333334 0.01333333333333334 0.01333333333333334 0.01333333333333334 0.01333333333333334 0.01333333333333334 0.2133333333333333 0.2133333333333333 0.4133333333333334 0.1185185185185185 0.00740740740740741 0.2296296296296296 0.2296296296296296 0.00740740740740741 0.1185185185185185 0.00740740740740741 0.2296296296296296 0.00740740740740741 0.00740740740740741 0.00740740740740741 0.00740740740740741 0.00740740740740741 0.00740740740740741 0.00740740740740741 0.1185185185185185 0.00740740740740741 0.00740740740740741 0.2296296296296296 0.1185185185185185 0.1185185185185185 0.3407407407407407 0.00740740740740741 0.00740740740740741 0.00740740740740741 0.00740740740740741 0.00740740740740741 0.00740740740740741 0.00740740740740741 0.00740740740740741 0.01666666666666667 0.2666666666666666 0.2666666666666666 0.01666666666666667 0.01666666666666667 0.01666666666666667 0.2666666666666666 0.01666666666666667 0.01666666666666667 0.01666666666666667 0.01666666666666667 0.01666666666666667 0.01666666666666667 0.01666666666666667 0.01666666666666667 0.01666666666666667 0.01666666666666667 0.01666666666666667 0.01666666666666667 0.2666666666666667 0.01666666666666667 0.01666666666666667 0.2666666666666667 0.01666666666666667 0.01666666666666667 0.01666666666666667 0.01666666666666667 0.2666666666666667 0.01666666666666667 0.01666666666666667 0.03333333333333335 0.03333333333333335 0.03333333333333335 0.03333333333333335 0.03333333333333335 0.03333333333333335 0.5333333333333333 0.03333333333333335 0.03333333333333335 0.03333333333333335 0.03333333333333335 0.03333333333333335 0.03333333333333335 0.03333333333333335 0.03333333333333335 0.01333333333333334 0.01333333333333334 0.4133333333333334 0.01333333333333334 0.01333333333333334 0.01333333333333334 0.2133333333333333 0.01333333333333334 0.01333333333333334 0.01333333333333334 0.01333333333333334 0.01333333333333334 0.2133333333333333 0.01333333333333334 0.01333333333333334 0.03333333333333335 0.03333333333333335 0.03333333333333335 0.5333333333333333 0.03333333333333335 0.03333333333333335 0.03333333333333335 0.03333333333333335 0.03333333333333335 0.03333333333333335 0.03333333333333335 0.03333333333333335 0.03333333333333335 0.03333333333333335 0.03333333333333335 0.1777777777777778 0.01111111111111112 0.01111111111111112 0.01111111111111112 0.01111111111111112 0.01111111111111112 0.01111111111111112 0.3444444444444444 0.1777777777777778 0.1777777777777778 0.01111111111111112 0.01111111111111112 0.01111111111111112 0.01111111111111112 0.01111111111111112 0.2666666666666666 0.01666666666666667 0.01666666666666667 0.01666666666666667 0.2666666666666666 0.01666666666666667 0.01666666666666667 0.01666666666666667 0.01666666666666667 0.01666666666666667 0.01666666666666667 0.01666666666666667 0.01666666666666667 0.2666666666666666 0.01666666666666667 0.03333333333333335 0.03333333333333335 0.03333333333333335 0.03333333333333335 0.5333333333333333 0.03333333333333335 0.03333333333333335 0.03333333333333335 0.03333333333333335 0.03333333333333335 0.03333333333333335 0.03333333333333335 0.03333333333333335 0.03333333333333335 0.03333333333333335 0.2666666666666666 0.01666666666666667 0.01666666666666667 0.01666666666666667 0.01666666666666667 0.5166666666666666 0.01666666666666667 0.01666666666666667 0.01666666666666667 0.01666666666666667 0.01666666666666667 0.01666666666666667 0.01666666666666667 0.01666666666666667 0.01666666666666667 0.02222222222222223 0.02222222222222223 0.02222222222222223 0.02222222222222223 0.02222222222222223 0.02222222222222223 0.02222222222222223 0.3555555555555555 0.02222222222222223 0.3555555555555555 0.02222222222222223 0.02222222222222223 0.02222222222222223 0.02222222222222223 0.02222222222222223 0.02222222222222222 0.02222222222222222 0.02222222222222222 0.02222222222222222 0.02222222222222222 0.3555555555555554 0.02222222222222222 0.02222222222222222 0.02222222222222222 0.3555555555555554 0.02222222222222222 0.02222222222222222 0.02222222222222222 0.02222222222222222 0.02222222222222222 0.06666666666666668 0.06666666666666668 0.06666666666666668 0.06666666666666668 0.06666666666666668 0.06666666666666668 0.06666666666666668 0.06666666666666668 0.06666666666666668 0.06666666666666668 0.06666666666666668 0.06666666666666668 0.06666666666666668 0.06666666666666668 0.06666666666666668 0.06666666666666668 0.06666666666666668 0.06666666666666668 0.06666666666666668 0.06666666666666668 0.06666666666666668 0.06666666666666668 0.06666666666666668 0.06666666666666668 0.06666666666666668 0.06666666666666668 0.06666666666666668 0.06666666666666668 0.06666666666666668 0.06666666666666668 0.3555555555555554 0.02222222222222222 0.02222222222222222 0.02222222222222222 0.02222222222222222 0.02222222222222222 0.02222222222222222 0.02222222222222222 0.3555555555555554 0.02222222222222222 0.02222222222222222 0.02222222222222222 0.02222222222222222 0.02222222222222222 0.02222222222222222 0.01666666666666667 0.01666666666666667 0.01666666666666667 0.01666666666666667 0.01666666666666667 0.01666666666666667 0.01666666666666667 0.01666666666666667 0.01666666666666667 0.01666666666666667 0.2666666666666667 0.2666666666666667 0.01666666666666667 0.2666666666666667 0.01666666666666667 0.01666666666666667 0.01666666666666667 0.01666666666666667 0.01666666666666667 0.01666666666666667 0.01666666666666667 0.01666666666666667 0.01666666666666667 0.2666666666666667 0.01666666666666667 0.01666666666666667 0.2666666666666667 0.2666666666666667 0.01666666666666667 0.01666666666666667 0.01666666666666667 0.01666666666666667 0.01666666666666667 0.01666666666666667 0.01666666666666667 0.01666666666666667 0.01666666666666667 0.01666666666666667 0.01666666666666667 0.01666666666666667 0.2666666666666666 0.5166666666666666 0.01666666666666667 0.01666666666666667 0.01666666666666667 0.01333333333333334 0.01333333333333334 0.2133333333333333 0.01333333333333334 0.01333333333333334 0.01333333333333334 0.4133333333333334 0.01333333333333334 0.01333333333333334 0.01333333333333334 0.01333333333333334 0.01333333333333334 0.2133333333333333 0.01333333333333334 0.01333333333333334 0.03333333333333335 0.03333333333333335 0.03333333333333335 0.03333333333333335 0.03333333333333335 0.5333333333333333 0.03333333333333335 0.03333333333333335 0.03333333333333335 0.03333333333333335 0.03333333333333335 0.03333333333333335 0.03333333333333335 0.03333333333333335 0.03333333333333335 0.06666666666666668 0.06666666666666668 0.06666666666666668 0.06666666666666668 0.06666666666666668 0.06666666666666668 0.06666666666666668 0.06666666666666668 0.06666666666666668 0.06666666666666668 0.06666666666666668 0.06666666666666668 0.06666666666666668 0.06666666666666668 0.06666666666666668 0.06666666666666668 0.06666666666666668 0.06666666666666668 0.06666666666666668 0.06666666666666668 0.06666666666666668 0.06666666666666668 0.06666666666666668 0.06666666666666668 0.06666666666666668 0.06666666666666668 0.06666666666666668 0.06666666666666668 0.06666666666666668 0.06666666666666668 0.06666666666666668 0.06666666666666668 0.06666666666666668 0.06666666666666668 0.06666666666666668 0.06666666666666668 0.06666666666666668 0.06666666666666668 0.06666666666666668 0.06666666666666668 0.06666666666666668 0.06666666666666668 0.06666666666666668 0.06666666666666668 0.06666666666666668 0.03333333333333334 0.03333333333333334 0.03333333333333334 0.03333333333333334 0.03333333333333334 0.03333333333333334 0.03333333333333334 0.03333333333333334 0.03333333333333334 0.03333333333333334 0.03333333333333334 0.03333333333333334 0.5333333333333332 0.03333333333333334 0.03333333333333334 0.06666666666666668 0.06666666666666668 0.06666666666666668 0.06666666666666668 0.06666666666666668 0.06666666666666668 0.06666666666666668 0.06666666666666668 0.06666666666666668 0.06666666666666668 0.06666666666666668 0.06666666666666668 0.06666666666666668 0.06666666666666668 0.06666666666666668 0.02222222222222222 0.02222222222222222 0.02222222222222222 0.02222222222222222 0.02222222222222222 0.02222222222222222 0.02222222222222222 0.02222222222222222 0.02222222222222222 0.02222222222222222 0.02222222222222222 0.6888888888888887 0.02222222222222222 0.02222222222222222 0.02222222222222222 0.03333333333333334 0.03333333333333334 0.03333333333333334 0.03333333333333334 0.03333333333333334 0.03333333333333334 0.03333333333333334 0.03333333333333334 0.03333333333333334 0.03333333333333334 0.03333333333333334 0.03333333333333334 0.03333333333333334 0.5333333333333332 0.03333333333333334 0.06666666666666668 0.06666666666666668 0.06666666666666668 0.06666666666666668 0.06666666666666668 0.06666666666666668 0.06666666666666668 0.06666666666666668 0.06666666666666668 0.06666666666666668 0.06666666666666668 0.06666666666666668 0.06666666666666668 0.06666666666666668 0.06666666666666668 0.06666666666666668 0.06666666666666668 0.06666666666666668 0.06666666666666668 0.06666666666666668 0.06666666666666668 0.06666666666666668 0.06666666666666668 0.06666666666666668 0.06666666666666668 0.06666666666666668 0.06666666666666668 0.06666666666666668 0.06666666666666668 0.06666666666666668 0.06666666666666668 0.06666666666666668 0.06666666666666668 0.06666666666666668 0.06666666666666668 0.06666666666666668 0.06666666666666668 0.06666666666666668 0.06666666666666668 0.06666666666666668 0.06666666666666668 0.06666666666666668 0.06666666666666668 0.06666666666666668 0.06666666666666668 0.06666666666666668 0.06666666666666668 0.06666666666666668 0.06666666666666668 0.06666666666666668 0.06666666666666668 0.06666666666666668 0.06666666666666668 0.06666666666666668 0.06666666666666668 0.06666666666666668 0.06666666666666668 0.06666666666666668 0.06666666666666668 0.06666666666666668 0.06666666666666668 0.06666666666666668 0.06666666666666668 0.06666666666666668 0.06666666666666668 0.06666666666666668 0.06666666666666668 0.06666666666666668 0.06666666666666668 0.06666666666666668 0.06666666666666668 0.06666666666666668 0.06666666666666668 0.06666666666666668 0.06666666666666668 0.03333333333333335 0.03333333333333335 0.03333333333333335 0.03333333333333335 0.03333333333333335 0.03333333333333335 0.03333333333333335 0.03333333333333335 0.03333333333333335 0.03333333333333335 0.03333333333333335 0.03333333333333335 0.03333333333333335 0.03333333333333335 0.5333333333333333 0.06666666666666668 0.06666666666666668 0.06666666666666668 0.06666666666666668 0.06666666666666668 0.06666666666666668 0.06666666666666668 0.06666666666666668 0.06666666666666668 0.06666666666666668 0.06666666666666668 0.06666666666666668 0.06666666666666668 0.06666666666666668 0.06666666666666668</probabilities>
		</cpt>
		<cpt id="GV_CURBWGT">
			<state id="s01_below_800" />
			<state id="s02_800_1035" />
			<state id="s03_1035_1335" />
			<state id="s04_1335_1555" />
			<state id="s05_1555_1675" />
			<state id="s06_1675_1935" />
			<state id="s07_1935_2075" />
			<state id="s08_2075_2210" />
			<state id="s09_2210_2350" />
			<state id="s10_2350_2570" />
			<state id="s11_2570_2735" />
			<state id="s12_2735_2910" />
			<state id="s13_2910_3130" />
			<state id="s14_3130_3355" />
			<state id="s15_3355_up" />
			<parents>GV_ENERGY OA_MAIS</parents>
			<probabilities>0.001333333333333334 0.001333333333333334 0.2413333333333333 0.4213333333333333 0.08133333333333331 0.1213333333333333 0.06133333333333333 0.001333333333333334 0.001333333333333334 0.06133333333333333 0.001333333333333334 0.001333333333333334 0.001333333333333334 0.001333333333333334 0.001333333333333334 0.002898550724637682 0.002898550724637682 0.263768115942029 0.2202898550724638 0.002898550724637682 0.263768115942029 0.04637681159420291 0.002898550724637682 0.002898550724637682 0.1333333333333334 0.04637681159420291 0.002898550724637682 0.002898550724637682 0.002898550724637682 0.002898550724637682 0.00740740740740741 0.00740740740740741 0.3407407407407407 0.1185185185185185 0.00740740740740741 0.1185185185185185 0.2296296296296296 0.00740740740740741 0.00740740740740741 0.1185185185185185 0.00740740740740741 0.00740740740740741 0.00740740740740741 0.00740740740740741 0.00740740740740741 0.009523809523809526 0.009523809523809526 0.2952380952380952 0.009523809523809526 0.009523809523809526 0.2952380952380952 0.1523809523809524 0.1523809523809524 0.009523809523809526 0.009523809523809526 0.009523809523809526 0.009523809523809526 0.009523809523809526 0.009523809523809526 0.009523809523809526 0.01333333333333334 0.01333333333333334 0.01333333333333334 0.6133333333333334 0.2133333333333333 0.01333333333333334 0.01333333333333334 0.01333333333333334 0.01333333333333334 0.01333333333333334 0.01333333333333334 0.01333333333333334 0.01333333333333334 0.01333333333333334 0.01333333333333334 0.06666666666666668 0.06666666666666668 0.06666666666666668 0.06666666666666668 0.06666666666666668 0.06666666666666668 0.06666666666666668 0.06666666666666668 0.06666666666666668 0.06666666666666668 0.06666666666666668 0.06666666666666668 0.06666666666666668 0.06666666666666668 0.06666666666666668 0.03333333333333335 0.03333333333333335 0.5333333333333333 0.03333333333333335 0.03333333333333335 0.03333333333333335 0.03333333333333335 0.03333333333333335 0.03333333333333335 0.03333333333333335 0.03333333333333335 0.03333333333333335 0.03333333333333335 0.03333333333333335 0.03333333333333335 0.002222222222222224 0.002222222222222224 0.2022222222222222 0.2022222222222222 0.3022222222222223 0.1688888888888889 0.002222222222222224 0.002222222222222224 0.002222222222222224 0.0688888888888889 0.002222222222222224 0.03555555555555556 0.002222222222222224 0.002222222222222224 0.002222222222222224 0.002150537634408603 0.002150537634408603 0.1956989247311828 0.324731182795699 0.1634408602150538 0.2602150537634409 0.03440860215053764 0.002150537634408603 0.002150537634408603 0.002150537634408603 0.002150537634408603 0.002150537634408603 0.002150537634408603 0.002150537634408603 0.002150537634408603 0.003508771929824564 0.003508771929824564 0.2140350877192983 0.3719298245614036 0.1087719298245614 0.1614035087719299 0.003508771929824564 0.003508771929824564 0.05614035087719299 0.003508771929824564 0.05614035087719299 0.003508771929824564 0.003508771929824564 0.003508771929824564 0.003508771929824564 0.00666666666666667 0.00666666666666667 0.3066666666666667 0.1066666666666667 0.00666666666666667 0.2066666666666667 0.3066666666666667 0.00666666666666667 0.00666666666666667 0.00666666666666667 0.00666666666666667 0.00666666666666667 0.00666666666666667 0.00666666666666667 0.00666666666666667 0.03333333333333335 0.03333333333333335 0.5333333333333333 0.03333333333333335 0.03333333333333335 0.03333333333333335 0.03333333333333335 0.03333333333333335 0.03333333333333335 0.03333333333333335 0.03333333333333335 0.03333333333333335 0.03333333333333335 0.03333333333333335 0.03333333333333335 0.03333333333333335 0.03333333333333335 0.03333333333333335 0.5333333333333333 0.03333333333333335 0.03333333333333335 0.03333333333333335 0.03333333333333335 0.03333333333333335 0.03333333333333335 0.03333333333333335 0.03333333333333335 0.03333333333333335 0.03333333333333335 0.03333333333333335 0.02222222222222222 0.02222222222222222 0.02222222222222222 0.3555555555555554 0.02222222222222222 0.02222222222222222 0.02222222222222222 0.3555555555555554 0.02222222222222222 0.02222222222222222 0.02222222222222222 0.02222222222222222 0.02222222222222222 0.02222222222222222 0.02222222222222222 0.002083333333333335 0.002083333333333335 0.2833333333333334 0.1583333333333334 0.09583333333333337 0.2208333333333334 0.06458333333333335 0.03333333333333334 0.002083333333333335 0.09583333333333337 0.03333333333333334 0.002083333333333335 0.002083333333333335 0.002083333333333335 0.002083333333333335 0.002298850574712645 0.002298850574712645 0.3471264367816093 0.3471264367816093 0.1057471264367816 0.07126436781609198 0.002298850574712645 0.03678160919540231 0.002298850574712645 0.03678160919540231 0.002298850574712645 0.03678160919540231 0.002298850574712645 0.002298850574712645 0.002298850574712645 0.00666666666666667 0.00666666666666667 0.2066666666666667 0.2066666666666667 0.1066666666666667 0.3066666666666667 0.00666666666666667 0.1066666666666667 0.00666666666666667 0.00666666666666667 0.00666666666666667 0.00666666666666667 0.00666666666666667 0.00666666666666667 0.00666666666666667 0.006060606060606063 0.006060606060606063 0.2787878787878788 0.1878787878787879 0.09696969696969697 0.09696969696969697 0.006060606060606063 0.09696969696969697 0.09696969696969697 0.09696969696969697 0.006060606060606063 0.006060606060606063 0.006060606060606063 0.006060606060606063 0.006060606060606063 0.01111111111111112 0.01111111111111112 0.1777777777777778 0.1777777777777778 0.3444444444444444 0.1777777777777778 0.01111111111111112 0.01111111111111112 0.01111111111111112 0.01111111111111112 0.01111111111111112 0.01111111111111112 0.01111111111111112 0.01111111111111112 0.01111111111111112 0.00740740740740741 0.00740740740740741 0.1185185185185185 0.3407407407407407 0.2296296296296296 0.1185185185185185 0.00740740740740741 0.00740740740740741 0.00740740740740741 0.1185185185185185 0.00740740740740741 0.00740740740740741 0.00740740740740741 0.00740740740740741 0.00740740740740741 0.06666666666666668 0.06666666666666668 0.06666666666666668 0.06666666666666668 0.06666666666666668 0.06666666666666668 0.06666666666666668 0.06666666666666668 0.06666666666666668 0.06666666666666668 0.06666666666666668 0.06666666666666668 0.06666666666666668 0.06666666666666668 0.06666666666666668 0.002380952380952382 0.0380952380952381 0.1095238095238096 0.2523809523809524 0.180952380952381 0.1452380952380952 0.07380952380952382 0.07380952380952382 0.1095238095238096 0.002380952380952382 0.002380952380952382 0.002380952380952382 0.002380952380952382 0.002380952380952382 0.002380952380952382 0.003333333333333335 0.003333333333333335 0.3033333333333334 0.3033333333333334 0.1533333333333334 0.05333333333333334 0.003333333333333335 0.1033333333333334 0.05333333333333334 0.003333333333333335 0.003333333333333335 0.003333333333333335 0.003333333333333335 0.003333333333333335 0.003333333333333335 0.003508771929824563 0.003508771929824563 0.1614035087719298 0.3192982456140351 0.1087719298245614 0.1087719298245614 0.1614035087719298 0.1087719298245614 0.003508771929824563 0.003508771929824563 0.003508771929824563 0.003508771929824563 0.003508771929824563 0.003508771929824563 0.003508771929824563 0.005555555555555558 0.005555555555555558 0.2555555555555555 0.2555555555555555 0.1722222222222222 0.08888888888888888 0.005555555555555558 0.08888888888888888 0.005555555555555558 0.005555555555555558 0.08888888888888888 0.005555555555555558 0.005555555555555558 0.005555555555555558 0.005555555555555558 0.01111111111111112 0.1777777777777778 0.5111111111111111 0.1777777777777778 0.01111111111111112 0.01111111111111112 0.01111111111111112 0.01111111111111112 0.01111111111111112 0.01111111111111112 0.01111111111111112 0.01111111111111112 0.01111111111111112 0.01111111111111112 0.01111111111111112 0.00740740740740741 0.00740740740740741 0.3407407407407407 0.4518518518518518 0.00740740740740741 0.1185185185185185 0.00740740740740741 0.00740740740740741 0.00740740740740741 0.00740740740740741 0.00740740740740741 0.00740740740740741 0.00740740740740741 0.00740740740740741 0.00740740740740741 0.03333333333333335 0.03333333333333335 0.03333333333333335 0.5333333333333333 0.03333333333333335 0.03333333333333335 0.03333333333333335 0.03333333333333335 0.03333333333333335 0.03333333333333335 0.03333333333333335 0.03333333333333335 0.03333333333333335 0.03333333333333335 0.03333333333333335 0.004761904761904764 0.004761904761904764 0.1476190476190476 0.2904761904761905 0.004761904761904764 0.0761904761904762 0.1476190476190476 0.0761904761904762 0.004761904761904764 0.2190476190476191 0.004761904761904764 0.004761904761904764 0.004761904761904764 0.004761904761904764 0.004761904761904764 0.003030303030303032 0.003030303030303032 0.1848484848484849 0.3666666666666667 0.1393939393939394 0.2303030303030303 0.003030303030303032 0.003030303030303032 0.003030303030303032 0.003030303030303032 0.003030303030303032 0.04848484848484849 0.003030303030303032 0.003030303030303032 0.003030303030303032 0.002020202020202021 0.03232323232323232 0.3656565656565656 0.1232323232323232 0.09292929292929292 0.2141414141414141 0.09292929292929292 0.002020202020202021 0.002020202020202021 0.03232323232323232 0.03232323232323232 0.002020202020202021 0.002020202020202021 0.002020202020202021 0.002020202020202021 0.004761904761904764 0.004761904761904764 0.6476190476190476 0.1476190476190476 0.0761904761904762 0.0761904761904762 0.004761904761904764 0.004761904761904764 0.004761904761904764 0.004761904761904764 0.004761904761904764 0.004761904761904764 0.004761904761904764 0.004761904761904764 0.004761904761904764 0.009523809523809526 0.009523809523809526 0.2952380952380952 0.1523809523809524 0.1523809523809524 0.1523809523809524 0.009523809523809526 0.009523809523809526 0.009523809523809526 0.1523809523809524 0.009523809523809526 0.009523809523809526 0.009523809523809526 0.009523809523809526 0.009523809523809526 0.009523809523809526 0.1523809523809524 0.2952380952380952 0.2952380952380952 0.009523809523809526 0.1523809523809524 0.009523809523809526 0.009523809523809526 0.009523809523809526 0.009523809523809526 0.009523809523809526 0.009523809523809526 0.009523809523809526 0.009523809523809526 0.009523809523809526 0.06666666666666668 0.06666666666666668 0.06666666666666668 0.06666666666666668 0.06666666666666668 0.06666666666666668 0.06666666666666668 0.06666666666666668 0.06666666666666668 0.06666666666666668 0.06666666666666668 0.06666666666666668 0.06666666666666668 0.06666666666666668 0.06666666666666668 0.004444444444444446 0.004444444444444446 0.2711111111111111 0.2044444444444445 0.004444444444444446 0.1377777777777778 0.1377777777777778 0.07111111111111111 0.07111111111111111 0.07111111111111111 0.004444444444444446 0.004444444444444446 0.004444444444444446 0.004444444444444446 0.004444444444444446 0.003703703703703705 0.003703703703703705 0.1703703703703704 0.3925925925925925 0.2259259259259259 0.1148148148148148 0.003703703703703705 0.003703703703703705 0.05925925925925925 0.003703703703703705 0.003703703703703705 0.003703703703703705 0.003703703703703705 0.003703703703703705 0.003703703703703705 0.003921568627450982 0.003921568627450982 0.1215686274509804 0.3568627450980392 0.1215686274509804 0.1803921568627451 0.06274509803921569 0.003921568627450982 0.003921568627450982 0.1215686274509804 0.003921568627450982 0.003921568627450982 0.003921568627450982 0.003921568627450982 0.003921568627450982 0.003333333333333335 0.003333333333333335 0.3533333333333334 0.3533333333333334 0.05333333333333334 0.2033333333333334 0.003333333333333335 0.003333333333333335 0.003333333333333335 0.003333333333333335 0.003333333333333335 0.003333333333333335 0.003333333333333335 0.003333333333333335 0.003333333333333335 0.005555555555555558 0.005555555555555558 0.1722222222222222 0.3388888888888889 0.2555555555555555 0.005555555555555558 0.1722222222222222 0.005555555555555558 0.005555555555555558 0.005555555555555558 0.005555555555555558 0.005555555555555558 0.005555555555555558 0.005555555555555558 0.005555555555555558 0.004761904761904766 0.004761904761904766 0.504761904761905 0.2904761904761906 0.004761904761904766 0.07619047619047621 0.07619047619047621 0.004761904761904766 0.004761904761904766 0.004761904761904766 0.004761904761904766 0.004761904761904766 0.004761904761904766 0.004761904761904766 0.004761904761904766 0.03333333333333335 0.03333333333333335 0.5333333333333333 0.03333333333333335 0.03333333333333335 0.03333333333333335 0.03333333333333335 0.03333333333333335 0.03333333333333335 0.03333333333333335 0.03333333333333335 0.03333333333333335 0.03333333333333335 0.03333333333333335 0.03333333333333335 0.004761904761904764 0.004761904761904764 0.361904761904762 0.2904761904761905 0.0761904761904762 0.0761904761904762 0.0761904761904762 0.004761904761904764 0.004761904761904764 0.0761904761904762 0.004761904761904764 0.004761904761904764 0.004761904761904764 0.004761904761904764 0.004761904761904764 0.003030303030303032 0.003030303030303032 0.1848484848484849 0.2757575757575758 0.1393939393939394 0.1393939393939394 0.1393939393939394 0.003030303030303032 0.003030303030303032 0.04848484848484849 0.003030303030303032 0.04848484848484849 0.003030303030303032 0.003030303030303032 0.003030303030303032 0.003921568627450982 0.003921568627450982 0.1803921568627451 0.3568627450980392 0.06274509803921569 0.1803921568627451 0.06274509803921569 0.06274509803921569 0.003921568627450982 0.003921568627450982 0.003921568627450982 0.003921568627450982 0.003921568627450982 0.06274509803921569 0.003921568627450982 0.003703703703703706 0.003703703703703706 0.2259259259259259 0.05925925925925927 0.2814814814814815 0.2259259259259259 0.05925925925925927 0.1148148148148148 0.003703703703703706 0.003703703703703706 0.003703703703703706 0.003703703703703706 0.003703703703703706 0.003703703703703706 0.003703703703703706 0.004761904761904763 0.004761904761904763 0.4333333333333333 0.07619047619047618 0.1476190476190476 0.219047619047619 0.004761904761904763 0.07619047619047618 0.004761904761904763 0.004761904761904763 0.004761904761904763 0.004761904761904763 0.004761904761904763 0.004761904761904763 0.004761904761904763 0.006060606060606063 0.006060606060606063 0.1878787878787879 0.4606060606060606 0.1878787878787879 0.09696969696969697 0.006060606060606063 0.006060606060606063 0.006060606060606063 0.006060606060606063 0.006060606060606063 0.006060606060606063 0.006060606060606063 0.006060606060606063 0.006060606060606063 0.03333333333333335 0.03333333333333335 0.03333333333333335 0.03333333333333335 0.03333333333333335 0.03333333333333335 0.03333333333333335 0.03333333333333335 0.03333333333333335 0.03333333333333335 0.03333333333333335 0.5333333333333333 0.03333333333333335 0.03333333333333335 0.03333333333333335 0.00740740740740741 0.00740740740740741 0.00740740740740741 0.4518518518518518 0.00740740740740741 0.2296296296296296 0.00740740740740741 0.00740740740740741 0.1185185185185185 0.00740740740740741 0.00740740740740741 0.00740740740740741 0.1185185185185185 0.00740740740740741 0.00740740740740741 0.005555555555555558 0.005555555555555558 0.2555555555555555 0.1722222222222222 0.2555555555555555 0.08888888888888888 0.08888888888888888 0.005555555555555558 0.005555555555555558 0.005555555555555558 0.08888888888888888 0.005555555555555558 0.005555555555555558 0.005555555555555558 0.005555555555555558 0.003030303030303032 0.003030303030303032 0.1848484848484849 0.4121212121212122 0.1848484848484849 0.1393939393939394 0.04848484848484849 0.003030303030303032 0.003030303030303032 0.003030303030303032 0.003030303030303032 0.003030303030303032 0.003030303030303032 0.003030303030303032 0.003030303030303032 0.002469135802469137 0.03950617283950618 0.3358024691358025 0.2246913580246914 0.07654320987654323 0.1506172839506173 0.03950617283950618 0.03950617283950618 0.03950617283950618 0.002469135802469137 0.002469135802469137 0.002469135802469137 0.002469135802469137 0.002469135802469137 0.03950617283950618 0.004761904761904763 0.004761904761904763 0.4333333333333333 0.219047619047619 0.004761904761904763 0.219047619047619 0.07619047619047618 0.004761904761904763 0.004761904761904763 0.004761904761904763 0.004761904761904763 0.004761904761904763 0.004761904761904763 0.004761904761904763 0.004761904761904763 0.00666666666666667 0.00666666666666667 0.4066666666666667 0.3066666666666667 0.00666666666666667 0.2066666666666667 0.00666666666666667 0.00666666666666667 0.00666666666666667 0.00666666666666667 0.00666666666666667 0.00666666666666667 0.00666666666666667 0.00666666666666667 0.00666666666666667 0.02222222222222222 0.02222222222222222 0.02222222222222222 0.3555555555555554 0.02222222222222222 0.02222222222222222 0.02222222222222222 0.3555555555555554 0.02222222222222222 0.02222222222222222 0.02222222222222222 0.02222222222222222 0.02222222222222222 0.02222222222222222 0.02222222222222222 0.009523809523809526 0.009523809523809526 0.2952380952380952 0.1523809523809524 0.2952380952380952 0.1523809523809524 0.009523809523809526 0.009523809523809526 0.009523809523809526 0.009523809523809526 0.009523809523809526 0.009523809523809526 0.009523809523809526 0.009523809523809526 0.009523809523809526 0.009523809523809526 0.009523809523809526 0.2952380952380952 0.1523809523809524 0.1523809523809524 0.009523809523809526 0.009523809523809526 0.1523809523809524 0.1523809523809524 0.009523809523809526 0.009523809523809526 0.009523809523809526 0.009523809523809526 0.009523809523809526 0.009523809523809526 0.003508771929824564 0.003508771929824564 0.1614035087719299 0.3719298245614036 0.1614035087719299 0.05614035087719299 0.05614035087719299 0.003508771929824564 0.05614035087719299 0.05614035087719299 0.05614035087719299 0.003508771929824564 0.003508771929824564 0.003508771929824564 0.003508771929824564 0.002222222222222224 0.03555555555555556 0.268888888888889 0.3688888888888889 0.002222222222222224 0.1688888888888889 0.03555555555555556 0.03555555555555556 0.0688888888888889 0.002222222222222224 0.002222222222222224 0.002222222222222224 0.002222222222222224 0.002222222222222224 0.002222222222222224 0.004444444444444446 0.07111111111111111 0.2044444444444445 0.2711111111111111 0.2044444444444445 0.1377777777777778 0.004444444444444446 0.07111111111111111 0.004444444444444446 0.004444444444444446 0.004444444444444446 0.004444444444444446 0.004444444444444446 0.004444444444444446 0.004444444444444446 0.003703703703703706 0.003703703703703706 0.4481481481481482 0.4481481481481482 0.05925925925925927 0.003703703703703706 0.003703703703703706 0.003703703703703706 0.003703703703703706 0.003703703703703706 0.003703703703703706 0.003703703703703706 0.003703703703703706 0.003703703703703706 0.003703703703703706 0.03333333333333335 0.03333333333333335 0.5333333333333333 0.03333333333333335 0.03333333333333335 0.03333333333333335 0.03333333333333335 0.03333333333333335 0.03333333333333335 0.03333333333333335 0.03333333333333335 0.03333333333333335 0.03333333333333335 0.03333333333333335 0.03333333333333335 0.01666666666666667 0.01666666666666667 0.01666666666666667 0.5166666666666666 0.2666666666666666 0.01666666666666667 0.01666666666666667 0.01666666666666667 0.01666666666666667 0.01666666666666667 0.01666666666666667 0.01666666666666667 0.01666666666666667 0.01666666666666667 0.01666666666666667 0.004444444444444446 0.004444444444444446 0.2711111111111111 0.1377777777777778 0.2044444444444445 0.2044444444444445 0.004444444444444446 0.004444444444444446 0.07111111111111111 0.004444444444444446 0.004444444444444446 0.004444444444444446 0.07111111111111111 0.004444444444444446 0.004444444444444446 0.003333333333333335 0.05333333333333334 0.3033333333333334 0.2533333333333334 0.05333333333333334 0.003333333333333335 0.1033333333333334 0.003333333333333335 0.05333333333333334 0.1533333333333334 0.003333333333333335 0.003333333333333335 0.003333333333333335 0.003333333333333335 0.003333333333333335 0.004444444444444446 0.07111111111111111 0.2044444444444445 0.2044444444444445 0.2044444444444445 0.2044444444444445 0.07111111111111111 0.004444444444444446 0.004444444444444446 0.004444444444444446 0.004444444444444446 0.004444444444444446 0.004444444444444446 0.004444444444444446 0.004444444444444446 0.002666666666666668 0.04266666666666667 0.2426666666666667 0.2426666666666667 0.1226666666666667 0.2026666666666667 0.04266666666666667 0.002666666666666668 0.04266666666666667 0.04266666666666667 0.002666666666666668 0.002666666666666668 0.002666666666666668 0.002666666666666668 0.002666666666666668 0.005555555555555558 0.005555555555555558 0.2555555555555555 0.3388888888888889 0.005555555555555558 0.2555555555555555 0.08888888888888888 0.005555555555555558 0.005555555555555558 0.005555555555555558 0.005555555555555558 0.005555555555555558 0.005555555555555558 0.005555555555555558 0.005555555555555558 0.01333333333333334 0.01333333333333334 0.01333333333333334 0.2133333333333333 0.4133333333333334 0.2133333333333333 0.01333333333333334 0.01333333333333334 0.01333333333333334 0.01333333333333334 0.01333333333333334 0.01333333333333334 0.01333333333333334 0.01333333333333334 0.01333333333333334 0.01666666666666667 0.01666666666666667 0.01666666666666667 0.01666666666666667 0.2666666666666667 0.01666666666666667 0.2666666666666667 0.01666666666666667 0.01666666666666667 0.2666666666666667 0.01666666666666667 0.01666666666666667 0.01666666666666667 0.01666666666666667 0.01666666666666667 0.01111111111111112 0.01111111111111112 0.01111111111111112 0.1777777777777778 0.01111111111111112 0.1777777777777778 0.01111111111111112 0.01111111111111112 0.01111111111111112 0.3444444444444444 0.1777777777777778 0.01111111111111112 0.01111111111111112 0.01111111111111112 0.01111111111111112 0.003921568627450982 0.003921568627450982 0.2392156862745098 0.4156862745098039 0.003921568627450982 0.1803921568627451 0.003921568627450982 0.06274509803921569 0.003921568627450982 0.003921568627450982 0.003921568627450982 0.003921568627450982 0.06274509803921569 0.003921568627450982 0.003921568627450982 0.002222222222222224 0.0688888888888889 0.1688888888888889 0.268888888888889 0.2022222222222222 0.1688888888888889 0.03555555555555556 0.03555555555555556 0.002222222222222224 0.03555555555555556 0.002222222222222224 0.002222222222222224 0.002222222222222224 0.002222222222222224 0.002222222222222224 0.003030303030303032 0.003030303030303032 0.3666666666666667 0.3666666666666667 0.09393939393939396 0.04848484848484849 0.09393939393939396 0.003030303030303032 0.003030303030303032 0.003030303030303032 0.003030303030303032 0.003030303030303032 0.003030303030303032 0.003030303030303032 0.003030303030303032 0.004444444444444446 0.004444444444444446 0.2044444444444445 0.2711111111111111 0.2711111111111111 0.1377777777777778 0.004444444444444446 0.004444444444444446 0.07111111111111111 0.004444444444444446 0.004444444444444446 0.004444444444444446 0.004444444444444446 0.004444444444444446 0.004444444444444446 0.01333333333333334 0.01333333333333334 0.01333333333333334 0.2133333333333333 0.4133333333333334 0.2133333333333333 0.01333333333333334 0.01333333333333334 0.01333333333333334 0.01333333333333334 0.01333333333333334 0.01333333333333334 0.01333333333333334 0.01333333333333334 0.01333333333333334 0.03333333333333335 0.03333333333333335 0.5333333333333333 0.03333333333333335 0.03333333333333335 0.03333333333333335 0.03333333333333335 0.03333333333333335 0.03333333333333335 0.03333333333333335 0.03333333333333335 0.03333333333333335 0.03333333333333335 0.03333333333333335 0.03333333333333335 0.03333333333333335 0.03333333333333335 0.03333333333333335 0.5333333333333333 0.03333333333333335 0.03333333333333335 0.03333333333333335 0.03333333333333335 0.03333333333333335 0.03333333333333335 0.03333333333333335 0.03333333333333335 0.03333333333333335 0.03333333333333335 0.03333333333333335 0.00740740740740741 0.00740740740740741 0.1185185185185185 0.2296296296296296 0.1185185185185185 0.1185185185185185 0.2296296296296296 0.00740740740740741 0.00740740740740741 0.1185185185185185 0.00740740740740741 0.00740740740740741 0.00740740740740741 0.00740740740740741 0.00740740740740741 0.003174603174603176 0.003174603174603176 0.3365079365079365 0.2888888888888889 0.09841269841269842 0.146031746031746 0.003174603174603176 0.09841269841269842 0.003174603174603176 0.003174603174603176 0.003174603174603176 0.003174603174603176 0.003174603174603176 0.003174603174603176 0.003174603174603176 0.04444444444444445 0.002777777777777779 0.2527777777777778 0.2527777777777778 0.08611111111111112 0.2527777777777778 0.002777777777777779 0.002777777777777779 0.002777777777777779 0.04444444444444445 0.04444444444444445 0.002777777777777779 0.002777777777777779 0.002777777777777779 0.002777777777777779 0.002469135802469137 0.002469135802469137 0.2617283950617284 0.4469135802469136 0.1506172839506173 0.1135802469135803 0.002469135802469137 0.002469135802469137 0.002469135802469137 0.002469135802469137 0.002469135802469137 0.002469135802469137 0.002469135802469137 0.002469135802469137 0.002469135802469137 0.005555555555555558 0.005555555555555558 0.4222222222222222 0.2555555555555555 0.005555555555555558 0.08888888888888888 0.08888888888888888 0.005555555555555558 0.005555555555555558 0.005555555555555558 0.08888888888888888 0.005555555555555558 0.005555555555555558 0.005555555555555558 0.005555555555555558 0.06666666666666668 0.06666666666666668 0.06666666666666668 0.06666666666666668 0.06666666666666668 0.06666666666666668 0.06666666666666668 0.06666666666666668 0.06666666666666668 0.06666666666666668 0.06666666666666668 0.06666666666666668 0.06666666666666668 0.06666666666666668 0.06666666666666668 0.01666666666666667 0.01666666666666667 0.01666666666666667 0.2666666666666667 0.01666666666666667 0.2666666666666667 0.01666666666666667 0.01666666666666667 0.01666666666666667 0.01666666666666667 0.2666666666666667 0.01666666666666667 0.01666666666666667 0.01666666666666667 0.01666666666666667 0.005128205128205129 0.005128205128205129 0.08205128205128202 0.1589743589743589 0.1589743589743589 0.2358974358974358 0.1589743589743589 0.005128205128205129 0.1589743589743589 0.005128205128205129 0.005128205128205129 0.005128205128205129 0.005128205128205129 0.005128205128205129 0.005128205128205129 0.003703703703703705 0.05925925925925925 0.003703703703703705 0.4481481481481481 0.1148148148148148 0.1148148148148148 0.1703703703703704 0.003703703703703705 0.05925925925925925 0.003703703703703705 0.003703703703703705 0.003703703703703705 0.003703703703703705 0.003703703703703705 0.003703703703703705 0.002469135802469137 0.002469135802469137 0.2987654320987654 0.2987654320987654 0.07654320987654323 0.1506172839506173 0.07654320987654323 0.03950617283950618 0.002469135802469137 0.03950617283950618 0.002469135802469137 0.002469135802469137 0.002469135802469137 0.002469135802469137 0.002469135802469137 0.002898550724637682 0.002898550724637682 0.1768115942028986 0.4376811594202899 0.04637681159420291 0.2202898550724638 0.002898550724637682 0.04637681159420291 0.002898550724637682 0.002898550724637682 0.04637681159420291 0.002898550724637682 0.002898550724637682 0.002898550724637682 0.002898550724637682 0.005555555555555558 0.005555555555555558 0.4222222222222223 0.3388888888888889 0.08888888888888889 0.08888888888888889 0.005555555555555558 0.005555555555555558 0.005555555555555558 0.005555555555555558 0.005555555555555558 0.005555555555555558 0.005555555555555558 0.005555555555555558 0.005555555555555558 0.06666666666666668 0.06666666666666668 0.06666666666666668 0.06666666666666668 0.06666666666666668 0.06666666666666668 0.06666666666666668 0.06666666666666668 0.06666666666666668 0.06666666666666668 0.06666666666666668 0.06666666666666668 0.06666666666666668 0.06666666666666668 0.06666666666666668 0.02222222222222222 0.02222222222222222 0.3555555555555554 0.02222222222222222 0.02222222222222222 0.02222222222222222 0.02222222222222222 0.02222222222222222 0.02222222222222222 0.02222222222222222 0.3555555555555554 0.02222222222222222 0.02222222222222222 0.02222222222222222 0.02222222222222222 0.01666666666666667 0.01666666666666667 0.2666666666666667 0.2666666666666667 0.01666666666666667 0.2666666666666667 0.01666666666666667 0.01666666666666667 0.01666666666666667 0.01666666666666667 0.01666666666666667 0.01666666666666667 0.01666666666666667 0.01666666666666667 0.01666666666666667 0.005555555555555558 0.005555555555555558 0.005555555555555558 0.2555555555555555 0.1722222222222222 0.1722222222222222 0.005555555555555558 0.08888888888888888 0.1722222222222222 0.08888888888888888 0.005555555555555558 0.005555555555555558 0.005555555555555558 0.005555555555555558 0.005555555555555558 0.004166666666666668 0.004166666666666668 0.1291666666666667 0.1291666666666667 0.1916666666666667 0.3791666666666667 0.1291666666666667 0.004166666666666668 0.004166666666666668 0.004166666666666668 0.004166666666666668 0.004166666666666668 0.004166666666666668 0.004166666666666668 0.004166666666666668 0.001754385964912281 0.001754385964912281 0.1596491228070175 0.4228070175438596 0.1070175438596491 0.1859649122807017 0.0543859649122807 0.02807017543859648 0.001754385964912281 0.02807017543859648 0.001754385964912281 0.001754385964912281 0.001754385964912281 0.001754385964912281 0.001754385964912281 0.002898550724637682 0.002898550724637682 0.1333333333333334 0.3942028985507247 0.2202898550724638 0.1333333333333334 0.002898550724637682 0.04637681159420291 0.002898550724637682 0.04637681159420291 0.002898550724637682 0.002898550724637682 0.002898550724637682 0.002898550724637682 0.002898550724637682 0.03333333333333335 0.03333333333333335 0.03333333333333335 0.03333333333333335 0.03333333333333335 0.03333333333333335 0.03333333333333335 0.03333333333333335 0.5333333333333333 0.03333333333333335 0.03333333333333335 0.03333333333333335 0.03333333333333335 0.03333333333333335 0.03333333333333335 0.03333333333333335 0.03333333333333335 0.03333333333333335 0.03333333333333335 0.03333333333333335 0.5333333333333333 0.03333333333333335 0.03333333333333335 0.03333333333333335 0.03333333333333335 0.03333333333333335 0.03333333333333335 0.03333333333333335 0.03333333333333335 0.03333333333333335 0.01666666666666667 0.01666666666666667 0.2666666666666666 0.01666666666666667 0.01666666666666667 0.01666666666666667 0.01666666666666667 0.01666666666666667 0.5166666666666666 0.01666666666666667 0.01666666666666667 0.01666666666666667 0.01666666666666667 0.01666666666666667 0.01666666666666667 0.008333333333333337 0.008333333333333337 0.008333333333333337 0.2583333333333334 0.008333333333333337 0.3833333333333334 0.1333333333333333 0.008333333333333337 0.1333333333333333 0.008333333333333337 0.008333333333333337 0.008333333333333337 0.008333333333333337 0.008333333333333337 0.008333333333333337 0.003174603174603177 0.003174603174603177 0.1936507936507937 0.2412698412698413 0.09841269841269845 0.05079365079365081 0.05079365079365081 0.05079365079365081 0.05079365079365081 0.09841269841269845 0.1460317460317461 0.003174603174603177 0.003174603174603177 0.003174603174603177 0.003174603174603177 0.001851851851851852 0.001851851851851852 0.2518518518518518 0.3351851851851851 0.02962962962962962 0.1129629629629629 0.1407407407407407 0.02962962962962962 0.001851851851851852 0.02962962962962962 0.001851851851851852 0.0574074074074074 0.001851851851851852 0.001851851851851852 0.001851851851851852 0.002666666666666668 0.002666666666666668 0.1626666666666667 0.2826666666666667 0.1226666666666667 0.1626666666666667 0.08266666666666669 0.002666666666666668 0.04266666666666667 0.04266666666666667 0.08266666666666669 0.002666666666666668 0.002666666666666668 0.002666666666666668 0.002666666666666668</probabilities>
		</cpt>
		<cpt id="GV_DVLAT">
			<state id="s01_below_n78" />
			<state id="s02_n78_n70" />
			<state id="s03_n70_n64" />
			<state id="s04_n64_n54" />
			<state id="s05_n54_n47" />
			<state id="s06_n47_n41" />
			<state id="s07_n41_n33" />
			<state id="s08_n33_n26" />
			<state id="s09_n26_n16" />
			<state id="s10_n16_n10" />
			<state id="s11_n10_0" />
			<state id="s12_0_3" />
			<state id="s13_3_13" />
			<state id="s14_13_17" />
			<state id="s15_17_25" />
			<state id="s16_25_31" />
			<state id="s17_31_44" />
			<state id="s18_44_56" />
			<state id="s19_56_61" />
			<state id="s20_61_up" />
			<parents>GV_ENERGY OA_MAIS</parents>
