<?xml version="1.0" encoding="ISO-8859-1"?>
<!-- This network was created in GeNIe Academic, which can be used for educational and research purposes only -->
<smile version="1.0" id="Unnamed" numsamples="10000" discsamples="10000">
	<nodes>
		<cpt id="OA_MAIS">
			<state id="State0" />
			<state id="State1" />
			<state id="State2" />
			<state id="State3" />
			<state id="State4" />
			<state id="State5" />
			<state id="State6" />
			<probabilities>0.3811259559020441 0.4589743208260182 0.07900139851816584 0.04947629958044453 0.01568125688100693 0.01130716814949266 0.004433600142827386</probabilities>
		</cpt>
		<cpt id="GV_OTVEHWGT">
			<state id="s01_below_760" />
			<state id="s02_760_1135" />
			<state id="s03_1135_1355" />
			<state id="s04_1355_1595" />
			<state id="s05_1595_1775" />
			<state id="s06_1775_2075" />
			<state id="s07_2075_2295" />
			<state id="s08_2295_2495" />
			<state id="s09_2495_2835" />
			<state id="s10_2835_3055" />
			<state id="s11_3055_3320" />
			<state id="s12_3320_3730" />
			<state id="s13_3730_4035" />
			<state id="s14_4035_4320" />
			<state id="s15_4320_up" />
			<parents>OA_MAIS</parents>
			<probabilities>0.0008287795992714027 0.08511839708561023 0.1889435336976321 0.2952276867030966 0.1430418943533698 0.1689981785063752 0.05233151183970857 0.0356648451730419 0.02282331511839709 0.004107468123861567 0.001921675774134791 0.0004189435336976322 0.0002823315118397087 9.10746812386157e-06 0.0002823315118397087 0.0009151068254868593 0.07522026848175457 0.1829911136320665 0.2901947438079031 0.1377273586689355 0.178566836831159 0.06251465305350727 0.03528833427869162 0.02689355265645679 0.005339383626394403 0.002389865759122707 0.0008016638305917941 0.0004613348459065985 0.0003478918510115333 0.0003478918510115333 0.0007026789635485288 0.06592007026789636 0.154852876592007 0.2925340360122969 0.1219148001756697 0.1976723759332455 0.07448397013614405 0.04813350900307422 0.03364075537988582 0.004655248133509003 0.003996486605182257 0.0007026789635485288 0.0007026789635485288 4.391743522178306e-05 4.391743522178306e-05 7.010164738871364e-05 0.04633718892393972 0.1188923939712583 0.2934454959691553 0.1577988082719944 0.1882930248860848 0.08524360322467578 0.04844023834560112 0.0421310900806169 0.007430774623203645 0.00637924991237294 0.002173151069050123 7.010164738871364e-05 7.010164738871364e-05 0.003224675779880827 0.0002207505518763798 0.03995584988962473 0.1094922737306843 0.222075055187638 0.1525386313465784 0.2353200883002208 0.09293598233995586 0.0631346578366446 0.04988962472406182 0.006843267108167772 0.01346578366445916 0.003532008830022075 0.0002207505518763798 0.003532008830022075 0.006843267108167772 0.0003058103975535169 0.03241590214067278 0.1012232415902141 0.2480122324159022 0.1654434250764526 0.1975535168195719 0.1012232415902141 0.06911314984709481 0.04617737003058104 0.01406727828746178 0.01406727828746178 0.0003058103975535169 0.009480122324159023 0.0003058103975535169 0.0003058103975535169 0.0007751937984496126 0.0007751937984496126 0.1170542635658915 0.2449612403100775 0.1286821705426357 0.2333333333333334 0.09379844961240311 0.07054263565891473 0.07054263565891473 0.0007751937984496126 0.03565891472868218 0.0007751937984496126 0.0007751937984496126 0.0007751937984496126 0.0007751937984496126</probabilities>
		</cpt>
		<cpt id="VE_PDOF_TR">
			<state id="s01_below_22" />
			<state id="s02_22_40" />
			<state id="s03_40_57" />
			<state id="s04_57_75" />
			<state id="s05_75_92" />
			<state id="s06_92_110" />
			<state id="s07_110_127" />
			<state id="s08_127_145" />
			<state id="s09_145_162" />
			<state id="s10_162_180" />
			<state id="s11_180_197" />
			<state id="s12_197_215" />
			<state id="s13_215_232" />
			<state id="s14_232_250" />
			<state id="s15_250_267" />
			<state id="s16_267_285" />
			<state id="s17_285_302" />
			<state id="s18_302_320" />
			<state id="s19_320_337" />
			<state id="s20_337_up" />
			<parents>GV_OTVEHWGT OA_MAIS</parents>
			<probabilities>0.15 0.007142857142857139 0.15 0.15 0.15 0.007142857142857139 0.007142857142857139 0.15 0.15 0.007142857142857139 0.007142857142857139 0.007142857142857139 0.007142857142857139 0.007142857142857139 0.007142857142857139 0.007142857142857139 0.007142857142857139 0.007142857142857139 0.007142857142857139 0.007142857142857139 0.005555555555555552 0.005555555555555552 0.005555555555555552 0.005555555555555552 0.005555555555555552 0.005555555555555552 0.3388888888888889 0.1166666666666667 0.1166666666666667 0.005555555555555552 0.005555555555555552 0.005555555555555552 0.005555555555555552 0.005555555555555552 0.005555555555555552 0.005555555555555552 0.005555555555555552 0.3388888888888889 0.005555555555555552 0.005555555555555552 0.02499999999999999 0.02499999999999999 0.02499999999999999 0.02499999999999999 0.02499999999999999 0.02499999999999999 0.02499999999999999 0.5250000000000001 0.02499999999999999 0.02499999999999999 0.02499999999999999 0.02499999999999999 0.02499999999999999 0.02499999999999999 0.02499999999999999 0.02499999999999999 0.02499999999999999 0.02499999999999999 0.02499999999999999 0.02499999999999999 0.05 0.05 0.05 0.05 0.05 0.05 0.05 0.05 0.05 0.05 0.05 0.05 0.05 0.05 0.05 0.05 0.05 0.05 0.05 0.05 0.05 0.05 0.05 0.05 0.05 0.05 0.05 0.05 0.05 0.05 0.05 0.05 0.05 0.05 0.05 0.05 0.05 0.05 0.05 0.05 0.05 0.05 0.05 0.05 0.05 0.05 0.05 0.05 0.05 0.05 0.05 0.05 0.05 0.05 0.05 0.05 0.05 0.05 0.05 0.05 0.05 0.05 0.05 0.05 0.05 0.05 0.05 0.05 0.05 0.05 0.05 0.05 0.05 0.05 0.05 0.05 0.05 0.05 0.05 0.05 0.00328525641025641 0.008092948717948717 0.03693910256410256 0.02251602564102564 0.04334935897435897 0.08020833333333333 0.1731570512820513 0.2020032051282051 0.1443108974358974 0.08020833333333333 0.05777243589743589 0.02572115384615384 0.03052884615384615 0.009695512820512819 0.00328525641025641 0.001682692307692308 0.00328525641025641 0.04975961538461538 0.01931089743589744 0.004887820512820512 0.004593373493975902 0.01061746987951807 0.0332078313253012 0.0226656626506024 0.04676204819277108 0.07085843373493973 0.2335090361445783 0.1250753012048192 0.1642319277108433 0.08290662650602407 0.08140060240963853 0.01362951807228915 0.02567771084337349 0.006099397590361444 0.00308734939759036 7.530120481927705e-05 0.001581325301204819 0.06031626506024095 0.01212349397590361 0.001581325301204819 0.0004950495049504948 0.0004950495049504948 0.0301980198019802 0.0400990099009901 0.09950495049504951 0.0301980198019802 0.2381188118811881 0.2183168316831683 0.1094059405940594 0.0797029702970297 0.05 0.02029702970297029 0.0301980198019802 0.0103960396039604 0.0004950495049504948 0.0004950495049504948 0.0004950495049504948 0.0103960396039604 0.02029702970297029 0.0103960396039604 0.00111111111111111 0.00111111111111111 0.02333333333333333 0.00111111111111111 0.1122222222222222 0.06777777777777777 0.2233333333333333 0.29 0.1122222222222222 0.02333333333333333 0.00111111111111111 0.02333333333333333 0.04555555555555554 0.02333333333333333 0.00111111111111111 0.00111111111111111 0.00111111111111111 0.04555555555555554 0.00111111111111111 0.00111111111111111 0.003846153846153845 0.003846153846153845 0.003846153846153845 0.08076923076923077 0.1576923076923077 0.003846153846153845 0.2346153846153846 0.08076923076923077 0.08076923076923077 0.08076923076923077 0.1576923076923077 0.08076923076923077 0.003846153846153845 0.003846153846153845 0.003846153846153845 0.003846153846153845 0.003846153846153845 0.003846153846153845 0.003846153846153845 0.003846153846153845 0.006249999999999999 0.006249999999999999 0.006249999999999999 0.006249999999999999 0.006249999999999999 0.13125 0.25625 0.13125 0.13125 0.006249999999999999 0.006249999999999999 0.13125 0.006249999999999999 0.13125 0.006249999999999999 0.006249999999999999 0.006249999999999999 0.006249999999999999 0.006249999999999999 0.006249999999999999 0.05 0.05 0.05 0.05 0.05 0.05 0.05 0.05 0.05 0.05 0.05 0.05 0.05 0.05 0.05 0.05 0.05 0.05 0.05 0.05 0.002203757225433526 0.007984104046242774 0.02604768786127167 0.02749277456647398 0.04844653179190751 0.06434248554913294 0.1748916184971098 0.2139089595375722 0.1438222543352601 0.07662572254335259 0.05422687861271676 0.02749277456647398 0.02460260115606936 0.002926300578034682 0.003648843930635838 0.00148121387283237 0.002203757225433526 0.06867774566473987 0.02098988439306358 0.007984104046242774 0.00684634448574969 0.007465923172242876 0.02729244114002478 0.02605328376703841 0.04216232961586121 0.07623915737298637 0.2063506815365551 0.1456319702602231 0.1518277571251549 0.09854399008674103 0.06074969021065675 0.01985749690210657 0.02543370508054523 0.004987608426270137 0.001270136307311028 3.097893432465922e-05 0.001270136307311028 0.07809789343246593 0.01675960346964064 0.003128872366790582 0.004449152542372882 0.000211864406779661 0.02563559322033899 0.02139830508474577 0.05529661016949154 0.05105932203389832 0.2078389830508475 0.2163135593220339 0.140042372881356 0.140042372881356 0.05529661016949154 0.01716101694915255 0.01292372881355932 0.004449152542372882 0.000211864406779661 0.000211864406779661 0.000211864406779661 0.03411016949152543 0.008686440677966104 0.004449152542372882 0.009210526315789473 0.009210526315789473 0.04429824561403509 0.02675438596491228 0.0706140350877193 0.1057017543859649 0.2197368421052631 0.2021929824561403 0.1320175438596491 0.04429824561403509 0.02675438596491228 0.02675438596491228 0.02675438596491228 0.009210526315789473 0.0004385964912280699 0.0004385964912280699 0.0004385964912280699 0.03552631578947368 0.009210526315789473 0.0004385964912280699 0.06029411764705882 0.001470588235294117 0.1191176470588235 0.06029411764705882 0.1485294117647059 0.03088235294117647 0.03088235294117647 0.236764705882353 0.06029411764705882 0.001470588235294117 0.06029411764705882 0.03088235294117647 0.08970588235294116 0.001470588235294117 0.001470588235294117 0.001470588235294117 0.001470588235294117 0.03088235294117647 0.03088235294117647 0.001470588235294117 0.00217391304347826 0.04565217391304348 0.1326086956521739 0.00217391304347826 0.1760869565217391 0.04565217391304348 0.04565217391304348 0.2195652173913043 0.04565217391304348 0.04565217391304348 0.08913043478260868 0.04565217391304348 0.00217391304347826 0.00217391304347826 0.00217391304347826 0.00217391304347826 0.00217391304347826 0.08913043478260868 0.00217391304347826 0.00217391304347826 0.004545454545454543 0.004545454545454543 0.09545454545454546 0.004545454545454543 0.004545454545454543 0.09545454545454546 0.004545454545454543 0.3681818181818182 0.1863636363636363 0.004545454545454543 0.004545454545454543 0.004545454545454543 0.09545454545454546 0.004545454545454543 0.004545454545454543 0.004545454545454543 0.004545454545454543 0.09545454545454546 0.004545454545454543 0.004545454545454543 0.004185938945420908 0.009273820536540241 0.02916281221091582 0.0217622571692877 0.04720166512488437 0.06940333024976875 0.1725485661424607 0.2188020351526365 0.1397086031452359 0.07356614246068456 0.04673913043478261 0.02268732654949121 0.03008788159111933 0.005111008325624423 0.001873265494912118 0.002798334875115634 0.009273820536540241 0.07125346901017578 0.01991211840888066 0.004648473635522665 0.00431809300508011 0.005490425947635796 0.02502930832356389 0.02502930832356389 0.0527745212973818 0.0742672919109027 0.208694802657288 0.1668815943728019 0.1410902696365768 0.08638139898397813 0.0609808518952716 0.01955842125830403 0.02307542008597108 0.005099648300117234 0.001973427119968738 0.0004103165298944901 0.001973427119968738 0.07504884720593984 0.01721375537319265 0.004708870652598672 0.0001123595505617977 0.006853932584269663 0.02258426966292135 0.04056179775280899 0.04056179775280899 0.05404494382022473 0.2315730337078652 0.2046067415730337 0.1574157303370786 0.08550561797752809 0.05629213483146068 0.01584269662921348 0.01584269662921348 0.006853932584269663 0.002359550561797753 0.0001123595505617977 0.004606741573033708 0.04056179775280899 0.009101123595505618 0.004606741573033708 0.0001785714285714285 0.0001785714285714285 0.05732142857142857 0.03946428571428572 0.08232142857142857 0.06446428571428571 0.2073214285714285 0.2644642857142857 0.1180357142857143 0.07160714285714286 0.03232142857142857 0.01446428571428571 0.01089285714285714 0.00375 0.0001785714285714285 0.0001785714285714285 0.00375 0.01446428571428571 0.01089285714285714 0.00375 0.0007352941176470583 0.01544117647058823 0.1036764705882353 0.04485294117647057 0.1477941176470588 0.07426470588235291 0.1625 0.1772058823529411 0.08897058823529409 0.01544117647058823 0.0301470588235294 0.0301470588235294 0.01544117647058823 0.0301470588235294 0.0301470588235294 0.0007352941176470583 0.01544117647058823 0.0007352941176470583 0.0007352941176470583 0.01544117647058823 0.01909090909090909 0.05545454545454545 0.03727272727272727 0.05545454545454545 0.1281818181818182 0.0009090909090909085 0.1827272727272727 0.2009090909090909 0.03727272727272727 0.07363636363636362 0.03727272727272727 0.05545454545454545 0.0009090909090909085 0.01909090909090909 0.0009090909090909085 0.0009090909090909085 0.0009090909090909085 0.09181818181818181 0.0009090909090909085 0.0009090909090909085 0.002272727272727272 0.002272727272727272 0.04772727272727273 0.09318181818181817 0.04772727272727273 0.04772727272727273 0.1386363636363636 0.275 0.09318181818181817 0.04772727272727273 0.09318181818181817 0.04772727272727273 0.04772727272727273 0.002272727272727272 0.002272727272727272 0.002272727272727272 0.002272727272727272 0.002272727272727272 0.002272727272727272 0.002272727272727272 0.005772900763358778 0.004818702290076336 0.03058206106870229 0.01626908396946565 0.05062022900763358 0.0553912213740458 0.1574904580152672 0.2281011450381679 0.1469942748091603 0.06302480916030534 0.0553912213740458 0.03439885496183206 0.02676526717557252 0.005772900763358778 0.003864503816793893 0.00291030534351145 0.005772900763358778 0.07542938931297709 0.02390267175572519 0.006727099236641221 0.001687242798353909 0.01320987654320988 0.02802469135802469 0.02802469135802469 0.0568312757201646 0.06588477366255144 0.1959259259259259 0.1580658436213992 0.1350205761316872 0.08646090534979424 0.06999999999999999 0.02555555555555556 0.02802469135802469 0.006625514403292182 0.001687242798353909 0.002510288065843621 0.004156378600823045 0.07164609053497942 0.0148559670781893 0.005802469135802469 0.005645161290322581 0.005645161290322581 0.01639784946236559 0.05403225806451614 0.07016129032258066 0.08629032258064517 0.2368279569892473 0.1561827956989247 0.1239247311827957 0.1293010752688172 0.0271505376344086 0.01639784946236559 0.01102150537634409 0.0002688172043010752 0.0002688172043010752 0.0002688172043010752 0.005645161290322581 0.03790322580645161 0.01102150537634409 0.005645161290322581 0.0003311258278145694 0.02682119205298013 0.05993377483443709 0.0466887417218543 0.1129139072847682 0.07317880794701988 0.1592715231788079 0.2188741721854305 0.09966887417218544 0.09966887417218544 0.0466887417218543 0.01357615894039735 0.01357615894039735 0.01357615894039735 0.0003311258278145694 0.0003311258278145694 0.006953642384105961 0.006953642384105961 0.0003311258278145694 0.0003311258278145694 0.001063829787234042 0.04361702127659573 0.04361702127659573 0.08617021276595743 0.06489361702127658 0.15 0.15 0.2138297872340425 0.06489361702127658 0.001063829787234042 0.08617021276595743 0.02234042553191489 0.02234042553191489 0.02234042553191489 0.001063829787234042 0.001063829787234042 0.02234042553191489 0.001063829787234042 0.001063829787234042 0.001063829787234042 0.001351351351351351 0.02837837837837838 0.08243243243243244 0.1094594594594595 0.0554054054054054 0.1094594594594595 0.001351351351351351 0.2175675675675676 0.1094594594594595 0.0554054054054054 0.02837837837837838 0.0554054054054054 0.02837837837837838 0.02837837837837838 0.001351351351351351 0.001351351351351351 0.001351351351351351 0.0554054054054054 0.02837837837837838 0.001351351351351351 0.004166666666666664 0.004166666666666664 0.004166666666666664 0.004166666666666664 0.08749999999999999 0.004166666666666664 0.004166666666666664 0.4208333333333333 0.004166666666666664 0.1708333333333333 0.004166666666666664 0.004166666666666664 0.08749999999999999 0.004166666666666664 0.004166666666666664 0.004166666666666664 0.004166666666666664 0.1708333333333333 0.004166666666666664 0.004166666666666664 0.001655896607431341 0.009733441033925688 0.03315831987075929 0.02023424878836834 0.04769789983844911 0.05254442649434572 0.1680533117932149 0.2480210016155089 0.1284733441033926 0.08404684975767367 0.04527463651050081 0.02831179321486268 0.02669628432956381 0.004886914378029079 0.00327140549273021 0.001655896607431341 0.004886914378029079 0.06789176090468498 0.0194264943457189 0.004079159935379645 0.002571428571428571 0.005111111111111111 0.02923809523809524 0.03368253968253968 0.05336507936507937 0.0686031746031746 0.1771746031746032 0.1555873015873016 0.1454285714285714 0.09653968253968255 0.0666984126984127 0.0159047619047619 0.01780952380952381 0.004476190476190476 0.001301587301587301 3.174603174603173e-05 0.005746031746031746 0.08955555555555557 0.02733333333333333 0.003841269841269841 0.0001661129568106312 0.01345514950166113 0.02674418604651163 0.01677740863787375 0.1098006644518272 0.05996677740863788 0.2061461794019933 0.209468438538206 0.09983388704318938 0.07657807308970101 0.05332225913621263 0.03671096345514951 0.01677740863787375 0.0001661129568106312 0.01013289036544851 0.003488372093023256 0.0001661129568106312 0.04667774086378738 0.01013289036544851 0.003488372093023256 0.0002777777777777777 0.005833333333333334 0.02805555555555556 0.02805555555555556 0.1225 0.06694444444444446 0.2002777777777778 0.1891666666666667 0.1613888888888889 0.07805555555555557 0.03916666666666668 0.01138888888888889 0.0225 0.0002777777777777777 0.0002777777777777777 0.0002777777777777777 0.0002777777777777777 0.03916666666666668 0.005833333333333334 0.0002777777777777777 0.000694444444444444 0.000694444444444444 0.1256944444444444 0.07013888888888888 0.08402777777777777 0.05624999999999999 0.1673611111111111 0.1395833333333333 0.05624999999999999 0.09791666666666665 0.02847222222222222 0.01458333333333333 0.07013888888888888 0.01458333333333333 0.000694444444444444 0.000694444444444444 0.000694444444444444 0.04236111111111111 0.01458333333333333 0.01458333333333333 0.04659090909090909 0.001136363636363636 0.09204545454545454 0.06931818181818182 0.06931818181818182 0.09204545454545454 0.1375 0.1602272727272727 0.1147727272727273 0.04659090909090909 0.02386363636363636 0.06931818181818182 0.001136363636363636 0.001136363636363636 0.001136363636363636 0.001136363636363636 0.001136363636363636 0.04659090909090909 0.001136363636363636 0.02386363636363636 0.002380952380952379 0.002380952380952379 0.05 0.05 0.09761904761904761 0.05 0.05 0.1452380952380952 0.2404761904761905 0.002380952380952379 0.05 0.09761904761904761 0.05 0.05 0.002380952380952379 0.002380952380952379 0.002380952380952379 0.05 0.002380952380952379 0.002380952380952379 0.0001302083333333333 0.007942708333333333 0.03658854166666667 0.02877604166666667 0.02877604166666667 0.049609375 0.1173177083333333 0.3204427083333333 0.104296875 0.06783854166666667 0.041796875 0.03658854166666667 0.02356770833333333 0.005338541666666666 0.0001302083333333333 0.0001302083333333333 0.0001302083333333333 0.09127604166666665 0.033984375 0.005338541666666666 9.05797101449275e-05 0.01096014492753623 0.02182971014492754 0.02726449275362319 0.03632246376811595 0.0598731884057971 0.1848731884057971 0.1758152173913043 0.1269021739130435 0.08161231884057971 0.05806159420289855 0.02001811594202899 0.03269927536231884 0.007336956521739131 0.00552536231884058 0.001902173913043478 0.003713768115942029 0.1196557971014493 0.02001811594202899 0.00552536231884058 0.0004385964912280699 0.009210526315789473 0.06184210526315789 0.04429824561403509 0.06184210526315789 0.05307017543859649 0.1758771929824561 0.2021929824561403 0.1232456140350877 0.0793859649122807 0.06184210526315789 0.02675438596491228 0.03552631578947368 0.0004385964912280699 0.0004385964912280699 0.0004385964912280699 0.0004385964912280699 0.05307017543859649 0.0004385964912280699 0.009210526315789473 0.0006097560975609753 0.025 0.04939024390243903 0.03719512195121951 0.04939024390243903 0.04939024390243903 0.2201219512195122 0.2689024390243903 0.08597560975609757 0.03719512195121951 0.06158536585365854 0.07378048780487804 0.0006097560975609753 0.0006097560975609753 0.0006097560975609753 0.0006097560975609753 0.0006097560975609753 0.025 0.01280487804878049 0.0006097560975609753 0.001724137931034482 0.001724137931034482 0.07068965517241378 0.07068965517241378 0.1741379310344827 0.1396551724137931 0.1396551724137931 0.07068965517241378 0.1051724137931034 0.03620689655172414 0.03620689655172414 0.03620689655172414 0.1051724137931034 0.001724137931034482 0.001724137931034482 0.001724137931034482 0.001724137931034482 0.001724137931034482 0.001724137931034482 0.001724137931034482 0.00217391304347826 0.04565217391304348 0.04565217391304348 0.08913043478260868 0.1326086956521739 0.04565217391304348 0.08913043478260868 0.1326086956521739 0.1326086956521739 0.04565217391304348 0.04565217391304348 0.04565217391304348 0.04565217391304348 0.04565217391304348 0.00217391304347826 0.00217391304347826 0.00217391304347826 0.04565217391304348 0.00217391304347826 0.00217391304347826 0.005555555555555554 0.005555555555555554 0.005555555555555554 0.005555555555555554 0.2277777777777778 0.1166666666666667 0.005555555555555554 0.338888888888889 0.005555555555555554 0.1166666666666667 0.005555555555555554 0.005555555555555554 0.005555555555555554 0.1166666666666667 0.005555555555555554 0.005555555555555554 0.005555555555555554 0.005555555555555554 0.005555555555555554 0.005555555555555554 0.0116412213740458 0.0001908396946564884 0.03072519083969466 0.0116412213740458 0.05744274809160305 0.04980916030534351 0.1070610687022901 0.3055343511450381 0.08034351145038168 0.0650763358778626 0.07270992366412214 0.01545801526717557 0.01545801526717557 0.0116412213740458 0.0001908396946564884 0.0001908396946564884 0.00400763358778626 0.1299618320610687 0.03072519083969466 0.0001908396946564884 0.003365384615384616 0.003365384615384616 0.02580128205128205 0.03221153846153847 0.04823717948717949 0.07067307692307692 0.1764423076923077 0.1475961538461538 0.09631410256410257 0.05785256410256411 0.08028846153846154 0.0546474358974359 0.01939102564102564 0.01939102564102564 0.003365384615384616 0.0001602564102564102 0.01298076923076923 0.11875 0.02900641025641026 0.0001602564102564102 0.01418918918918919 0.0006756756756756754 0.06824324324324324 0.0006756756756756754 0.0277027027027027 0.04121621621621622 0.2304054054054054 0.1763513513513514 0.1087837837837838 0.09527027027027027 0.08175675675675675 0.04121621621621622 0.05472972972972973 0.0006756756756756754 0.0006756756756756754 0.0006756756756756754 0.01418918918918919 0.04121621621621622 0.0006756756756756754 0.0006756756756756754 0.001063829787234042 0.001063829787234042 0.08617021276595743 0.06489361702127658 0.1287234042553191 0.08617021276595743 0.2351063829787234 0.1712765957446808 0.08617021276595743 0.02234042553191489 0.04361702127659573 0.02234042553191489 0.02234042553191489 0.001063829787234042 0.02234042553191489 0.001063829787234042 0.001063829787234042 0.001063829787234042 0.001063829787234042 0.001063829787234042 0.002499999999999999 0.002499999999999999 0.0525 0.0525 0.0525 0.2025 0.1025 0.1025 0.002499999999999999 0.0525 0.1525 0.0525 0.0525 0.002499999999999999 0.002499999999999999 0.002499999999999999 0.002499999999999999 0.1025 0.002499999999999999 0.002499999999999999 0.003124999999999998 0.003124999999999998 0.003124999999999998 0.190625 0.003124999999999998 0.003124999999999998 0.190625 0.065625 0.065625 0.065625 0.128125 0.065625 0.003124999999999998 0.003124999999999998 0.003124999999999998 0.003124999999999998 0.003124999999999998 0.128125 0.065625 0.003124999999999998 0.00714285714285714 0.00714285714285714 0.00714285714285714 0.15 0.00714285714285714 0.00714285714285714 0.15 0.2928571428571429 0.00714285714285714 0.00714285714285714 0.15 0.00714285714285714 0.00714285714285714 0.00714285714285714 0.00714285714285714 0.00714285714285714 0.00714285714285714 0.15 0.00714285714285714 0.00714285714285714 0.0002976190476190474 0.00625 0.0181547619047619 0.02410714285714285 0.04791666666666667 0.03005952380952381 0.1610119047619047 0.2979166666666666 0.1133928571428571 0.07172619047619047 0.05982142857142857 0.0181547619047619 0.02410714285714285 0.00625 0.0002976190476190474 0.0002976190476190474 0.0002976190476190474 0.07767857142857143 0.03005952380952381 0.01220238095238095 0.004411764705882354 0.01281512605042017 0.03382352941176472 0.02542016806722689 0.05063025210084035 0.06323529411764707 0.1430672268907563 0.1892857142857143 0.1514705882352941 0.06323529411764707 0.04642857142857144 0.02121848739495799 0.03802521008403362 0.004411764705882354 0.0002100840336134453 0.0002100840336134453 0.0002100840336134453 0.1052521008403361 0.04642857142857144 0.0002100840336134453 0.0009615384615384612 0.0009615384615384612 0.1163461538461538 0.0009615384615384612 0.1163461538461538 0.09711538461538462 0.09711538461538462 0.2317307692307693 0.07788461538461539 0.1163461538461538 0.02019230769230769 0.03942307692307692 0.03942307692307692 0.0009615384615384612 0.0009615384615384612 0.0009615384615384612 0.0009615384615384612 0.03942307692307692 0.0009615384615384612 0.0009615384615384612 0.001219512195121951 0.04999999999999999 0.1231707317073171 0.02560975609756097 0.07439024390243901 0.02560975609756097 0.1963414634146342 0.1963414634146342 0.04999999999999999 0.09878048780487804 0.04999999999999999 0.04999999999999999 0.02560975609756097 0.001219512195121951 0.001219512195121951 0.001219512195121951 0.001219512195121951 0.001219512195121951 0.02560975609756097 0.001219512195121951 0.003124999999999998 0.065625 0.003124999999999998 0.003124999999999998 0.190625 0.065625 0.065625 0.190625 0.065625 0.003124999999999998 0.003124999999999998 0.128125 0.128125 0.003124999999999998 0.003124999999999998 0.003124999999999998 0.003124999999999998 0.065625 0.003124999999999998 0.003124999999999998 0.004545454545454543 0.004545454545454543 0.004545454545454543 0.1863636363636363 0.09545454545454546 0.004545454545454543 0.09545454545454546 0.1863636363636363 0.09545454545454546 0.004545454545454543 0.004545454545454543 0.09545454545454546 0.1863636363636363 0.004545454545454543 0.004545454545454543 0.004545454545454543 0.004545454545454543 0.004545454545454543 0.004545454545454543 0.004545454545454543 0.00714285714285714 0.00714285714285714 0.00714285714285714 0.00714285714285714 0.00714285714285714 0.00714285714285714 0.2928571428571429 0.15 0.15 0.00714285714285714 0.15 0.00714285714285714 0.15 0.00714285714285714 0.00714285714285714 0.00714285714285714 0.00714285714285714 0.00714285714285714 0.00714285714285714 0.00714285714285714 0.001612903225806451 0.001612903225806451 0.0661290322580645 0.03387096774193549 0.03387096774193549 0.03387096774193549 0.09838709677419354 0.3241935483870968 0.03387096774193549 0.03387096774193549 0.03387096774193549 0.03387096774193549 0.001612903225806451 0.001612903225806451 0.001612903225806451 0.001612903225806451 0.001612903225806451 0.1629032258064516 0.09838709677419354 0.001612903225806451 0.001041666666666666 0.001041666666666666 0.021875 0.001041666666666666 0.06354166666666666 0.1052083333333333 0.146875 0.1885416666666667 0.06354166666666666 0.08437499999999999 0.04270833333333333 0.021875 0.04270833333333333 0.001041666666666666 0.001041666666666666 0.001041666666666666 0.001041666666666666 0.1677083333333333 0.021875 0.021875 0.006249999999999999 0.006249999999999999 0.006249999999999999 0.006249999999999999 0.3812500000000001 0.006249999999999999 0.13125 0.006249999999999999 0.25625 0.006249999999999999 0.006249999999999999 0.006249999999999999 0.006249999999999999 0.006249999999999999 0.006249999999999999 0.006249999999999999 0.006249999999999999 0.13125 0.006249999999999999 0.006249999999999999 0.006249999999999999 0.006249999999999999 0.006249999999999999 0.13125 0.006249999999999999 0.006249999999999999 0.25625 0.25625 0.13125 0.006249999999999999 0.006249999999999999 0.006249999999999999 0.13125 0.006249999999999999 0.006249999999999999 0.006249999999999999 0.006249999999999999 0.006249999999999999 0.006249999999999999 0.006249999999999999 0.01666666666666666 0.01666666666666666 0.01666666666666666 0.01666666666666666 0.01666666666666666 0.01666666666666666 0.35 0.35 0.01666666666666666 0.01666666666666666 0.01666666666666666 0.01666666666666666 0.01666666666666666 0.01666666666666666 0.01666666666666666 0.01666666666666666 0.01666666666666666 0.01666666666666666 0.01666666666666666 0.01666666666666666 0.0125 0.0125 0.0125 0.0125 0.0125 0.0125 0.0125 0.5125000000000001 0.2625000000000001 0.0125 0.0125 0.0125 0.0125 0.0125 0.0125 0.0125 0.0125 0.0125 0.0125 0.0125 0.05 0.05 0.05 0.05 0.05 0.05 0.05 0.05 0.05 0.05 0.05 0.05 0.05 0.05 0.05 0.05 0.05 0.05 0.05 0.05 0.003333333333333332 0.003333333333333332 0.003333333333333332 0.07000000000000001 0.07000000000000001 0.07000000000000001 0.07000000000000001 0.1366666666666667 0.07000000000000001 0.07000000000000001 0.07000000000000001 0.003333333333333332 0.07000000000000001 0.003333333333333332 0.003333333333333332 0.003333333333333332 0.003333333333333332 0.2033333333333333 0.07000000000000001 0.003333333333333332 0.002272727272727272 0.04772727272727273 0.04772727272727273 0.002272727272727272 0.04772727272727273 0.1386363636363636 0.002272727272727272 0.09318181818181817 0.1386363636363636 0.04772727272727273 0.09318181818181817 0.1386363636363636 0.002272727272727272 0.002272727272727272 0.002272727272727272 0.002272727272727272 0.002272727272727272 0.1386363636363636 0.04772727272727273 0.002272727272727272 0.007142857142857142 0.007142857142857142 0.007142857142857142 0.007142857142857142 0.007142857142857142 0.15 0.2928571428571429 0.4357142857142858 0.007142857142857142 0.007142857142857142 0.007142857142857142 0.007142857142857142 0.007142857142857142 0.007142857142857142 0.007142857142857142 0.007142857142857142 0.007142857142857142 0.007142857142857142 0.007142857142857142 0.007142857142857142 0.007142857142857139 0.007142857142857139 0.007142857142857139 0.007142857142857139 0.007142857142857139 0.15 0.4357142857142857 0.15 0.15 0.007142857142857139 0.007142857142857139 0.007142857142857139 0.007142857142857139 0.007142857142857139 0.007142857142857139 0.007142857142857139 0.007142857142857139 0.007142857142857139 0.007142857142857139 0.007142857142857139 0.009999999999999997 0.009999999999999997 0.009999999999999997 0.21 0.009999999999999997 0.009999999999999997 0.009999999999999997 0.41 0.009999999999999997 0.009999999999999997 0.21 0.009999999999999997 0.009999999999999997 0.009999999999999997 0.009999999999999997 0.009999999999999997 0.009999999999999997 0.009999999999999997 0.009999999999999997 0.009999999999999997 0.01249999999999999 0.01249999999999999 0.01249999999999999 0.01249999999999999 0.01249999999999999 0.01249999999999999 0.01249999999999999 0.2625 0.2625 0.01249999999999999 0.01249999999999999 0.01249999999999999 0.2625 0.01249999999999999 0.01249999999999999 0.01249999999999999 0.01249999999999999 0.01249999999999999 0.01249999999999999 0.01249999999999999 0.01249999999999999 0.01249999999999999 0.01249999999999999 0.01249999999999999 0.01249999999999999 0.01249999999999999 0.2625 0.01249999999999999 0.01249999999999999 0.2625 0.01249999999999999 0.2625 0.01249999999999999 0.01249999999999999 0.01249999999999999 0.01249999999999999 0.01249999999999999 0.01249999999999999 0.01249999999999999 0.01249999999999999 0.01249999999999999 0.01249999999999999 0.01249999999999999 0.01249999999999999 0.01249999999999999 0.01249999999999999 0.01249999999999999 0.2625 0.01249999999999999 0.5125 0.01249999999999999 0.01249999999999999 0.01249999999999999 0.01249999999999999 0.01249999999999999 0.01249999999999999 0.01249999999999999 0.01249999999999999 0.01249999999999999 0.01249999999999999 0.006249999999999997 0.006249999999999997 0.006249999999999997 0.13125 0.006249999999999997 0.006249999999999997 0.13125 0.006249999999999997 0.13125 0.006249999999999997 0.006249999999999997 0.006249999999999997 0.006249999999999997 0.006249999999999997 0.006249999999999997 0.006249999999999997 0.006249999999999997 0.50625 0.006249999999999997 0.006249999999999997 0.02499999999999999 0.02499999999999999 0.02499999999999999 0.02499999999999999 0.02499999999999999 0.02499999999999999 0.02499999999999999 0.02499999999999999 0.02499999999999999 0.02499999999999999 0.02499999999999999 0.02499999999999999 0.02499999999999999 0.02499999999999999 0.02499999999999999 0.02499999999999999 0.02499999999999999 0.5250000000000001 0.02499999999999999 0.02499999999999999 0.01666666666666666 0.01666666666666666 0.01666666666666666 0.01666666666666666 0.01666666666666666 0.35 0.01666666666666666 0.01666666666666666 0.35 0.01666666666666666 0.01666666666666666 0.01666666666666666 0.01666666666666666 0.01666666666666666 0.01666666666666666 0.01666666666666666 0.01666666666666666 0.01666666666666666 0.01666666666666666 0.01666666666666666 0.02499999999999999 0.02499999999999999 0.02499999999999999 0.02499999999999999 0.02499999999999999 0.02499999999999999 0.02499999999999999 0.02499999999999999 0.02499999999999999 0.02499999999999999 0.02499999999999999 0.02499999999999999 0.5250000000000001 0.02499999999999999 0.02499999999999999 0.02499999999999999 0.02499999999999999 0.02499999999999999 0.02499999999999999 0.02499999999999999 0.05 0.05 0.05 0.05 0.05 0.05 0.05 0.05 0.05 0.05 0.05 0.05 0.05 0.05 0.05 0.05 0.05 0.05 0.05 0.05 0.05 0.05 0.05 0.05 0.05 0.05 0.05 0.05 0.05 0.05 0.05 0.05 0.05 0.05 0.05 0.05 0.05 0.05 0.05 0.05 0.01666666666666666 0.01666666666666666 0.01666666666666666 0.35 0.01666666666666666 0.01666666666666666 0.01666666666666666 0.01666666666666666 0.01666666666666666 0.01666666666666666 0.01666666666666666 0.01666666666666666 0.01666666666666666 0.35 0.01666666666666666 0.01666666666666666 0.01666666666666666 0.01666666666666666 0.01666666666666666 0.01666666666666666 0.009999999999999995 0.009999999999999995 0.009999999999999995 0.009999999999999995 0.009999999999999995 0.009999999999999995 0.009999999999999995 0.21 0.21 0.009999999999999995 0.009999999999999995 0.009999999999999995 0.009999999999999995 0.009999999999999995 0.009999999999999995 0.009999999999999995 0.009999999999999995 0.41 0.009999999999999995 0.009999999999999995 0.02499999999999999 0.02499999999999999 0.02499999999999999 0.02499999999999999 0.02499999999999999 0.02499999999999999 0.02499999999999999 0.02499999999999999 0.02499999999999999 0.02499999999999999 0.5250000000000001 0.02499999999999999 0.02499999999999999 0.02499999999999999 0.02499999999999999 0.02499999999999999 0.02499999999999999 0.02499999999999999 0.02499999999999999 0.02499999999999999 0.05 0.05 0.05 0.05 0.05 0.05 0.05 0.05 0.05 0.05 0.05 0.05 0.05 0.05 0.05 0.05 0.05 0.05 0.05 0.05 0.05 0.05 0.05 0.05 0.05 0.05 0.05 0.05 0.05 0.05 0.05 0.05 0.05 0.05 0.05 0.05 0.05 0.05 0.05 0.05 0.01666666666666666 0.01666666666666666 0.01666666666666666 0.01666666666666666 0.01666666666666666 0.01666666666666666 0.6833333333333335 0.01666666666666666 0.01666666666666666 0.01666666666666666 0.01666666666666666 0.01666666666666666 0.01666666666666666 0.01666666666666666 0.01666666666666666 0.01666666666666666 0.01666666666666666 0.01666666666666666 0.01666666666666666 0.01666666666666666 0.05 0.05 0.05 0.05 0.05 0.05 0.05 0.05 0.05 0.05 0.05 0.05 0.05 0.05 0.05 0.05 0.05 0.05 0.05 0.05 0.05 0.05 0.05 0.05 0.05 0.05 0.05 0.05 0.05 0.05 0.05 0.05 0.05 0.05 0.05 0.05 0.05 0.05 0.05 0.05 0.01249999999999999 0.01249999999999999 0.01249999999999999 0.01249999999999999 0.2625 0.01249999999999999 0.01249999999999999 0.2625 0.01249999999999999 0.01249999999999999 0.01249999999999999 0.01249999999999999 0.01249999999999999 0.01249999999999999 0.01249999999999999 0.01249999999999999 0.01249999999999999 0.2625 0.01249999999999999 0.01249999999999999 0.05 0.05 0.05 0.05 0.05 0.05 0.05 0.05 0.05 0.05 0.05 0.05 0.05 0.05 0.05 0.05 0.05 0.05 0.05 0.05 0.05 0.05 0.05 0.05 0.05 0.05 0.05 0.05 0.05 0.05 0.05 0.05 0.05 0.05 0.05 0.05 0.05 0.05 0.05 0.05 0.02499999999999999 0.02499999999999999 0.02499999999999999 0.02499999999999999 0.5250000000000001 0.02499999999999999 0.02499999999999999 0.02499999999999999 0.02499999999999999 0.02499999999999999 0.02499999999999999 0.02499999999999999 0.02499999999999999 0.02499999999999999 0.02499999999999999 0.02499999999999999 0.02499999999999999 0.02499999999999999 0.02499999999999999 0.02499999999999999 0.05 0.05 0.05 0.05 0.05 0.05 0.05 0.05 0.05 0.05 0.05 0.05 0.05 0.05 0.05 0.05 0.05 0.05 0.05 0.05 0.05 0.05 0.05 0.05 0.05 0.05 0.05 0.05 0.05 0.05 0.05 0.05 0.05 0.05 0.05 0.05 0.05 0.05 0.05 0.05 0.01666666666666666 0.01666666666666666 0.01666666666666666 0.01666666666666666 0.01666666666666666 0.01666666666666666 0.35 0.01666666666666666 0.01666666666666666 0.35 0.01666666666666666 0.01666666666666666 0.01666666666666666 0.01666666666666666 0.01666666666666666 0.01666666666666666 0.01666666666666666 0.01666666666666666 0.01666666666666666 0.01666666666666666 0.01249999999999999 0.01249999999999999 0.01249999999999999 0.01249999999999999 0.01249999999999999 0.01249999999999999 0.2625 0.01249999999999999 0.01249999999999999 0.01249999999999999 0.01249999999999999 0.01249999999999999 0.2625 0.01249999999999999 0.01249999999999999 0.01249999999999999 0.01249999999999999 0.2625 0.01249999999999999 0.01249999999999999 0.05 0.05 0.05 0.05 0.05 0.05 0.05 0.05 0.05 0.05 0.05 0.05 0.05 0.05 0.05 0.05 0.05 0.05 0.05 0.05 0.01249999999999999 0.01249999999999999 0.2625 0.01249999999999999 0.01249999999999999 0.01249999999999999 0.01249999999999999 0.01249999999999999 0.2625 0.01249999999999999 0.01249999999999999 0.2625 0.01249999999999999 0.01249999999999999 0.01249999999999999 0.01249999999999999 0.01249999999999999 0.01249999999999999 0.01249999999999999 0.01249999999999999 0.01666666666666666 0.01666666666666666 0.01666666666666666 0.01666666666666666 0.01666666666666666 0.01666666666666666 0.01666666666666666 0.35 0.01666666666666666 0.01666666666666666 0.01666666666666666 0.01666666666666666 0.35 0.01666666666666666 0.01666666666666666 0.01666666666666666 0.01666666666666666 0.01666666666666666 0.01666666666666666 0.01666666666666666 0.05 0.05 0.05 0.05 0.05 0.05 0.05 0.05 0.05 0.05 0.05 0.05 0.05 0.05 0.05 0.05 0.05 0.05 0.05 0.05 0.05 0.05 0.05 0.05 0.05 0.05 0.05 0.05 0.05 0.05 0.05 0.05 0.05 0.05 0.05 0.05 0.05 0.05 0.05 0.05</probabilities>
		</cpt>
		<cpt id="GV_DVLONG">
			<state id="s01_below_n139" />
			<state id="s02_n139_n125" />
			<state id="s03_n125_n112" />
			<state id="s04_n112_n91" />
			<state id="s05_n91_n81" />
			<state id="s06_n81_n72" />
			<state id="s07_n72_n64" />
			<state id="s08_n64_n54" />
			<state id="s09_n54_n48" />
			<state id="s10_n48_n40" />
			<state id="s11_n40_n30" />
			<state id="s12_n30_n20" />
			<state id="s13_n20_n14" />
			<state id="s14_n14_n6" />
			<state id="s15_n6_0" />
			<state id="s16_0_7" />
			<state id="s17_7_15" />
			<state id="s18_15_25" />
			<state id="s19_25_35" />
			<state id="s20_35_43" />
			<state id="s21_43_54" />
			<state id="s22_54_58" />
			<state id="s23_58_71" />
			<state id="s24_71_81" />
			<state id="s25_81_up" />
			<parents>VE_PDOF_TR OA_MAIS</parents>
			<probabilities>0.001481481481481481 0.001481481481481481 0.001481481481481481 0.001481481481481481 0.001481481481481481 0.001481481481481481 0.001481481481481481 0.03851851851851853 0.07555555555555557 0.03851851851851853 0.03851851851851853 0.1125925925925926 0.03851851851851853 0.1125925925925926 0.07555555555555557 0.2237037037037037 0.1866666666666667 0.03851851851851853 0.001481481481481481 0.001481481481481481 0.001481481481481481 0.001481481481481481 0.001481481481481481 0.001481481481481481 0.001481481481481481 0.001176470588235294 0.001176470588235294 0.001176470588235294 0.001176470588235294 0.001176470588235294 0.001176470588235294 0.001176470588235294 0.03058823529411766 0.03058823529411766 0.001176470588235294 0.06000000000000001 0.1188235294117647 0.001176470588235294 0.2070588235294118 0.001176470588235294 0.1482352941176471 0.2952941176470589 0.08941176470588237 0.001176470588235294 0.001176470588235294 0.001176470588235294 0.001176470588235294 0.001176470588235294 0.001176470588235294 0.001176470588235294 0.009999999999999997 0.009999999999999997 0.009999999999999997 0.009999999999999997 0.009999999999999997 0.009999999999999997 0.009999999999999997 0.009999999999999997 0.009999999999999997 0.26 0.009999999999999997 0.009999999999999997 0.009999999999999997 0.009999999999999997 0.009999999999999997 0.009999999999999997 0.26 0.26 0.009999999999999997 0.009999999999999997 0.009999999999999997 0.009999999999999997 0.009999999999999997 0.009999999999999997 0.009999999999999997 0.02 0.02 0.02 0.02 0.02 0.02 0.02 0.02 0.02 0.02 0.02 0.02 0.02 0.02 0.02 0.02 0.02 0.02 0.5200000000000001 0.02 0.02 0.02 0.02 0.02 0.02 0.01333333333333333 0.01333333333333333 0.01333333333333333 0.01333333333333333 0.01333333333333333 0.01333333333333333 0.01333333333333333 0.01333333333333333 0.01333333333333333 0.01333333333333333 0.01333333333333333 0.01333333333333333 0.01333333333333333 0.01333333333333333 0.01333333333333333 0.3466666666666667 0.3466666666666667 0.01333333333333333 0.01333333333333333 0.01333333333333333 0.01333333333333333 0.01333333333333333 0.01333333333333333 0.01333333333333333 0.01333333333333333 0.009999999999999997 0.009999999999999997 0.009999999999999997 0.009999999999999997 0.009999999999999997 0.009999999999999997 0.009999999999999997 0.009999999999999997 0.009999999999999997 0.009999999999999997 0.009999999999999997 0.26 0.009999999999999997 0.009999999999999997 0.009999999999999997 0.009999999999999997 0.51 0.009999999999999997 0.009999999999999997 0.009999999999999997 0.009999999999999997 0.009999999999999997 0.009999999999999997 0.009999999999999997 0.009999999999999997 0.04000000000000001 0.04000000000000001 0.04000000000000001 0.04000000000000001 0.04000000000000001 0.04000000000000001 0.04000000000000001 0.04000000000000001 0.04000000000000001 0.04000000000000001 0.04000000000000001 0.04000000000000001 0.04000000000000001 0.04000000000000001 0.04000000000000001 0.04000000000000001 0.04000000000000001 0.04000000000000001 0.04000000000000001 0.04000000000000001 0.04000000000000001 0.04000000000000001 0.04000000000000001 0.04000000000000001 0.04000000000000001 0.0006896551724137931 0.0006896551724137931 0.0006896551724137931 0.0006896551724137931 0.0006896551724137931 0.0006896551724137931 0.01793103448275862 0.0006896551724137931 0.0006896551724137931 0.06965517241379311 0.03517241379310346 0.05241379310344828 0.1386206896551724 0.1731034482758621 0.05241379310344828 0.4317241379310345 0.01793103448275862 0.0006896551724137931 0.0006896551724137931 0.0006896551724137931 0.0006896551724137931 0.0006896551724137931 0.0006896551724137931 0.0006896551724137931 0.0006896551724137931 0.000579710144927536 0.000579710144927536 0.000579710144927536 0.000579710144927536 0.000579710144927536 0.01507246376811594 0.000579710144927536 0.000579710144927536 0.000579710144927536 0.05855072463768116 0.02956521739130435 0.04405797101449276 0.05855072463768116 0.1455072463768116 0.04405797101449276 0.5223188405797101 0.07304347826086957 0.000579710144927536 0.000579710144927536 0.000579710144927536 0.000579710144927536 0.000579710144927536 0.000579710144927536 0.000579710144927536 0.000579710144927536 0.003999999999999999 0.003999999999999999 0.003999999999999999 0.003999999999999999 0.003999999999999999 0.003999999999999999 0.003999999999999999 0.104 0.104 0.003999999999999999 0.104 0.104 0.104 0.204 0.003999999999999999 0.104 0.104 0.003999999999999999 0.003999999999999999 0.003999999999999999 0.003999999999999999 0.003999999999999999 0.003999999999999999 0.003999999999999999 0.003999999999999999 0.003636363636363635 0.003636363636363635 0.003636363636363635 0.003636363636363635 0.003636363636363635 0.003636363636363635 0.09454545454545456 0.003636363636363635 0.003636363636363635 0.09454545454545456 0.003636363636363635 0.003636363636363635 0.09454545454545456 0.003636363636363635 0.003636363636363635 0.4581818181818182 0.1854545454545455 0.003636363636363635 0.003636363636363635 0.003636363636363635 0.003636363636363635 0.003636363636363635 0.003636363636363635 0.003636363636363635 0.003636363636363635 0.007999999999999998 0.007999999999999998 0.007999999999999998 0.007999999999999998 0.007999999999999998 0.007999999999999998 0.007999999999999998 0.007999999999999998 0.007999999999999998 0.007999999999999998 0.007999999999999998 0.208 0.007999999999999998 0.007999999999999998 0.007999999999999998 0.208 0.408 0.007999999999999998 0.007999999999999998 0.007999999999999998 0.007999999999999998 0.007999999999999998 0.007999999999999998 0.007999999999999998 0.007999999999999998 0.005714285714285712 0.005714285714285712 0.005714285714285712 0.005714285714285712 0.005714285714285712 0.005714285714285712 0.005714285714285712 0.005714285714285712 0.005714285714285712 0.005714285714285712 0.1485714285714286 0.1485714285714286 0.005714285714285712 0.005714285714285712 0.005714285714285712 0.4342857142857143 0.005714285714285712 0.1485714285714286 0.005714285714285712 0.005714285714285712 0.005714285714285712 0.005714285714285712 0.005714285714285712 0.005714285714285712 0.005714285714285712 0.04000000000000001 0.04000000000000001 0.04000000000000001 0.04000000000000001 0.04000000000000001 0.04000000000000001 0.04000000000000001 0.04000000000000001 0.04000000000000001 0.04000000000000001 0.04000000000000001 0.04000000000000001 0.04000000000000001 0.04000000000000001 0.04000000000000001 0.04000000000000001 0.04000000000000001 0.04000000000000001 0.04000000000000001 0.04000000000000001 0.04000000000000001 0.04000000000000001 0.04000000000000001 0.04000000000000001 0.04000000000000001 0.0001785714285714285 0.0001785714285714285 0.0001785714285714285 0.0001785714285714285 0.0001785714285714285 0.0001785714285714285 0.0001785714285714285 0.0001785714285714285 0.0001785714285714285 0.0225 0.03142857142857142 0.08499999999999999 0.08499999999999999 0.1876785714285714 0.4778571428571429 0.1073214285714286 0.0001785714285714285 0.0001785714285714285 0.0001785714285714285 0.0001785714285714285 0.0001785714285714285 0.0001785714285714285 0.0001785714285714285 0.0001785714285714285 0.0001785714285714285 0.0001659751037344398 0.0001659751037344398 0.0001659751037344398 0.0001659751037344398 0.0001659751037344398 0.004315352697095437 0.0001659751037344398 0.01261410788381743 0.0001659751037344398 0.01676348547717843 0.02091286307053943 0.0499585062240664 0.07900414937759337 0.1204979253112033 0.576929460580913 0.1121991701244813 0.0001659751037344398 0.0001659751037344398 0.004315352697095437 0.0001659751037344398 0.0001659751037344398 0.0001659751037344398 0.0001659751037344398 0.0001659751037344398 0.0001659751037344398 0.0008163265306122447 0.0008163265306122447 0.0008163265306122447 0.0008163265306122447 0.0008163265306122447 0.0008163265306122447 0.0008163265306122447 0.0008163265306122447 0.0008163265306122447 0.02122448979591837 0.02122448979591837 0.1640816326530612 0.0416326530612245 0.1844897959183673 0.4702040816326531 0.08244897959183674 0.0008163265306122447 0.0008163265306122447 0.0008163265306122447 0.0008163265306122447 0.0008163265306122447 0.0008163265306122447 0.0008163265306122447 0.0008163265306122447 0.0008163265306122447 0.0007843137254901959 0.0007843137254901959 0.0007843137254901959 0.0007843137254901959 0.0007843137254901959 0.0203921568627451 0.0203921568627451 0.0203921568627451 0.0203921568627451 0.04000000000000001 0.0203921568627451 0.1184313725490196 0.1184313725490196 0.1772549019607843 0.3341176470588236 0.07921568627450981 0.0007843137254901959 0.0203921568627451 0.0007843137254901959 0.0007843137254901959 0.0007843137254901959 0.0007843137254901959 0.0007843137254901959 0.0007843137254901959 0.0007843137254901959 0.001538461538461538 0.001538461538461538 0.001538461538461538 0.001538461538461538 0.001538461538461538 0.001538461538461538 0.001538461538461538 0.001538461538461538 0.001538461538461538 0.07846153846153847 0.04 0.1553846153846154 0.04 0.2707692307692308 0.1938461538461539 0.1938461538461539 0.001538461538461538 0.001538461538461538 0.001538461538461538 0.001538461538461538 0.001538461538461538 0.001538461538461538 0.001538461538461538 0.001538461538461538 0.001538461538461538 0.002857142857142856 0.002857142857142856 0.002857142857142856 0.002857142857142856 0.002857142857142856 0.07428571428571429 0.002857142857142856 0.2171428571428571 0.002857142857142856 0.002857142857142856 0.002857142857142856 0.1457142857142857 0.002857142857142856 0.1457142857142857 0.2171428571428571 0.1457142857142857 0.002857142857142856 0.002857142857142856 0.002857142857142856 0.002857142857142856 0.002857142857142856 0.002857142857142856 0.002857142857142856 0.002857142857142856 0.002857142857142856 0.009999999999999997 0.009999999999999997 0.009999999999999997 0.009999999999999997 0.009999999999999997 0.009999999999999997 0.26 0.009999999999999997 0.009999999999999997 0.009999999999999997 0.26 0.009999999999999997 0.009999999999999997 0.009999999999999997 0.26 0.009999999999999997 0.009999999999999997 0.009999999999999997 0.009999999999999997 0.009999999999999997 0.009999999999999997 0.009999999999999997 0.009999999999999997 0.009999999999999997 0.009999999999999997 0.0002439024390243902 0.0002439024390243902 0.0002439024390243902 0.0002439024390243902 0.0002439024390243902 0.0002439024390243902 0.0002439024390243902 0.006341463414634147 0.0002439024390243902 0.006341463414634147 0.01853658536585366 0.03682926829268293 0.08560975609756097 0.3234146341463415 0.5002439024390244 0.006341463414634147 0.0124390243902439 0.0002439024390243902 0.0002439024390243902 0.0002439024390243902 0.0002439024390243902 0.0002439024390243902 0.0002439024390243902 0.0002439024390243902 0.0002439024390243902 0.0001659751037344397 0.0001659751037344397 0.0001659751037344397 0.0001659751037344397 0.0001659751037344397 0.004315352697095435 0.0001659751037344397 0.004315352697095435 0.0001659751037344397 0.0001659751037344397 0.02506224066390041 0.04995850622406638 0.05825726141078837 0.381908713692946 0.4690456431535269 0.004315352697095435 0.0001659751037344397 0.0001659751037344397 0.0001659751037344397 0.0001659751037344397 0.0001659751037344397 0.0001659751037344397 0.0001659751037344397 0.0001659751037344397 0.0001659751037344397 0.0008333333333333332 0.0008333333333333332 0.0008333333333333332 0.0008333333333333332 0.0008333333333333332 0.0008333333333333332 0.0425 0.0008333333333333332 0.0008333333333333332 0.0008333333333333332 0.0425 0.02166666666666667 0.08416666666666668 0.5425000000000001 0.2508333333333334 0.0008333333333333332 0.0008333333333333332 0.0008333333333333332 0.0008333333333333332 0.0008333333333333332 0.0008333333333333332 0.0008333333333333332 0.0008333333333333332 0.0008333333333333332 0.0008333333333333332 0.001142857142857143 0.001142857142857143 0.001142857142857143 0.001142857142857143 0.001142857142857143 0.001142857142857143 0.001142857142857143 0.02971428571428572 0.001142857142857143 0.02971428571428572 0.02971428571428572 0.08685714285714288 0.2297142857142857 0.5154285714285715 0.0582857142857143 0.001142857142857143 0.001142857142857143 0.001142857142857143 0.001142857142857143 0.001142857142857143 0.001142857142857143 0.001142857142857143 0.001142857142857143 0.001142857142857143 0.001142857142857143 0.002 0.002 0.002 0.002 0.002 0.002 0.002 0.002 0.002 0.002 0.102 0.152 0.05200000000000001 0.6520000000000001 0.002 0.002 0.002 0.002 0.002 0.002 0.002 0.002 0.002 0.002 0.002 0.002222222222222222 0.002222222222222222 0.002222222222222222 0.05777777777777779 0.002222222222222222 0.002222222222222222 0.002222222222222222 0.05777777777777779 0.002222222222222222 0.002222222222222222 0.002222222222222222 0.1133333333333334 0.2244444444444445 0.5022222222222222 0.002222222222222222 0.002222222222222222 0.002222222222222222 0.002222222222222222 0.002222222222222222 0.002222222222222222 0.002222222222222222 0.002222222222222222 0.002222222222222222 0.002222222222222222 0.002222222222222222 0.007999999999999995 0.007999999999999995 0.007999999999999995 0.007999999999999995 0.007999999999999995 0.007999999999999995 0.007999999999999995 0.007999999999999995 0.007999999999999995 0.208 0.208 0.007999999999999995 0.4079999999999999 0.007999999999999995 0.007999999999999995 0.007999999999999995 0.007999999999999995 0.007999999999999995 0.007999999999999995 0.007999999999999995 0.007999999999999995 0.007999999999999995 0.007999999999999995 0.007999999999999995 0.007999999999999995 0.0001156069364161849 0.0001156069364161849 0.0001156069364161849 0.0001156069364161849 0.0001156069364161849 0.0001156069364161849 0.0001156069364161849 0.008786127167630057 0.003005780346820809 0.008786127167630057 0.0376878612716763 0.08682080924855491 0.1359537572254335 0.5261271676300577 0.1879768786127168 0.003005780346820809 0.0001156069364161849 0.0001156069364161849 0.0001156069364161849 0.0001156069364161849 0.0001156069364161849 0.0001156069364161849 0.0001156069364161849 0.0001156069364161849 0.0001156069364161849 9.090909090909088e-05 9.090909090909088e-05 9.090909090909088e-05 9.090909090909088e-05 9.090909090909088e-05 9.090909090909088e-05 9.090909090909088e-05 0.01145454545454545 9.090909090909088e-05 0.009181818181818182 0.01372727272727273 0.07509090909090908 0.1819090909090909 0.5637272727272726 0.1364545454545454 0.004636363636363636 0.002363636363636364 9.090909090909088e-05 9.090909090909088e-05 9.090909090909088e-05 9.090909090909088e-05 9.090909090909088e-05 9.090909090909088e-05 9.090909090909088e-05 9.090909090909088e-05 0.0003773584905660377 0.0003773584905660377 0.0003773584905660377 0.0003773584905660377 0.0003773584905660377 0.0003773584905660377 0.0003773584905660377 0.01924528301886793 0.0003773584905660377 0.009811320754716983 0.01924528301886793 0.1984905660377359 0.2739622641509434 0.4154716981132076 0.05698113207547171 0.0003773584905660377 0.0003773584905660377 0.0003773584905660377 0.0003773584905660377 0.0003773584905660377 0.0003773584905660377 0.0003773584905660377 0.0003773584905660377 0.0003773584905660377 0.0003773584905660377 0.0004494382022471909 0.0004494382022471909 0.0004494382022471909 0.0004494382022471909 0.0004494382022471909 0.01168539325842697 0.0004494382022471909 0.0004494382022471909 0.0004494382022471909 0.02292134831460674 0.0453932584269663 0.2701123595505618 0.2364044943820225 0.36 0.0453932584269663 0.0004494382022471909 0.0004494382022471909 0.0004494382022471909 0.0004494382022471909 0.0004494382022471909 0.0004494382022471909 0.0004494382022471909 0.0004494382022471909 0.0004494382022471909 0.0004494382022471909 0.001081081081081081 0.001081081081081081 0.001081081081081081 0.001081081081081081 0.001081081081081081 0.02810810810810812 0.001081081081081081 0.001081081081081081 0.001081081081081081 0.02810810810810812 0.05513513513513515 0.4335135135135136 0.1362162162162162 0.2713513513513514 0.001081081081081081 0.02810810810810812 0.001081081081081081 0.001081081081081081 0.001081081081081081 0.001081081081081081 0.001081081081081081 0.001081081081081081 0.001081081081081081 0.001081081081081081 0.001081081081081081 0.001904761904761904 0.001904761904761904 0.001904761904761904 0.001904761904761904 0.04952380952380953 0.001904761904761904 0.001904761904761904 0.001904761904761904 0.04952380952380953 0.09714285714285714 0.09714285714285714 0.24 0.2876190476190476 0.1447619047619048 0.001904761904761904 0.001904761904761904 0.001904761904761904 0.001904761904761904 0.001904761904761904 0.001904761904761904 0.001904761904761904 0.001904761904761904 0.001904761904761904 0.001904761904761904 0.001904761904761904 0.005714285714285712 0.005714285714285712 0.005714285714285712 0.005714285714285712 0.005714285714285712 0.005714285714285712 0.005714285714285712 0.1485714285714286 0.005714285714285712 0.005714285714285712 0.1485714285714286 0.2914285714285714 0.1485714285714286 0.1485714285714286 0.005714285714285712 0.005714285714285712 0.005714285714285712 0.005714285714285712 0.005714285714285712 0.005714285714285712 0.005714285714285712 0.005714285714285712 0.005714285714285712 0.005714285714285712 0.005714285714285712 8.849557522123889e-05 8.849557522123889e-05 8.849557522123889e-05 8.849557522123889e-05 8.849557522123889e-05 8.849557522123889e-05 0.002300884955752212 0.004513274336283185 0.002300884955752212 0.01336283185840708 0.03327433628318583 0.1660176991150442 0.2500884955752212 0.4624778761061946 0.05318584070796459 0.008938053097345132 8.849557522123889e-05 8.849557522123889e-05 8.849557522123889e-05 0.002300884955752212 8.849557522123889e-05 8.849557522123889e-05 8.849557522123889e-05 8.849557522123889e-05 8.849557522123889e-05 6.379585326953747e-05 6.379585326953747e-05 6.379585326953747e-05 6.379585326953747e-05 6.379585326953747e-05 6.379585326953747e-05 0.003253588516746412 0.004848484848484849 0.001658692185007975 0.006443381180223287 0.05748006379585328 0.2440829346092504 0.3222328548644339 0.3206379585326954 0.02877192982456141 0.004848484848484849 0.004848484848484849 6.379585326953747e-05 6.379585326953747e-05 6.379585326953747e-05 6.379585326953747e-05 6.379585326953747e-05 6.379585326953747e-05 6.379585326953747e-05 6.379585326953747e-05 0.0004494382022471909 0.0004494382022471909 0.0004494382022471909 0.0004494382022471909 0.0004494382022471909 0.0004494382022471909 0.01168539325842697 0.01168539325842697 0.0004494382022471909 0.0004494382022471909 0.1015730337078652 0.3038202247191011 0.2813483146067416 0.2813483146067416 0.0004494382022471909 0.0004494382022471909 0.0004494382022471909 0.0004494382022471909 0.0004494382022471909 0.0004494382022471909 0.0004494382022471909 0.0004494382022471909 0.0004494382022471909 0.0004494382022471909 0.0004494382022471909 0.000588235294117647 0.000588235294117647 0.000588235294117647 0.000588235294117647 0.000588235294117647 0.000588235294117647 0.000588235294117647 0.04470588235294119 0.03000000000000001 0.04470588235294119 0.1182352941176471 0.3829411764705883 0.2064705882352942 0.1476470588235294 0.01529411764705883 0.000588235294117647 0.000588235294117647 0.000588235294117647 0.000588235294117647 0.000588235294117647 0.000588235294117647 0.000588235294117647 0.000588235294117647 0.000588235294117647 0.000588235294117647 0.001481481481481481 0.001481481481481481 0.001481481481481481 0.001481481481481481 0.001481481481481481 0.001481481481481481 0.001481481481481481 0.001481481481481481 0.1496296296296297 0.001481481481481481 0.1866666666666667 0.408888888888889 0.2237037037037038 0.001481481481481481 0.001481481481481481 0.001481481481481481 0.001481481481481481 0.001481481481481481 0.001481481481481481 0.001481481481481481 0.001481481481481481 0.001481481481481481 0.001481481481481481 0.001481481481481481 0.001481481481481481 0.003333333333333332 0.08666666666666667 0.003333333333333332 0.003333333333333332 0.003333333333333332 0.003333333333333332 0.003333333333333332 0.003333333333333332 0.08666666666666667 0.17 0.08666666666666667 0.2533333333333333 0.17 0.08666666666666667 0.003333333333333332 0.003333333333333332 0.003333333333333332 0.003333333333333332 0.003333333333333332 0.003333333333333332 0.003333333333333332 0.003333333333333332 0.003333333333333332 0.003333333333333332 0.003333333333333332 0.007999999999999998 0.007999999999999998 0.007999999999999998 0.007999999999999998 0.007999999999999998 0.007999999999999998 0.007999999999999998 0.007999999999999998 0.007999999999999998 0.007999999999999998 0.8080000000000001 0.007999999999999998 0.007999999999999998 0.007999999999999998 0.007999999999999998 0.007999999999999998 0.007999999999999998 0.007999999999999998 0.007999999999999998 0.007999999999999998 0.007999999999999998 0.007999999999999998 0.007999999999999998 0.007999999999999998 0.007999999999999998 3.327787021630615e-05 3.327787021630615e-05 3.327787021630615e-05 3.327787021630615e-05 0.0008652246256239601 3.327787021630615e-05 0.0008652246256239601 0.003361064891846922 0.0008652246256239601 0.01334442595673877 0.06326123128119801 0.2246589018302829 0.2695840266222962 0.3644259567387688 0.05078202995008319 0.002529118136439268 0.003361064891846922 0.001697171381031614 3.327787021630615e-05 3.327787021630615e-05 3.327787021630615e-05 3.327787021630615e-05 3.327787021630615e-05 3.327787021630615e-05 3.327787021630615e-05 2.29489386115892e-05 2.29489386115892e-05 2.29489386115892e-05 2.29489386115892e-05 0.00117039586919105 2.29489386115892e-05 0.00174411933448078 0.009776247848537005 0.0114974182444062 0.0361675272518646 0.1256683878370625 0.3115547905909351 0.2570510613884108 0.220332759609868 0.01780837636259323 0.004039013195639702 0.0005966724039013195 0.00117039586919105 0.0005966724039013195 2.29489386115892e-05 0.0005966724039013195 2.29489386115892e-05 2.29489386115892e-05 2.29489386115892e-05 2.29489386115892e-05 0.0001219512195121951 0.0001219512195121951 0.0001219512195121951 0.003170731707317073 0.0001219512195121951 0.003170731707317073 0.006219512195121951 0.03060975609756097 0.04890243902439024 0.09768292682926828 0.1921951219512195 0.2714634146341463 0.1617073170731707 0.1586585365853658 0.02146341463414634 0.0001219512195121951 0.003170731707317073 0.0001219512195121951 0.0001219512195121951 0.0001219512195121951 0.0001219512195121951 0.0001219512195121951 0.0001219512195121951 0.0001219512195121951 0.0001219512195121951 0.0002040816326530612 0.0002040816326530612 0.0002040816326530612 0.01040816326530612 0.005306122448979592 0.01040816326530612 0.04102040816326531 0.1022448979591837 0.07163265306122449 0.1175510204081633 0.2553061224489796 0.1787755102040816 0.1175510204081633 0.06653061224489797 0.01040816326530612 0.005306122448979592 0.005306122448979592 0.0002040816326530612 0.0002040816326530612 0.0002040816326530612 0.0002040816326530612 0.0002040816326530612 0.0002040816326530612 0.0002040816326530612 0.0002040816326530612 0.0009302325581395347 0.0009302325581395347 0.02418604651162791 0.02418604651162791 0.02418604651162791 0.02418604651162791 0.09395348837209304 0.04744186046511629 0.02418604651162791 0.1404651162790698 0.1637209302325582 0.1869767441860465 0.07069767441860467 0.1172093023255814 0.02418604651162791 0.0009302325581395347 0.02418604651162791 0.0009302325581395347 0.0009302325581395347 0.0009302325581395347 0.0009302325581395347 0.0009302325581395347 0.0009302325581395347 0.0009302325581395347 0.0009302325581395347 0.03714285714285715 0.03714285714285715 0.001428571428571428 0.001428571428571428 0.03714285714285715 0.07285714285714287 0.03714285714285715 0.07285714285714287 0.1442857142857143 0.07285714285714287 0.07285714285714287 0.2514285714285714 0.03714285714285715 0.07285714285714287 0.001428571428571428 0.03714285714285715 0.001428571428571428 0.001428571428571428 0.001428571428571428 0.001428571428571428 0.001428571428571428 0.001428571428571428 0.001428571428571428 0.001428571428571428 0.001428571428571428 0.004444444444444443 0.004444444444444443 0.004444444444444443 0.004444444444444443 0.004444444444444443 0.1155555555555556 0.1155555555555556 0.1155555555555556 0.004444444444444443 0.3377777777777778 0.004444444444444443 0.1155555555555556 0.004444444444444443 0.004444444444444443 0.1155555555555556 0.004444444444444443 0.004444444444444443 0.004444444444444443 0.004444444444444443 0.004444444444444443 0.004444444444444443 0.004444444444444443 0.004444444444444443 0.004444444444444443 0.004444444444444443 2.340550029256875e-05 2.340550029256875e-05 2.340550029256875e-05 2.340550029256875e-05 0.0006085430076067876 0.001778818022235225 0.001193680514921007 0.002949093036863663 0.005289643066120538 0.01874780573434757 0.05502633118782915 0.2130134581626682 0.2721123464014044 0.3733411351667641 0.04683440608543008 0.002949093036863663 0.004119368051492101 2.340550029256875e-05 0.001193680514921007 2.340550029256875e-05 0.0006085430076067876 2.340550029256875e-05 2.340550029256875e-05 2.340550029256875e-05 2.340550029256875e-05 2.888086642599277e-05 2.888086642599277e-05 2.888086642599277e-05 0.0007509025270758123 0.0007509025270758123 0.0007509025270758123 0.00363898916967509 0.01591335740072202 0.01735740072202166 0.04696028880866426 0.1263826714801444 0.2852274368231047 0.2549025270758123 0.2021949458483755 0.03396389891696751 0.006527075812274367 0.002194945848375451 0.0007509025270758123 0.0007509025270758123 2.888086642599277e-05 2.888086642599277e-05 2.888086642599277e-05 0.0007509025270758123 2.888086642599277e-05 2.888086642599277e-05 0.003365695792880258 0.0001294498381877022 0.0001294498381877022 0.0001294498381877022 0.0001294498381877022 0.009838187702265371 0.0292556634304207 0.05190938511326859 0.07132686084142394 0.0810355987055016 0.1878317152103559 0.2913915857605178 0.1651779935275081 0.0810355987055016 0.01954692556634304 0.003365695792880258 0.0001294498381877022 0.003365695792880258 0.0001294498381877022 0.0001294498381877022 0.0001294498381877022 0.0001294498381877022 0.0001294498381877022 0.0001294498381877022 0.0001294498381877022 0.0001826484018264839 0.004748858447488584 0.0001826484018264839 0.004748858447488584 0.004748858447488584 0.01388127853881278 0.05954337899543378 0.07780821917808219 0.09607305936073059 0.1326027397260274 0.2102283105022831 0.2330593607305936 0.06410958904109589 0.05954337899543378 0.01388127853881278 0.01844748858447489 0.004748858447488584 0.0001826484018264839 0.0001826484018264839 0.0001826484018264839 0.0001826484018264839 0.0001826484018264839 0.0001826484018264839 0.0001826484018264839 0.0001826484018264839 0.0007547169811320753 0.0007547169811320753 0.0007547169811320753 0.01962264150943397 0.05735849056603774 0.05735849056603774 0.07622641509433964 0.1328301886792453 0.07622641509433964 0.2271698113207547 0.1139622641509434 0.1139622641509434 0.01962264150943397 0.05735849056603774 0.03849056603773585 0.0007547169811320753 0.0007547169811320753 0.0007547169811320753 0.0007547169811320753 0.0007547169811320753 0.0007547169811320753 0.0007547169811320753 0.0007547169811320753 0.0007547169811320753 0.0007547169811320753 0.02476190476190477 0.02476190476190477 0.0009523809523809523 0.07238095238095239 0.02476190476190477 0.04857142857142858 0.02476190476190477 0.12 0.07238095238095239 0.12 0.1676190476190477 0.1914285714285714 0.02476190476190477 0.0009523809523809523 0.02476190476190477 0.04857142857142858 0.0009523809523809523 0.0009523809523809523 0.0009523809523809523 0.0009523809523809523 0.0009523809523809523 0.0009523809523809523 0.0009523809523809523 0.0009523809523809523 0.0009523809523809523 0.001599999999999999 0.001599999999999999 0.001599999999999999 0.001599999999999999 0.04160000000000001 0.1616 0.1216 0.1616 0.04160000000000001 0.08160000000000001 0.04160000000000001 0.08160000000000001 0.1216 0.04160000000000001 0.04160000000000001 0.04160000000000001 0.001599999999999999 0.001599999999999999 0.001599999999999999 0.001599999999999999 0.001599999999999999 0.001599999999999999 0.001599999999999999 0.001599999999999999 0.001599999999999999 4.048582995951416e-05 4.048582995951416e-05 4.048582995951416e-05 4.048582995951416e-05 4.048582995951416e-05 4.048582995951416e-05 0.001052631578947368 4.048582995951416e-05 0.002064777327935223 0.01117408906882591 0.04862348178137652 0.2034817813765182 0.2510526315789474 0.3836437246963563 0.08506072874493928 0.01016194331983806 0.002064777327935223 4.048582995951416e-05 4.048582995951416e-05 4.048582995951416e-05 0.001052631578947368 4.048582995951416e-05 4.048582995951416e-05 4.048582995951416e-05 4.048582995951416e-05 3.189792663476873e-05 3.189792663476873e-05 3.189792663476873e-05 3.189792663476873e-05 0.0008293460925039872 0.0008293460925039872 0.001626794258373206 0.003221690590111643 0.00960127591706539 0.0231578947368421 0.1148644338118022 0.292695374800638 0.2576076555023923 0.2480382775119618 0.04070175438596491 0.00481658692185008 0.0008293460925039872 0.0008293460925039872 3.189792663476873e-05 3.189792663476873e-05 3.189792663476873e-05 3.189792663476873e-05 3.189792663476873e-05 3.189792663476873e-05 3.189792663476873e-05 0.0002040816326530612 0.0002040816326530612 0.0002040816326530612 0.0002040816326530612 0.0002040816326530612 0.01040816326530612 0.005306122448979592 0.01551020408163266 0.02571428571428572 0.05122448979591837 0.2042857142857143 0.2961224489795918 0.2042857142857143 0.1226530612244898 0.04612244897959183 0.01040816326530612 0.005306122448979592 0.0002040816326530612 0.0002040816326530612 0.0002040816326530612 0.0002040816326530612 0.0002040816326530612 0.0002040816326530612 0.0002040816326530612 0.0002040816326530612 0.0003478260869565217 0.0003478260869565217 0.0003478260869565217 0.0003478260869565217 0.009043478260869568 0.009043478260869568 0.04382608695652175 0.08730434782608697 0.06121739130434784 0.1394782608695652 0.1829565217391305 0.2786086956521739 0.05252173913043479 0.08730434782608697 0.02643478260869566 0.01773913043478261 0.0003478260869565217 0.0003478260869565217 0.0003478260869565217 0.0003478260869565217 0.0003478260869565217 0.0003478260869565217 0.0003478260869565217 0.0003478260869565217 0.0003478260869565217 0.001904761904761904 0.001904761904761904 0.001904761904761904 0.04952380952380953 0.001904761904761904 0.001904761904761904 0.001904761904761904 0.1447619047619048 0.1447619047619048 0.09714285714285714 0.09714285714285714 0.1447619047619048 0.1447619047619048 0.04952380952380953 0.09714285714285714 0.001904761904761904 0.001904761904761904 0.001904761904761904 0.001904761904761904 0.001904761904761904 0.001904761904761904 0.001904761904761904 0.001904761904761904 0.001904761904761904 0.001904761904761904 0.001904761904761905 0.001904761904761905 0.001904761904761905 0.001904761904761905 0.04952380952380954 0.09714285714285717 0.1447619047619048 0.09714285714285717 0.001904761904761905 0.001904761904761905 0.1447619047619048 0.24 0.001904761904761905 0.04952380952380954 0.09714285714285717 0.04952380952380954 0.001904761904761905 0.001904761904761905 0.001904761904761905 0.001904761904761905 0.001904761904761905 0.001904761904761905 0.001904761904761905 0.001904761904761905 0.001904761904761905 0.003636363636363635 0.003636363636363635 0.003636363636363635 0.003636363636363635 0.09454545454545456 0.3672727272727273 0.09454545454545456 0.09454545454545456 0.003636363636363635 0.003636363636363635 0.1854545454545455 0.09454545454545456 0.003636363636363635 0.003636363636363635 0.003636363636363635 0.003636363636363635 0.003636363636363635 0.003636363636363635 0.003636363636363635 0.003636363636363635 0.003636363636363635 0.003636363636363635 0.003636363636363635 0.003636363636363635 0.003636363636363635 7.326007326007323e-05 7.326007326007323e-05 7.326007326007323e-05 7.326007326007323e-05 0.001904761904761905 7.326007326007323e-05 7.326007326007323e-05 0.001904761904761905 7.326007326007323e-05 0.0073992673992674 0.02571428571428571 0.1191208791208791 0.2070329670329671 0.4524542124542124 0.1557509157509158 0.01472527472527472 0.0073992673992674 0.001904761904761905 0.001904761904761905 7.326007326007323e-05 0.001904761904761905 7.326007326007323e-05 7.326007326007323e-05 7.326007326007323e-05 7.326007326007323e-05 5.15463917525773e-05 5.15463917525773e-05 5.15463917525773e-05 5.15463917525773e-05 5.15463917525773e-05 5.15463917525773e-05 0.00134020618556701 0.00134020618556701 5.15463917525773e-05 0.007783505154639175 0.05417525773195876 0.2500515463917526 0.2938659793814433 0.3119072164948453 0.06061855670103092 0.009072164948453608 0.005206185567010309 0.00134020618556701 0.00134020618556701 5.15463917525773e-05 0.00134020618556701 5.15463917525773e-05 5.15463917525773e-05 5.15463917525773e-05 5.15463917525773e-05 0.0002684563758389261 0.0002684563758389261 0.0002684563758389261 0.0002684563758389261 0.0002684563758389261 0.0002684563758389261 0.0002684563758389261 0.0002684563758389261 0.0002684563758389261 0.01369127516778524 0.08751677852348995 0.3157046979865772 0.2888590604026846 0.2687248322147652 0.02040268456375839 0.0002684563758389261 0.0002684563758389261 0.0002684563758389261 0.0002684563758389261 0.0002684563758389261 0.0002684563758389261 0.0002684563758389261 0.0002684563758389261 0.0002684563758389261 0.0002684563758389261 0.0006249999999999999 0.0006249999999999999 0.0006249999999999999 0.0006249999999999999 0.0006249999999999999 0.01625 0.0006249999999999999 0.01625 0.0006249999999999999 0.03187500000000001 0.219375 0.313125 0.250625 0.14125 0.0006249999999999999 0.0006249999999999999 0.0006249999999999999 0.0006249999999999999 0.0006249999999999999 0.0006249999999999999 0.0006249999999999999 0.0006249999999999999 0.0006249999999999999 0.0006249999999999999 0.0006249999999999999 0.003333333333333332 0.003333333333333332 0.003333333333333332 0.08666666666666667 0.003333333333333332 0.003333333333333332 0.003333333333333332 0.003333333333333332 0.003333333333333332 0.08666666666666667 0.3366666666666667 0.2533333333333333 0.08666666666666667 0.003333333333333332 0.08666666666666667 0.003333333333333332 0.003333333333333332 0.003333333333333332 0.003333333333333332 0.003333333333333332 0.003333333333333332 0.003333333333333332 0.003333333333333332 0.003333333333333332 0.003333333333333332 0.003333333333333332 0.003333333333333332 0.003333333333333332 0.003333333333333332 0.003333333333333332 0.003333333333333332 0.003333333333333332 0.003333333333333332 0.08666666666666667 0.08666666666666667 0.17 0.3366666666666667 0.17 0.08666666666666667 0.003333333333333332 0.003333333333333332 0.003333333333333332 0.003333333333333332 0.003333333333333332 0.003333333333333332 0.003333333333333332 0.003333333333333332 0.003333333333333332 0.003333333333333332 0.003333333333333332 0.006666666666666663 0.006666666666666663 0.006666666666666663 0.006666666666666663 0.006666666666666663 0.006666666666666663 0.006666666666666663 0.1733333333333333 0.3399999999999999 0.1733333333333333 0.006666666666666663 0.1733333333333333 0.006666666666666663 0.006666666666666663 0.006666666666666663 0.006666666666666663 0.006666666666666663 0.006666666666666663 0.006666666666666663 0.006666666666666663 0.006666666666666663 0.006666666666666663 0.006666666666666663 0.006666666666666663 0.006666666666666663 0.000106951871657754 0.000106951871657754 0.000106951871657754 0.000106951871657754 0.000106951871657754 0.000106951871657754 0.000106951871657754 0.000106951871657754 0.000106951871657754 0.002780748663101604 0.005454545454545453 0.02684491978609625 0.08566844919786094 0.5509090909090908 0.2728342245989304 0.0188235294117647 0.01614973262032085 0.008128342245989304 0.000106951871657754 0.008128342245989304 0.002780748663101604 0.000106951871657754 0.000106951871657754 0.000106951871657754 0.000106951871657754 7.005253940455337e-05 7.005253940455337e-05 7.005253940455337e-05 7.005253940455337e-05 7.005253940455337e-05 7.005253940455337e-05 7.005253940455337e-05 0.001821366024518388 7.005253940455337e-05 7.005253940455337e-05 0.01408056042031523 0.06486865148861644 0.2032224168126094 0.5359719789842381 0.1366725043782837 0.0175831873905429 0.01057793345008756 0.005323992994746059 0.001821366024518388 0.003572679509632223 0.001821366024518388 7.005253940455337e-05 0.001821366024518388 7.005253940455337e-05 7.005253940455337e-05 0.0004999999999999999 0.0004999999999999999 0.0004999999999999999 0.0004999999999999999 0.0004999999999999999 0.0004999999999999999 0.0004999999999999999 0.0004999999999999999 0.013 0.0004999999999999999 0.013 0.213 0.2755 0.3880000000000001 0.06300000000000001 0.0004999999999999999 0.02550000000000001 0.0004999999999999999 0.0004999999999999999 0.0004999999999999999 0.0004999999999999999 0.0004999999999999999 0.0004999999999999999 0.0004999999999999999 0.0004999999999999999 0.001111111111111111 0.001111111111111111 0.001111111111111111 0.001111111111111111 0.001111111111111111 0.001111111111111111 0.001111111111111111 0.001111111111111111 0.001111111111111111 0.02888888888888889 0.02888888888888889 0.1955555555555556 0.3622222222222223 0.3344444444444445 0.02888888888888889 0.001111111111111111 0.001111111111111111 0.001111111111111111 0.001111111111111111 0.001111111111111111 0.001111111111111111 0.001111111111111111 0.001111111111111111 0.001111111111111111 0.001111111111111111 0.002222222222222221 0.002222222222222221 0.002222222222222221 0.002222222222222221 0.002222222222222221 0.002222222222222221 0.002222222222222221 0.002222222222222221 0.002222222222222221 0.05777777777777778 0.2244444444444444 0.3911111111111111 0.1133333333333333 0.1688888888888889 0.002222222222222221 0.002222222222222221 0.002222222222222221 0.002222222222222221 0.002222222222222221 0.002222222222222221 0.002222222222222221 0.002222222222222221 0.002222222222222221 0.002222222222222221 0.002222222222222221 0.003999999999999999 0.003999999999999999 0.003999999999999999 0.003999999999999999 0.003999999999999999 0.003999999999999999 0.003999999999999999 0.003999999999999999 0.003999999999999999 0.003999999999999999 0.104 0.504 0.204 0.104 0.003999999999999999 0.003999999999999999 0.003999999999999999 0.003999999999999999 0.003999999999999999 0.003999999999999999 0.003999999999999999 0.003999999999999999 0.003999999999999999 0.003999999999999999 0.003999999999999999 0.006666666666666663 0.006666666666666663 0.006666666666666663 0.006666666666666663 0.1733333333333333 0.006666666666666663 0.1733333333333333 0.1733333333333333 0.006666666666666663 0.006666666666666663 0.1733333333333333 0.006666666666666663 0.1733333333333333 0.006666666666666663 0.006666666666666663 0.006666666666666663 0.006666666666666663 0.006666666666666663 0.006666666666666663 0.006666666666666663 0.006666666666666663 0.006666666666666663 0.006666666666666663 0.006666666666666663 0.006666666666666663 0.0002030456852791877 0.0002030456852791877 0.0002030456852791877 0.0002030456852791877 0.0002030456852791877 0.0002030456852791877 0.0002030456852791877 0.0002030456852791877 0.0002030456852791877 0.0002030456852791877 0.0002030456852791877 0.0002030456852791877 0.04588832487309644 0.32 0.4925888324873096 0.02558375634517766 0.03573604060913705 0.02050761421319797 0.04588832487309644 0.005279187817258883 0.005279187817258883 0.0002030456852791877 0.0002030456852791877 0.0002030456852791877 0.0002030456852791877 0.0002162162162162161 0.0002162162162162161 0.0002162162162162161 0.0002162162162162161 0.0002162162162162161 0.0002162162162162161 0.0002162162162162161 0.0002162162162162161 0.0002162162162162161 0.0002162162162162161 0.0002162162162162161 0.01102702702702703 0.03805405405405405 0.4218378378378378 0.4164324324324324 0.03805405405405405 0.02183783783783784 0.02183783783783784 0.0002162162162162161 0.01643243243243243 0.005621621621621622 0.005621621621621622 0.0002162162162162161 0.0002162162162162161 0.0002162162162162161 0.001111111111111111 0.001111111111111111 0.001111111111111111 0.001111111111111111 0.001111111111111111 0.001111111111111111 0.001111111111111111 0.001111111111111111 0.001111111111111111 0.001111111111111111 0.02888888888888889 0.08444444444444446 0.08444444444444446 0.528888888888889 0.2511111111111111 0.001111111111111111 0.001111111111111111 0.001111111111111111 0.001111111111111111 0.001111111111111111 0.001111111111111111 0.001111111111111111 0.001111111111111111 0.001111111111111111 0.001111111111111111 0.001739130434782608 0.001739130434782608 0.001739130434782608 0.001739130434782608 0.001739130434782608 0.001739130434782608 0.001739130434782608 0.001739130434782608 0.001739130434782608 0.001739130434782608 0.001739130434782608 0.08869565217391305 0.3060869565217392 0.48 0.08869565217391305 0.001739130434782608 0.001739130434782608 0.001739130434782608 0.001739130434782608 0.001739130434782608 0.001739130434782608 0.001739130434782608 0.001739130434782608 0.001739130434782608 0.001739130434782608 0.003636363636363635 0.003636363636363635 0.003636363636363635 0.003636363636363635 0.003636363636363635 0.003636363636363635 0.003636363636363635 0.003636363636363635 0.003636363636363635 0.003636363636363635 0.003636363636363635 0.003636363636363635 0.2763636363636364 0.3672727272727273 0.2763636363636364 0.003636363636363635 0.003636363636363635 0.003636363636363635 0.003636363636363635 0.003636363636363635 0.003636363636363635 0.003636363636363635 0.003636363636363635 0.003636363636363635 0.003636363636363635 0.002857142857142856 0.002857142857142856 0.002857142857142856 0.002857142857142856 0.002857142857142856 0.002857142857142856 0.002857142857142856 0.002857142857142856 0.002857142857142856 0.002857142857142856 0.07428571428571429 0.2885714285714285 0.1457142857142857 0.36 0.07428571428571429 0.002857142857142856 0.002857142857142856 0.002857142857142856 0.002857142857142856 0.002857142857142856 0.002857142857142856 0.002857142857142856 0.002857142857142856 0.002857142857142856 0.002857142857142856 0.007999999999999995 0.007999999999999995 0.007999999999999995 0.007999999999999995 0.007999999999999995 0.007999999999999995 0.007999999999999995 0.007999999999999995 0.007999999999999995 0.007999999999999995 0.007999999999999995 0.4079999999999999 0.007999999999999995 0.208 0.208 0.007999999999999995 0.007999999999999995 0.007999999999999995 0.007999999999999995 0.007999999999999995 0.007999999999999995 0.007999999999999995 0.007999999999999995 0.007999999999999995 0.007999999999999995 0.000202020202020202 0.000202020202020202 0.000202020202020202 0.000202020202020202 0.000202020202020202 0.000202020202020202 0.000202020202020202 0.000202020202020202 0.000202020202020202 0.005252525252525253 0.000202020202020202 0.005252525252525253 0.005252525252525253 0.1062626262626263 0.5810101010101011 0.1214141414141414 0.03555555555555556 0.0406060606060606 0.03555555555555556 0.03050505050505051 0.01535353535353536 0.005252525252525253 0.0103030303030303 0.000202020202020202 0.000202020202020202 0.0001851851851851851 0.0001851851851851851 0.0001851851851851851 0.0001851851851851851 0.0001851851851851851 0.0001851851851851851 0.0001851851851851851 0.0001851851851851851 0.0001851851851851851 0.004814814814814816 0.004814814814814816 0.01407407407407408 0.01870370370370371 0.1298148148148148 0.6298148148148148 0.06962962962962964 0.0325925925925926 0.01870370370370371 0.02796296296296297 0.02796296296296297 0.009444444444444446 0.0001851851851851851 0.009444444444444446 0.0001851851851851851 0.0001851851851851851 0.001290322580645161 0.001290322580645161 0.001290322580645161 0.001290322580645161 0.001290322580645161 0.001290322580645161 0.001290322580645161 0.001290322580645161 0.0335483870967742 0.001290322580645161 0.001290322580645161 0.001290322580645161 0.1303225806451613 0.1303225806451613 0.3561290322580646 0.1303225806451613 0.001290322580645161 0.06580645161290324 0.09806451612903228 0.0335483870967742 0.001290322580645161 0.001290322580645161 0.001290322580645161 0.001290322580645161 0.001290322580645161 0.002222222222222221 0.002222222222222221 0.002222222222222221 0.002222222222222221 0.002222222222222221 0.002222222222222221 0.002222222222222221 0.002222222222222221 0.002222222222222221 0.002222222222222221 0.05777777777777778 0.1133333333333333 0.05777777777777778 0.3355555555555556 0.2244444444444444 0.1133333333333333 0.002222222222222221 0.002222222222222221 0.002222222222222221 0.05777777777777778 0.002222222222222221 0.002222222222222221 0.002222222222222221 0.002222222222222221 0.002222222222222221 0.002105263157894737 0.002105263157894737 0.002105263157894737 0.002105263157894737 0.002105263157894737 0.002105263157894737 0.002105263157894737 0.002105263157894737 0.002105263157894737 0.002105263157894737 0.002105263157894737 0.05473684210526317 0.05473684210526317 0.4231578947368421 0.2652631578947369 0.1073684210526316 0.002105263157894737 0.002105263157894737 0.05473684210526317 0.002105263157894737 0.002105263157894737 0.002105263157894737 0.002105263157894737 0.002105263157894737 0.002105263157894737 0.006666666666666663 0.006666666666666663 0.006666666666666663 0.006666666666666663 0.006666666666666663 0.006666666666666663 0.006666666666666663 0.006666666666666663 0.006666666666666663 0.006666666666666663 0.006666666666666663 0.1733333333333333 0.006666666666666663 0.3399999999999999 0.1733333333333333 0.1733333333333333 0.006666666666666663 0.006666666666666663 0.006666666666666663 0.006666666666666663 0.006666666666666663 0.006666666666666663 0.006666666666666663 0.006666666666666663 0.006666666666666663 0.006666666666666663 0.006666666666666663 0.006666666666666663 0.006666666666666663 0.006666666666666663 0.006666666666666663 0.006666666666666663 0.006666666666666663 0.1733333333333333 0.006666666666666663 0.006666666666666663 0.006666666666666663 0.006666666666666663 0.1733333333333333 0.006666666666666663 0.3399999999999999 0.006666666666666663 0.006666666666666663 0.006666666666666663 0.1733333333333333 0.006666666666666663 0.006666666666666663 0.006666666666666663 0.006666666666666663 0.006666666666666663 0.0009756097560975609 0.0009756097560975609 0.0009756097560975609 0.0009756097560975609 0.0009756097560975609 0.0009756097560975609 0.0009756097560975609 0.0009756097560975609 0.0009756097560975609 0.0009756097560975609 0.0009756097560975609 0.02536585365853659 0.0009756097560975609 0.0009756097560975609 0.0009756097560975609 0.6351219512195123 0.1229268292682927 0.04975609756097562 0.07414634146341464 0.02536585365853659 0.04975609756097562 0.0009756097560975609 0.0009756097560975609 0.0009756097560975609 0.0009756097560975609 0.000769230769230769 0.000769230769230769 0.000769230769230769 0.000769230769230769 0.000769230769230769 0.000769230769230769 0.000769230769230769 0.000769230769230769 0.000769230769230769 0.000769230769230769 0.000769230769230769 0.05846153846153847 0.02 0.0776923076923077 0.03923076923076924 0.5584615384615385 0.0776923076923077 0.0776923076923077 0.05846153846153847 0.02 0.000769230769230769 0.000769230769230769 0.000769230769230769 0.000769230769230769 0.000769230769230769 0.006666666666666663 0.006666666666666663 0.006666666666666663 0.006666666666666663 0.006666666666666663 0.006666666666666663 0.006666666666666663 0.006666666666666663 0.006666666666666663 0.006666666666666663 0.006666666666666663 0.006666666666666663 0.006666666666666663 0.006666666666666663 0.1733333333333333 0.3399999999999999 0.3399999999999999 0.006666666666666663 0.006666666666666663 0.006666666666666663 0.006666666666666663 0.006666666666666663 0.006666666666666663 0.006666666666666663 0.006666666666666663 0.006666666666666664 0.006666666666666664 0.006666666666666664 0.006666666666666664 0.006666666666666664 0.006666666666666664 0.006666666666666664 0.006666666666666664 0.006666666666666664 0.006666666666666664 0.006666666666666664 0.006666666666666664 0.006666666666666664 0.006666666666666664 0.006666666666666664 0.5066666666666666 0.1733333333333333 0.006666666666666664 0.1733333333333333 0.006666666666666664 0.006666666666666664 0.006666666666666664 0.006666666666666664 0.006666666666666664 0.006666666666666664 0.007999999999999998 0.007999999999999998 0.007999999999999998 0.007999999999999998 0.007999999999999998 0.007999999999999998 0.007999999999999998 0.007999999999999998 0.007999999999999998 0.007999999999999998 0.007999999999999998 0.007999999999999998 0.007999999999999998 0.208 0.007999999999999998 0.208 0.408 0.007999999999999998 0.007999999999999998 0.007999999999999998 0.007999999999999998 0.007999999999999998 0.007999999999999998 0.007999999999999998 0.007999999999999998 0.007999999999999998 0.007999999999999998 0.007999999999999998 0.007999999999999998 0.007999999999999998 0.007999999999999998 0.007999999999999998 0.007999999999999998 0.007999999999999998 0.007999999999999998 0.007999999999999998 0.007999999999999998 0.007999999999999998 0.007999999999999998 0.007999999999999998 0.408 0.408 0.007999999999999998 0.007999999999999998 0.007999999999999998 0.007999999999999998 0.007999999999999998 0.007999999999999998 0.007999999999999998 0.007999999999999998 0.01333333333333333 0.01333333333333333 0.01333333333333333 0.01333333333333333 0.01333333333333333 0.01333333333333333 0.01333333333333333 0.01333333333333333 0.01333333333333333 0.01333333333333333 0.01333333333333333 0.01333333333333333 0.01333333333333333 0.01333333333333333 0.01333333333333333 0.01333333333333333 0.6799999999999999 0.01333333333333333 0.01333333333333333 0.01333333333333333 0.01333333333333333 0.01333333333333333 0.01333333333333333 0.01333333333333333 0.01333333333333333 0.002 0.002 0.002 0.002 0.002 0.002 0.002 0.002 0.002 0.002 0.002 0.002 0.002 0.002 0.202 0.202 0.352 0.002 0.202 0.002 0.002 0.002 0.002 0.002 0.002 0.002222222222222221 0.002222222222222221 0.002222222222222221 0.002222222222222221 0.002222222222222221 0.002222222222222221 0.002222222222222221 0.002222222222222221 0.002222222222222221 0.002222222222222221 0.002222222222222221 0.002222222222222221 0.05777777777777778 0.002222222222222221 0.002222222222222221 0.1133333333333333 0.28 0.3355555555555556 0.002222222222222221 0.002222222222222221 0.1688888888888889 0.002222222222222221 0.002222222222222221 0.002222222222222221 0.002222222222222221 0.007999999999999998 0.007999999999999998 0.007999999999999998 0.007999999999999998 0.007999999999999998 0.007999999999999998 0.007999999999999998 0.007999999999999998 0.007999999999999998 0.007999999999999998 0.007999999999999998 0.007999999999999998 0.007999999999999998 0.007999999999999998 0.007999999999999998 0.007999999999999998 0.408 0.007999999999999998 0.408 0.007999999999999998 0.007999999999999998 0.007999999999999998 0.007999999999999998 0.007999999999999998 0.007999999999999998 0.02 0.02 0.02 0.02 0.02 0.02 0.02 0.02 0.02 0.02 0.02 0.02 0.02 0.02 0.02 0.02 0.5200000000000001 0.02 0.02 0.02 0.02 0.02 0.02 0.02 0.02 0.01333333333333333 0.01333333333333333 0.01333333333333333 0.01333333333333333 0.01333333333333333 0.01333333333333333 0.01333333333333333 0.01333333333333333 0.01333333333333333 0.01333333333333333 0.01333333333333333 0.01333333333333333 0.01333333333333333 0.01333333333333333 0.3466666666666667 0.01333333333333333 0.01333333333333333 0.3466666666666667 0.01333333333333333 0.01333333333333333 0.01333333333333333 0.01333333333333333 0.01333333333333333 0.01333333333333333 0.01333333333333333 0.04000000000000001 0.04000000000000001 0.04000000000000001 0.04000000000000001 0.04000000000000001 0.04000000000000001 0.04000000000000001 0.04000000000000001 0.04000000000000001 0.04000000000000001 0.04000000000000001 0.04000000000000001 0.04000000000000001 0.04000000000000001 0.04000000000000001 0.04000000000000001 0.04000000000000001 0.04000000000000001 0.04000000000000001 0.04000000000000001 0.04000000000000001 0.04000000000000001 0.04000000000000001 0.04000000000000001 0.04000000000000001 0.04000000000000001 0.04000000000000001 0.04000000000000001 0.04000000000000001 0.04000000000000001 0.04000000000000001 0.04000000000000001 0.04000000000000001 0.04000000000000001 0.04000000000000001 0.04000000000000001 0.04000000000000001 0.04000000000000001 0.04000000000000001 0.04000000000000001 0.04000000000000001 0.04000000000000001 0.04000000000000001 0.04000000000000001 0.04000000000000001 0.04000000000000001 0.04000000000000001 0.04000000000000001 0.04000000000000001 0.04000000000000001 0.002666666666666666 0.002666666666666666 0.002666666666666666 0.002666666666666666 0.002666666666666666 0.002666666666666666 0.002666666666666666 0.002666666666666666 0.002666666666666666 0.002666666666666666 0.002666666666666666 0.002666666666666666 0.002666666666666666 0.002666666666666666 0.06933333333333333 0.136 0.2693333333333333 0.2026666666666667 0.06933333333333333 0.136 0.06933333333333333 0.002666666666666666 0.002666666666666666 0.002666666666666666 0.002666666666666666 0.006666666666666664 0.006666666666666664 0.006666666666666664 0.006666666666666664 0.006666666666666664 0.006666666666666664 0.006666666666666664 0.006666666666666664 0.006666666666666664 0.006666666666666664 0.006666666666666664 0.006666666666666664 0.006666666666666664 0.006666666666666664 0.1733333333333333 0.006666666666666664 0.1733333333333333 0.006666666666666664 0.5066666666666666 0.006666666666666664 0.006666666666666664 0.006666666666666664 0.006666666666666664 0.006666666666666664 0.006666666666666664 0.02 0.02 0.02 0.02 0.02 0.02 0.02 0.02 0.02 0.02 0.02 0.02 0.02 0.02 0.5200000000000001 0.02 0.02 0.02 0.02 0.02 0.02 0.02 0.02 0.02 0.02 0.04000000000000001 0.04000000000000001 0.04000000000000001 0.04000000000000001 0.04000000000000001 0.04000000000000001 0.04000000000000001 0.04000000000000001 0.04000000000000001 0.04000000000000001 0.04000000000000001 0.04000000000000001 0.04000000000000001 0.04000000000000001 0.04000000000000001 0.04000000000000001 0.04000000000000001 0.04000000000000001 0.04000000000000001 0.04000000000000001 0.04000000000000001 0.04000000000000001 0.04000000000000001 0.04000000000000001 0.04000000000000001 0.04000000000000001 0.04000000000000001 0.04000000000000001 0.04000000000000001 0.04000000000000001 0.04000000000000001 0.04000000000000001 0.04000000000000001 0.04000000000000001 0.04000000000000001 0.04000000000000001 0.04000000000000001 0.04000000000000001 0.04000000000000001 0.04000000000000001 0.04000000000000001 0.04000000000000001 0.04000000000000001 0.04000000000000001 0.04000000000000001 0.04000000000000001 0.04000000000000001 0.04000000000000001 0.04000000000000001 0.04000000000000001 0.04000000000000001 0.04000000000000001 0.04000000000000001 0.04000000000000001 0.04000000000000001 0.04000000000000001 0.04000000000000001 0.04000000000000001 0.04000000000000001 0.04000000000000001 0.04000000000000001 0.04000000000000001 0.04000000000000001 0.04000000000000001 0.04000000000000001 0.04000000000000001 0.04000000000000001 0.04000000000000001 0.04000000000000001 0.04000000000000001 0.04000000000000001 0.04000000000000001 0.04000000000000001 0.04000000000000001 0.04000000000000001 0.04000000000000001 0.04000000000000001 0.04000000000000001 0.04000000000000001 0.04000000000000001 0.04000000000000001 0.04000000000000001 0.04000000000000001 0.04000000000000001 0.04000000000000001 0.04000000000000001 0.04000000000000001 0.04000000000000001 0.04000000000000001 0.04000000000000001 0.04000000000000001 0.04000000000000001 0.04000000000000001 0.04000000000000001 0.04000000000000001 0.04000000000000001 0.04000000000000001 0.04000000000000001 0.04000000000000001 0.04000000000000001 0.001025641025641026 0.001025641025641026 0.001025641025641026 0.001025641025641026 0.001025641025641026 0.001025641025641026 0.001025641025641026 0.001025641025641026 0.001025641025641026 0.001025641025641026 0.001025641025641026 0.001025641025641026 0.001025641025641026 0.02666666666666668 0.02666666666666668 0.1035897435897436 0.1548717948717949 0.2317948717948718 0.1548717948717949 0.1805128205128206 0.07794871794871797 0.001025641025641026 0.02666666666666668 0.001025641025641026 0.001025641025641026 0.001379310344827586 0.001379310344827586 0.001379310344827586 0.001379310344827586 0.001379310344827586 0.001379310344827586 0.001379310344827586 0.001379310344827586 0.001379310344827586 0.001379310344827586 0.001379310344827586 0.001379310344827586 0.001379310344827586 0.03586206896551725 0.03586206896551725 0.03586206896551725 0.3117241379310345 0.2772413793103449 0.1737931034482759 0.07034482758620692 0.03586206896551725 0.001379310344827586 0.001379310344827586 0.001379310344827586 0.001379310344827586 0.007999999999999995 0.007999999999999995 0.007999999999999995 0.007999999999999995 0.007999999999999995 0.007999999999999995 0.007999999999999995 0.007999999999999995 0.007999999999999995 0.007999999999999995 0.007999999999999995 0.007999999999999995 0.007999999999999995 0.007999999999999995 0.208 0.208 0.007999999999999995 0.208 0.007999999999999995 0.208 0.007999999999999995 0.007999999999999995 0.007999999999999995 0.007999999999999995 0.007999999999999995 0.01333333333333333 0.01333333333333333 0.01333333333333333 0.01333333333333333 0.01333333333333333 0.01333333333333333 0.01333333333333333 0.01333333333333333 0.01333333333333333 0.01333333333333333 0.01333333333333333 0.01333333333333333 0.01333333333333333 0.01333333333333333 0.01333333333333333 0.01333333333333333 0.3466666666666667 0.01333333333333333 0.01333333333333333 0.01333333333333333 0.3466666666666667 0.01333333333333333 0.01333333333333333 0.01333333333333333 0.01333333333333333 0.01333333333333333 0.01333333333333333 0.01333333333333333 0.01333333333333333 0.01333333333333333 0.01333333333333333 0.01333333333333333 0.01333333333333333 0.01333333333333333 0.01333333333333333 0.01333333333333333 0.01333333333333333 0.3466666666666667 0.01333333333333333 0.01333333333333333 0.01333333333333333 0.01333333333333333 0.01333333333333333 0.01333333333333333 0.3466666666666667 0.01333333333333333 0.01333333333333333 0.01333333333333333 0.01333333333333333 0.01333333333333333 0.04000000000000001 0.04000000000000001 0.04000000000000001 0.04000000000000001 0.04000000000000001 0.04000000000000001 0.04000000000000001 0.04000000000000001 0.04000000000000001 0.04000000000000001 0.04000000000000001 0.04000000000000001 0.04000000000000001 0.04000000000000001 0.04000000000000001 0.04000000000000001 0.04000000000000001 0.04000000000000001 0.04000000000000001 0.04000000000000001 0.04000000000000001 0.04000000000000001 0.04000000000000001 0.04000000000000001 0.04000000000000001 0.04000000000000001 0.04000000000000001 0.04000000000000001 0.04000000000000001 0.04000000000000001 0.04000000000000001 0.04000000000000001 0.04000000000000001 0.04000000000000001 0.04000000000000001 0.04000000000000001 0.04000000000000001 0.04000000000000001 0.04000000000000001 0.04000000000000001 0.04000000000000001 0.04000000000000001 0.04000000000000001 0.04000000000000001 0.04000000000000001 0.04000000000000001 0.04000000000000001 0.04000000000000001 0.04000000000000001 0.04000000000000001 7.490636704119848e-05 7.490636704119848e-05 7.490636704119848e-05 7.490636704119848e-05 7.490636704119848e-05 7.490636704119848e-05 7.490636704119848e-05 7.490636704119848e-05 7.490636704119848e-05 7.490636704119848e-05 7.490636704119848e-05 0.001947565543071161 7.490636704119848e-05 0.01131086142322097 0.0150561797752809 0.009438202247191012 0.2716104868913858 0.4008239700374532 0.1967041198501873 0.06187265917602996 0.02067415730337079 0.003820224719101124 0.005692883895131087 7.490636704119848e-05 7.490636704119848e-05 5.427408412483037e-05 5.427408412483037e-05 5.427408412483037e-05 5.427408412483037e-05 5.427408412483037e-05 5.427408412483037e-05 5.427408412483037e-05 5.427408412483037e-05 5.427408412483037e-05 5.427408412483037e-05 5.427408412483037e-05 0.00141112618724559 0.00276797829036635 0.005481682496607869 0.006838534599728629 0.006838534599728629 0.1737313432835821 0.3867571234735414 0.2510719131614654 0.1099592944369064 0.03533242876526458 0.005481682496607869 0.01226594301221167 5.427408412483037e-05 0.00141112618724559 0.0006451612903225805 0.0006451612903225805 0.0006451612903225805 0.0006451612903225805 0.0006451612903225805 0.0006451612903225805 0.0006451612903225805 0.0006451612903225805 0.0006451612903225805 0.0006451612903225805 0.0006451612903225805 0.0006451612903225805 0.0006451612903225805 0.03290322580645162 0.04903225806451614 0.0006451612903225805 0.06516129032258065 0.1619354838709678 0.2425806451612904 0.1619354838709678 0.1780645161290323 0.0167741935483871 0.06516129032258065 0.0167741935483871 0.0006451612903225805 0.001904761904761904 