<?xml version="1.0" encoding="ISO-8859-1"?>
<!-- This network was created in GeNIe Academic, which can be used for educational and research purposes only -->
<smile version="1.0" id="Unnamed" numsamples="10000" discsamples="10000">
	<nodes>
		<cpt id="OA_MAIS">
			<state id="State0" />
			<state id="State1" />
			<state id="State2" />
			<state id="State3" />
			<state id="State4" />
			<state id="State5" />
			<state id="State6" />
			<probabilities>0.3811259559020441 0.4589743208260182 0.07900139851816584 0.04947629958044453 0.01568125688100693 0.01130716814949266 0.004433600142827386</probabilities>
		</cpt>
		<cpt id="GV_CURBWGT">
			<state id="s01_below_1150" />
			<state id="s02_1150_1200" />
			<state id="s03_1200_1280" />
			<state id="s04_1280_1380" />
			<state id="s05_1380_1420" />
			<state id="s06_1420_1470" />
			<state id="s07_1470_1510" />
			<state id="s08_1510_1560" />
			<state id="s09_1560_1610" />
			<state id="s10_1610_1710" />
			<state id="s11_1710_1810" />
			<state id="s12_1810_1910" />
			<state id="s13_1910_2060" />
			<state id="s14_2060_2320" />
			<state id="s15_2320_up" />
			<parents>OA_MAIS</parents>
			<probabilities>0.05697632058287795 0.05096539162112931 0.07173041894353369 0.06298724954462658 0.05834244080145718 0.07159380692167577 0.05820582877959926 0.06886156648451729 0.06640255009107467 0.0706375227686703 0.06367030965391619 0.07077413479052823 0.07487249544626592 0.07459927140255009 0.0793806921675774 0.06172055208924181 0.05809037625259973 0.08270750614482889 0.06920778975231612 0.06126678010966156 0.0731782945736434 0.06115333711476649 0.07714879939497069 0.06126678010966156 0.06637171487993949 0.06535072792588391 0.06920778975231612 0.06750614482889014 0.0660313858952543 0.05979202117602571 0.07580149319279755 0.05933245498462891 0.08634167764602549 0.06526130873956962 0.06394378568291613 0.08634167764602549 0.05208607817303471 0.07316644707949058 0.06526130873956962 0.05867369345630216 0.06328502415458938 0.06789635485287661 0.05801493192797542 0.05867369345630216 0.06592007026789637 0.1031195233087978 0.06421310900806169 0.07367683140553802 0.06105853487556958 0.05580091132141606 0.08419207851384507 0.05369786189975465 0.08944970206799858 0.05685243603224676 0.0673676831405538 0.05790396074307746 0.06316158429723098 0.05369786189975465 0.06316158429723098 0.05264633718892394 0.07969094922737306 0.0631346578366446 0.1194260485651214 0.05982339955849889 0.0565121412803532 0.06644591611479028 0.04988962472406181 0.08631346578366446 0.0532008830022075 0.08300220750551876 0.07306843267108168 0.07306843267108168 0.04657836644591611 0.04326710816777042 0.04657836644591611 0.0599388379204893 0.07828746177370031 0.08287461773700307 0.09663608562691132 0.1103975535168196 0.06911314984709481 0.07828746177370031 0.1058103975535168 0.0599388379204893 0.03241590214067278 0.07828746177370031 0.05535168195718655 0.04617737003058104 0.01865443425076452 0.02782874617737003 0.04728682170542636 0.09379844961240311 0.05891472868217055 0.09379844961240311 0.03565891472868218 0.05891472868217055 0.08217054263565893 0.09379844961240311 0.07054263565891473 0.1170542635658915 0.05891472868217055 0.02403100775193799 0.04728682170542636 0.04728682170542636 0.07054263565891473</probabilities>
		</cpt>
		<cpt id="GV_DVLAT">
			<state id="s1_below_n7" />
			<state id="s2_n7_0" />
			<state id="s3_0_3" />
			<state id="s4_3_9" />
			<state id="s5_9_up" />
			<parents>OA_MAIS</parents>
			<probabilities>0.1587704918032787 0.1509836065573771 0.319016393442623 0.2027595628415301 0.1684699453551913 0.2062620533182076 0.1364946114577425 0.253908111174135 0.1953715258082813 0.2079636982416336 0.2188405797101449 0.1022397891963109 0.2306982872200264 0.1938076416337286 0.2544137022397892 0.2031545741324921 0.07381703470031546 0.2347003154574132 0.1516298633017876 0.3366982124079916 0.2225165562913907 0.03046357615894039 0.1960264900662252 0.1033112582781457 0.447682119205298 0.2486238532110092 0.06972477064220184 0.2073394495412844 0.06513761467889909 0.4091743119266055 0.2930232558139535 0.04883720930232558 0.2465116279069767 0.1534883720930232 0.2581395348837209</probabilities>
		</cpt>
		<cpt id="GV_DVLONG">
			<state id="s1_below_n25" />
			<state id="s2_n25_n17" />
			<state id="s3_n17_n12" />
			<state id="s4_n12_n5" />
			<state id="s5_n5_up" />
			<parents>OA_MAIS</parents>
			<probabilities>0.1030327868852459 0.1780327868852459 0.2015300546448088 0.2811748633879781 0.2362295081967214 0.1902665910380034 0.213976176971072 0.1816449234259785 0.2060351673284175 0.2080771412365287 0.3466403162055336 0.2122529644268774 0.1635046113306983 0.1549407114624506 0.12266139657444 0.4975814931650894 0.1758149316508938 0.1232386961093586 0.1127234490010515 0.09064143007360673 0.4576158940397351 0.1264900662251656 0.07682119205298013 0.1860927152317881 0.1529801324503311 0.4458715596330275 0.1889908256880734 0.09724770642201835 0.09724770642201835 0.1706422018348624 0.6302325581395348 0.1302325581395349 0.03720930232558139 0.03720930232558139 0.1651162790697674</probabilities>
		</cpt>
		<cpt id="GV_ENERGY">
			<state id="s01_below_79" />
			<state id="s02_79_105" />
			<state id="s03_105_131" />
			<state id="s04_131_160" />
			<state id="s05_160_192" />
			<state id="s06_192_230" />
			<state id="s07_230_274" />
			<state id="s08_274_324" />
			<state id="s09_324_383" />
			<state id="s10_383_461" />
			<state id="s11_461_562" />
			<state id="s12_562_708" />
			<state id="s13_708_924" />
			<state id="s14_924_1401" />
			<state id="s15_1401_up" />
			<parents>OA_MAIS</parents>
			<probabilities>0.1084790528233151 0.09946265938069218 0.09071948998178507 0.0833424408014572 0.08129326047358836 0.07951730418943534 0.06612932604735883 0.06681238615664845 0.05998178506375228 0.05970856102003643 0.05793260473588342 0.04659380692167577 0.04112932604735883 0.03716757741347905 0.0217304189435337 0.04640574777840801 0.05843070523728493 0.06274153904329741 0.06830024579315559 0.06637171487993949 0.07045566269616184 0.0731782945736434 0.07283796558895821 0.0757874834562299 0.0757874834562299 0.07283796558895821 0.07646814142560029 0.07295140858385327 0.06659860086972962 0.04084704102854981 0.01585419411506368 0.0290294246815986 0.02507685551163813 0.0375933245498463 0.05274483970136145 0.04022837066315328 0.05537988581466843 0.07250768555116383 0.07184892402283707 0.07053140096618359 0.07975406236275803 0.09556433904259994 0.1047870004391744 0.1113746157224418 0.1377250768555117 0.005327725201542237 0.008482299334034351 0.0189975464423414 0.01163687346652647 0.01794602173151069 0.02740974412898704 0.0400280406589555 0.0410795653697862 0.05159481247809325 0.05369786189975466 0.06947073256221523 0.0883981773571679 0.1294076410795654 0.1767262530669471 0.2597967052225728 0.003532008830022075 0.006843267108167771 0.01015452538631347 0.006843267108167771 0.02339955849889625 0.01346578366445916 0.01677704194260485 0.02671081677704194 0.02008830022075055 0.05982339955849889 0.04988962472406181 0.07637969094922738 0.11280353200883 0.1856512141280353 0.3876379690949227 0.0003058103975535169 0.0003058103975535169 0.00489296636085627 0.0003058103975535169 0.01406727828746178 0.02324159021406728 0.02782874617737003 0.01406727828746178 0.02782874617737003 0.05076452599388379 0.04617737003058104 0.04617737003058104 0.07828746177370031 0.1149847094801223 0.5507645259938838 0.0007751937984496125 0.0124031007751938 0.0124031007751938 0.0007751937984496125 0.0124031007751938 0.0007751937984496125 0.0007751937984496125 0.0124031007751938 0.0007751937984496125 0.0124031007751938 0.0124031007751938 0.02403100775193799 0.0124031007751938 0.08217054263565891 0.8031007751937984</probabilities>
		</cpt>
		<cpt id="GV_LANES">
			<state id="s1_below_1" />
			<state id="s2_1_2" />
			<state id="s3_2_3" />
			<state id="s4_3_4" />
			<state id="s5_4_5" />
			<state id="s6_5_6" />
			<state id="s7_6_up" />
			<parents>OA_MAIS</parents>
			<probabilities>0.02570257611241218 0.3732435597189696 0.1838992974238876 0.2017954722872756 0.1623145979703357 0.03403590944574551 0.01900858704137393 0.01771331334575804 0.3697269265051455 0.1858358317802447 0.2104529616724739 0.1604246009237501 0.03438943359533263 0.02145693217729519 0.01458686241294937 0.4170901562205911 0.1832298136645963 0.1964050442311313 0.1325051759834369 0.03500846979107849 0.02117447769621683 0.01066546492414 0.4533573681838666 0.1557758750187772 0.1883731410545291 0.1357969055129938 0.0327474838515848 0.02328376145410846 0.02696310312204351 0.4971617786187322 0.2024597918637654 0.1461684011352885 0.08987701040681172 0.02696310312204351 0.01040681173131504 0.0235910878112713 0.4777195281782438 0.1428571428571428 0.2437745740498034 0.07863695937090433 0.02817824377457405 0.005242463958060288 0.001661129568106313 0.4667774086378738 0.2109634551495017 0.1877076411960133 0.07142857142857144 0.0132890365448505 0.04817275747508306</probabilities>
		</cpt>
		<cpt id="GV_MODELYR">
			<state id="s01_below_2000" />
			<state id="s02_2000_2001" />
			<state id="s03_2001_2002" />
			<state id="s04_2002_2003" />
			<state id="s05_2003_2004" />
			<state id="s06_2004_2005" />
			<state id="s07_2005_2006" />
			<state id="s08_2006_2007" />
			<state id="s09_2007_2008" />
			<state id="s10_2008_2009" />
			<state id="s11_2009_2010" />
			<state id="s12_2010_2011" />
			<state id="s13_2011_up" />
			<parents>OA_MAIS</parents>
			<probabilities>0.1302017654476671 0.1274695250105086 0.1343001261034048 0.1172236233711643 0.1058848255569567 0.1011034047919294 0.08949138293400587 0.07473728457335013 0.05807061790668347 0.02924548129466161 0.02173182009247582 0.009436738125262713 0.001103404791929382 0.1401108250796282 0.1312622714778131 0.1390898381255726 0.122300274881103 0.1120904053405471 0.09881757493782449 0.07714996291286703 0.0720450281425891 0.05729743880623063 0.02666783018456302 0.01634451764911209 0.006588420088136479 0.0002356123740128277 0.143660687138948 0.1594709638187899 0.1390493564406608 0.1377318333840073 0.08634843417452112 0.08239586500456066 0.07185568055133273 0.07646701124961995 0.0455052194182629 0.03167122732340124 0.01981351981351982 0.005979527718658154 5.067396371744199e-05 0.1746339885141147 0.166221790827469 0.1472943460325164 0.1315214753700558 0.09156353635848904 0.1115425058642724 0.05686322090107579 0.06106931974439861 0.03372967726280029 0.01480223246784761 0.006390034781201973 0.004286985359540564 8.088651621774651e-05 0.1591951095262353 0.1260825267447784 0.1558838512480896 0.1459500764136526 0.1128374936321956 0.07972491085073866 0.08303616912888435 0.05654610290371879 0.03005603667855323 0.02012226184411614 0.02012226184411614 0.01018848700967906 0.0002547121752419766 0.1746647847565279 0.1654904728299224 0.1838390966831334 0.1150317572335921 0.1012702893436838 0.1058574453069866 0.05081157374735355 0.05998588567395906 0.02328863796753704 0.0003528581510232887 0.0187014820042343 0.0003528581510232887 0.0003528581510232887 0.1404293381037567 0.1520572450805009 0.1404293381037567 0.1055456171735241 0.1288014311270125 0.08228980322003578 0.08228980322003578 0.07066189624329158 0.03577817531305903 0.03577817531305903 0.02415026833631485 0.0008944543828264761 0.0008944543828264761</probabilities>
		</cpt>
		<cpt id="GV_OTVEHWGT">
			<state id="s01_below_760" />
			<state id="s02_760_1355" />
			<state id="s03_1355_1775" />
			<state id="s04_1775_2075" />
			<state id="s05_2075_2495" />
			<state id="s06_2495_2835" />
			<state id="s07_2835_3320" />
			<state id="s08_3320_3730" />
			<state id="s09_3730_4320" />
			<state id="s10_4320_up" />
			<parents>OA_MAIS</parents>
			<probabilities>0.0008333333333333333 0.2740573770491803 0.4382650273224044 0.1690027322404372 0.08799180327868852 0.02282786885245901 0.006024590163934427 0.0004234972677595628 0.0002868852459016393 0.0002868852459016393 0.0009188882586500283 0.258207600680658 0.4279183210436756 0.1785706182643222 0.09779920589903573 0.02689733408961997 0.007725467952353942 0.0008054452637549631 0.0008054452637549631 0.0003516732841747022 0.0007246376811594204 0.2207509881422925 0.4144268774703558 0.1976943346508564 0.1225955204216074 0.03366271409749671 0.008629776021080369 0.0007246376811594204 0.0007246376811594204 6.587615283267459e-05 0.0001051524710830705 0.1651945320715037 0.4512092534174553 0.1883280757097792 0.1336487907465825 0.04216614090431125 0.01377497371188223 0.002208201892744479 0.0001051524710830705 0.003259726603575184 0.0003311258278145696 0.1493377483443709 0.3745033112582781 0.2354304635761589 0.1559602649006623 0.05 0.02019867549668874 0.003642384105960265 0.003642384105960265 0.006953642384105961 0.0004587155963302754 0.1334862385321101 0.413302752293578 0.1977064220183486 0.1701834862385321 0.0463302752293578 0.02798165137614679 0.0004587155963302754 0.00963302752293578 0.0004587155963302754 0.001162790697674419 0.1174418604651163 0.3732558139534884 0.2337209302325582 0.163953488372093 0.07093023255813953 0.03604651162790698 0.001162790697674419 0.001162790697674419 0.001162790697674419</probabilities>
		</cpt>
		<cpt id="GV_SPLIMIT">
			<state id="s1_below_17" />
			<state id="s2_17_37" />
			<state id="s3_37_57" />
			<state id="s4_57_up" />
			<parents>OA_MAIS</parents>
			<probabilities>0.01109972677595628 0.4804986338797814 0.4436133879781421 0.06478825136612022 0.008876914350538855 0.4409812819058423 0.4903289846851957 0.05981281905842314 0.008069828722002636 0.3901515151515152 0.5205862977602108 0.08119235836627141 0.007623554153522607 0.3304416403785489 0.5722923238696109 0.08964248159831756 0.0173841059602649 0.3485099337748344 0.5306291390728477 0.103476821192053 0.01490825688073395 0.2855504587155964 0.5928899082568808 0.106651376146789 0.002906976744186046 0.2005813953488372 0.688953488372093 0.1075581395348837</probabilities>
		</cpt>
		<cpt id="GV_WGTCDTR">
			<state id="SPassenger_Car" />
			<state id="STruck____10000_lbs__" />
			<state id="STruck____6000_lbs__" />
			<parents>OA_MAIS</parents>
			<probabilities>0.5944444444444446 0.1462204007285975 0.2593351548269581 0.6207978823974286 0.1148421251654377 0.2643599924371337 0.6194554238032499 0.1181379007465964 0.2624066754501537 0.639677532422012 0.1160182264283211 0.244304241149667 0.6997792494481236 0.07726269315673288 0.2229580573951435 0.7217125382262997 0.07033639143730887 0.2079510703363914 0.7131782945736435 0.06201550387596899 0.2248062015503876</probabilities>
		</cpt>
		<cpt id="OA_AGE">
			<state id="s01_below_10" />
			<state id="s02_10_20" />
			<state id="s03_20_30" />
			<state id="s04_30_40" />
			<state id="s05_40_50" />
			<state id="s06_50_60" />
			<state id="s07_60_70" />
			<state id="s08_70_80" />
			<state id="s09_80_90" />
			<state id="s10_90_up" />
			<parents>OA_MAIS</parents>
			<probabilities>0.0001502732240437158 0.1035655737704918 0.2709153005464481 0.1953688524590164 0.1724180327868852 0.1233743169398907 0.07282786885245902 0.0425 0.01654371584699453 0.002336065573770492 0.0001247872943845718 0.0848667044809983 0.2560521837776517 0.1959273964832672 0.1803857061826432 0.136596710153148 0.07828701077708453 0.04731707317073171 0.01941009642654566 0.001032331253545094 6.587615283267459e-05 0.06923583662714097 0.2523715415019763 0.1667325428194993 0.1739789196310936 0.14433465085639 0.100197628458498 0.05079051383399209 0.03893280632411068 0.003359683794466403 0.0001051524710830705 0.07266035751840168 0.2125131440588854 0.1820189274447949 0.1651945320715037 0.1683491062039958 0.09053627760252365 0.05478443743427971 0.0526813880126183 0.001156677181913775 0.0003311258278145696 0.08311258278145696 0.2122516556291391 0.1195364238410596 0.1526490066225166 0.126158940397351 0.1294701986754967 0.1162251655629139 0.05662251655629139 0.003642384105960265 0.0004587155963302754 0.08302752293577982 0.1977064220183486 0.1243119266055046 0.1564220183486239 0.1426605504587156 0.05550458715596331 0.1380733944954129 0.09220183486238533 0.00963302752293578 0.001162790697674419 0.05930232558139534 0.1872093023255814 0.1988372093023256 0.1406976744186046 0.2104651162790698 0.08255813953488371 0.05930232558139534 0.04767441860465116 0.01279069767441861</probabilities>
		</cpt>
		<cpt id="OA_BAGDEPLY">
			<state id="Deployed" />
			<state id="SNot_Deployed" />
			<parents>OA_MAIS</parents>
			<probabilities>0.2935109289617486 0.7064890710382513 0.5297220646625072 0.4702779353374929 0.6940052700922267 0.3059947299077734 0.770241850683491 0.2297581493165089 0.6506622516556292 0.3493377483443709 0.6903669724770642 0.3096330275229358 0.8081395348837209 0.1918604651162791</probabilities>
		</cpt>
		<cpt id="OA_HEIGHT">
			<state id="s1_below_165" />
			<state id="s2_165_175" />
			<state id="s3_175_up" />
			<parents>OA_MAIS</parents>
			<probabilities>0.2257285974499089 0.3522313296903461 0.422040072859745 0.2969181319720174 0.3547740593685007 0.348307808659482 0.2558190601668863 0.3671497584541063 0.3770311813790075 0.244304241149667 0.347353662811076 0.4083420960392569 0.2726269315673289 0.3123620309050772 0.4150110375275938 0.235474006116208 0.3042813455657492 0.4602446483180428 0.1434108527131783 0.4573643410852714 0.3992248062015504</probabilities>
		</cpt>
		<cpt id="OA_SEX">
			<state id="Female" />
			<state id="Male" />
			<parents>OA_MAIS</parents>
			<probabilities>0.4247950819672131 0.5752049180327868 0.5647759500850823 0.4352240499149178 0.5135046113306984 0.4864953886693018 0.4978969505783385 0.5021030494216614 0.4619205298013245 0.5380794701986755 0.4105504587155964 0.5894495412844037 0.3430232558139535 0.6569767441860465</probabilities>
		</cpt>
		<cpt id="OA_WEIGHT">
			<state id="s1_below_54" />
			<state id="s2_54_78" />
			<state id="s3_78_102" />
			<state id="s4_102_126" />
			<state id="s5_126_up" />
			<parents>OA_MAIS</parents>
			<probabilities>0.09196721311475413 0.4549453551912569 0.3616393442622951 0.0714754098360656 0.01997267759562842 0.09610890527509927 0.4542484401588202 0.3327509926262053 0.08986954055587068 0.02702212138400454 0.08774703557312251 0.433596837944664 0.3499341238471673 0.09960474308300393 0.02911725955204216 0.08012618296529969 0.4145110410094637 0.3587802313354364 0.09064143007360673 0.05594111461619349 0.09999999999999999 0.3880794701986755 0.3582781456953643 0.1198675496688742 0.03377483443708609 0.0926605504587156 0.3954128440366973 0.2990825688073395 0.1522935779816514 0.06055045871559633 0.04883720930232558 0.3511627906976744 0.3046511627906976 0.1883720930232558 0.1069767441860465</probabilities>
		</cpt>
		<cpt id="VE_PDOF_TR">
			<state id="s01_below_28" />
			<state id="s02_28_51" />
			<state id="s03_51_75" />
			<state id="s04_75_98" />
			<state id="s05_98_121" />
			<state id="s06_121_145" />
			<state id="s07_145_168" />
			<state id="s08_168_191" />
			<state id="s09_191_215" />
			<state id="s10_215_238" />
			<state id="s11_238_261" />
			<state id="s12_261_285" />
			<state id="s13_285_308" />
			<state id="s14_308_331" />
			<state id="s15_331_up" />
			<parents>OA_MAIS</parents>
			<probabilities>0.00574681238615665 0.01271402550091075 0.04563752276867031 0.07118397085610202 0.1013752276867031 0.3336156648451731 0.1761020036429873 0.0588888888888889 0.05205828779599272 0.03074681238615665 0.003151183970856103 0.003014571948998179 0.01981785063752277 0.0751457194899818 0.01080145719489982 0.006246927585554926 0.01021743240688221 0.04946870864057478 0.07930421629797695 0.1253620722253734 0.2707959916808471 0.1938816411419928 0.06954811873700133 0.05219134051805634 0.02859519757988278 0.002957080733598034 0.00114199281527699 0.01713745509548119 0.08497636604273021 0.008175458498771033 0.005972771190162494 0.009266578831796223 0.05537988581466842 0.09029424681598595 0.1140096618357488 0.3412823891084761 0.1864734299516908 0.06987263943785683 0.04483970136144049 0.02244180939833114 0.002020202020202021 0.002020202020202021 0.008607817303469477 0.04022837066315327 0.007290294246815986 0.005327725201542236 0.01794602173151069 0.07683140553803014 0.1273045916579039 0.09996494917630563 0.3702067998597967 0.1599018576936558 0.0421310900806169 0.04423413950227831 0.02320364528566421 0.001121626358219418 7.010164738871364e-05 0.007430774623203645 0.0211005958640028 0.003224675779880827 0.01346578366445916 0.03002207505518764 0.1227373068432671 0.1724061810154526 0.08631346578366447 0.2584988962472407 0.08300220750551877 0.05320088300220751 0.05651214128035321 0.06975717439293599 0.006843267108167772 0.003532008830022075 0.01015452538631347 0.02339955849889625 0.01015452538631347 0.02324159021406728 0.04617737003058104 0.1103975535168196 0.1287461773700306 0.0599388379204893 0.2663608562691132 0.1195718654434251 0.04617737003058104 0.07828746177370031 0.04159021406727829 0.0003058103975535169 0.0003058103975535169 0.02324159021406728 0.04617737003058104 0.009480122324159023 0.0007751937984496125 0.0124031007751938 0.07054263565891472 0.1170542635658915 0.03565891472868217 0.337984496124031 0.151937984496124 0.05891472868217054 0.07054263565891472 0.08217054263565891 0.0007751937984496125 0.0007751937984496125 0.0124031007751938 0.04728682170542636 0.0007751937984496125</probabilities>
		</cpt>
		<cpt id="GV_FOOTPRINT">
			<state id="s1_below_3" />
			<state id="s2_3_4" />
			<state id="s3_4_4" />
			<state id="s4_4_4" />
			<state id="s5_4_up" />
			<parents>OA_MAIS</parents>
			<probabilities>0.1762568306010929 0.1854098360655738 0.2169672131147541 0.197568306010929 0.2237978142076503 0.1943505388542258 0.1927623369256949 0.2337152580828134 0.1916279069767442 0.1875439591605219 0.2129117259552042 0.1997364953886693 0.2227931488801054 0.1845849802371541 0.1799736495388669 0.2368033648790746 0.192639327024185 0.2073606729758149 0.182124079915878 0.1810725552050473 0.2225165562913907 0.1794701986754967 0.2390728476821192 0.1860927152317881 0.1728476821192053 0.1935779816513762 0.2165137614678899 0.2623853211009174 0.2027522935779817 0.1247706422018349 0.2 0.2232558139534884 0.1883720930232558 0.2581395348837209 0.1302325581395349</probabilities>
		</cpt>
	</nodes>
	<extensions>
		<genie version="1.0" app="GeNIe 2.3.3828.0 ACADEMIC" name="naive4" faultnameformat="nodestate">
			<node id="GV_CURBWGT">
				<name>GV_CURBWGT</name>
				<interior color="e5f6f7" />
				<outline color="000080" />
				<font color="000000" name="Arial" size="8" />
				<position>466 167 538 215</position>
			</node>
			<node id="GV_DVLAT">
				<name>GV_DVLAT</name>
				<interior color="e5f6f7" />
				<outline color="000080" />
				<font color="000000" name="Arial" size="8" />
				<position>449 221 521 269</position>
			</node>
			<node id="GV_DVLONG">
				<name>GV_DVLONG</name>
				<interior color="e5f6f7" />
				<outline color="000080" />
				<font color="000000" name="Arial" size="8" />
				<position>403 268 475 316</position>
			</node>
			<node id="GV_ENERGY">
				<name>GV_ENERGY</name>
				<interior color="e5f6f7" />
				<outline color="000080" />
				<font color="000000" name="Arial" size="8" />
				<position>333 299 405 347</position>
			</node>
			<node id="GV_LANES">
				<name>GV_LANES</name>
				<interior color="e5f6f7" />
				<outline color="000080" />
				<font color="000000" name="Arial" size="8" />
				<position>251 310 323 358</position>
			</node>
			<node id="GV_MODELYR">
				<name>GV_MODELYR</name>
				<interior color="e5f6f7" />
				<outline color="000080" />
				<font color="000000" name="Arial" size="8" />
				<position>169 299 241 347</position>
			</node>
			<node id="GV_OTVEHWGT">
				<name>GV_OTVEHWGT</name>
				<interior color="e5f6f7" />
				<outline color="000080" />
				<font color="000000" name="Arial" size="8" />
				<position>99 268 171 316</position>
			</node>
			<node id="GV_SPLIMIT">
				<name>GV_SPLIMIT</name>
				<interior color="e5f6f7" />
				<outline color="000080" />
				<font color="000000" name="Arial" size="8" />
				<position>53 221 125 269</position>
			</node>
			<node id="GV_WGTCDTR">
				<name>GV_WGTCDTR</name>
				<interior color="e5f6f7" />
				<outline color="000080" />
				<font color="000000" name="Arial" size="8" />
				<position>36 167 108 215</position>
			</node>
			<node id="OA_AGE">
				<name>OA_AGE</name>
				<interior color="e5f6f7" />
				<outline color="000080" />
				<font color="000000" name="Arial" size="8" />
				<position>53 113 125 161</position>
			</node>
			<node id="OA_BAGDEPLY">
				<name>OA_BAGDEPLY</name>
				<interior color="e5f6f7" />
				<outline color="000080" />
				<font color="000000" name="Arial" size="8" />
				<position>99 66 171 114</position>
			</node>
			<node id="OA_HEIGHT">
				<name>OA_HEIGHT</name>
				<interior color="e5f6f7" />
				<outline color="000080" />
				<font color="000000" name="Arial" size="8" />
				<position>169 35 241 83</position>
			</node>
			<node id="OA_MAIS">
				<name>OA_MAIS</name>
				<interior color="ffff80" />
				<outline color="000080" />
				<font color="000000" name="Arial" size="8" />
				<position>251 167 323 215</position>
			</node>
			<node id="OA_SEX">
				<name>OA_SEX</name>
				<interior color="e5f6f7" />
				<outline color="000080" />
				<font color="000000" name="Arial" size="8" />
				<position>251 24 323 72</position>
			</node>
			<node id="OA_WEIGHT">
				<name>OA_WEIGHT</name>
				<interior color="e5f6f7" />
				<outline color="000080" />
				<font color="000000" name="Arial" size="8" />
				<position>333 35 405 83</position>
			</node>
			<node id="VE_PDOF_TR">
				<name>VE_PDOF_TR</name>
				<interior color="e5f6f7" />
				<outline color="000080" />
				<font color="000000" name="Arial" size="8" />
				<position>403 66 475 114</position>
			</node>
			<node id="GV_FOOTPRINT">
				<name>GV_FOOTPRINT</name>
				<interior color="e5f6f7" />
				<outline color="000080" />
				<font color="000000" name="Arial" size="8" />
				<position>449 113 521 161</position>
			</node>
			<textbox>
				<caption>Input file: 3 - vehicle_safety_final (Impute).1\nData rows: 19203\nElapsed time: 0.781s\n\nLearning algorithm: Naive Bayes\nAlgorithm parameters:\nClass variable: OA_MAIS\n\nEM Log Likelihood: -499937</caption>
				<font color="000000" name="Arial" size="8" />
				<position>10 378 220 504</position>
			</textbox>
		</genie>
	</extensions>
</smile>
